svm_type c_svc
kernel_type rbf
gamma 0.25
nr_class 2
total_sv 37104
rho 0.17530129593889987
label 0 1
nr_sv 18188 18916
SV
0.2571942956478905 0:2.4 1:1.5 2:-1.7 3:-2.1 4:0.0 
0.06479223662782677 0:3.1 1:4.8 2:2.1 3:-3.4 4:0.0 
1.0 0:-2.8 1:-3.3 2:2.5 3:-7.1 4:0.0 
0.9747047133862341 0:-2.9 1:4.4 2:-0.5 3:-0.1 4:0.0 
1.0 0:-0.7 1:4.6 2:-1.7 3:0.6 4:0.0 
0.8958385252314987 0:-0.9 1:-0.2 2:3.7 3:9.5 4:0.0 
1.0 0:4.9 1:-1.3 2:-1.6 3:-0.1 4:0.0 
0.38738968291073 0:-0.7 1:1.5 2:1.7 3:1.0 4:0.0 
1.0 0:2.1 1:-2.2 2:0.2 3:-1.5 4:0.0 
1.0 0:-7.4 1:1.1 2:-1.4 3:-2.5 4:0.0 
1.0 0:-0.8 1:-3.3 2:-5.6 3:-0.8 4:0.0 
1.0 0:5.4 1:-7.4 2:1.0 3:-0.7 4:0.0 
1.0 0:-4.0 1:1.4 2:2.6 3:-1.2 4:0.0 
1.0 0:-4.8 1:-3.3 2:0.1 3:1.6 4:0.0 
1.0 0:5.6 1:-2.9 2:0.9 3:2.8 4:0.0 
0.9149212805220505 0:0.1 1:-1.7 2:0.5 3:-2.6 4:0.0 
1.0 0:-16.4 1:-3.8 2:9.6 3:3.1 4:0.0 
1.0 0:-1.7 1:-3.1 2:-0.9 3:-1.2 4:0.0 
1.0 0:2.4 1:2.2 2:1.9 3:1.9 4:0.0 
1.0 0:-5.2 1:-2.9 2:5.1 3:-5.4 4:0.0 
1.0 0:-4.1 1:3.4 2:-0.8 3:0.0 4:0.0 
0.11023651791789997 0:2.2 1:1.2 2:-2.7 3:-4.0 4:0.0 
0.49269302388886904 0:-2.4 1:2.4 2:-0.6 3:-6.0 4:0.0 
1.0 0:-3.5 1:-1.8 2:3.5 3:6.0 4:0.0 
1.0 0:0.6 1:-2.3 2:1.4 3:-9.0 4:0.0 
1.0 0:-0.4 1:-1.0 2:-1.3 3:-2.2 4:0.0 
1.0 0:-1.0 1:-0.3 2:3.4 3:-2.4 4:0.0 
1.0 0:-7.3 1:-3.5 2:5.7 3:4.7 4:0.0 
0.5163467046213 0:1.0 1:4.5 2:-2.4 3:0.7 4:0.0 
1.0 0:1.0 1:-1.3 2:-1.5 3:0.7 4:0.0 
0.009762792282489025 0:2.4 1:-6.3 2:5.3 3:1.2 4:0.0 
1.0 0:-0.5 1:-1.8 2:-4.1 3:-5.2 4:0.0 
1.0 0:0.3 1:-1.4 2:0.9 3:-0.3 4:0.0 
1.0 0:2.2 1:3.7 2:0.9 3:2.4 4:0.0 
1.0 0:0.1 1:2.5 2:1.1 3:-0.9 4:0.0 
1.0 0:-1.0 1:1.9 2:0.4 3:-0.3 4:0.0 
1.0 0:7.8 1:-8.9 2:-4.2 3:-6.7 4:0.0 
0.8512162816679784 0:-0.4 1:-2.1 2:4.5 3:2.9 4:0.0 
1.0 0:5.8 1:1.0 2:-2.8 3:-3.0 4:0.0 
0.44627156887900166 0:-0.1 1:-5.2 2:3.2 3:-4.5 4:0.0 
1.0 0:-6.9 1:5.4 2:-3.2 3:-0.3 4:0.0 
1.0 0:-2.8 1:0.5 2:1.4 3:-1.2 4:0.0 
0.36528201172008834 0:-0.1 1:-6.4 2:-0.2 3:-6.9 4:0.0 
1.0 0:3.4 1:-0.3 2:-3.8 3:1.9 4:0.0 
1.0 0:-1.3 1:1.2 2:0.8 3:1.8 4:0.0 
1.0 0:-2.9 1:1.0 2:1.3 3:-0.4 4:0.0 
1.0 0:6.6 1:-6.8 2:0.4 3:0.0 4:0.0 
1.0 0:-3.2 1:-1.3 2:-0.2 3:0.1 4:0.0 
1.0 0:1.5 1:-4.8 2:2.8 3:-0.3 4:0.0 
1.0 0:5.2 1:-1.9 2:3.7 3:-0.6 4:0.0 
1.0 0:0.8 1:1.8 2:-6.0 3:-1.6 4:0.0 
1.0 0:1.5 1:-1.9 2:0.5 3:0.2 4:0.0 
0.8475484171156639 0:-5.7 1:-6.2 2:6.7 3:5.7 4:0.0 
0.7763328147035177 0:3.7 1:3.5 2:-1.7 3:-2.1 4:0.0 
1.0 0:1.1 1:0.2 2:-1.4 3:1.6 4:0.0 
0.9664258098322622 0:2.9 1:5.2 2:-1.5 3:-5.0 4:0.0 
1.0 0:1.2 1:-0.3 2:-1.0 3:-0.2 4:0.0 
1.0 0:-3.1 1:0.8 2:4.8 3:-0.6 4:0.0 
1.0 0:-2.0 1:0.7 2:0.5 3:3.0 4:0.0 
1.0 0:-2.0 1:-0.2 2:0.2 3:-1.0 4:0.0 
1.0 0:0.2 1:4.0 2:-0.8 3:1.3 4:0.0 
1.0 0:-1.8 1:1.4 2:0.6 3:0.4 4:0.0 
0.9566908832967291 0:0.3 1:3.7 2:4.1 3:-2.0 4:0.0 
1.0 0:0.5 1:-0.5 2:-3.6 3:0.9 4:0.0 
0.1296709107791048 0:-4.0 1:-2.2 2:4.7 3:-0.3 4:0.0 
1.0 0:3.9 1:-0.7 2:2.7 3:-1.6 4:0.0 
0.28789942453206135 0:0.0 1:2.1 2:0.4 3:-5.3 4:0.0 
0.9084550463848804 0:1.0 1:-0.5 2:4.4 3:-1.5 4:0.0 
0.44143356004123857 0:3.2 1:0.1 2:-2.8 3:3.5 4:0.0 
1.0 0:0.5 1:-0.5 2:2.0 3:-0.9 4:0.0 
0.9925807897461897 0:-2.2 1:-2.2 2:3.4 3:8.1 4:0.0 
0.025314559299092567 0:-0.1 1:4.5 2:-0.2 3:-6.3 4:0.0 
1.0 0:-1.1 1:0.3 2:-2.6 3:-0.4 4:0.0 
1.0 0:-4.4 1:1.4 2:4.0 3:-6.4 4:0.0 
0.789251358030424 0:3.6 1:1.1 2:-2.6 3:2.6 4:0.0 
1.0 0:2.6 1:0.0 2:1.3 3:-2.9 4:0.0 
1.0 0:-5.8 1:0.7 2:-5.4 3:-2.0 4:0.0 
1.0 0:2.5 1:0.9 2:2.4 3:-3.6 4:0.0 
1.0 0:-4.1 1:7.4 2:-5.2 3:1.1 4:0.0 
1.0 0:0.0 1:1.2 2:-0.4 3:0.4 4:0.0 
0.9261094270857948 0:-1.2 1:-5.8 2:-1.3 3:-2.8 4:0.0 
1.0 0:-0.7 1:-3.2 2:-1.3 3:1.4 4:0.0 
1.0 0:-2.4 1:-2.3 2:-1.4 3:0.6 4:0.0 
1.0 0:9.0 1:0.3 2:-5.1 3:-3.6 4:0.0 
1.0 0:-1.2 1:1.7 2:-0.3 3:3.0 4:0.0 
0.7904665907291433 0:-4.5 1:-6.9 2:-8.6 3:-0.4 4:0.0 
1.0 0:3.6 1:-5.0 2:6.2 3:1.4 4:0.0 
1.0 0:-1.0 1:-4.2 2:3.4 3:0.4 4:0.0 
0.9439836517223453 0:4.4 1:0.5 2:-4.9 3:-3.4 4:0.0 
1.0 0:-1.6 1:6.0 2:-1.7 3:-4.3 4:0.0 
1.0 0:0.5 1:-2.9 2:2.7 3:-0.9 4:0.0 
1.0 0:-0.8 1:-6.9 2:2.6 3:0.0 4:0.0 
1.0 0:-2.7 1:-3.1 2:-0.3 3:-2.2 4:0.0 
0.2896905000705462 0:-1.1 1:1.1 2:-0.9 3:1.0 4:0.0 
1.0 0:0.3 1:-0.7 2:1.4 3:1.0 4:0.0 
1.0 0:0.4 1:-1.7 2:0.5 3:-0.6 4:0.0 
0.009913304498873843 0:-1.7 1:4.4 2:2.8 3:-0.8 4:0.0 
1.0 0:0.9 1:-1.9 2:-0.3 3:-0.6 4:0.0 
1.0 0:4.0 1:-1.9 2:-0.6 3:0.5 4:0.0 
1.0 0:-0.7 1:-0.1 2:-0.9 3:1.9 4:0.0 
1.0 0:-1.6 1:-1.5 2:-4.8 3:-1.9 4:0.0 
0.545712448977895 0:5.2 1:-2.5 2:-1.9 3:0.0 4:0.0 
1.0 0:-5.3 1:1.1 2:2.0 3:0.5 4:0.0 
1.0 0:-1.2 1:1.0 2:0.1 3:3.2 4:0.0 
1.0 0:0.4 1:1.7 2:-0.1 3:1.3 4:0.0 
1.0 0:0.4 1:1.0 2:1.8 3:-4.2 4:0.0 
1.0 0:1.6 1:2.5 2:3.9 3:-0.5 4:0.0 
1.0 0:6.2 1:-1.7 2:-2.8 3:-1.6 4:0.0 
1.0 0:3.6 1:-0.7 2:-1.1 3:0.1 4:0.0 
1.0 0:3.6 1:-9.7 2:6.1 3:-5.6 4:0.0 
1.0 0:5.0 1:-0.6 2:-5.4 3:3.2 4:0.0 
0.4662482550101598 0:1.0 1:-0.2 2:-2.7 3:1.4 4:0.0 
1.0 0:3.7 1:5.5 2:0.5 3:14.5 4:0.0 
1.0 0:-2.0 1:2.3 2:0.4 3:0.8 4:0.0 
1.0 0:-0.6 1:0.7 2:1.9 3:-0.7 4:0.0 
1.0 0:-1.2 1:3.1 2:-4.3 3:-0.8 4:0.0 
1.0 0:1.6 1:-2.0 2:2.5 3:-0.2 4:0.0 
1.0 0:-0.7 1:2.0 2:-1.3 3:-0.2 4:0.0 
0.08465619434953608 0:-4.9 1:5.9 2:-4.7 3:1.8 4:0.0 
1.0 0:4.6 1:-0.5 2:6.1 3:-4.0 4:0.0 
1.0 0:-0.4 1:1.6 2:-0.1 3:-5.4 4:0.0 
1.0 0:4.8 1:-10.0 2:-0.8 3:0.0 4:0.0 
1.0 0:3.2 1:-0.2 2:3.8 3:-4.4 4:0.0 
1.0 0:-2.2 1:0.5 2:-0.1 3:-1.9 4:0.0 
1.0 0:-4.5 1:2.7 2:7.2 3:-0.9 4:0.0 
1.0 0:-3.1 1:-0.8 2:0.9 3:-2.6 4:0.0 
1.0 0:-6.6 1:-2.9 2:-5.5 3:1.4 4:0.0 
0.3000001575331566 0:4.4 1:0.5 2:-3.6 3:-1.4 4:0.0 
1.0 0:2.7 1:-2.5 2:3.2 3:-0.8 4:0.0 
1.0 0:-3.5 1:-1.9 2:1.4 3:2.5 4:0.0 
1.0 0:-1.3 1:-5.4 2:-0.9 3:1.9 4:0.0 
1.0 0:3.5 1:-4.5 2:-0.8 3:1.5 4:0.0 
1.0 0:0.1 1:-0.5 2:2.3 3:-0.2 4:0.0 
1.0 0:-3.3 1:0.1 2:-0.3 3:0.0 4:0.0 
1.0 0:-9.1 1:5.6 2:3.3 3:-0.7 4:0.0 
1.0 0:1.0 1:0.5 2:-1.2 3:0.2 4:0.0 
1.0 0:4.8 1:-3.2 2:-0.1 3:0.5 4:0.0 
1.0 0:-0.2 1:0.2 2:0.2 3:1.7 4:0.0 
1.0 0:-2.3 1:-0.5 2:-0.2 3:3.0 4:0.0 
1.0 0:1.9 1:-3.9 2:1.6 3:2.5 4:0.0 
1.0 0:-3.8 1:1.5 2:3.4 3:-1.5 4:0.0 
1.0 0:2.4 1:-2.1 2:-0.1 3:4.6 4:0.0 
1.0 0:-2.6 1:1.3 2:-4.4 3:-0.1 4:0.0 
1.0 0:1.5 1:0.6 2:1.7 3:0.7 4:0.0 
1.0 0:2.1 1:5.0 2:-1.6 3:3.3 4:0.0 
1.0 0:-2.9 1:3.6 2:1.1 3:-4.4 4:0.0 
1.0 0:2.2 1:0.0 2:0.1 3:-0.2 4:0.0 
1.0 0:-5.7 1:-3.5 2:0.8 3:-5.4 4:0.0 
0.4246665627479797 0:-1.2 1:-2.4 2:-0.1 3:-0.1 4:0.0 
1.0 0:1.3 1:1.1 2:0.5 3:-0.7 4:0.0 
1.0 0:5.1 1:4.1 2:-1.8 3:8.8 4:0.0 
1.0 0:-1.1 1:-0.5 2:-0.6 3:-1.2 4:0.0 
1.0 0:0.1 1:-0.4 2:1.8 3:0.2 4:0.0 
1.0 0:0.9 1:3.7 2:3.0 3:-0.5 4:0.0 
1.0 0:-0.9 1:2.1 2:-5.4 3:-2.0 4:0.0 
1.0 0:0.0 1:4.2 2:0.6 3:0.0 4:0.0 
0.44160341963001803 0:3.8 1:-2.5 2:-2.1 3:-1.7 4:0.0 
1.0 0:-2.0 1:-1.5 2:2.0 3:1.5 4:0.0 
1.0 0:-2.6 1:-1.5 2:-0.6 3:2.5 4:0.0 
1.0 0:-5.2 1:-6.3 2:2.0 3:-1.8 4:0.0 
1.0 0:0.1 1:-1.5 2:0.9 3:0.1 4:0.0 
1.0 0:-1.0 1:6.2 2:-0.9 3:9.9 4:0.0 
0.6533404977329041 0:-4.4 1:3.4 2:0.0 3:6.3 4:0.0 
1.0 0:-2.8 1:4.8 2:-0.9 3:0.9 4:0.0 
1.0 0:-2.4 1:1.2 2:-1.3 3:-0.2 4:0.0 
1.0 0:-9.2 1:0.3 2:-5.2 3:0.0 4:0.0 
1.0 0:6.2 1:-1.0 2:3.7 3:-2.1 4:0.0 
1.0 0:-0.9 1:-1.3 2:1.6 3:-1.7 4:0.0 
1.0 0:-9.9 1:16.3 2:-1.7 3:0.7 4:0.0 
1.0 0:2.9 1:2.5 2:-2.9 3:-3.0 4:0.0 
1.0 0:-6.8 1:1.6 2:1.1 3:1.9 4:0.0 
1.0 0:-1.9 1:-1.5 2:0.1 3:-0.2 4:0.0 
1.0 0:-1.1 1:-3.8 2:3.0 3:-9.1 4:0.0 
1.0 0:-1.7 1:7.9 2:-2.7 3:3.7 4:0.0 
1.0 0:-1.2 1:-1.0 2:0.1 3:-2.9 4:0.0 
1.0 0:-3.2 1:2.1 2:2.3 3:-1.6 4:0.0 
0.32675100645413324 0:-0.1 1:-2.3 2:0.3 3:-5.7 4:0.0 
0.6668243721340877 0:1.9 1:-7.4 2:1.5 3:-4.9 4:0.0 
0.8230122978374974 0:0.6 1:-0.2 2:8.7 3:-3.5 4:0.0 
1.0 0:2.4 1:-5.2 2:2.8 3:0.4 4:0.0 
1.0 0:-0.3 1:2.9 2:0.0 3:-0.7 4:0.0 
0.6020899038838272 0:-0.7 1:-2.6 2:1.0 3:4.7 4:0.0 
0.25119487450292693 0:-1.5 1:-3.0 2:5.6 3:-1.5 4:0.0 
0.9200063912647714 0:6.3 1:6.0 2:-6.0 3:-1.6 4:0.0 
1.0 0:3.7 1:-0.5 2:-2.2 3:1.0 4:0.0 
1.0 0:-3.1 1:-2.4 2:-0.6 3:-6.6 4:0.0 
1.0 0:0.1 1:1.6 2:2.6 3:0.1 4:0.0 
1.0 0:-0.9 1:1.0 2:2.0 3:3.0 4:0.0 
1.0 0:2.2 1:-0.4 2:0.7 3:0.4 4:0.0 
1.0 0:-3.5 1:6.9 2:-0.7 3:-5.3 4:0.0 
1.0 0:-2.2 1:3.1 2:0.7 3:-0.1 4:0.0 
1.0 0:0.2 1:0.7 2:-2.4 3:6.1 4:0.0 
1.0 0:6.8 1:-2.9 2:-1.3 3:3.4 4:0.0 
1.0 0:-0.5 1:2.3 2:0.2 3:3.0 4:0.0 
1.0 0:1.8 1:-5.5 2:-2.1 3:-6.3 4:0.0 
1.0 0:2.0 1:3.6 2:1.0 3:-1.0 4:0.0 
1.0 0:-2.1 1:-4.0 2:3.4 3:-0.6 4:0.0 
1.0 0:7.3 1:1.7 2:-3.4 3:3.9 4:0.0 
1.0 0:-5.1 1:-2.5 2:-3.6 3:-0.5 4:0.0 
1.0 0:0.1 1:0.1 2:-0.9 3:5.4 4:0.0 
1.0 0:-1.4 1:2.1 2:0.7 3:0.0 4:0.0 
1.0 0:-9.1 1:5.5 2:-0.6 3:2.0 4:0.0 
1.0 0:6.5 1:-7.1 2:-4.7 3:0.3 4:0.0 
1.0 0:-1.9 1:-2.5 2:5.5 3:-3.2 4:0.0 
1.0 0:-2.5 1:0.3 2:1.0 3:-0.7 4:0.0 
1.0 0:-1.3 1:6.9 2:-12.9 3:5.1 4:0.0 
1.0 0:4.3 1:3.8 2:2.6 3:0.6 4:0.0 
1.0 0:2.6 1:0.3 2:-0.2 3:0.2 4:0.0 
1.0 0:3.8 1:3.8 2:1.5 3:1.1 4:0.0 
1.0 0:-0.5 1:-0.8 2:0.5 3:-2.7 4:0.0 
1.0 0:-2.9 1:-1.6 2:-1.2 3:-1.8 4:0.0 
0.8433094701088046 0:1.5 1:-2.4 2:-4.6 3:4.9 4:0.0 
1.0 0:0.0 1:-0.3 2:0.5 3:0.0 4:0.0 
1.0 0:6.2 1:3.5 2:0.2 3:-2.9 4:0.0 
1.0 0:-1.8 1:1.4 2:0.4 3:1.6 4:0.0 
1.0 0:-2.5 1:3.1 2:-1.4 3:-2.2 4:0.0 
1.0 0:-6.4 1:0.3 2:-3.9 3:1.7 4:0.0 
1.0 0:-0.6 1:1.9 2:-1.6 3:-3.1 4:0.0 
0.8929223525100486 0:-0.9 1:7.6 2:-6.1 3:-0.2 4:0.0 
0.13320981624338638 0:0.0 1:3.6 2:-0.9 3:2.7 4:0.0 
1.0 0:-2.1 1:-4.4 2:7.2 3:0.7 4:0.0 
0.8629439671117096 0:-3.0 1:1.3 2:-3.9 3:-9.0 4:0.0 
1.0 0:2.2 1:1.6 2:0.4 3:-1.8 4:0.0 
1.0 0:6.0 1:3.5 2:-2.4 3:-0.3 4:0.0 
1.0 0:4.2 1:4.7 2:0.4 3:4.3 4:0.0 
1.0 0:-2.2 1:-8.2 2:-2.1 3:-3.3 4:0.0 
1.0 0:-0.6 1:0.1 2:-3.3 3:-0.1 4:0.0 
1.0 0:0.4 1:0.2 2:-0.4 3:-1.6 4:0.0 
1.0 0:-5.5 1:0.5 2:0.0 3:3.2 4:0.0 
0.530402188094362 0:-2.9 1:4.4 2:0.6 3:0.6 4:0.0 
1.0 0:-0.7 1:-1.3 2:0.4 3:-3.5 4:0.0 
0.47632152787831644 0:6.7 1:-5.0 2:3.4 3:-0.6 4:0.0 
1.0 0:2.8 1:1.7 2:0.4 3:-0.9 4:0.0 
1.0 0:-0.1 1:4.0 2:-1.1 3:-0.9 4:0.0 
1.0 0:-0.4 1:2.8 2:0.0 3:1.0 4:0.0 
1.0 0:-5.4 1:-5.5 2:2.0 3:-7.8 4:0.0 
1.0 0:-3.7 1:-2.2 2:1.0 3:5.9 4:0.0 
1.0 0:6.4 1:2.6 2:-5.1 3:-0.7 4:0.0 
1.0 0:1.8 1:0.5 2:-3.3 3:1.8 4:0.0 
1.0 0:-1.8 1:0.5 2:0.7 3:2.4 4:0.0 
1.0 0:2.9 1:-0.6 2:3.9 3:-1.6 4:0.0 
1.0 0:7.2 1:-1.6 2:0.1 3:-1.0 4:0.0 
1.0 0:-0.1 1:-0.5 2:-1.6 3:-1.4 4:0.0 
1.0 0:-4.5 1:1.7 2:-0.8 3:2.8 4:0.0 
1.0 0:1.0 1:3.6 2:1.0 3:-0.9 4:0.0 
1.0 0:1.5 1:3.0 2:-2.9 3:-3.5 4:0.0 
1.0 0:-0.4 1:-1.2 2:-0.4 3:-2.7 4:0.0 
1.0 0:-2.1 1:-1.5 2:0.7 3:-0.6 4:0.0 
1.0 0:-3.5 1:-1.9 2:-1.0 3:2.4 4:0.0 
0.9927460267754372 0:0.2 1:2.6 2:1.9 3:0.2 4:0.0 
1.0 0:-0.2 1:-1.1 2:-0.9 3:-0.7 4:0.0 
1.0 0:0.7 1:5.3 2:4.0 3:0.4 4:0.0 
0.8079998868872422 0:-0.4 1:1.5 2:1.0 3:2.3 4:0.0 
0.31653054291358285 0:3.1 1:-2.2 2:0.1 3:-2.3 4:0.0 
1.0 0:-3.2 1:-2.5 2:4.1 3:-0.7 4:0.0 
1.0 0:-0.8 1:-0.9 2:2.0 3:0.4 4:0.0 
1.0 0:-2.9 1:0.2 2:-4.4 3:-3.9 4:0.0 
1.0 0:-2.0 1:-0.4 2:0.3 3:1.5 4:0.0 
0.8618634705313356 0:-3.9 1:-7.6 2:4.8 3:3.1 4:0.0 
1.0 0:-1.2 1:-0.1 2:-6.3 3:-5.3 4:0.0 
0.41226604940703293 0:2.4 1:6.0 2:-3.4 3:-0.2 4:0.0 
0.5026146806119357 0:0.9 1:8.0 2:-2.9 3:-1.1 4:0.0 
1.0 0:4.2 1:0.1 2:1.7 3:-2.7 4:0.0 
1.0 0:-2.3 1:-2.1 2:0.9 3:-2.5 4:0.0 
1.0 0:1.9 1:0.6 2:0.7 3:-1.2 4:0.0 
0.10814287386211544 0:-2.5 1:1.9 2:-2.2 3:5.0 4:0.0 
1.0 0:-0.2 1:4.6 2:-1.5 3:-1.1 4:0.0 
1.0 0:-0.9 1:-6.2 2:0.0 3:-2.9 4:0.0 
1.0 0:-0.6 1:1.4 2:1.1 3:-0.5 4:0.0 
1.0 0:0.7 1:0.9 2:-1.6 3:-6.0 4:0.0 
1.0 0:1.7 1:-0.6 2:0.1 3:-0.1 4:0.0 
1.0 0:1.6 1:2.4 2:-0.2 3:6.0 4:0.0 
1.0 0:-7.4 1:3.9 2:-0.1 3:1.9 4:0.0 
1.0 0:2.7 1:-1.8 2:0.9 3:-2.3 4:0.0 
1.0 0:5.8 1:-14.3 2:10.8 3:2.2 4:0.0 
1.0 0:-1.1 1:-3.2 2:-1.6 3:0.2 4:0.0 
1.0 0:-0.7 1:-0.5 2:0.6 3:1.8 4:0.0 
1.0 0:-7.7 1:5.5 2:4.5 3:4.3 4:0.0 
1.0 0:11.7 1:2.5 2:-2.5 3:-1.1 4:0.0 
1.0 0:-0.8 1:1.5 2:-0.2 3:0.1 4:0.0 
1.0 0:-6.9 1:-5.5 2:0.0 3:2.9 4:0.0 
1.0 0:-3.1 1:2.1 2:2.1 3:1.1 4:0.0 
0.19326607660270798 0:-1.8 1:-2.2 2:-0.7 3:1.0 4:0.0 
1.0 0:-0.5 1:0.6 2:-3.5 3:-2.1 4:0.0 
1.0 0:0.2 1:-1.1 2:0.9 3:-0.4 4:0.0 
1.0 0:-1.5 1:-0.1 2:0.7 3:1.3 4:0.0 
1.0 0:-2.7 1:-0.8 2:-0.4 3:4.4 4:0.0 
1.0 0:0.2 1:3.0 2:0.0 3:1.6 4:0.0 
1.0 0:0.2 1:1.0 2:-0.6 3:-0.4 4:0.0 
0.9387452593218201 0:-5.1 1:-0.2 2:1.6 3:2.9 4:0.0 
1.0 0:1.7 1:2.5 2:-0.4 3:1.3 4:0.0 
1.0 0:5.1 1:-10.1 2:-3.8 3:1.2 4:0.0 
1.0 0:2.8 1:-2.1 2:5.8 3:-0.5 4:0.0 
1.0 0:-2.5 1:-1.9 2:1.3 3:2.0 4:0.0 
1.0 0:-3.7 1:1.1 2:-6.3 3:2.0 4:0.0 
1.0 0:4.6 1:-4.3 2:-0.5 3:4.1 4:0.0 
1.0 0:-5.6 1:6.6 2:-0.4 3:-1.1 4:0.0 
1.0 0:2.1 1:3.5 2:-7.8 3:3.5 4:0.0 
1.0 0:1.2 1:-5.1 2:3.0 3:2.1 4:0.0 
1.0 0:-9.9 1:2.1 2:3.0 3:12.7 4:0.0 
1.0 0:-3.1 1:5.0 2:-3.5 3:0.4 4:0.0 
1.0 0:2.1 1:-2.2 2:2.8 3:-3.9 4:0.0 
1.0 0:0.8 1:2.7 2:2.4 3:0.4 4:0.0 
1.0 0:2.5 1:-1.0 2:0.6 3:-2.3 4:0.0 
1.0 0:0.5 1:-0.6 2:-2.8 3:2.2 4:0.0 
1.0 0:0.3 1:-2.5 2:0.3 3:-1.4 4:0.0 
1.0 0:-3.8 1:-3.1 2:1.4 3:0.2 4:0.0 
1.0 0:-2.3 1:1.8 2:-3.7 3:0.6 4:0.0 
1.0 0:3.3 1:0.4 2:-2.3 3:-0.8 4:0.0 
0.5862800725298303 0:-5.1 1:0.5 2:3.8 3:9.7 4:0.0 
1.0 0:0.5 1:2.9 2:0.1 3:-2.5 4:0.0 
0.22749493310955207 0:5.4 1:1.5 2:0.6 3:-4.1 4:0.0 
1.0 0:-1.2 1:-12.9 2:1.3 3:-2.7 4:0.0 
1.0 0:0.0 1:-7.8 2:-2.3 3:1.1 4:0.0 
1.0 0:3.5 1:-3.8 2:-1.9 3:2.9 4:0.0 
1.0 0:0.9 1:5.1 2:4.6 3:6.1 4:0.0 
1.0 0:3.6 1:2.4 2:-0.2 3:-0.7 4:0.0 
1.0 0:2.6 1:-0.4 2:0.0 3:1.6 4:0.0 
1.0 0:3.1 1:-5.4 2:-2.6 3:-3.3 4:0.0 
1.0 0:-2.6 1:-0.4 2:-8.8 3:-3.2 4:0.0 
1.0 0:-2.0 1:-1.2 2:4.0 3:-3.0 4:0.0 
1.0 0:1.5 1:-4.9 2:1.3 3:-0.1 4:0.0 
0.005770410980430948 0:4.1 1:-3.8 2:-3.1 3:-3.8 4:0.0 
1.0 0:2.6 1:-4.3 2:-0.5 3:-0.4 4:0.0 
1.0 0:2.5 1:-0.5 2:-1.5 3:-7.3 4:0.0 
0.8287219219200941 0:-0.9 1:-4.6 2:-2.2 3:3.1 4:0.0 
0.594801077242193 0:-1.1 1:1.0 2:1.4 3:-5.4 4:0.0 
1.0 0:-6.4 1:8.2 2:11.9 3:5.4 4:0.0 
1.0 0:-1.1 1:0.5 2:0.2 3:-1.2 4:0.0 
1.0 0:0.8 1:3.4 2:0.6 3:3.2 4:0.0 
1.0 0:-3.0 1:10.2 2:-16.3 3:10.7 4:0.0 
0.8791396379148081 0:9.2 1:-8.8 2:4.8 3:-4.1 4:0.0 
1.0 0:-5.7 1:-0.7 2:-0.5 3:3.1 4:0.0 
1.0 0:6.7 1:-3.0 2:6.7 3:-14.5 4:0.0 
1.0 0:2.6 1:1.7 2:1.9 3:-1.6 4:0.0 
0.8650801604464416 0:-1.8 1:-7.0 2:2.7 3:8.7 4:0.0 
1.0 0:1.1 1:-0.9 2:-2.8 3:1.7 4:0.0 
1.0 0:2.3 1:0.7 2:2.3 3:-1.0 4:0.0 
1.0 0:0.3 1:-0.6 2:2.1 3:-2.4 4:0.0 
1.0 0:0.4 1:-2.1 2:0.0 3:1.0 4:0.0 
1.0 0:-9.3 1:0.3 2:3.1 3:-4.8 4:0.0 
1.0 0:1.5 1:1.3 2:-2.1 3:3.4 4:0.0 
0.3763573338728537 0:1.9 1:-7.0 2:4.9 3:-0.2 4:0.0 
1.0 0:-1.2 1:-1.9 2:-2.0 3:0.5 4:0.0 
0.7089685806777261 0:-0.5 1:2.7 2:-0.7 3:-2.4 4:0.0 
0.3685009976877231 0:-1.8 1:0.6 2:-1.6 3:-0.7 4:0.0 
1.0 0:-1.2 1:-1.4 2:2.1 3:2.4 4:0.0 
1.0 0:3.8 1:-1.4 2:-0.5 3:-3.2 4:0.0 
1.0 0:5.5 1:1.0 2:-2.1 3:0.1 4:0.0 
1.0 0:6.0 1:0.2 2:2.0 3:-0.5 4:0.0 
1.0 0:4.6 1:1.9 2:-3.5 3:1.8 4:0.0 
1.0 0:-4.9 1:-0.2 2:1.2 3:-0.1 4:0.0 
1.0 0:1.1 1:-8.9 2:1.9 3:-2.2 4:0.0 
1.0 0:0.4 1:-0.7 2:3.5 3:-2.6 4:0.0 
1.0 0:-1.0 1:2.2 2:-1.4 3:2.9 4:0.0 
0.9928916126388676 0:5.7 1:6.2 2:-7.2 3:-2.3 4:0.0 
1.0 0:2.2 1:-6.7 2:1.8 3:1.1 4:0.0 
1.0 0:2.5 1:1.4 2:-2.4 3:-1.1 4:0.0 
0.036428232145389754 0:4.1 1:-3.2 2:-3.4 3:-0.3 4:0.0 
1.0 0:-1.3 1:0.3 2:-0.5 3:1.6 4:0.0 
1.0 0:-1.5 1:1.6 2:1.0 3:1.3 4:0.0 
1.0 0:1.9 1:-2.9 2:-2.2 3:0.7 4:0.0 
0.013730270384832814 0:-1.3 1:0.5 2:-1.4 3:2.2 4:0.0 
1.0 0:1.6 1:-1.2 2:-0.2 3:-0.8 4:0.0 
1.0 0:1.0 1:-3.4 2:1.4 3:-0.3 4:0.0 
0.4941963954546694 0:0.7 1:2.5 2:1.7 3:-0.6 4:0.0 
0.8628720816532163 0:-2.1 1:-5.6 2:5.6 3:9.4 4:0.0 
0.8733022228663706 0:-0.2 1:3.9 2:-1.5 3:-4.5 4:0.0 
1.0 0:-1.1 1:-0.4 2:0.8 3:1.0 4:0.0 
1.0 0:0.5 1:1.3 2:1.7 3:-1.5 4:0.0 
1.0 0:-4.9 1:-7.9 2:3.5 3:-3.8 4:0.0 
1.0 0:-1.8 1:-2.0 2:2.2 3:-2.4 4:0.0 
1.0 0:3.0 1:8.9 2:-8.0 3:-3.7 4:0.0 
1.0 0:-0.3 1:-0.2 2:7.7 3:-8.2 4:0.0 
0.1280132652096859 0:1.8 1:3.2 2:2.8 3:-3.1 4:0.0 
1.0 0:4.1 1:-4.6 2:-2.7 3:-0.5 4:0.0 
1.0 0:-0.2 1:-4.3 2:-4.2 3:-6.8 4:0.0 
1.0 0:1.3 1:-0.3 2:2.3 3:-2.5 4:0.0 
1.0 0:2.6 1:0.3 2:0.6 3:-1.9 4:0.0 
1.0 0:8.3 1:0.1 2:-1.7 3:1.5 4:0.0 
1.0 0:-3.1 1:-1.8 2:-5.8 3:0.6 4:0.0 
1.0 0:3.8 1:-0.2 2:-0.6 3:1.7 4:0.0 
0.10098186945192592 0:2.1 1:-6.1 2:4.8 3:1.9 4:0.0 
1.0 0:0.0 1:-0.3 2:0.5 3:-1.0 4:0.0 
1.0 0:0.4 1:3.8 2:2.7 3:3.4 4:0.0 
1.0 0:-1.3 1:-0.7 2:1.9 3:3.1 4:0.0 
1.0 0:2.5 1:3.2 2:-0.9 3:2.8 4:0.0 
1.0 0:-2.9 1:-5.6 2:-10.0 3:4.0 4:0.0 
1.0 0:0.0 1:3.5 2:0.0 3:0.6 4:0.0 
1.0 0:-1.7 1:3.2 2:-2.4 3:-13.4 4:0.0 
1.0 0:-3.5 1:6.7 2:-0.1 3:2.4 4:0.0 
1.0 0:1.2 1:-0.1 2:1.0 3:0.8 4:0.0 
0.6838450280825947 0:-2.4 1:-7.7 2:7.1 3:1.6 4:0.0 
0.9216247961631598 0:3.3 1:-10.2 2:5.0 3:2.6 4:0.0 
1.0 0:-1.0 1:4.1 2:-1.8 3:1.1 4:0.0 
1.0 0:-1.2 1:9.5 2:-1.4 3:-4.8 4:0.0 
0.8574284769180889 0:0.8 1:-5.1 2:-2.2 3:-0.7 4:0.0 
1.0 0:0.4 1:1.1 2:-1.1 3:0.3 4:0.0 
1.0 0:3.7 1:-3.3 2:-0.4 3:-3.6 4:0.0 
1.0 0:-1.2 1:-0.1 2:0.2 3:2.4 4:0.0 
1.0 0:-1.3 1:-0.1 2:0.3 3:1.5 4:0.0 
1.0 0:2.9 1:-2.0 2:1.6 3:2.1 4:0.0 
1.0 0:-2.5 1:0.7 2:2.1 3:-0.1 4:0.0 
1.0 0:4.0 1:-1.0 2:-1.1 3:0.4 4:0.0 
1.0 0:0.0 1:0.7 2:-0.1 3:-1.1 4:0.0 
1.0 0:0.2 1:-0.6 2:0.1 3:0.5 4:0.0 
0.9706342107580217 0:3.9 1:-3.4 2:-2.9 3:8.4 4:0.0 
1.0 0:-1.0 1:-2.0 2:1.7 3:3.0 4:0.0 
1.0 0:3.9 1:3.0 2:0.8 3:3.3 4:0.0 
1.0 0:-1.1 1:2.7 2:0.7 3:0.1 4:0.0 
1.0 0:-0.7 1:-10.4 2:6.1 3:-8.1 4:0.0 
0.3767577268953781 0:-0.9 1:0.1 2:-0.4 3:2.6 4:0.0 
1.0 0:-1.0 1:-3.0 2:-10.7 3:0.6 4:0.0 
1.0 0:2.3 1:-0.2 2:0.7 3:-0.9 4:0.0 
1.0 0:-1.3 1:0.5 2:1.7 3:-1.7 4:0.0 
0.8711022290698055 0:-2.9 1:-0.5 2:-2.9 3:-8.2 4:0.0 
0.9269218192095061 0:1.0 1:-2.8 2:-1.7 3:-2.4 4:0.0 
1.0 0:0.6 1:-1.6 2:1.4 3:-1.8 4:0.0 
1.0 0:-0.8 1:-4.5 2:-3.6 3:1.2 4:0.0 
1.0 0:-2.1 1:-0.8 2:-0.8 3:1.4 4:0.0 
1.0 0:1.0 1:1.3 2:0.8 3:-1.1 4:0.0 
1.0 0:5.7 1:-0.3 2:-1.9 3:1.1 4:0.0 
1.0 0:-3.7 1:1.1 2:1.5 3:-2.1 4:0.0 
1.0 0:1.6 1:-8.1 2:0.1 3:-0.6 4:0.0 
1.0 0:0.8 1:-1.3 2:-1.6 3:0.2 4:0.0 
1.0 0:0.9 1:0.3 2:-1.7 3:-0.9 4:0.0 
1.0 0:5.5 1:-1.5 2:-1.2 3:5.2 4:0.0 
1.0 0:-0.7 1:1.8 2:-0.7 3:-0.5 4:0.0 
1.0 0:-1.8 1:-2.9 2:0.8 3:-1.9 4:0.0 
1.0 0:-3.0 1:8.8 2:-1.3 3:0.0 4:0.0 
1.0 0:-1.6 1:2.5 2:-0.6 3:-2.1 4:0.0 
0.8774310780510082 0:-3.7 1:4.5 2:-1.9 3:-2.6 4:0.0 
0.011033276682603807 0:-0.3 1:-2.7 2:3.5 3:3.6 4:0.0 
0.8980518962760207 0:3.5 1:-7.3 2:3.1 3:6.1 4:0.0 
1.0 0:-7.2 1:5.0 2:2.6 3:5.5 4:0.0 
0.38670821885005513 0:2.2 1:-5.0 2:-1.3 3:-0.9 4:0.0 
0.6958364017008015 0:-1.2 1:3.6 2:-1.2 3:2.4 4:0.0 
1.0 0:-0.2 1:2.7 2:-0.4 3:1.3 4:0.0 
1.0 0:-1.0 1:-1.0 2:-0.9 3:1.6 4:0.0 
1.0 0:0.3 1:1.4 2:0.9 3:0.7 4:0.0 
1.0 0:-3.6 1:-0.1 2:3.7 3:3.3 4:0.0 
1.0 0:2.8 1:-0.4 2:1.7 3:-3.2 4:0.0 
0.6007758255316574 0:-1.3 1:5.2 2:-0.6 3:-3.3 4:0.0 
1.0 0:0.8 1:0.5 2:-1.7 3:1.0 4:0.0 
1.0 0:3.6 1:-11.0 2:-6.4 3:3.6 4:0.0 
1.0 0:-3.5 1:-0.1 2:1.7 3:5.0 4:0.0 
1.0 0:-8.0 1:4.9 2:1.0 3:-1.7 4:0.0 
1.0 0:-0.5 1:-2.7 2:0.6 3:8.2 4:0.0 
1.0 0:3.5 1:-0.8 2:1.2 3:0.0 4:0.0 
1.0 0:0.0 1:-0.3 2:0.3 3:2.1 4:0.0 
0.923450668258426 0:5.1 1:-7.4 2:-0.2 3:2.5 4:0.0 
1.0 0:9.8 1:-4.4 2:5.6 3:-1.1 4:0.0 
1.0 0:-1.0 1:-0.9 2:-0.1 3:-0.9 4:0.0 
1.0 0:-5.5 1:-0.6 2:-9.5 3:-4.2 4:0.0 
1.0 0:-2.2 1:-4.0 2:1.3 3:-1.0 4:0.0 
1.0 0:1.9 1:-1.2 2:-0.7 3:-1.0 4:0.0 
1.0 0:-0.7 1:-5.7 2:2.0 3:-0.2 4:0.0 
1.0 0:-1.3 1:-0.7 2:-3.7 3:2.4 4:0.0 
0.12923860659745262 0:4.1 1:1.5 2:-3.8 3:-2.2 4:0.0 
1.0 0:6.4 1:1.2 2:-4.3 3:3.2 4:0.0 
1.0 0:-0.2 1:3.4 2:-4.9 3:1.9 4:0.0 
1.0 0:-1.9 1:0.0 2:0.0 3:0.6 4:0.0 
1.0 0:-3.8 1:-5.0 2:6.2 3:-1.4 4:0.0 
1.0 0:2.0 1:-0.8 2:0.1 3:-0.9 4:0.0 
1.0 0:2.2 1:1.2 2:0.5 3:-1.3 4:0.0 
1.0 0:4.9 1:-1.4 2:1.6 3:1.5 4:0.0 
1.0 0:1.2 1:0.2 2:-3.3 3:2.1 4:0.0 
1.0 0:3.8 1:4.9 2:-2.4 3:2.0 4:0.0 
1.0 0:-3.0 1:2.5 2:4.2 3:2.8 4:0.0 
1.0 0:-3.7 1:-3.4 2:6.1 3:5.7 4:0.0 
1.0 0:1.2 1:0.9 2:0.2 3:1.6 4:0.0 
1.0 0:-0.4 1:1.0 2:-0.8 3:0.9 4:0.0 
1.0 0:5.7 1:-4.3 2:2.1 3:3.0 4:0.0 
0.6882913508379386 0:-2.4 1:-2.2 2:4.3 3:-1.5 4:0.0 
0.97029835737307 0:-0.5 1:3.5 2:-0.2 3:-1.0 4:0.0 
1.0 0:8.2 1:-9.8 2:1.9 3:5.4 4:0.0 
0.17230017180448276 0:1.5 1:-5.9 2:-0.4 3:1.0 4:0.0 
1.0 0:0.8 1:-0.1 2:1.0 3:-0.1 4:0.0 
1.0 0:5.3 1:3.3 2:1.8 3:-1.9 4:0.0 
1.0 0:-1.9 1:0.5 2:-0.1 3:-3.3 4:0.0 
0.4813957647626331 0:-1.1 1:-1.0 2:2.3 3:-5.5 4:0.0 
1.0 0:-5.2 1:-0.8 2:1.3 3:-5.0 4:0.0 
1.0 0:8.5 1:-0.2 2:0.7 3:1.5 4:0.0 
1.0 0:0.6 1:-2.5 2:2.2 3:-3.3 4:0.0 
0.7142555241367435 0:-2.9 1:4.7 2:-4.6 3:1.7 4:0.0 
1.0 0:1.0 1:-0.8 2:-0.6 3:-0.8 4:0.0 
1.0 0:-6.2 1:-7.7 2:0.4 3:-1.9 4:0.0 
1.0 0:-2.6 1:2.1 2:1.7 3:-0.1 4:0.0 
1.0 0:-2.9 1:-1.0 2:3.2 3:16.2 4:0.0 
0.7233787162913806 0:4.7 1:0.0 2:2.3 3:-3.9 4:0.0 
0.5882284435491641 0:5.6 1:-5.6 2:3.5 3:1.0 4:0.0 
1.0 0:-0.7 1:2.1 2:7.0 3:-3.4 4:0.0 
1.0 0:1.6 1:0.7 2:-0.4 3:2.8 4:0.0 
1.0 0:-8.0 1:-6.0 2:-5.2 3:1.6 4:0.0 
1.0 0:2.2 1:-3.9 2:0.6 3:3.7 4:0.0 
1.0 0:-1.5 1:-3.1 2:0.5 3:-0.1 4:0.0 
1.0 0:-4.0 1:-3.8 2:4.9 3:1.9 4:0.0 
1.0 0:-6.3 1:1.8 2:2.7 3:6.1 4:0.0 
1.0 0:-1.6 1:-1.7 2:-2.2 3:0.8 4:0.0 
1.0 0:-4.2 1:4.8 2:-1.5 3:1.5 4:0.0 
1.0 0:0.7 1:-1.0 2:2.7 3:0.3 4:0.0 
1.0 0:-0.9 1:-1.4 2:0.0 3:1.2 4:0.0 
1.0 0:1.1 1:0.0 2:0.4 3:-1.5 4:0.0 
1.0 0:2.2 1:-0.9 2:-1.0 3:-2.9 4:0.0 
1.0 0:-1.0 1:-0.1 2:1.0 3:2.3 4:0.0 
1.0 0:9.0 1:-0.3 2:-6.4 3:-0.9 4:0.0 
0.9245755264008139 0:-1.2 1:-3.5 2:9.5 3:0.5 4:0.0 
0.841519927186986 0:-4.3 1:-0.7 2:-2.0 3:5.8 4:0.0 
1.0 0:3.8 1:-1.3 2:0.1 3:-0.8 4:0.0 
1.0 0:0.2 1:-3.2 2:-0.8 3:2.4 4:0.0 
0.9176567433114398 0:4.1 1:-2.5 2:3.4 3:-5.4 4:0.0 
1.0 0:3.0 1:6.0 2:-0.8 3:0.3 4:0.0 
0.17721007387064164 0:-1.6 1:-8.9 2:0.3 3:-4.6 4:0.0 
1.0 0:1.2 1:-1.0 2:-0.1 3:0.6 4:0.0 
1.0 0:-1.9 1:0.5 2:2.4 3:0.0 4:0.0 
1.0 0:-0.5 1:4.1 2:-0.5 3:2.7 4:0.0 
1.0 0:2.0 1:2.1 2:-2.6 3:-0.6 4:0.0 
1.0 0:1.3 1:0.9 2:-0.9 3:0.3 4:0.0 
1.0 0:-2.2 1:-2.6 2:-1.1 3:2.2 4:0.0 
1.0 0:-0.1 1:-3.2 2:1.2 3:0.5 4:0.0 
1.0 0:1.2 1:-1.5 2:3.0 3:-2.1 4:0.0 
0.6020601206838053 0:-7.4 1:-9.7 2:1.1 3:-5.1 4:0.0 
1.0 0:1.3 1:1.3 2:-0.3 3:1.9 4:0.0 
1.0 0:2.9 1:3.2 2:1.6 3:0.5 4:0.0 
0.5583665019947792 0:0.4 1:3.3 2:0.3 3:-6.6 4:0.0 
1.0 0:0.7 1:-0.6 2:-1.1 3:2.1 4:0.0 
0.972965577532324 0:11.1 1:-7.8 2:5.7 3:-4.2 4:0.0 
1.0 0:-7.5 1:2.2 2:7.6 3:-3.9 4:0.0 
0.44952522659935806 0:1.2 1:3.7 2:0.0 3:-2.1 4:0.0 
1.0 0:-4.8 1:0.9 2:-3.4 3:0.0 4:0.0 
0.8577928417194725 0:6.7 1:-6.7 2:2.1 3:-1.1 4:0.0 
1.0 0:-0.3 1:0.5 2:1.0 3:-0.6 4:0.0 
1.0 0:-4.5 1:0.9 2:-0.4 3:-2.2 4:0.0 
0.5881361380804421 0:-0.1 1:1.5 2:-1.1 3:-8.7 4:0.0 
1.0 0:2.2 1:-0.7 2:-0.3 3:-1.9 4:0.0 
1.0 0:1.8 1:-2.1 2:0.8 3:5.1 4:0.0 
1.0 0:-1.9 1:-3.5 2:-2.5 3:-3.2 4:0.0 
1.0 0:-4.6 1:1.8 2:0.3 3:-3.0 4:0.0 
1.0 0:-2.3 1:4.2 2:1.8 3:1.2 4:0.0 
1.0 0:2.8 1:-3.4 2:2.3 3:0.9 4:0.0 
1.0 0:-1.1 1:0.6 2:-2.7 3:-0.3 4:0.0 
1.0 0:-0.9 1:-0.4 2:0.4 3:-3.7 4:0.0 
1.0 0:0.0 1:-2.9 2:2.3 3:-0.8 4:0.0 
1.0 0:6.2 1:5.5 2:-0.2 3:0.0 4:0.0 
1.0 0:-0.5 1:0.3 2:6.7 3:-0.3 4:0.0 
0.7022339040362932 0:1.4 1:-1.8 2:5.3 3:1.7 4:0.0 
1.0 0:1.2 1:0.2 2:0.4 3:-3.8 4:0.0 
1.0 0:-6.3 1:-3.0 2:0.0 3:3.3 4:0.0 
1.0 0:4.3 1:8.3 2:-0.6 3:-1.4 4:0.0 
1.0 0:1.5 1:1.3 2:-1.1 3:-1.4 4:0.0 
1.0 0:-7.5 1:-14.6 2:8.5 3:-11.5 4:0.0 
0.40312494634060114 0:-0.3 1:-4.9 2:0.8 3:2.6 4:0.0 
0.9294618288755468 0:-0.1 1:0.9 2:2.6 3:-1.5 4:0.0 
1.0 0:1.2 1:0.6 2:1.2 3:2.2 4:0.0 
1.0 0:-3.6 1:-1.0 2:1.2 3:-1.1 4:0.0 
1.0 0:-0.9 1:-0.4 2:0.5 3:0.8 4:0.0 
1.0 0:1.7 1:-0.8 2:0.8 3:-2.0 4:0.0 
0.3545922879680591 0:-0.8 1:6.2 2:-4.4 3:-0.9 4:0.0 
1.0 0:-0.9 1:0.6 2:2.7 3:-2.8 4:0.0 
1.0 0:0.8 1:3.5 2:2.8 3:0.6 4:0.0 
0.4071574756507808 0:3.2 1:-8.1 2:4.2 3:-0.2 4:0.0 
1.0 0:-0.3 1:-1.7 2:-1.6 3:0.8 4:0.0 
0.22306341755416156 0:-2.9 1:2.4 2:4.4 3:3.2 4:0.0 
1.0 0:-8.3 1:-4.2 2:5.9 3:-2.8 4:0.0 
1.0 0:-2.6 1:-0.8 2:2.0 3:-0.7 4:0.0 
1.0 0:-3.0 1:2.2 2:0.9 3:1.1 4:0.0 
1.0 0:-0.6 1:-2.5 2:2.0 3:-0.2 4:0.0 
1.0 0:-1.8 1:-2.9 2:-1.1 3:0.2 4:0.0 
1.0 0:3.6 1:-3.5 2:-0.8 3:-0.6 4:0.0 
1.0 0:1.9 1:-1.6 2:2.6 3:0.0 4:0.0 
0.3547298887409197 0:-2.6 1:1.3 2:-0.9 3:7.5 4:0.0 
1.0 0:-7.6 1:-1.1 2:0.9 3:2.9 4:0.0 
1.0 0:3.7 1:0.7 2:0.7 3:-1.1 4:0.0 
1.0 0:0.9 1:-1.2 2:1.9 3:-0.1 4:0.0 
1.0 0:1.2 1:1.4 2:1.4 3:-7.3 4:0.0 
1.0 0:-3.0 1:0.0 2:2.4 3:2.0 4:0.0 
0.12931264944580317 0:1.5 1:0.0 2:-0.3 3:-7.7 4:0.0 
1.0 0:9.0 1:-2.7 2:2.0 3:-0.4 4:0.0 
1.0 0:-2.2 1:2.7 2:0.0 3:-0.5 4:0.0 
1.0 0:-2.8 1:6.1 2:7.2 3:-6.0 4:0.0 
1.0 0:0.8 1:6.6 2:-1.3 3:3.8 4:0.0 
0.8611429951321797 0:-4.7 1:2.3 2:2.8 3:9.3 4:0.0 
0.7480341503694782 0:-2.8 1:4.1 2:-3.2 3:-3.5 4:0.0 
1.0 0:2.5 1:1.1 2:0.5 3:-0.5 4:0.0 
0.12700578560153641 0:0.1 1:3.5 2:2.2 3:-2.4 4:0.0 
1.0 0:-5.6 1:-0.4 2:0.9 3:7.0 4:0.0 
1.0 0:-1.4 1:-2.6 2:0.3 3:0.9 4:0.0 
0.7096176699914863 0:5.0 1:-8.7 2:4.4 3:3.3 4:0.0 
1.0 0:0.7 1:3.4 2:-2.4 3:0.4 4:0.0 
1.0 0:-4.7 1:2.1 2:0.2 3:0.0 4:0.0 
1.0 0:-4.7 1:0.2 2:0.2 3:0.1 4:0.0 
1.0 0:-5.7 1:0.8 2:-0.2 3:2.0 4:0.0 
1.0 0:1.4 1:-1.6 2:0.4 3:-1.3 4:0.0 
1.0 0:0.0 1:-2.1 2:-1.0 3:1.8 4:0.0 
1.0 0:-1.7 1:-1.2 2:0.0 3:0.2 4:0.0 
0.9966172496330147 0:3.4 1:-5.5 2:4.7 3:5.8 4:0.0 
0.8755640568639436 0:3.6 1:-6.2 2:3.7 3:3.6 4:0.0 
0.8031864171790877 0:-2.2 1:7.8 2:5.0 3:2.9 4:0.0 
1.0 0:9.9 1:-1.3 2:3.2 3:-0.4 4:0.0 
1.0 0:-1.0 1:-0.4 2:1.8 3:5.0 4:0.0 
1.0 0:-3.4 1:-7.6 2:6.0 3:0.9 4:0.0 
1.0 0:0.3 1:1.0 2:3.6 3:-3.4 4:0.0 
1.0 0:2.9 1:3.1 2:-0.2 3:0.5 4:0.0 
1.0 0:1.7 1:0.0 2:1.5 3:0.7 4:0.0 
1.0 0:-2.8 1:-3.3 2:-2.3 3:-0.4 4:0.0 
1.0 0:-0.2 1:-0.3 2:-1.6 3:-0.7 4:0.0 
1.0 0:-6.5 1:8.1 2:-4.6 3:9.7 4:0.0 
1.0 0:-0.9 1:-1.4 2:4.6 3:0.0 4:0.0 
1.0 0:1.6 1:-1.0 2:-0.7 3:-0.5 4:0.0 
1.0 0:0.9 1:-3.7 2:-0.3 3:-1.0 4:0.0 
1.0 0:-1.0 1:0.8 2:0.3 3:2.9 4:0.0 
1.0 0:1.5 1:-3.6 2:0.6 3:2.0 4:0.0 
1.0 0:7.9 1:-3.2 2:5.9 3:2.4 4:0.0 
1.0 0:-2.9 1:3.4 2:-0.4 3:-2.7 4:0.0 
0.843694753682288 0:-5.5 1:7.5 2:2.4 3:-0.7 4:0.0 
0.7499508961809453 0:0.9 1:7.4 2:-1.4 3:2.5 4:0.0 
1.0 0:0.5 1:-2.1 2:-1.8 3:9.0 4:0.0 
1.0 0:-8.7 1:-1.5 2:-6.2 3:0.9 4:0.0 
1.0 0:3.8 1:0.6 2:-2.8 3:-0.3 4:0.0 
1.0 0:8.1 1:8.4 2:-7.0 3:4.9 4:0.0 
1.0 0:-0.2 1:5.4 2:0.8 3:-1.7 4:0.0 
1.0 0:-3.9 1:-8.0 2:6.3 3:-9.3 4:0.0 
0.021491050184276408 0:-1.0 1:4.5 2:0.6 3:2.1 4:0.0 
1.0 0:6.2 1:0.4 2:-4.9 3:-0.8 4:0.0 
1.0 0:0.8 1:5.3 2:-1.0 3:-4.0 4:0.0 
1.0 0:0.6 1:1.6 2:2.3 3:-2.4 4:0.0 
0.8726419739080842 0:-7.1 1:2.6 2:-2.2 3:9.0 4:0.0 
0.6854679199051898 0:2.2 1:-3.0 2:-6.0 3:6.1 4:0.0 
1.0 0:-3.3 1:3.4 2:-3.2 3:0.1 4:0.0 
1.0 0:4.9 1:0.8 2:5.8 3:3.8 4:0.0 
0.7913774502515047 0:-6.7 1:4.8 2:2.8 3:1.6 4:0.0 
1.0 0:-0.6 1:-5.2 2:-3.2 3:-2.7 4:0.0 
1.0 0:6.3 1:-1.2 2:-1.2 3:-1.3 4:0.0 
1.0 0:-2.9 1:3.4 2:-2.2 3:2.4 4:0.0 
0.5172180673111366 0:-5.0 1:4.3 2:-5.2 3:2.1 4:0.0 
1.0 0:-4.7 1:-1.7 2:2.9 3:0.0 4:0.0 
1.0 0:-6.1 1:3.5 2:-2.4 3:0.6 4:0.0 
0.9332395841252233 0:4.5 1:-2.2 2:0.6 3:0.0 4:0.0 
1.0 0:1.2 1:3.0 2:2.6 3:0.5 4:0.0 
1.0 0:2.4 1:1.8 2:0.6 3:-0.5 4:0.0 
0.5970355556066009 0:-5.9 1:2.1 2:-3.6 3:0.3 4:0.0 
1.0 0:-0.8 1:1.5 2:0.3 3:-0.5 4:0.0 
1.0 0:3.0 1:-0.6 2:2.4 3:0.3 4:0.0 
1.0 0:1.6 1:-0.3 2:-1.8 3:3.9 4:0.0 
1.0 0:-0.1 1:-1.6 2:-0.1 3:0.5 4:0.0 
1.0 0:-0.4 1:-3.7 2:0.0 3:-0.6 4:0.0 
0.40423288867068397 0:-1.5 1:4.6 2:1.6 3:4.7 4:0.0 
1.0 0:-5.4 1:1.8 2:-0.8 3:1.3 4:0.0 
1.0 0:-5.6 1:1.1 2:1.0 3:-3.4 4:0.0 
1.0 0:-3.6 1:0.8 2:-1.7 3:1.6 4:0.0 
1.0 0:1.9 1:9.1 2:-4.3 3:-5.9 4:0.0 
1.0 0:2.5 1:3.3 2:-0.6 3:-0.1 4:0.0 
1.0 0:-7.2 1:2.4 2:-0.2 3:1.8 4:0.0 
1.0 0:-10.5 1:0.8 2:3.1 3:3.1 4:0.0 
1.0 0:2.1 1:-1.1 2:-3.6 3:-1.1 4:0.0 
0.24552860598124712 0:2.3 1:-1.3 2:-1.2 3:-0.4 4:0.0 
1.0 0:4.6 1:5.9 2:-3.1 3:4.3 4:0.0 
1.0 0:-5.8 1:6.6 2:-6.4 3:2.3 4:0.0 
1.0 0:-1.7 1:-6.4 2:5.4 3:-5.2 4:0.0 
1.0 0:5.5 1:0.5 2:-2.4 3:-0.1 4:0.0 
1.0 0:-1.3 1:0.6 2:-0.6 3:-1.4 4:0.0 
1.0 0:-1.3 1:-2.0 2:0.5 3:1.8 4:0.0 
1.0 0:-2.2 1:0.2 2:-3.4 3:0.7 4:0.0 
1.0 0:1.5 1:-2.6 2:-0.5 3:-0.6 4:0.0 
1.0 0:-0.3 1:2.9 2:-2.5 3:-1.0 4:0.0 
1.0 0:-2.9 1:-0.1 2:1.0 3:-0.3 4:0.0 
1.0 0:-7.5 1:2.8 2:-2.2 3:7.2 4:0.0 
1.0 0:-2.7 1:-3.7 2:-6.0 3:-3.4 4:0.0 
1.0 0:9.1 1:4.8 2:-4.8 3:-4.9 4:0.0 
0.8756225241771566 0:-2.8 1:10.1 2:3.9 3:-0.6 4:0.0 
0.597083150153742 0:-2.4 1:6.1 2:2.1 3:-1.2 4:0.0 
1.0 0:-0.4 1:-4.1 2:-0.6 3:-6.1 4:0.0 
0.8359719803850804 0:1.1 1:-3.6 2:1.5 3:-2.7 4:0.0 
1.0 0:-3.1 1:1.1 2:-1.3 3:0.4 4:0.0 
1.0 0:-2.5 1:6.7 2:-8.3 3:-0.2 4:0.0 
0.30248363440831366 0:0.9 1:4.3 2:4.1 3:-3.5 4:0.0 
1.0 0:-3.7 1:3.5 2:-1.4 3:-1.0 4:0.0 
0.9627012418185285 0:-1.3 1:-5.7 2:-2.6 3:-5.0 4:0.0 
1.0 0:2.3 1:1.1 2:1.4 3:-1.0 4:0.0 
1.0 0:0.5 1:1.3 2:-0.9 3:0.3 4:0.0 
1.0 0:-0.7 1:2.4 2:-7.1 3:1.9 4:0.0 
0.8955962441528037 0:-1.3 1:0.6 2:-1.2 3:-1.2 4:0.0 
1.0 0:-0.1 1:2.6 2:-0.1 3:-2.8 4:0.0 
1.0 0:7.8 1:-1.5 2:-5.3 3:-1.2 4:0.0 
1.0 0:-0.7 1:-2.1 2:0.1 3:-0.9 4:0.0 
1.0 0:-1.0 1:-1.3 2:-1.4 3:-0.3 4:0.0 
1.0 0:-0.3 1:0.1 2:-0.6 3:3.6 4:0.0 
1.0 0:-1.7 1:1.6 2:0.7 3:1.3 4:0.0 
1.0 0:-0.6 1:-2.6 2:-1.0 3:-1.4 4:0.0 
0.7357356495473387 0:1.4 1:1.1 2:2.5 3:-0.5 4:0.0 
1.0 0:-5.0 1:1.3 2:-1.4 3:0.1 4:0.0 
1.0 0:-1.2 1:2.1 2:-3.2 3:-2.5 4:0.0 
1.0 0:-3.2 1:6.1 2:4.9 3:-2.3 4:0.0 
1.0 0:-8.2 1:0.3 2:2.9 3:2.3 4:0.0 
0.5739729137062507 0:4.3 1:3.3 2:2.6 3:-6.6 4:0.0 
1.0 0:2.1 1:0.8 2:1.6 3:0.4 4:0.0 
0.7540301779452185 0:-1.1 1:-4.3 2:5.2 3:5.0 4:0.0 
1.0 0:-4.4 1:6.2 2:-3.6 3:3.7 4:0.0 
0.30538712509474164 0:2.7 1:6.1 2:0.4 3:-1.1 4:0.0 
1.0 0:-1.9 1:3.8 2:-3.8 3:0.1 4:0.0 
1.0 0:2.3 1:2.2 2:-2.0 3:-0.2 4:0.0 
1.0 0:0.3 1:-1.7 2:-1.9 3:-3.3 4:0.0 
0.43652559877319586 0:2.4 1:-4.3 2:3.3 3:-1.1 4:0.0 
1.0 0:-2.8 1:0.2 2:-1.8 3:-0.4 4:0.0 
1.0 0:1.0 1:-0.3 2:-0.5 3:-0.2 4:0.0 
1.0 0:-3.8 1:-0.8 2:-1.3 3:0.0 4:0.0 
0.8772881030556513 0:1.6 1:-1.4 2:-6.9 3:2.8 4:0.0 
1.0 0:4.0 1:-6.0 2:-1.0 3:-0.6 4:0.0 
1.0 0:-5.2 1:-0.3 2:1.1 3:2.9 4:0.0 
1.0 0:3.4 1:-6.8 2:3.2 3:-4.7 4:0.0 
1.0 0:0.7 1:10.0 2:-1.6 3:-3.0 4:0.0 
1.0 0:-2.2 1:-11.4 2:5.2 3:-12.4 4:0.0 
0.707144482986775 0:0.0 1:-4.7 2:2.6 3:6.3 4:0.0 
1.0 0:-2.9 1:1.5 2:1.2 3:1.4 4:0.0 
0.7224037998517785 0:-1.8 1:9.0 2:-1.2 3:4.7 4:0.0 
1.0 0:-4.6 1:2.6 2:0.7 3:3.1 4:0.0 
1.0 0:-0.3 1:-3.6 2:2.3 3:0.6 4:0.0 
1.0 0:1.2 1:3.5 2:-1.4 3:2.4 4:0.0 
1.0 0:0.6 1:0.2 2:1.4 3:-0.4 4:0.0 
1.0 0:-8.1 1:6.3 2:-1.2 3:2.1 4:0.0 
1.0 0:-2.5 1:3.5 2:0.0 3:-1.6 4:0.0 
0.24955774950179924 0:2.0 1:4.7 2:-0.9 3:-1.4 4:0.0 
1.0 0:0.3 1:-3.8 2:1.1 3:-0.5 4:0.0 
1.0 0:-1.7 1:-0.9 2:-1.8 3:-2.6 4:0.0 
1.0 0:-1.5 1:-0.4 2:1.2 3:0.6 4:0.0 
1.0 0:-2.6 1:4.1 2:0.7 3:4.2 4:0.0 
1.0 0:-0.1 1:0.0 2:0.3 3:-3.3 4:0.0 
1.0 0:-4.4 1:1.3 2:6.7 3:-6.0 4:0.0 
1.0 0:-3.9 1:-0.4 2:-2.8 3:1.5 4:0.0 
1.0 0:9.8 1:-10.6 2:-1.7 3:-6.7 4:0.0 
0.6913848080102117 0:0.4 1:-3.9 2:4.9 3:-2.2 4:0.0 
1.0 0:-3.1 1:1.2 2:0.9 3:6.6 4:0.0 
1.0 0:-9.6 1:3.8 2:-0.8 3:3.9 4:0.0 
1.0 0:2.5 1:0.7 2:0.6 3:-0.6 4:0.0 
0.9483108295358709 0:0.2 1:-6.6 2:1.4 3:10.3 4:0.0 
1.0 0:4.3 1:-0.6 2:0.5 3:-0.1 4:0.0 
0.5838644084998766 0:-0.7 1:-2.9 2:1.1 3:1.4 4:0.0 
1.0 0:2.2 1:1.9 2:-1.6 3:1.0 4:0.0 
1.0 0:0.8 1:-5.0 2:0.2 3:1.4 4:0.0 
1.0 0:1.9 1:-0.8 2:0.5 3:-0.8 4:0.0 
0.019131161294259763 0:3.5 1:-6.2 2:0.2 3:2.4 4:0.0 
1.0 0:-1.5 1:-1.0 2:-0.3 3:1.4 4:0.0 
1.0 0:3.2 1:0.1 2:-6.8 3:-8.1 4:0.0 
1.0 0:1.4 1:-4.0 2:2.5 3:-0.5 4:0.0 
1.0 0:-1.5 1:-1.4 2:-1.5 3:3.9 4:0.0 
1.0 0:1.5 1:-2.6 2:1.1 3:0.5 4:0.0 
1.0 0:5.2 1:7.3 2:-4.7 3:-8.5 4:0.0 
1.0 0:-1.8 1:1.8 2:0.8 3:3.2 4:0.0 
1.0 0:-7.4 1:-7.0 2:4.9 3:-3.9 4:0.0 
0.7122932556331973 0:3.7 1:-4.4 2:-3.5 3:2.8 4:0.0 
1.0 0:-0.5 1:-1.9 2:0.7 3:1.0 4:0.0 
1.0 0:3.0 1:-1.5 2:-2.2 3:1.2 4:0.0 
0.17909111153937968 0:2.1 1:-1.1 2:1.4 3:2.8 4:0.0 
1.0 0:-2.5 1:-1.8 2:1.1 3:2.5 4:0.0 
1.0 0:0.2 1:1.6 2:0.4 3:-1.6 4:0.0 
1.0 0:-3.4 1:1.8 2:1.4 3:-1.2 4:0.0 
1.0 0:2.3 1:-0.7 2:-0.4 3:-0.7 4:0.0 
1.0 0:-7.0 1:-0.3 2:-4.5 3:3.7 4:0.0 
0.28314046759932965 0:6.4 1:-9.3 2:2.2 3:2.8 4:0.0 
1.0 0:3.2 1:6.7 2:-1.4 3:4.5 4:0.0 
1.0 0:-7.1 1:0.4 2:-1.6 3:-3.7 4:0.0 
1.0 0:-2.7 1:0.8 2:1.6 3:0.0 4:0.0 
1.0 0:-2.8 1:0.2 2:0.6 3:-0.5 4:0.0 
0.7551456096384405 0:-1.0 1:-1.8 2:1.5 3:6.7 4:0.0 
1.0 0:-6.1 1:0.8 2:-1.7 3:-0.2 4:0.0 
1.0 0:0.0 1:-1.3 2:-2.3 3:-0.2 4:0.0 
1.0 0:6.7 1:5.6 2:-3.1 3:1.5 4:0.0 
1.0 0:-1.5 1:-0.5 2:1.3 3:2.9 4:0.0 
0.23162254177271313 0:0.5 1:0.3 2:-3.7 3:-2.7 4:0.0 
1.0 0:5.3 1:1.1 2:5.0 3:-2.1 4:0.0 
1.0 0:0.4 1:5.1 2:-0.8 3:1.5 4:0.0 
1.0 0:-4.5 1:7.1 2:5.9 3:1.1 4:0.0 
1.0 0:0.9 1:1.1 2:-0.5 3:3.0 4:0.0 
1.0 0:4.2 1:-4.9 2:1.2 3:1.4 4:0.0 
1.0 0:1.8 1:-6.6 2:2.8 3:-1.6 4:0.0 
1.0 0:-10.3 1:2.0 2:-0.6 3:1.6 4:0.0 
1.0 0:0.9 1:2.1 2:-3.7 3:-1.6 4:0.0 
0.02558409271029074 0:-3.2 1:1.1 2:2.7 3:-2.3 4:0.0 
1.0 0:6.0 1:-3.2 2:3.7 3:-2.8 4:0.0 
0.8587721739837669 0:1.7 1:-0.4 2:-1.5 3:-6.6 4:0.0 
0.233239805406725 0:1.7 1:-0.7 2:0.2 3:-3.4 4:0.0 
1.0 0:6.5 1:-11.3 2:-0.8 3:-2.2 4:0.0 
0.6815981568374452 0:0.2 1:-6.5 2:-1.6 3:-2.3 4:0.0 
1.0 0:-1.0 1:-0.4 2:2.3 3:-1.1 4:0.0 
1.0 0:-2.7 1:-1.9 2:3.2 3:-10.3 4:0.0 
1.0 0:-3.2 1:-0.1 2:0.0 3:1.4 4:0.0 
0.9326338811113541 0:-5.6 1:-4.6 2:-6.4 3:3.2 4:0.0 
0.7153636426155681 0:-6.2 1:-1.8 2:2.6 3:2.1 4:0.0 
1.0 0:-5.1 1:1.3 2:-1.9 3:0.0 4:0.0 
1.0 0:1.1 1:-1.2 2:-0.6 3:1.0 4:0.0 
0.9912033571518 0:2.9 1:-6.7 2:-1.5 3:0.0 4:0.0 
1.0 0:-3.1 1:-1.7 2:0.5 3:1.9 4:0.0 
0.5301556949603154 0:3.9 1:4.4 2:2.1 3:2.0 4:0.0 
1.0 0:1.1 1:2.0 2:0.2 3:-2.7 4:0.0 
1.0 0:0.6 1:0.9 2:1.0 3:2.6 4:0.0 
1.0 0:-2.3 1:1.5 2:-8.2 3:3.5 4:0.0 
1.0 0:3.6 1:0.8 2:1.8 3:2.9 4:0.0 
1.0 0:2.4 1:-3.8 2:-0.8 3:-0.3 4:0.0 
1.0 0:0.0 1:-0.6 2:-3.6 3:-0.8 4:0.0 
1.0 0:0.4 1:-0.4 2:-0.6 3:1.9 4:0.0 
1.0 0:-4.3 1:-2.7 2:0.3 3:0.4 4:0.0 
1.0 0:0.2 1:0.2 2:2.5 3:1.1 4:0.0 
1.0 0:-1.3 1:1.8 2:-1.3 3:-1.1 4:0.0 
0.6599254571257591 0:-5.7 1:-0.1 2:2.4 3:3.5 4:0.0 
1.0 0:-0.5 1:1.0 2:0.6 3:6.6 4:0.0 
1.0 0:5.1 1:-7.8 2:10.2 3:5.0 4:0.0 
1.0 0:3.1 1:7.3 2:1.7 3:-6.9 4:0.0 
0.3875386142589441 0:-2.6 1:3.5 2:-0.1 3:3.0 4:0.0 
1.0 0:-6.0 1:4.5 2:-2.6 3:-1.5 4:0.0 
0.8374124951157789 0:-0.8 1:7.8 2:4.2 3:1.4 4:0.0 
0.3070979001191744 0:-2.0 1:4.3 2:1.1 3:-0.1 4:0.0 
0.4512217923648504 0:0.2 1:0.9 2:7.5 3:-4.5 4:0.0 
1.0 0:0.3 1:-0.3 2:-7.6 3:2.0 4:0.0 
0.5847676631101573 0:1.6 1:-2.6 2:6.2 3:-0.9 4:0.0 
0.7951001627042766 0:-9.5 1:-1.7 2:0.5 3:8.3 4:0.0 
1.0 0:0.6 1:2.8 2:-1.3 3:1.6 4:0.0 
1.0 0:-0.9 1:2.0 2:1.6 3:-1.0 4:0.0 
1.0 0:5.4 1:-4.8 2:0.0 3:-2.8 4:0.0 
0.14400900005197428 0:2.8 1:-0.3 2:-2.1 3:-1.7 4:0.0 
1.0 0:1.8 1:-2.1 2:-0.4 3:-1.2 4:0.0 
1.0 0:-0.1 1:-5.6 2:5.1 3:-3.8 4:0.0 
1.0 0:-0.6 1:-1.0 2:-1.7 3:1.8 4:0.0 
1.0 0:-2.5 1:2.5 2:0.8 3:-3.0 4:0.0 
0.3957233878339602 0:2.2 1:-2.6 2:-1.0 3:-0.6 4:0.0 
0.5638704574202513 0:-3.3 1:5.1 2:-4.2 3:2.0 4:0.0 
1.0 0:1.0 1:-4.0 2:-1.0 3:-1.5 4:0.0 
1.0 0:1.0 1:-0.8 2:-8.5 3:4.6 4:0.0 
1.0 0:-0.5 1:-0.5 2:0.4 3:3.6 4:0.0 
1.0 0:4.0 1:1.0 2:1.0 3:1.5 4:0.0 
0.833677967063119 0:-2.8 1:4.3 2:-4.0 3:-0.9 4:0.0 
1.0 0:-1.9 1:0.5 2:-0.3 3:-0.3 4:0.0 
0.7475197898618782 0:4.1 1:-7.9 2:-1.0 3:-4.0 4:0.0 
0.6271686020729555 0:-0.1 1:1.6 2:1.6 3:1.5 4:0.0 
0.8829292348498567 0:4.9 1:5.4 2:-2.0 3:-1.8 4:0.0 
1.0 0:2.9 1:1.5 2:-0.1 3:-1.7 4:0.0 
1.0 0:-0.8 1:2.2 2:-0.5 3:-2.1 4:0.0 
1.0 0:1.9 1:5.8 2:-5.6 3:-8.0 4:0.0 
0.8414498177785326 0:5.0 1:-2.1 2:2.6 3:-1.3 4:0.0 
1.0 0:1.5 1:-0.7 2:0.6 3:3.3 4:0.0 
1.0 0:5.0 1:-9.5 2:-0.7 3:-5.9 4:0.0 
1.0 0:-0.5 1:-1.7 2:0.6 3:0.8 4:0.0 
1.0 0:-1.1 1:0.1 2:-0.7 3:2.0 4:0.0 
1.0 0:4.7 1:0.9 2:-1.8 3:3.6 4:0.0 
1.0 0:-0.4 1:-0.8 2:-1.4 3:-0.2 4:0.0 
1.0 0:2.0 1:-1.1 2:-1.8 3:1.2 4:0.0 
1.0 0:-0.3 1:1.5 2:0.6 3:5.4 4:0.0 
0.9904850067605919 0:1.3 1:4.3 2:5.0 3:3.0 4:0.0 
0.738266708351056 0:2.7 1:3.9 2:3.4 3:-6.7 4:0.0 
0.17603333585210565 0:-0.1 1:-2.2 2:2.3 3:4.3 4:0.0 
0.6085532500511981 0:-2.7 1:-3.6 2:-6.0 3:2.3 4:0.0 
1.0 0:10.3 1:-8.1 2:2.3 3:2.4 4:0.0 
1.0 0:-3.5 1:12.3 2:7.5 3:-3.8 4:0.0 
1.0 0:5.1 1:2.9 2:-2.4 3:-3.8 4:0.0 
0.27979963458467044 0:-2.5 1:0.1 2:-1.2 3:3.4 4:0.0 
1.0 0:0.4 1:0.8 2:-1.4 3:0.5 4:0.0 
0.6246049978770467 0:6.5 1:-3.7 2:-1.0 3:-2.5 4:0.0 
1.0 0:1.6 1:-3.0 2:1.6 3:-2.1 4:0.0 
1.0 0:0.7 1:-4.6 2:4.3 3:-4.9 4:0.0 
1.0 0:-0.3 1:-2.5 2:-0.9 3:2.3 4:0.0 
1.0 0:-2.9 1:-8.4 2:-1.2 3:1.6 4:0.0 
0.9947998527125781 0:-0.2 1:-3.3 2:4.3 3:2.7 4:0.0 
1.0 0:-3.6 1:2.9 2:-4.2 3:2.3 4:0.0 
1.0 0:0.3 1:-0.5 2:0.2 3:-1.4 4:0.0 
1.0 0:8.5 1:-2.6 2:-7.0 3:0.1 4:0.0 
1.0 0:-0.2 1:0.6 2:-0.7 3:0.1 4:0.0 
1.0 0:-8.5 1:5.7 2:-4.6 3:2.7 4:0.0 
0.7853679512670607 0:0.1 1:-2.0 2:0.0 3:1.9 4:0.0 
1.0 0:1.2 1:-1.5 2:3.3 3:0.2 4:0.0 
1.0 0:3.4 1:2.8 2:2.1 3:-1.3 4:0.0 
1.0 0:3.3 1:1.2 2:2.3 3:-1.2 4:0.0 
1.0 0:3.1 1:3.9 2:0.9 3:4.3 4:0.0 
1.0 0:-0.5 1:-1.2 2:-1.8 3:2.5 4:0.0 
1.0 0:-0.5 1:-1.4 2:0.9 3:1.3 4:0.0 
1.0 0:0.4 1:-2.1 2:0.7 3:0.8 4:0.0 
1.0 0:1.9 1:0.0 2:-0.1 3:0.7 4:0.0 
1.0 0:-4.5 1:-2.4 2:-2.8 3:-1.9 4:0.0 
1.0 0:-0.7 1:-1.7 2:-1.0 3:0.7 4:0.0 
1.0 0:2.9 1:-1.2 2:0.2 3:-1.4 4:0.0 
0.8102465867136442 0:3.3 1:-1.2 2:-2.5 3:0.5 4:0.0 
1.0 0:-3.7 1:0.6 2:1.9 3:-1.2 4:0.0 
1.0 0:-1.9 1:0.2 2:-1.5 3:13.5 4:0.0 
1.0 0:2.5 1:-0.8 2:1.1 3:0.4 4:0.0 
0.26103961796552616 0:-2.5 1:4.3 2:-4.7 3:3.2 4:0.0 
1.0 0:6.9 1:-0.6 2:-0.4 3:-6.4 4:0.0 
1.0 0:-1.4 1:3.7 2:-2.9 3:-1.1 4:0.0 
0.47538250232574525 0:1.9 1:2.3 2:-3.7 3:-1.4 4:0.0 
1.0 0:10.2 1:-10.6 2:2.2 3:-2.0 4:0.0 
1.0 0:-1.3 1:0.1 2:3.4 3:1.0 4:0.0 
1.0 0:-1.1 1:9.4 2:-4.9 3:-1.6 4:0.0 
1.0 0:-3.1 1:-0.4 2:3.5 3:-4.8 4:0.0 
1.0 0:0.0 1:-2.2 2:-0.7 3:0.5 4:0.0 
1.0 0:-0.2 1:-1.9 2:1.8 3:1.1 4:0.0 
1.0 0:2.7 1:0.7 2:1.8 3:-0.4 4:0.0 
1.0 0:-1.8 1:1.0 2:-0.8 3:0.6 4:0.0 
1.0 0:1.9 1:-1.5 2:0.9 3:-0.7 4:0.0 
1.0 0:-2.8 1:2.9 2:-2.9 3:4.2 4:0.0 
1.0 0:-2.7 1:0.4 2:0.4 3:1.4 4:0.0 
1.0 0:-1.2 1:-0.4 2:-1.1 3:0.9 4:0.0 
1.0 0:2.5 1:-8.0 2:6.2 3:-1.7 4:0.0 
1.0 0:-2.2 1:2.1 2:-0.7 3:0.0 4:0.0 
1.0 0:6.5 1:3.8 2:3.7 3:-0.1 4:0.0 
1.0 0:0.4 1:-0.1 2:-1.8 3:0.6 4:0.0 
1.0 0:-6.7 1:3.5 2:-0.3 3:11.7 4:0.0 
1.0 0:-3.6 1:6.2 2:-3.8 3:4.3 4:0.0 
1.0 0:5.3 1:1.1 2:0.7 3:-1.9 4:0.0 
0.8593383199935699 0:-4.5 1:8.3 2:3.0 3:-1.2 4:0.0 
1.0 0:1.3 1:0.6 2:1.2 3:0.4 4:0.0 
1.0 0:-2.9 1:-2.3 2:4.3 3:2.4 4:0.0 
1.0 0:1.0 1:2.9 2:-0.5 3:6.2 4:0.0 
1.0 0:-3.3 1:4.7 2:-5.2 3:-0.2 4:0.0 
1.0 0:8.4 1:0.3 2:-2.7 3:-0.2 4:0.0 
1.0 0:2.1 1:-1.7 2:-2.8 3:1.6 4:0.0 
1.0 0:3.5 1:-1.7 2:-1.8 3:0.9 4:0.0 
1.0 0:-0.6 1:-3.0 2:-0.1 3:-1.0 4:0.0 
1.0 0:-0.9 1:0.2 2:0.4 3:0.4 4:0.0 
1.0 0:0.0 1:3.2 2:0.2 3:1.1 4:0.0 
1.0 0:0.3 1:-1.5 2:-0.9 3:2.9 4:0.0 
1.0 0:-0.5 1:-1.0 2:-1.8 3:0.3 4:0.0 
1.0 0:0.0 1:1.6 2:-2.8 3:2.8 4:0.0 
0.2982472119023457 0:-1.2 1:3.5 2:-0.4 3:0.5 4:0.0 
1.0 0:4.2 1:-2.0 2:6.2 3:5.5 4:0.0 
1.0 0:6.4 1:-4.5 2:-1.5 3:-2.2 4:0.0 
1.0 0:1.6 1:-1.9 2:-0.4 3:0.9 4:0.0 
0.7999848880544347 0:3.9 1:-2.1 2:-4.8 3:-4.5 4:0.0 
1.0 0:3.4 1:-6.8 2:0.4 3:-8.7 4:0.0 
1.0 0:-0.9 1:-1.2 2:2.6 3:-0.7 4:0.0 
0.8594504023911647 0:-1.7 1:6.8 2:-8.5 3:-2.8 4:0.0 
1.0 0:5.0 1:1.8 2:4.7 3:-1.4 4:0.0 
1.0 0:-1.1 1:0.9 2:0.6 3:-4.8 4:0.0 
1.0 0:-2.6 1:5.0 2:-6.6 3:2.6 4:0.0 
1.0 0:0.7 1:0.0 2:0.9 3:-2.1 4:0.0 
1.0 0:2.5 1:-0.2 2:0.9 3:-3.8 4:0.0 
0.5186833989721796 0:-0.5 1:-1.8 2:1.9 3:4.9 4:0.0 
0.19049683167209924 0:-0.1 1:1.1 2:0.8 3:-8.2 4:0.0 
1.0 0:4.5 1:-3.5 2:-0.8 3:-5.4 4:0.0 
0.766242304671815 0:-3.6 1:-0.7 2:4.6 3:-2.2 4:0.0 
1.0 0:0.1 1:2.7 2:-5.2 3:-0.8 4:0.0 
1.0 0:-1.1 1:0.7 2:0.7 3:-0.2 4:0.0 
0.7901935992407255 0:-0.6 1:-6.4 2:5.5 3:8.0 4:0.0 
0.902332978563206 0:-0.4 1:-0.6 2:0.7 3:3.1 4:0.0 
1.0 0:3.8 1:13.7 2:-5.7 3:6.4 4:0.0 
1.0 0:4.8 1:-4.6 2:-3.3 3:-4.8 4:0.0 
1.0 0:-8.4 1:-5.0 2:-1.4 3:4.2 4:0.0 
0.28315203501657804 0:1.4 1:-3.4 2:1.2 3:2.5 4:0.0 
0.688074620984163 0:-3.2 1:3.9 2:-0.3 3:5.7 4:0.0 
1.0 0:0.0 1:-7.9 2:4.0 3:3.0 4:0.0 
0.15413925495673847 0:0.7 1:1.5 2:0.7 3:2.2 4:0.0 
1.0 0:-1.4 1:0.8 2:-1.1 3:1.1 4:0.0 
1.0 0:2.9 1:-0.1 2:3.2 3:1.1 4:0.0 
1.0 0:0.8 1:1.6 2:1.2 3:-0.2 4:0.0 
1.0 0:-0.3 1:0.7 2:0.8 3:-0.2 4:0.0 
0.3770421004399535 0:-1.1 1:-1.1 2:-1.7 3:0.6 4:0.0 
1.0 0:1.0 1:1.2 2:0.2 3:0.6 4:0.0 
1.0 0:-0.7 1:-2.7 2:1.9 3:2.3 4:0.0 
1.0 0:3.0 1:-0.9 2:0.6 3:2.4 4:0.0 
1.0 0:1.0 1:-0.2 2:0.1 3:1.0 4:0.0 
0.4985152545162976 0:-4.2 1:6.1 2:1.2 3:3.4 4:0.0 
0.7279663541126878 0:-1.2 1:4.6 2:-1.0 3:-0.6 4:0.0 
1.0 0:9.2 1:-12.4 2:4.9 3:-0.2 4:0.0 
0.9629372592975866 0:-4.3 1:-5.5 2:2.9 3:4.1 4:0.0 
1.0 0:1.1 1:-0.9 2:0.1 3:-7.2 4:0.0 
1.0 0:-5.0 1:1.0 2:-0.1 3:0.3 4:0.0 
1.0 0:4.1 1:-5.2 2:3.5 3:-0.9 4:0.0 
1.0 0:3.6 1:-3.1 2:5.2 3:1.4 4:0.0 
1.0 0:-0.1 1:-2.1 2:-0.2 3:-0.2 4:0.0 
1.0 0:-7.5 1:1.4 2:-1.9 3:2.5 4:0.0 
1.0 0:-1.9 1:-1.7 2:-0.1 3:-1.3 4:0.0 
1.0 0:0.4 1:1.7 2:0.0 3:1.6 4:0.0 
1.0 0:1.4 1:0.5 2:-1.3 3:0.1 4:0.0 
1.0 0:0.5 1:-0.2 2:-0.2 3:-1.0 4:0.0 
1.0 0:-1.5 1:-1.1 2:-1.2 3:1.5 4:0.0 
0.9527190730432024 0:-1.6 1:-0.3 2:-2.9 3:1.5 4:0.0 
1.0 0:-0.5 1:1.6 2:-1.1 3:0.6 4:0.0 
1.0 0:0.1 1:2.2 2:3.0 3:-0.9 4:0.0 
1.0 0:0.0 1:-0.2 2:-3.8 3:0.3 4:0.0 
1.0 0:-0.9 1:-1.3 2:-1.0 3:-0.8 4:0.0 
0.25541636973413917 0:3.0 1:7.2 2:-2.7 3:4.7 4:0.0 
1.0 0:-0.2 1:-0.2 2:3.4 3:-0.9 4:0.0 
1.0 0:-2.9 1:1.3 2:-3.7 3:2.6 4:0.0 
1.0 0:1.1 1:-2.7 2:-1.1 3:-0.6 4:0.0 
1.0 0:-7.7 1:3.6 2:-3.3 3:3.8 4:0.0 
1.0 0:-0.8 1:2.2 2:0.7 3:0.5 4:0.0 
1.0 0:-0.4 1:-3.5 2:1.8 3:-2.6 4:0.0 
1.0 0:9.3 1:-8.5 2:-0.9 3:-2.9 4:0.0 
0.8017928311593332 0:3.5 1:2.0 2:1.8 3:-7.3 4:0.0 
1.0 0:-0.2 1:2.0 2:-0.6 3:-0.8 4:0.0 
1.0 0:-2.2 1:-10.9 2:10.5 3:-10.3 4:0.0 
0.36589116498703794 0:0.4 1:-2.1 2:4.3 3:-1.6 4:0.0 
1.0 0:-0.2 1:-0.4 2:1.3 3:-1.6 4:0.0 
1.0 0:0.7 1:-0.4 2:-1.2 3:-2.1 4:0.0 
1.0 0:2.0 1:0.9 2:-1.3 3:2.3 4:0.0 
1.0 0:0.6 1:-1.7 2:1.8 3:-1.5 4:0.0 
0.7167034003811081 0:-2.3 1:-3.7 2:0.9 3:5.1 4:0.0 
0.1495057925517204 0:0.6 1:0.8 2:1.6 3:0.4 4:0.0 
1.0 0:3.0 1:9.1 2:-0.2 3:0.8 4:0.0 
1.0 0:5.5 1:2.2 2:-2.0 3:-0.2 4:0.0 
1.0 0:-9.3 1:-10.4 2:-0.6 3:-12.3 4:0.0 
1.0 0:-8.1 1:2.5 2:-0.3 3:1.1 4:0.0 
1.0 0:-3.1 1:3.3 2:-2.0 3:1.5 4:0.0 
0.9678253957733363 0:1.4 1:4.6 2:7.2 3:6.1 4:0.0 
0.8555073441223923 0:4.0 1:2.5 2:-0.8 3:-2.8 4:0.0 
1.0 0:-2.8 1:-0.6 2:-1.3 3:0.2 4:0.0 
0.7185819589685245 0:4.5 1:-9.1 2:1.6 3:4.4 4:0.0 
0.7123439053865499 0:-3.6 1:-0.9 2:7.6 3:0.4 4:0.0 
1.0 0:1.6 1:-1.4 2:1.1 3:2.2 4:0.0 
1.0 0:-5.0 1:-0.5 2:-1.8 3:1.9 4:0.0 
1.0 0:-1.3 1:-0.7 2:1.8 3:-0.7 4:0.0 
1.0 0:-0.4 1:0.5 2:0.7 3:0.5 4:0.0 
0.6379457082782979 0:-8.4 1:6.5 2:3.2 3:2.8 4:0.0 
1.0 0:3.7 1:-0.9 2:-3.6 3:-2.4 4:0.0 
1.0 0:1.0 1:0.5 2:-0.6 3:-0.4 4:0.0 
1.0 0:-3.1 1:-0.3 2:-4.1 3:3.1 4:0.0 
1.0 0:-0.9 1:-1.9 2:-1.6 3:0.4 4:0.0 
1.0 0:2.0 1:3.8 2:-0.3 3:-0.8 4:0.0 
0.6471492918252175 0:0.7 1:-0.7 2:1.3 3:1.3 4:0.0 
1.0 0:-2.2 1:-0.7 2:-2.2 3:0.9 4:0.0 
1.0 0:8.2 1:-5.3 2:-1.0 3:2.5 4:0.0 
1.0 0:-2.0 1:2.2 2:0.3 3:0.9 4:0.0 
0.4697706077814901 0:4.7 1:7.0 2:-5.8 3:-5.0 4:0.0 
1.0 0:1.7 1:-2.9 2:-4.4 3:2.7 4:0.0 
1.0 0:-8.9 1:-0.4 2:-0.4 3:7.4 4:0.0 
1.0 0:-1.5 1:2.3 2:-2.4 3:-2.7 4:0.0 
1.0 0:2.7 1:-0.9 2:4.6 3:1.3 4:0.0 
1.0 0:4.2 1:0.4 2:-5.6 3:-10.1 4:0.0 
1.0 0:1.7 1:-0.2 2:2.3 3:-2.0 4:0.0 
0.8984750453363638 0:-1.7 1:-5.5 2:7.8 3:-0.6 4:0.0 
0.9931825232583695 0:-4.8 1:6.2 2:3.8 3:3.8 4:0.0 
1.0 0:-2.9 1:1.9 2:-1.1 3:-0.3 4:0.0 
1.0 0:4.0 1:-0.5 2:-1.2 3:-1.2 4:0.0 
0.3041875198619398 0:3.5 1:-1.0 2:-0.2 3:-3.0 4:0.0 
1.0 0:2.3 1:-0.3 2:2.3 3:0.3 4:0.0 
1.0 0:-0.1 1:0.8 2:-0.8 3:1.1 4:0.0 
1.0 0:2.0 1:-0.7 2:-0.4 3:-2.9 4:0.0 
1.0 0:-0.3 1:5.2 2:-13.1 3:-3.3 4:0.0 
1.0 0:-0.2 1:2.5 2:0.8 3:-4.4 4:0.0 
0.8620082794972685 0:-7.3 1:-8.9 2:0.8 3:-4.4 4:0.0 
1.0 0:-6.4 1:4.4 2:0.7 3:4.2 4:0.0 
1.0 0:8.6 1:-2.1 2:1.8 3:3.7 4:0.0 
1.0 0:6.8 1:-0.9 2:0.3 3:0.6 4:0.0 
1.0 0:-2.2 1:-2.0 2:-2.7 3:2.8 4:0.0 
1.0 0:4.1 1:-2.8 2:6.6 3:-4.5 4:0.0 
1.0 0:4.0 1:-2.7 2:10.4 3:-2.1 4:0.0 
0.5426703219728066 0:-2.1 1:-4.8 2:0.0 3:4.6 4:0.0 
0.729604629471147 0:0.9 1:-6.5 2:-1.0 3:0.9 4:0.0 
1.0 0:-2.3 1:-2.4 2:2.2 3:1.1 4:0.0 
1.0 0:-2.4 1:3.4 2:-1.9 3:6.1 4:0.0 
1.0 0:3.2 1:0.1 2:-1.4 3:-0.5 4:0.0 
1.0 0:2.0 1:0.0 2:-0.2 3:-0.4 4:0.0 
1.0 0:-2.5 1:0.3 2:-3.9 3:5.4 4:0.0 
1.0 0:-2.9 1:-2.5 2:-2.6 3:3.0 4:0.0 
1.0 0:1.4 1:-0.2 2:-0.2 3:-1.4 4:0.0 
1.0 0:0.7 1:6.9 2:3.3 3:-3.3 4:0.0 
1.0 0:2.3 1:1.1 2:-2.2 3:-0.4 4:0.0 
1.0 0:1.3 1:-0.8 2:1.7 3:-1.7 4:0.0 
1.0 0:1.2 1:-5.4 2:2.4 3:-8.6 4:0.0 
1.0 0:0.0 1:1.1 2:2.0 3:2.0 4:0.0 
1.0 0:2.2 1:-1.1 2:-0.9 3:0.5 4:0.0 
1.0 0:5.4 1:-1.2 2:-7.4 3:-3.8 4:0.0 
1.0 0:-0.7 1:3.8 2:1.5 3:2.9 4:0.0 
1.0 0:0.3 1:-2.9 2:5.1 3:-2.4 4:0.0 
1.0 0:-3.6 1:1.9 2:-1.4 3:-0.3 4:0.0 
1.0 0:-0.9 1:-0.5 2:2.9 3:0.8 4:0.0 
1.0 0:6.7 1:0.3 2:-3.5 3:4.7 4:0.0 
1.0 0:-1.4 1:-0.5 2:-2.5 3:3.3 4:0.0 
0.18846084943052502 0:-0.6 1:2.7 2:-1.2 3:1.5 4:0.0 
1.0 0:1.3 1:2.9 2:-3.4 3:1.4 4:0.0 
1.0 0:-9.7 1:7.2 2:-0.9 3:2.1 4:0.0 
1.0 0:-1.7 1:-4.3 2:0.3 3:0.7 4:0.0 
1.0 0:-0.1 1:-6.0 2:2.3 3:-3.6 4:0.0 
1.0 0:-2.1 1:3.7 2:-1.4 3:-0.2 4:0.0 
1.0 0:-1.3 1:1.2 2:1.4 3:0.7 4:0.0 
1.0 0:-0.2 1:4.7 2:1.3 3:5.1 4:0.0 
1.0 0:1.1 1:-2.5 2:-1.4 3:0.7 4:0.0 
0.48815356336749477 0:1.7 1:-1.2 2:-0.8 3:-1.3 4:0.0 
1.0 0:-1.6 1:-10.6 2:1.1 3:4.3 4:0.0 
1.0 0:-3.5 1:0.8 2:-0.4 3:2.9 4:0.0 
0.5858537535596677 0:4.6 1:0.5 2:1.4 3:-5.1 4:0.0 
1.0 0:-0.5 1:6.2 2:-2.9 3:0.2 4:0.0 
0.25655461803988466 0:-4.4 1:2.8 2:-0.1 3:1.1 4:0.0 
0.8918568449521997 0:-2.4 1:-9.6 2:1.1 3:-4.5 4:0.0 
1.0 0:-5.8 1:-3.8 2:5.2 3:-1.4 4:0.0 
1.0 0:-1.8 1:0.2 2:-0.6 3:0.3 4:0.0 
0.7846701883387718 0:-4.2 1:-3.2 2:4.6 3:3.1 4:0.0 
1.0 0:5.5 1:1.1 2:0.3 3:-3.7 4:0.0 
1.0 0:-6.7 1:2.8 2:-4.1 3:-0.2 4:0.0 
1.0 0:0.3 1:-2.1 2:0.0 3:-1.2 4:0.0 
1.0 0:0.6 1:-0.8 2:2.1 3:-2.3 4:0.0 
0.9824177092781277 0:-3.5 1:6.4 2:-6.8 3:-4.3 4:0.0 
1.0 0:2.4 1:0.8 2:6.8 3:-4.2 4:0.0 
1.0 0:-1.2 1:0.1 2:2.3 3:-2.5 4:0.0 
1.0 0:-9.7 1:7.8 2:-2.9 3:-1.1 4:0.0 
1.0 0:-0.3 1:0.5 2:-1.0 3:-4.4 4:0.0 
1.0 0:-1.8 1:0.4 2:-0.7 3:-0.4 4:0.0 
1.0 0:-0.7 1:2.5 2:-3.0 3:0.1 4:0.0 
1.0 0:5.8 1:-2.2 2:-0.2 3:-3.7 4:0.0 
1.0 0:-2.1 1:-2.1 2:2.5 3:-4.9 4:0.0 
0.2598845247219284 0:-2.7 1:3.1 2:-0.3 3:6.8 4:0.0 
1.0 0:2.5 1:-1.6 2:-3.4 3:-4.0 4:0.0 
1.0 0:6.4 1:-2.0 2:0.8 3:-3.3 4:0.0 
0.3269036004880061 0:-6.5 1:5.8 2:4.0 3:1.9 4:0.0 
1.0 0:6.4 1:9.0 2:-6.5 3:-1.8 4:0.0 
0.5158333181765958 0:4.0 1:-2.8 2:-4.6 3:8.6 4:0.0 
1.0 0:1.9 1:0.3 2:-1.8 3:-0.7 4:0.0 
1.0 0:-0.8 1:1.4 2:-1.9 3:-2.0 4:0.0 
1.0 0:-5.8 1:8.0 2:-3.8 3:-2.2 4:0.0 
1.0 0:1.1 1:-7.5 2:8.4 3:-6.5 4:0.0 
1.0 0:0.1 1:2.5 2:-1.5 3:-0.6 4:0.0 
0.744053436711025 0:3.1 1:-2.0 2:3.9 3:-1.0 4:0.0 
1.0 0:-2.0 1:6.0 2:-1.4 3:3.4 4:0.0 
1.0 0:-2.1 1:-0.7 2:0.0 3:-1.8 4:0.0 
1.0 0:3.1 1:-0.9 2:0.1 3:0.2 4:0.0 
1.0 0:1.6 1:-0.8 2:-0.5 3:0.6 4:0.0 
1.0 0:-0.6 1:0.6 2:-1.0 3:0.4 4:0.0 
1.0 0:-1.4 1:3.8 2:1.0 3:5.9 4:0.0 
1.0 0:-11.6 1:7.3 2:-5.5 3:-3.1 4:0.0 
0.49036370999220247 0:-7.9 1:6.6 2:-2.3 3:-1.2 4:0.0 
1.0 0:5.5 1:-2.4 2:0.6 3:-6.9 4:0.0 
1.0 0:-4.9 1:-1.0 2:2.1 3:2.4 4:0.0 
0.11834098211665119 0:-2.0 1:-0.5 2:-0.2 3:3.2 4:0.0 
0.8873448728909099 0:2.9 1:-5.4 2:0.8 3:9.6 4:0.0 
1.0 0:0.1 1:3.8 2:-1.7 3:4.9 4:0.0 
1.0 0:2.1 1:1.8 2:-1.8 3:3.5 4:0.0 
1.0 0:2.8 1:-1.4 2:0.7 3:0.7 4:0.0 
1.0 0:0.4 1:1.1 2:1.1 3:-1.5 4:0.0 
0.7889654423107125 0:-2.0 1:-4.2 2:-7.7 3:-1.5 4:0.0 
1.0 0:1.4 1:0.2 2:-0.3 3:-0.4 4:0.0 
1.0 0:-7.0 1:8.8 2:-7.0 3:6.3 4:0.0 
1.0 0:-0.5 1:5.2 2:-0.4 3:-0.1 4:0.0 
1.0 0:1.6 1:0.8 2:0.0 3:1.1 4:0.0 
1.0 0:-0.6 1:2.1 2:-4.8 3:4.2 4:0.0 
0.12341876378836221 0:1.3 1:-3.3 2:4.8 3:-0.2 4:0.0 
0.0019829540172135595 0:-4.9 1:6.5 2:2.4 3:1.0 4:0.0 
0.08569302698529724 0:-2.7 1:1.7 2:0.6 3:2.9 4:0.0 
0.5820593235286217 0:2.6 1:0.2 2:-2.5 3:-3.7 4:0.0 
1.0 0:11.1 1:-14.3 2:0.0 3:0.9 4:0.0 
1.0 0:-1.8 1:-3.6 2:-0.8 3:2.0 4:0.0 
1.0 0:3.2 1:3.3 2:-2.3 3:0.2 4:0.0 
0.23134507281007527 0:2.8 1:4.1 2:0.8 3:-4.7 4:0.0 
1.0 0:-1.1 1:-2.0 2:-0.1 3:3.6 4:0.0 
1.0 0:-1.1 1:0.4 2:3.8 3:-1.5 4:0.0 
1.0 0:-2.5 1:-1.4 2:-1.0 3:-2.3 4:0.0 
1.0 0:-0.3 1:-2.8 2:0.8 3:-2.5 4:0.0 
0.7172353218026715 0:-3.1 1:7.0 2:-4.7 3:-2.3 4:0.0 
1.0 0:2.5 1:-2.4 2:0.3 3:0.2 4:0.0 
1.0 0:4.6 1:1.0 2:-2.8 3:0.8 4:0.0 
1.0 0:1.0 1:-1.2 2:1.5 3:1.1 4:0.0 
1.0 0:-2.0 1:1.2 2:-0.4 3:-0.2 4:0.0 
1.0 0:2.1 1:-4.0 2:2.3 3:3.8 4:0.0 
1.0 0:0.3 1:0.5 2:1.6 3:-0.6 4:0.0 
1.0 0:-0.2 1:1.7 2:-0.6 3:-1.1 4:0.0 
0.519327899186935 0:0.2 1:9.7 2:-0.6 3:-4.1 4:0.0 
0.24833722455841156 0:-0.6 1:1.4 2:-0.9 3:0.8 4:0.0 
1.0 0:4.1 1:-0.1 2:-5.4 3:8.3 4:0.0 
1.0 0:11.1 1:-5.1 2:-1.0 3:-1.5 4:0.0 
1.0 0:3.1 1:5.7 2:5.0 3:-4.5 4:0.0 
0.8508669732790206 0:6.5 1:8.2 2:-5.7 3:-6.1 4:0.0 
1.0 0:-3.3 1:-0.2 2:0.2 3:4.2 4:0.0 
0.6593658456929886 0:-0.9 1:-7.8 2:-0.5 3:-6.8 4:0.0 
1.0 0:-4.9 1:-6.3 2:8.0 3:-1.1 4:0.0 
0.8584651406593056 0:1.3 1:4.6 2:-3.0 3:2.0 4:0.0 
0.3832091623423833 0:-4.4 1:4.5 2:-0.7 3:5.0 4:0.0 
1.0 0:2.7 1:-2.6 2:-0.6 3:0.6 4:0.0 
1.0 0:-3.0 1:1.4 2:1.3 3:1.6 4:0.0 
0.8759122754869155 0:-2.0 1:-6.5 2:-9.5 3:-1.2 4:0.0 
1.0 0:5.4 1:2.6 2:1.3 3:-0.7 4:0.0 
1.0 0:1.6 1:1.6 2:0.8 3:0.0 4:0.0 
1.0 0:-4.8 1:3.3 2:-8.5 3:5.0 4:0.0 
0.41701709872844595 0:-1.0 1:2.6 2:2.1 3:1.5 4:0.0 
1.0 0:0.6 1:4.5 2:-2.4 3:1.4 4:0.0 
1.0 0:-2.5 1:1.1 2:2.1 3:-1.3 4:0.0 
1.0 0:-3.4 1:9.2 2:-1.2 3:2.2 4:0.0 
1.0 0:-2.6 1:5.2 2:-0.7 3:1.8 4:0.0 
1.0 0:-2.3 1:1.4 2:2.7 3:-2.0 4:0.0 
0.9162519318547719 0:6.3 1:-2.1 2:5.2 3:-2.1 4:0.0 
0.9378275903155144 0:-2.8 1:2.0 2:-3.3 3:1.2 4:0.0 
0.3158999357369569 0:-0.6 1:3.5 2:-3.6 3:-2.8 4:0.0 
0.7754705921100552 0:-1.6 1:8.4 2:2.1 3:-0.8 4:0.0 
0.3448066001384011 0:-2.6 1:4.8 2:-0.1 3:-1.8 4:0.0 
0.3036209903026871 0:3.3 1:-1.5 2:-2.8 3:-0.1 4:0.0 
1.0 0:-0.7 1:0.6 2:-3.4 3:2.9 4:0.0 
0.7679428087970122 0:0.0 1:2.3 2:-1.7 3:2.8 4:0.0 
0.6650125302984327 0:-5.6 1:-7.3 2:5.4 3:5.7 4:0.0 
1.0 0:-1.5 1:0.7 2:-9.8 3:-0.6 4:0.0 
1.0 0:3.2 1:2.3 2:-1.2 3:3.7 4:0.0 
0.20492870319715134 0:2.6 1:4.7 2:0.2 3:-6.8 4:0.0 
0.7815780729787436 0:-0.6 1:1.8 2:-3.5 3:1.1 4:0.0 
1.0 0:-1.8 1:0.4 2:-0.9 3:-1.7 4:0.0 
1.0 0:-4.2 1:2.4 2:0.2 3:-5.5 4:0.0 
1.0 0:2.7 1:1.9 2:1.3 3:-5.4 4:0.0 
1.0 0:-2.0 1:4.0 2:0.3 3:9.1 4:0.0 
0.5360451765101664 0:0.2 1:0.2 2:-3.2 3:-2.1 4:0.0 
0.7294463174455913 0:-1.8 1:-6.9 2:-2.7 3:-6.2 4:0.0 
1.0 0:-8.8 1:-3.4 2:-3.1 3:0.4 4:0.0 
1.0 0:5.0 1:2.2 2:3.9 3:-4.0 4:0.0 
1.0 0:-0.2 1:14.4 2:-11.5 3:-5.0 4:0.0 
1.0 0:-1.7 1:0.4 2:-0.1 3:3.4 4:0.0 
1.0 0:-10.3 1:-6.6 2:2.3 3:-3.1 4:0.0 
0.9807635931398888 0:-2.2 1:-5.0 2:-1.0 3:6.6 4:0.0 
1.0 0:-3.4 1:-2.2 2:-3.8 3:3.1 4:0.0 
1.0 0:4.4 1:0.3 2:2.1 3:-2.4 4:0.0 
1.0 0:1.4 1:-2.3 2:-1.8 3:-1.0 4:0.0 
1.0 0:-9.3 1:3.7 2:0.5 3:3.8 4:0.0 
1.0 0:4.4 1:-1.1 2:1.1 3:-0.6 4:0.0 
0.7774555739084237 0:3.4 1:3.1 2:1.6 3:-1.5 4:0.0 
0.5026370965394968 0:4.6 1:3.7 2:-2.5 3:-0.2 4:0.0 
1.0 0:3.6 1:-1.2 2:1.3 3:2.5 4:0.0 
1.0 0:-1.8 1:0.0 2:-0.2 3:0.3 4:0.0 
0.04776168383900595 0:-2.0 1:8.1 2:-5.3 3:-2.0 4:0.0 
1.0 0:-1.0 1:1.3 2:4.0 3:-3.6 4:0.0 
0.4922872476872849 0:3.8 1:-1.3 2:-1.6 3:-0.1 4:0.0 
0.47844458768927084 0:-4.1 1:-0.3 2:3.9 3:8.9 4:0.0 
1.0 0:0.2 1:-2.2 2:0.0 3:-1.4 4:0.0 
1.0 0:5.5 1:0.0 2:4.0 3:-1.1 4:0.0 
1.0 0:-1.7 1:-0.7 2:0.9 3:0.0 4:0.0 
1.0 0:1.3 1:-10.1 2:3.3 3:-0.2 4:0.0 
1.0 0:5.2 1:2.5 2:-0.3 3:2.8 4:0.0 
1.0 0:-4.0 1:0.5 2:0.3 3:1.9 4:0.0 
0.7230217776255208 0:5.8 1:6.1 2:-7.1 3:-5.0 4:0.0 
0.7441627420488303 0:-1.4 1:3.7 2:1.2 3:-2.4 4:0.0 
1.0 0:0.5 1:0.3 2:1.4 3:-1.0 4:0.0 
0.18440900333350704 0:-2.9 1:1.7 2:4.4 3:1.5 4:0.0 
1.0 0:6.9 1:-2.0 2:-4.0 3:2.5 4:0.0 
1.0 0:2.3 1:-0.5 2:4.2 3:-0.4 4:0.0 
1.0 0:-0.7 1:-0.9 2:0.6 3:1.4 4:0.0 
1.0 0:-0.7 1:3.7 2:-0.7 3:1.4 4:0.0 
1.0 0:0.3 1:2.9 2:0.6 3:-1.5 4:0.0 
1.0 0:0.4 1:-3.9 2:1.8 3:-2.6 4:0.0 
1.0 0:0.9 1:1.2 2:0.6 3:1.6 4:0.0 
1.0 0:1.5 1:-0.4 2:-0.1 3:-1.5 4:0.0 
0.6996771869278882 0:-4.5 1:2.0 2:-1.0 3:1.9 4:0.0 
0.6109660250845159 0:0.6 1:-2.7 2:-1.8 3:-3.1 4:0.0 
0.6036535924695857 0:0.2 1:-6.7 2:1.8 3:-5.6 4:0.0 
1.0 0:-2.7 1:0.7 2:-0.8 3:1.7 4:0.0 
0.8958595366841668 0:-3.2 1:7.8 2:1.2 3:5.7 4:0.0 
1.0 0:-10.4 1:8.3 2:-7.4 3:-1.8 4:0.0 
1.0 0:0.7 1:0.6 2:-0.9 3:1.9 4:0.0 
1.0 0:-1.9 1:-3.5 2:0.0 3:-1.9 4:0.0 
1.0 0:-6.2 1:3.3 2:-3.8 3:5.0 4:0.0 
0.8537378629031899 0:4.5 1:0.1 2:-1.9 3:-3.0 4:0.0 
1.0 0:-5.6 1:-5.3 2:2.8 3:1.1 4:0.0 
1.0 0:-3.0 1:-1.8 2:-1.2 3:-2.7 4:0.0 
1.0 0:1.5 1:7.0 2:2.4 3:-0.1 4:0.0 
0.9753854145233035 0:4.7 1:-1.5 2:-1.7 3:-1.9 4:0.0 
1.0 0:-0.6 1:4.8 2:1.0 3:0.0 4:0.0 
0.9831853100882093 0:2.1 1:6.0 2:-7.9 3:-5.7 4:0.0 
1.0 0:3.9 1:-5.1 2:2.3 3:-2.5 4:0.0 
1.0 0:2.9 1:0.3 2:-1.6 3:0.4 4:0.0 
0.7196772361926 0:4.1 1:-1.2 2:-7.6 3:2.9 4:0.0 
0.0828178640362589 0:-0.9 1:-2.9 2:2.4 3:6.6 4:0.0 
1.0 0:1.5 1:0.7 2:-3.7 3:6.4 4:0.0 
1.0 0:-9.8 1:-2.3 2:7.0 3:8.0 4:0.0 
1.0 0:-2.5 1:-3.1 2:-3.6 3:1.4 4:0.0 
1.0 0:0.7 1:-1.6 2:-0.2 3:-1.0 4:0.0 
1.0 0:7.5 1:6.3 2:-2.9 3:6.8 4:0.0 
1.0 0:-4.8 1:2.5 2:-2.1 3:4.2 4:0.0 
1.0 0:6.9 1:-10.0 2:1.8 3:1.5 4:0.0 
1.0 0:2.9 1:-1.9 2:0.8 3:-2.0 4:0.0 
1.0 0:-3.1 1:4.5 2:1.4 3:1.8 4:0.0 
1.0 0:-2.1 1:-2.5 2:-2.0 3:-0.9 4:0.0 
1.0 0:-2.3 1:3.3 2:2.7 3:-1.1 4:0.0 
1.0 0:-0.6 1:4.7 2:4.9 3:2.0 4:0.0 
0.1706468635285345 0:4.4 1:-3.1 2:0.6 3:0.2 4:0.0 
1.0 0:5.0 1:-2.1 2:5.3 3:1.4 4:0.0 
0.9487073609254452 0:2.9 1:-7.9 2:0.9 3:6.0 4:0.0 
1.0 0:3.2 1:-1.8 2:-0.7 3:2.0 4:0.0 
1.0 0:-0.6 1:1.6 2:-0.7 3:-1.0 4:0.0 
1.0 0:-3.7 1:1.0 2:-3.5 3:2.0 4:0.0 
1.0 0:2.0 1:1.9 2:-1.2 3:-0.8 4:0.0 
1.0 0:6.0 1:-3.5 2:-1.2 3:1.3 4:0.0 
0.20198806255982876 0:-1.7 1:3.4 2:-3.6 3:1.9 4:0.0 
1.0 0:-1.8 1:-4.8 2:-1.0 3:-2.1 4:0.0 
1.0 0:2.7 1:-0.4 2:-3.0 3:4.8 4:0.0 
1.0 0:-1.9 1:-4.9 2:1.3 3:1.4 4:0.0 
1.0 0:2.4 1:-1.1 2:-2.9 3:0.1 4:0.0 
0.9736569791405058 0:-2.8 1:-4.1 2:-5.5 3:3.9 4:0.0 
1.0 0:0.6 1:0.9 2:1.1 3:1.2 4:0.0 
1.0 0:6.7 1:2.7 2:-6.5 3:-1.7 4:0.0 
0.6382369401867789 0:-4.8 1:6.3 2:1.7 3:0.7 4:0.0 
1.0 0:0.0 1:-1.2 2:-0.6 3:0.2 4:0.0 
1.0 0:-0.9 1:-2.0 2:0.4 3:-0.3 4:0.0 
1.0 0:-0.3 1:1.5 2:-0.9 3:1.0 4:0.0 
1.0 0:1.4 1:7.6 2:-0.1 3:-2.9 4:0.0 
1.0 0:-2.1 1:0.4 2:-1.3 3:2.1 4:0.0 
0.37957907726390777 0:3.1 1:-0.1 2:-4.0 3:-1.4 4:0.0 
1.0 0:-0.2 1:-0.2 2:-0.4 3:0.2 4:0.0 
1.0 0:0.0 1:-0.8 2:1.3 3:-0.1 4:0.0 
1.0 0:0.6 1:-0.6 2:0.9 3:-2.7 4:0.0 
1.0 0:1.6 1:-3.9 2:-3.1 3:-4.4 4:0.0 
1.0 0:-1.5 1:-0.1 2:-1.5 3:1.9 4:0.0 
1.0 0:1.1 1:-0.2 2:-0.2 3:-2.4 4:0.0 
0.6715333742350486 0:9.3 1:-10.8 2:4.3 3:-2.0 4:0.0 
1.0 0:-1.3 1:2.6 2:2.1 3:-2.8 4:0.0 
1.0 0:1.9 1:-0.3 2:-2.4 3:-0.7 4:0.0 
1.0 0:-11.1 1:0.0 2:-5.2 3:-4.4 4:0.0 
0.5555750303364085 0:3.1 1:3.2 2:3.9 3:-2.3 4:0.0 
0.7776286483857849 0:-0.1 1:0.7 2:-1.2 3:-0.6 4:0.0 
1.0 0:-3.6 1:10.8 2:1.0 3:-2.0 4:0.0 
0.2679802117265426 0:5.9 1:4.4 2:-6.7 3:-1.9 4:0.0 
1.0 0:0.4 1:-2.0 2:1.3 3:-1.1 4:0.0 
1.0 0:2.6 1:-4.6 2:0.3 3:1.0 4:0.0 
1.0 0:-2.6 1:0.2 2:-0.4 3:-1.2 4:0.0 
1.0 0:0.1 1:0.0 2:2.1 3:-1.9 4:0.0 
1.0 0:2.4 1:-4.3 2:0.2 3:-1.6 4:0.0 
1.0 0:1.0 1:-1.9 2:-0.9 3:-0.3 4:0.0 
1.0 0:-6.2 1:-10.3 2:3.6 3:-5.8 4:0.0 
1.0 0:0.8 1:-0.6 2:-1.4 3:3.2 4:0.0 
1.0 0:0.9 1:0.4 2:8.9 3:3.2 4:0.0 
1.0 0:2.0 1:-3.9 2:1.2 3:-1.9 4:0.0 
0.6329970456802464 0:-0.8 1:0.6 2:-3.0 3:0.6 4:0.0 
1.0 0:4.4 1:-11.7 2:-4.3 3:7.9 4:0.0 
1.0 0:-5.4 1:-1.1 2:2.7 3:0.7 4:0.0 
1.0 0:-2.3 1:6.0 2:1.3 3:6.7 4:0.0 
1.0 0:-6.8 1:17.6 2:-1.3 3:-2.4 4:0.0 
0.40099927403983004 0:4.4 1:7.1 2:-0.5 3:-3.1 4:0.0 
1.0 0:-2.2 1:0.0 2:0.0 3:-3.1 4:0.0 
1.0 0:0.1 1:2.0 2:0.2 3:1.2 4:0.0 
1.0 0:1.1 1:-9.0 2:9.1 3:1.9 4:0.0 
1.0 0:3.1 1:-1.7 2:2.2 3:-1.9 4:0.0 
1.0 0:5.6 1:2.6 2:-0.4 3:3.7 4:0.0 
0.9639698577289664 0:1.9 1:7.4 2:-6.5 3:-0.2 4:0.0 
1.0 0:1.1 1:2.8 2:-0.9 3:-0.3 4:0.0 
1.0 0:-0.4 1:-6.2 2:0.8 3:-1.1 4:0.0 
1.0 0:5.5 1:-8.1 2:-0.9 3:-3.5 4:0.0 
1.0 0:1.5 1:0.3 2:-0.2 3:2.3 4:0.0 
1.0 0:3.8 1:-0.4 2:0.9 3:-0.7 4:0.0 
0.48093225263267453 0:-1.9 1:2.6 2:-2.3 3:-7.0 4:0.0 
1.0 0:1.0 1:1.3 2:-0.2 3:-0.8 4:0.0 
1.0 0:2.5 1:-0.2 2:-0.1 3:-1.3 4:0.0 
0.8846759760131877 0:-5.5 1:-0.7 2:3.5 3:5.5 4:0.0 
1.0 0:-2.4 1:1.3 2:-0.8 3:1.2 4:0.0 
1.0 0:-0.3 1:-5.7 2:10.4 3:4.3 4:0.0 
1.0 0:-1.5 1:7.4 2:4.1 3:-5.2 4:0.0 
1.0 0:-0.7 1:4.2 2:-2.4 3:5.1 4:0.0 
1.0 0:-9.1 1:-3.0 2:-8.6 3:-4.2 4:0.0 
1.0 0:3.5 1:-1.5 2:0.3 3:-1.1 4:0.0 
1.0 0:-0.2 1:-0.6 2:0.6 3:1.0 4:0.0 
1.0 0:-6.5 1:4.0 2:-4.1 3:2.5 4:0.0 
0.12309992250666085 0:2.5 1:5.9 2:2.2 3:-2.6 4:0.0 
0.9906579356493399 0:3.8 1:5.2 2:0.9 3:-2.6 4:0.0 
0.9778659900651836 0:-3.6 1:1.7 2:2.9 3:2.7 4:0.0 
1.0 0:1.2 1:2.3 2:0.8 3:0.1 4:0.0 
1.0 0:0.4 1:-0.3 2:-2.5 3:-1.6 4:0.0 
1.0 0:-1.2 1:2.0 2:-0.8 3:-1.5 4:0.0 
1.0 0:1.9 1:-0.7 2:-0.5 3:-5.3 4:0.0 
1.0 0:-10.0 1:-12.4 2:7.3 3:-3.9 4:0.0 
0.11337361196434813 0:2.0 1:1.8 2:-2.3 3:-3.8 4:0.0 
1.0 0:-1.9 1:2.5 2:-1.4 3:0.2 4:0.0 
1.0 0:3.4 1:0.9 2:11.0 3:2.9 4:0.0 
0.7050826806140907 0:-2.3 1:-0.4 2:-3.7 3:5.2 4:0.0 
1.0 0:-1.2 1:-1.6 2:-0.6 3:-2.4 4:0.0 
1.0 0:8.7 1:-6.2 2:-2.2 3:-3.3 4:0.0 
1.0 0:-4.7 1:-1.9 2:1.6 3:2.0 4:0.0 
0.6992807753708032 0:-4.4 1:1.6 2:0.1 3:6.0 4:0.0 
1.0 0:-3.9 1:3.7 2:-9.2 3:-3.7 4:0.0 
1.0 0:1.8 1:9.3 2:-3.0 3:-0.1 4:0.0 
1.0 0:3.0 1:3.3 2:-3.9 3:2.1 4:0.0 
0.47103221643078574 0:-4.6 1:2.6 2:0.5 3:1.5 4:0.0 
1.0 0:1.6 1:-0.7 2:-1.4 3:0.3 4:0.0 
1.0 0:3.9 1:-10.6 2:7.6 3:-0.3 4:0.0 
1.0 0:0.4 1:0.1 2:1.5 3:-0.2 4:0.0 
1.0 0:5.2 1:2.6 2:0.8 3:4.4 4:0.0 
0.7191738542697266 0:1.7 1:7.6 2:-5.2 3:-2.5 4:0.0 
1.0 0:3.2 1:0.2 2:1.3 3:-2.0 4:0.0 
1.0 0:1.1 1:-1.0 2:0.8 3:0.0 4:0.0 
1.0 0:-2.7 1:-8.1 2:0.3 3:-3.5 4:0.0 
1.0 0:-2.3 1:1.2 2:-0.1 3:2.3 4:0.0 
1.0 0:1.4 1:0.7 2:1.5 3:1.2 4:0.0 
1.0 0:-2.2 1:1.2 2:-2.2 3:-5.2 4:0.0 
0.13140189016611648 0:0.8 1:0.3 2:-1.0 3:2.3 4:0.0 
1.0 0:1.6 1:0.3 2:-0.1 3:-1.8 4:0.0 
1.0 0:-1.4 1:-6.8 2:1.5 3:5.7 4:0.0 
1.0 0:4.8 1:2.5 2:6.3 3:6.8 4:0.0 
1.0 0:4.3 1:-0.8 2:-4.8 3:-0.1 4:0.0 
1.0 0:0.3 1:1.7 2:-3.6 3:1.9 4:0.0 
1.0 0:3.4 1:-4.4 2:-9.6 3:-0.1 4:0.0 
1.0 0:3.3 1:-6.0 2:0.8 3:-3.0 4:0.0 
1.0 0:-1.4 1:-0.1 2:0.5 3:1.2 4:0.0 
0.1327103132582879 0:-1.7 1:3.6 2:-4.4 3:-1.0 4:0.0 
1.0 0:3.2 1:6.1 2:2.6 3:2.6 4:0.0 
1.0 0:2.4 1:1.1 2:-1.7 3:0.8 4:0.0 
1.0 0:3.1 1:-2.3 2:-1.1 3:0.9 4:0.0 
1.0 0:2.1 1:-2.4 2:-0.7 3:1.1 4:0.0 
1.0 0:3.9 1:-3.8 2:1.1 3:-1.4 4:0.0 
1.0 0:0.3 1:-0.3 2:-0.6 3:1.2 4:0.0 
1.0 0:4.3 1:1.0 2:1.8 3:2.5 4:0.0 
1.0 0:-3.0 1:-3.3 2:-1.5 3:4.5 4:0.0 
0.9812589876194835 0:-3.9 1:-6.9 2:-7.3 3:-2.2 4:0.0 
1.0 0:7.5 1:-8.2 2:3.5 3:4.4 4:0.0 
1.0 0:1.3 1:-2.3 2:-0.7 3:1.1 4:0.0 
0.9479225166751574 0:-2.7 1:0.3 2:-1.7 3:1.1 4:0.0 
1.0 0:-2.1 1:-2.3 2:-2.6 3:6.7 4:0.0 
0.6670000860404371 0:-2.8 1:-2.0 2:-7.5 3:0.8 4:0.0 
1.0 0:7.2 1:-2.0 2:-4.5 3:7.3 4:0.0 
1.0 0:-0.4 1:-0.4 2:0.0 3:0.5 4:0.0 
1.0 0:-3.2 1:-1.0 2:1.4 3:-2.3 4:0.0 
1.0 0:0.4 1:-1.4 2:1.3 3:-2.3 4:0.0 
1.0 0:-3.2 1:-10.1 2:3.5 3:-2.5 4:0.0 
1.0 0:0.3 1:0.2 2:1.0 3:10.1 4:0.0 
1.0 0:1.6 1:0.6 2:0.1 3:-3.3 4:0.0 
1.0 0:-6.0 1:0.0 2:3.8 3:-2.1 4:0.0 
0.9493339866252016 0:4.2 1:3.3 2:0.1 3:-5.3 4:0.0 
1.0 0:3.5 1:0.2 2:-6.0 3:-1.6 4:0.0 
0.17756200172517153 0:2.9 1:5.7 2:1.9 3:-5.6 4:0.0 
1.0 0:2.9 1:0.2 2:-5.3 3:0.8 4:0.0 
0.8237063763689534 0:-0.7 1:2.1 2:-0.9 3:-7.2 4:0.0 
1.0 0:-1.4 1:-6.0 2:-4.7 3:-0.6 4:0.0 
1.0 0:0.5 1:-0.2 2:-1.4 3:5.3 4:0.0 
1.0 0:3.5 1:2.4 2:-0.1 3:2.1 4:0.0 
1.0 0:-0.9 1:-2.3 2:2.4 3:-3.8 4:0.0 
1.0 0:-3.5 1:1.3 2:-0.5 3:2.1 4:0.0 
1.0 0:5.8 1:-2.1 2:2.5 3:0.2 4:0.0 
1.0 0:-0.8 1:2.2 2:-3.7 3:3.4 4:0.0 
1.0 0:1.9 1:-3.3 2:0.0 3:-3.2 4:0.0 
1.0 0:0.4 1:0.4 2:-3.2 3:0.8 4:0.0 
1.0 0:-3.7 1:-1.1 2:1.2 3:0.5 4:0.0 
0.18362319409569064 0:0.4 1:-6.9 2:-2.2 3:2.2 4:0.0 
1.0 0:9.7 1:-6.2 2:5.8 3:1.9 4:0.0 
0.04375055628561567 0:-0.9 1:3.5 2:1.0 3:-0.6 4:0.0 
1.0 0:-6.2 1:8.2 2:-6.4 3:-0.6 4:0.0 
0.3394005054116712 0:2.6 1:2.4 2:1.0 3:-1.8 4:0.0 
1.0 0:1.2 1:0.6 2:-0.7 3:-1.0 4:0.0 
1.0 0:-5.5 1:6.7 2:-1.8 3:5.4 4:0.0 
1.0 0:4.2 1:1.6 2:0.4 3:-2.7 4:0.0 
1.0 0:0.5 1:0.1 2:0.0 3:-2.3 4:0.0 
0.2845916188977567 0:1.9 1:-1.5 2:0.0 3:-1.6 4:0.0 
0.028393428342546545 0:-3.5 1:5.7 2:-6.2 3:1.7 4:0.0 
0.6033108215563733 0:-5.4 1:4.2 2:-0.1 3:3.7 4:0.0 
1.0 0:3.7 1:-15.6 2:3.2 3:-4.8 4:0.0 
0.6415765960297733 0:4.6 1:-2.7 2:-5.9 3:4.5 4:0.0 
0.18660879133131497 0:0.2 1:1.8 2:-3.7 3:-3.7 4:0.0 
1.0 0:0.7 1:11.2 2:-4.7 3:5.5 4:0.0 
0.2789133215198873 0:-1.1 1:-1.7 2:0.2 3:1.6 4:0.0 
1.0 0:-1.0 1:-0.2 2:3.4 3:-7.2 4:0.0 
1.0 0:5.6 1:-6.6 2:-5.3 3:2.4 4:0.0 
0.490958819269459 0:2.6 1:-5.8 2:0.1 3:1.2 4:0.0 
1.0 0:3.4 1:-0.9 2:1.2 3:1.0 4:0.0 
0.04168978381880359 0:-2.5 1:2.0 2:0.0 3:1.4 4:0.0 
0.1994947563096438 0:-0.3 1:-3.7 2:3.3 3:3.3 4:0.0 
0.7867971317696368 0:5.2 1:-6.1 2:3.9 3:-1.4 4:0.0 
1.0 0:8.6 1:-1.4 2:0.0 3:-0.4 4:0.0 
1.0 0:1.4 1:0.6 2:0.4 3:1.4 4:0.0 
1.0 0:-1.1 1:-2.8 2:-4.6 3:-1.4 4:0.0 
1.0 0:0.7 1:3.0 2:-0.5 3:3.5 4:0.0 
0.9605055711134013 0:-4.2 1:2.6 2:-0.9 3:0.9 4:0.0 
1.0 0:-5.7 1:5.9 2:1.1 3:-1.2 4:0.0 
1.0 0:1.3 1:1.0 2:-2.6 3:0.3 4:0.0 
1.0 0:1.4 1:1.7 2:0.9 3:-1.4 4:0.0 
1.0 0:1.0 1:-1.4 2:-6.3 3:1.2 4:0.0 
1.0 0:2.1 1:-1.2 2:0.3 3:1.3 4:0.0 
1.0 0:4.8 1:-0.6 2:2.8 3:-5.4 4:0.0 
1.0 0:-3.6 1:0.9 2:2.3 3:-7.2 4:0.0 
0.5845016212570187 0:-0.4 1:5.4 2:-2.0 3:-1.0 4:0.0 
1.0 0:7.5 1:-4.5 2:-0.3 3:-4.6 4:0.0 
1.0 0:-6.6 1:-7.3 2:3.4 3:1.7 4:0.0 
1.0 0:2.4 1:1.5 2:-3.0 3:0.8 4:0.0 
1.0 0:0.0 1:-1.7 2:4.7 3:1.1 4:0.0 
0.19141393167994164 0:4.0 1:0.4 2:-3.9 3:-0.5 4:0.0 
1.0 0:-1.2 1:-2.2 2:0.9 3:3.0 4:0.0 
1.0 0:4.4 1:-2.7 2:1.5 3:-3.2 4:0.0 
1.0 0:-0.6 1:-2.4 2:10.5 3:-8.2 4:0.0 
1.0 0:1.4 1:0.2 2:0.2 3:-0.5 4:0.0 
1.0 0:-4.4 1:-1.5 2:-8.3 3:1.1 4:0.0 
1.0 0:1.3 1:1.9 2:1.0 3:2.8 4:0.0 
1.0 0:-2.1 1:-0.1 2:4.7 3:3.3 4:0.0 
1.0 0:2.5 1:-5.3 2:0.9 3:-0.1 4:0.0 
0.9595956007696373 0:3.6 1:-1.1 2:-0.5 3:-0.9 4:0.0 
1.0 0:0.3 1:-2.7 2:1.1 3:0.1 4:0.0 
0.786326182537607 0:-3.6 1:-0.3 2:7.5 3:1.2 4:0.0 
0.36286251246182 0:2.7 1:3.1 2:-3.8 3:-0.4 4:0.0 
1.0 0:-3.2 1:3.2 2:0.1 3:0.7 4:0.0 
1.0 0:0.1 1:-2.6 2:3.0 3:-6.3 4:0.0 
1.0 0:8.3 1:-0.8 2:-3.3 3:2.1 4:0.0 
1.0 0:2.0 1:-4.9 2:-5.6 3:0.9 4:0.0 
1.0 0:4.7 1:3.2 2:-4.8 3:1.9 4:0.0 
1.0 0:-1.5 1:0.8 2:0.2 3:2.0 4:0.0 
1.0 0:-3.9 1:5.2 2:1.9 3:-1.6 4:0.0 
0.6423434936486488 0:1.5 1:-2.8 2:3.3 3:-1.2 4:0.0 
0.7280748224131026 0:-0.4 1:-3.9 2:1.3 3:0.1 4:0.0 
1.0 0:0.1 1:-2.3 2:3.7 3:-0.4 4:0.0 
1.0 0:-2.6 1:3.6 2:-2.0 3:0.4 4:0.0 
1.0 0:-0.7 1:0.9 2:1.3 3:1.8 4:0.0 
1.0 0:-2.0 1:2.1 2:-2.5 3:0.4 4:0.0 
1.0 0:-0.7 1:2.0 2:0.9 3:0.6 4:0.0 
0.9744246145619802 0:-4.1 1:1.3 2:-1.3 3:-5.5 4:0.0 
1.0 0:2.8 1:2.1 2:0.7 3:-0.4 4:0.0 
1.0 0:0.8 1:-2.4 2:-2.2 3:-1.1 4:0.0 
1.0 0:2.1 1:2.6 2:-1.5 3:-1.3 4:0.0 
1.0 0:-2.3 1:-1.2 2:-3.5 3:1.4 4:0.0 
1.0 0:-0.5 1:0.2 2:0.6 3:-0.7 4:0.0 
1.0 0:4.6 1:-2.8 2:3.4 3:3.7 4:0.0 
1.0 0:-1.8 1:-0.8 2:1.9 3:0.4 4:0.0 
0.49406021970691 0:3.8 1:-0.8 2:0.4 3:-4.7 4:0.0 
0.3917421855137822 0:-0.7 1:3.9 2:3.9 3:-2.8 4:0.0 
0.9735725156871703 0:-5.8 1:-10.6 2:2.6 3:-6.7 4:0.0 
1.0 0:-2.6 1:-3.9 2:0.8 3:3.6 4:0.0 
0.6284520801683517 0:1.1 1:0.3 2:2.1 3:-0.9 4:0.0 
1.0 0:-1.4 1:1.9 2:8.4 3:8.2 4:0.0 
1.0 0:5.8 1:-1.8 2:-2.2 3:-4.7 4:0.0 
1.0 0:5.1 1:1.1 2:0.9 3:-0.8 4:0.0 
0.3511482662443722 0:0.5 1:-5.0 2:3.7 3:-3.6 4:0.0 
1.0 0:-3.1 1:3.6 2:-0.2 3:-1.4 4:0.0 
1.0 0:-5.7 1:-2.2 2:0.7 3:-1.1 4:0.0 
1.0 0:-0.9 1:2.9 2:0.5 3:-1.6 4:0.0 
1.0 0:2.3 1:-0.5 2:-3.2 3:1.9 4:0.0 
1.0 0:-2.3 1:0.7 2:-1.5 3:-1.7 4:0.0 
1.0 0:3.3 1:1.2 2:-1.3 3:-3.5 4:0.0 
1.0 0:-0.1 1:0.3 2:0.0 3:4.4 4:0.0 
1.0 0:-6.3 1:-6.3 2:4.8 3:-0.4 4:0.0 
0.9739026139920584 0:0.3 1:3.6 2:-3.1 3:-7.9 4:0.0 
1.0 0:1.8 1:0.4 2:-2.0 3:-2.9 4:0.0 
1.0 0:-1.8 1:3.2 2:-3.0 3:-2.6 4:0.0 
1.0 0:2.8 1:-0.2 2:-0.7 3:-2.0 4:0.0 
1.0 0:6.8 1:-6.7 2:-3.4 3:-4.6 4:0.0 
1.0 0:5.7 1:-9.7 2:6.5 3:-7.4 4:0.0 
1.0 0:0.6 1:-0.4 2:0.1 3:1.6 4:0.0 
1.0 0:4.9 1:-3.1 2:0.4 3:2.0 4:0.0 
0.722364878386919 0:0.8 1:5.2 2:-0.3 3:-7.2 4:0.0 
0.8220940593767747 0:2.3 1:-0.7 2:5.7 3:3.3 4:0.0 
0.9199604473916636 0:-3.4 1:0.6 2:5.6 3:1.0 4:0.0 
1.0 0:-3.4 1:1.0 2:-2.1 3:-0.6 4:0.0 
1.0 0:0.7 1:4.2 2:-1.8 3:7.8 4:0.0 
1.0 0:0.2 1:0.1 2:-1.0 3:-0.9 4:0.0 
1.0 0:-1.3 1:0.9 2:-0.4 3:0.8 4:0.0 
1.0 0:-3.1 1:-0.4 2:1.3 3:0.7 4:0.0 
1.0 0:-0.4 1:4.1 2:-0.1 3:-0.8 4:0.0 
1.0 0:-3.1 1:-1.5 2:1.3 3:1.1 4:0.0 
1.0 0:3.5 1:-3.9 2:2.0 3:-0.5 4:0.0 
1.0 0:0.7 1:1.2 2:1.1 3:-2.6 4:0.0 
1.0 0:-0.7 1:1.3 2:0.7 3:1.2 4:0.0 
1.0 0:3.0 1:-7.0 2:3.7 3:-0.5 4:0.0 
1.0 0:2.3 1:-1.8 2:-0.1 3:-1.0 4:0.0 
1.0 0:3.1 1:5.5 2:-9.2 3:-2.7 4:0.0 
1.0 0:-3.3 1:-1.4 2:2.1 3:-5.0 4:0.0 
1.0 0:-0.4 1:-4.4 2:0.5 3:0.0 4:0.0 
1.0 0:-3.8 1:0.9 2:1.7 3:-2.5 4:0.0 
1.0 0:1.6 1:-6.4 2:7.4 3:-3.4 4:0.0 
1.0 0:-0.8 1:-0.2 2:0.7 3:-0.5 4:0.0 
0.8714407065217094 0:-1.8 1:7.2 2:1.4 3:-0.1 4:0.0 
0.5455039320708314 0:9.3 1:-0.9 2:-4.5 3:-3.8 4:0.0 
1.0 0:-0.1 1:-0.8 2:0.5 3:1.7 4:0.0 
1.0 0:-6.6 1:-0.8 2:-0.6 3:2.0 4:0.0 
1.0 0:-1.6 1:1.7 2:2.2 3:0.6 4:0.0 
1.0 0:-0.3 1:1.1 2:0.4 3:-1.3 4:0.0 
1.0 0:-3.0 1:7.0 2:-2.8 3:1.2 4:0.0 
1.0 0:3.2 1:4.9 2:0.7 3:-0.5 4:0.0 
1.0 0:2.1 1:1.6 2:-0.3 3:0.2 4:0.0 
0.6058371939577987 0:-2.0 1:0.8 2:-2.5 3:5.9 4:0.0 
1.0 0:4.2 1:-8.6 2:-1.4 3:3.2 4:0.0 
0.9807804150312308 0:5.0 1:-3.2 2:-6.8 3:1.4 4:0.0 
0.11109097846255787 0:-1.2 1:3.3 2:1.0 3:-3.6 4:0.0 
1.0 0:-4.6 1:1.3 2:7.2 3:2.2 4:0.0 
1.0 0:4.8 1:-0.7 2:-0.8 3:-3.3 4:0.0 
1.0 0:-8.7 1:-9.3 2:10.5 3:-4.6 4:0.0 
0.7644333483611169 0:0.0 1:1.9 2:-3.0 3:2.7 4:0.0 
1.0 0:1.0 1:-2.5 2:1.3 3:1.6 4:0.0 
1.0 0:-4.9 1:2.4 2:3.3 3:-3.5 4:0.0 
0.806474431353499 0:-8.2 1:3.8 2:1.5 3:0.9 4:0.0 
1.0 0:3.4 1:-1.3 2:2.7 3:-6.2 4:0.0 
1.0 0:-1.1 1:1.0 2:-1.1 3:3.7 4:0.0 
1.0 0:4.5 1:-3.7 2:0.1 3:0.7 4:0.0 
1.0 0:-2.6 1:2.6 2:-1.1 3:-0.4 4:0.0 
1.0 0:-8.5 1:-2.6 2:9.2 3:-3.2 4:0.0 
1.0 0:-6.4 1:10.0 2:-4.1 3:-1.3 4:0.0 
1.0 0:2.1 1:2.2 2:-0.4 3:-2.3 4:0.0 
1.0 0:1.9 1:-3.8 2:-0.4 3:2.9 4:0.0 
0.7627673208487297 0:5.5 1:4.0 2:-6.4 3:-0.7 4:0.0 
0.8776088019787927 0:3.2 1:-4.9 2:2.6 3:10.7 4:0.0 
0.8449718488638797 0:-5.2 1:1.0 2:-1.7 3:6.1 4:0.0 
1.0 0:-0.8 1:-3.0 2:1.1 3:-3.9 4:0.0 
1.0 0:6.0 1:-5.0 2:-2.3 3:5.1 4:0.0 
1.0 0:3.3 1:-0.7 2:4.3 3:1.8 4:0.0 
1.0 0:3.1 1:3.3 2:0.5 3:2.4 4:0.0 
1.0 0:-4.4 1:7.7 2:-3.8 3:1.9 4:0.0 
1.0 0:2.1 1:2.3 2:-0.3 3:-0.8 4:0.0 
1.0 0:6.8 1:-4.2 2:-1.0 3:-1.1 4:0.0 
0.7063995016382076 0:-1.4 1:-4.2 2:2.0 3:3.0 4:0.0 
1.0 0:1.0 1:-0.9 2:-3.1 3:8.9 4:0.0 
1.0 0:3.2 1:-3.1 2:-2.3 3:-2.2 4:10.0 
1.0 0:-3.0 1:-1.9 2:1.3 3:1.0 4:10.0 
1.0 0:-5.0 1:-1.0 2:-2.5 3:4.1 4:10.0 
1.0 0:1.1 1:2.8 2:0.7 3:1.7 4:10.0 
0.23594772635676117 0:1.7 1:-7.1 2:4.0 3:2.7 4:10.0 
1.0 0:-0.8 1:-5.8 2:-1.6 3:0.8 4:10.0 
1.0 0:10.0 1:5.4 2:-6.7 3:-6.8 4:10.0 
1.0 0:3.5 1:11.3 2:-1.4 3:1.9 4:10.0 
0.3694174127596339 0:0.7 1:0.3 2:-0.3 3:-5.4 4:10.0 
1.0 0:2.2 1:-9.3 2:0.0 3:3.1 4:10.0 
0.8522756337197036 0:-0.4 1:-2.6 2:-0.1 3:0.3 4:10.0 
0.5367735535030707 0:-2.7 1:6.1 2:-0.1 3:3.9 4:10.0 
1.0 0:0.5 1:1.4 2:1.5 3:-1.9 4:10.0 
1.0 0:3.2 1:-0.3 2:-2.2 3:-7.2 4:10.0 
1.0 0:4.1 1:-0.9 2:-3.0 3:-0.2 4:10.0 
1.0 0:7.5 1:0.9 2:-1.1 3:0.0 4:10.0 
1.0 0:2.2 1:1.6 2:-2.7 3:-1.6 4:10.0 
1.0 0:-3.2 1:-0.5 2:2.9 3:-3.2 4:10.0 
0.6689533715797308 0:4.4 1:-0.4 2:6.5 3:-5.7 4:10.0 
1.0 0:-10.1 1:-0.9 2:-15.5 3:-1.1 4:10.0 
0.668145394560215 0:-4.7 1:3.6 2:1.5 3:1.4 4:10.0 
1.0 0:3.9 1:2.7 2:-0.5 3:0.4 4:10.0 
1.0 0:-5.8 1:6.6 2:-0.7 3:-5.6 4:10.0 
1.0 0:6.7 1:-1.9 2:-0.5 3:-8.9 4:10.0 
1.0 0:-0.9 1:-0.6 2:0.6 3:2.1 4:10.0 
1.0 0:0.4 1:3.1 2:0.7 3:2.9 4:10.0 
0.18153013881432742 0:1.7 1:2.8 2:-5.2 3:0.5 4:10.0 
1.0 0:-0.4 1:-2.3 2:0.5 3:1.3 4:10.0 
1.0 0:-1.9 1:-2.9 2:-0.2 3:-1.2 4:10.0 
1.0 0:-1.2 1:-3.4 2:6.0 3:-5.5 4:10.0 
1.0 0:-3.0 1:-1.7 2:-6.0 3:1.8 4:10.0 
0.9465214243530153 0:-1.9 1:2.1 2:1.9 3:0.4 4:10.0 
1.0 0:1.9 1:-0.1 2:-2.5 3:1.9 4:10.0 
1.0 0:5.2 1:-1.6 2:1.7 3:-1.2 4:10.0 
1.0 0:1.3 1:-0.6 2:-0.5 3:-1.1 4:10.0 
1.0 0:5.7 1:-4.0 2:-1.9 3:2.7 4:10.0 
1.0 0:-9.0 1:6.2 2:-3.1 3:5.6 4:10.0 
1.0 0:1.7 1:3.3 2:1.1 3:-2.3 4:10.0 
1.0 0:6.4 1:-11.4 2:5.0 3:-4.1 4:10.0 
0.6439563622003696 0:-3.0 1:-8.8 2:0.0 3:2.6 4:10.0 
1.0 0:-11.1 1:6.6 2:-3.9 3:-8.4 4:10.0 
1.0 0:12.3 1:6.3 2:-0.4 3:3.0 4:10.0 
1.0 0:-2.7 1:0.6 2:-3.5 3:2.7 4:10.0 
1.0 0:1.6 1:-0.6 2:-2.5 3:-4.6 4:10.0 
0.9362967958902926 0:13.0 1:-8.4 2:-1.2 3:2.1 4:10.0 
0.9387690335403037 0:-5.9 1:0.6 2:5.2 3:8.9 4:10.0 
1.0 0:-4.7 1:1.4 2:-2.0 3:-1.4 4:10.0 
1.0 0:3.0 1:-4.2 2:0.3 3:-1.0 4:10.0 
1.0 0:-0.3 1:-0.2 2:0.5 3:-1.8 4:10.0 
1.0 0:-0.2 1:0.3 2:1.5 3:1.4 4:10.0 
0.9476989868904696 0:7.4 1:-13.0 2:9.7 3:-2.8 4:10.0 
1.0 0:2.8 1:0.6 2:-2.5 3:0.9 4:10.0 
1.0 0:-2.4 1:-1.5 2:-2.6 3:-1.3 4:10.0 
0.30516868116728635 0:-4.9 1:4.9 2:2.8 3:1.6 4:10.0 
0.750170375559404 0:4.4 1:-0.4 2:-0.4 3:-0.5 4:10.0 
1.0 0:-7.8 1:-8.3 2:-10.1 3:2.8 4:10.0 
1.0 0:1.5 1:2.5 2:0.8 3:2.3 4:10.0 
0.10039622102278853 0:-0.9 1:1.7 2:-0.5 3:2.1 4:10.0 
1.0 0:-1.8 1:6.5 2:-3.0 3:5.0 4:10.0 
1.0 0:1.8 1:-1.4 2:3.0 3:-1.8 4:10.0 
1.0 0:2.7 1:-6.3 2:4.7 3:-6.3 4:10.0 
0.24207380366908127 0:-4.1 1:3.3 2:2.3 3:-3.8 4:10.0 
1.0 0:0.8 1:-0.3 2:-2.5 3:1.2 4:10.0 
0.9445214774039653 0:3.3 1:3.6 2:-5.5 3:-2.2 4:10.0 
1.0 0:2.8 1:-1.9 2:2.6 3:-2.2 4:10.0 
0.8740928948972095 0:6.3 1:1.7 2:6.6 3:-5.8 4:10.0 
0.5952046994144276 0:4.3 1:-0.9 2:-5.0 3:-4.3 4:10.0 
1.0 0:3.0 1:4.3 2:2.1 3:8.3 4:10.0 
1.0 0:-1.1 1:0.8 2:-0.7 3:0.5 4:10.0 
1.0 0:7.5 1:-7.0 2:4.4 3:1.8 4:10.0 
1.0 0:-3.0 1:-0.7 2:5.6 3:1.3 4:10.0 
1.0 0:2.3 1:-2.0 2:3.1 3:-1.9 4:10.0 
0.9609470637768328 0:-3.2 1:3.0 2:3.6 3:7.6 4:10.0 
1.0 0:-0.7 1:0.8 2:-3.2 3:1.8 4:10.0 
1.0 0:-2.7 1:0.5 2:-2.2 3:-3.9 4:10.0 
1.0 0:-0.6 1:-5.6 2:1.7 3:-6.5 4:10.0 
1.0 0:1.0 1:-2.5 2:1.2 3:0.4 4:10.0 
1.0 0:2.0 1:-4.1 2:-2.6 3:-0.3 4:10.0 
1.0 0:-4.6 1:2.0 2:4.4 3:-0.6 4:10.0 
1.0 0:-0.4 1:-0.4 2:-1.3 3:2.7 4:10.0 
1.0 0:0.9 1:-2.4 2:-0.3 3:-1.5 4:10.0 
0.8693503384782535 0:6.1 1:-4.0 2:-2.2 3:-2.5 4:10.0 
1.0 0:-1.8 1:-5.8 2:3.4 3:4.7 4:10.0 
0.6646245838612271 0:-4.4 1:0.5 2:3.2 3:7.5 4:10.0 
1.0 0:-2.9 1:-2.2 2:-0.2 3:1.8 4:10.0 
0.10946213262973047 0:-2.5 1:0.8 2:2.1 3:2.9 4:10.0 
1.0 0:-0.4 1:-0.7 2:0.6 3:-1.3 4:10.0 
1.0 0:-0.5 1:-0.6 2:-3.2 3:0.5 4:10.0 
0.557343052259458 0:-1.0 1:1.5 2:-0.3 3:1.3 4:10.0 
0.7840996361351105 0:5.9 1:-11.5 2:9.9 3:-1.2 4:10.0 
1.0 0:0.9 1:0.3 2:-0.6 3:-1.0 4:10.0 
1.0 0:-0.7 1:-1.8 2:1.8 3:-0.7 4:10.0 
1.0 0:0.3 1:4.3 2:-2.6 3:3.3 4:10.0 
1.0 0:-0.8 1:-3.0 2:2.2 3:-0.5 4:10.0 
1.0 0:2.8 1:-1.9 2:0.7 3:-3.4 4:10.0 
1.0 0:11.0 1:-11.4 2:-2.6 3:-5.5 4:10.0 
1.0 0:1.7 1:2.2 2:-0.3 3:-0.2 4:10.0 
1.0 0:0.5 1:14.6 2:-15.8 3:3.7 4:10.0 
1.0 0:-0.3 1:-0.6 2:4.5 3:0.3 4:10.0 
1.0 0:0.0 1:-12.4 2:2.5 3:-3.5 4:10.0 
1.0 0:0.8 1:1.7 2:-0.5 3:3.3 4:10.0 
1.0 0:1.5 1:2.5 2:-4.9 3:0.5 4:10.0 
0.6396361784796041 0:3.9 1:0.2 2:-7.8 3:-3.4 4:10.0 
1.0 0:3.8 1:0.9 2:2.2 3:1.5 4:10.0 
1.0 0:-1.5 1:0.4 2:2.1 3:2.3 4:10.0 
1.0 0:-2.4 1:-2.5 2:1.2 3:6.3 4:10.0 
0.19717292550542423 0:-1.8 1:2.9 2:-2.6 3:-2.8 4:10.0 
1.0 0:3.7 1:-4.2 2:-6.5 3:-3.8 4:10.0 
1.0 0:3.5 1:6.4 2:-0.3 3:2.0 4:10.0 
1.0 0:2.4 1:2.8 2:0.6 3:-2.5 4:10.0 
1.0 0:-3.3 1:-2.6 2:6.5 3:-3.1 4:10.0 
0.5700369314547086 0:3.1 1:-1.4 2:4.0 3:-2.4 4:10.0 
0.18840947922863274 0:-5.2 1:1.4 2:4.6 3:7.1 4:10.0 
0.36417126979050096 0:1.3 1:0.6 2:-5.4 3:1.1 4:10.0 
1.0 0:3.1 1:2.6 2:0.4 3:-3.3 4:10.0 
0.2812208854048074 0:0.9 1:3.7 2:1.1 3:-6.3 4:10.0 
1.0 0:-2.4 1:0.1 2:-2.3 3:-7.5 4:10.0 
1.0 0:10.1 1:-9.3 2:-7.3 3:-6.4 4:10.0 
1.0 0:-3.0 1:-8.2 2:5.3 3:-3.1 4:10.0 
1.0 0:-3.8 1:0.1 2:-0.7 3:1.5 4:10.0 
0.9433998602495387 0:1.7 1:-2.3 2:-2.4 3:-1.4 4:10.0 
1.0 0:-3.4 1:-1.4 2:0.2 3:2.5 4:10.0 
0.7257328369990037 0:-2.7 1:7.3 2:-4.6 3:0.2 4:10.0 
1.0 0:-0.7 1:-3.3 2:-0.7 3:-0.4 4:10.0 
1.0 0:-2.6 1:0.0 2:1.5 3:4.5 4:10.0 
1.0 0:-0.5 1:-0.5 2:0.3 3:-1.4 4:10.0 
1.0 0:0.2 1:1.2 2:0.9 3:0.7 4:10.0 
1.0 0:-7.7 1:-2.9 2:5.1 3:-5.8 4:10.0 
1.0 0:-1.6 1:-2.7 2:2.3 3:0.9 4:10.0 
1.0 0:-0.5 1:-4.5 2:1.2 3:-3.1 4:10.0 
0.8050156138831318 0:8.5 1:6.2 2:-5.2 3:4.9 4:10.0 
0.5457016280290888 0:-2.1 1:4.9 2:-0.5 3:0.0 4:10.0 
1.0 0:13.4 1:-3.1 2:4.1 3:-2.4 4:10.0 
0.4000552724891808 0:1.4 1:-2.8 2:1.0 3:-1.0 4:10.0 
1.0 0:2.8 1:-0.8 2:1.1 3:-3.2 4:10.0 
1.0 0:-1.1 1:-0.7 2:-7.1 3:-3.1 4:10.0 
1.0 0:3.8 1:-1.1 2:0.8 3:-0.2 4:10.0 
0.3734433710026981 0:-2.8 1:6.1 2:0.2 3:0.2 4:10.0 
0.30006764329493946 0:0.9 1:0.2 2:-1.5 3:-4.3 4:10.0 
1.0 0:3.4 1:-3.2 2:-4.8 3:-6.3 4:10.0 
1.0 0:-0.8 1:1.8 2:2.6 3:3.8 4:10.0 
1.0 0:-1.5 1:1.3 2:-0.1 3:0.9 4:10.0 
1.0 0:0.0 1:-1.5 2:3.1 3:5.6 4:10.0 
1.0 0:3.7 1:2.8 2:-2.4 3:-1.0 4:10.0 
0.3958541461391443 0:-1.6 1:2.8 2:-0.2 3:3.6 4:10.0 
1.0 0:1.0 1:1.2 2:2.0 3:0.7 4:10.0 
0.4592761824660635 0:-4.5 1:-4.4 2:1.3 3:5.8 4:10.0 
1.0 0:0.9 1:-1.0 2:2.3 3:2.1 4:10.0 
1.0 0:-0.1 1:-2.2 2:4.7 3:-1.1 4:10.0 
1.0 0:6.2 1:-5.5 2:0.3 3:2.6 4:10.0 
0.5371179200542373 0:-3.7 1:-5.7 2:0.9 3:4.6 4:10.0 
1.0 0:-0.7 1:0.2 2:-2.0 3:-2.5 4:10.0 
1.0 0:-3.7 1:15.8 2:-9.8 3:0.9 4:10.0 
1.0 0:-4.6 1:2.4 2:-1.6 3:2.8 4:10.0 
1.0 0:-1.6 1:-1.4 2:2.3 3:-4.4 4:10.0 
1.0 0:-0.1 1:-2.1 2:-3.1 3:-2.5 4:10.0 
0.10602690193484007 0:-2.4 1:0.3 2:0.6 3:3.5 4:10.0 
1.0 0:0.7 1:-1.6 2:-0.5 3:-0.5 4:10.0 
0.5457483492324929 0:3.3 1:-5.4 2:2.9 3:4.9 4:10.0 
0.09953116495652096 0:-1.8 1:-3.2 2:-2.4 3:1.1 4:10.0 
1.0 0:3.3 1:-0.9 2:1.2 3:0.4 4:10.0 
0.6759961797372286 0:0.9 1:-9.1 2:5.0 3:3.4 4:10.0 
0.05072463386633173 0:1.8 1:1.4 2:-0.2 3:-3.8 4:10.0 
1.0 0:7.1 1:8.7 2:-5.3 3:-1.6 4:10.0 
1.0 0:-1.9 1:1.1 2:2.3 3:-1.6 4:10.0 
1.0 0:4.0 1:-8.8 2:-0.4 3:0.3 4:10.0 
1.0 0:-3.8 1:1.1 2:-2.5 3:-1.2 4:10.0 
1.0 0:-0.1 1:1.3 2:0.0 3:-2.2 4:10.0 
1.0 0:-2.4 1:6.6 2:12.5 3:6.4 4:10.0 
1.0 0:-1.1 1:-0.8 2:-0.3 3:-0.8 4:10.0 
1.0 0:2.3 1:0.3 2:2.4 3:-1.2 4:10.0 
1.0 0:-2.2 1:-0.4 2:-3.0 3:-1.6 4:10.0 
0.9688408352978091 0:1.4 1:3.8 2:-0.8 3:1.1 4:10.0 
1.0 0:0.8 1:3.1 2:1.4 3:-1.3 4:10.0 
0.2602112753225319 0:-2.5 1:2.3 2:-1.3 3:0.6 4:10.0 
0.08136606157708023 0:-3.6 1:-7.6 2:-0.9 3:2.8 4:10.0 
1.0 0:-1.3 1:-5.0 2:1.3 3:-0.1 4:10.0 
1.0 0:-1.4 1:1.8 2:1.2 3:7.9 4:10.0 
1.0 0:0.8 1:-1.9 2:-0.5 3:2.8 4:10.0 
1.0 0:3.6 1:0.1 2:1.1 3:1.1 4:10.0 
0.6697091227501277 0:-7.8 1:-1.7 2:2.8 3:4.0 4:10.0 
1.0 0:5.1 1:4.6 2:-1.3 3:0.7 4:10.0 
1.0 0:2.7 1:-0.3 2:-0.5 3:0.4 4:10.0 
1.0 0:-3.4 1:1.3 2:-3.2 3:-5.3 4:10.0 
0.30178294632645497 0:-0.2 1:-6.1 2:-0.2 3:-0.3 4:10.0 
1.0 0:-0.9 1:-2.3 2:-0.3 3:-2.2 4:10.0 
1.0 0:-5.1 1:-4.5 2:-1.6 3:14.0 4:10.0 
1.0 0:1.0 1:0.3 2:0.1 3:0.2 4:10.0 
1.0 0:-4.5 1:5.9 2:0.5 3:-8.7 4:10.0 
1.0 0:-4.9 1:-0.9 2:-0.5 3:2.0 4:10.0 
0.728702636435965 0:1.4 1:-7.9 2:8.8 3:-0.2 4:10.0 
1.0 0:-7.9 1:5.2 2:-1.3 3:-1.0 4:10.0 
1.0 0:-2.7 1:-2.7 2:-7.9 3:-6.0 4:10.0 
1.0 0:1.9 1:-0.1 2:-1.4 3:-0.8 4:10.0 
1.0 0:-1.5 1:-1.1 2:-0.8 3:0.9 4:10.0 
0.8632727009308363 0:1.0 1:-0.6 2:0.4 3:-0.4 4:10.0 
1.0 0:-8.1 1:2.3 2:4.8 3:-1.4 4:10.0 
1.0 0:3.9 1:3.2 2:-1.8 3:0.0 4:10.0 
1.0 0:1.8 1:-4.3 2:-0.6 3:-4.7 4:10.0 
1.0 0:-10.2 1:-3.6 2:2.6 3:-10.0 4:10.0 
1.0 0:-4.8 1:3.6 2:-2.1 3:1.7 4:10.0 
0.012498321710771884 0:1.1 1:0.4 2:1.5 3:-0.5 4:10.0 
0.9919772499451599 0:1.6 1:5.6 2:0.4 3:11.8 4:10.0 
1.0 0:1.5 1:0.9 2:1.8 3:-2.4 4:10.0 
1.0 0:11.8 1:-2.8 2:0.6 3:-8.2 4:10.0 
1.0 0:0.2 1:-5.3 2:3.0 3:-1.7 4:10.0 
0.8667205879472671 0:-3.0 1:-3.5 2:-2.4 3:8.5 4:10.0 
0.941696482483385 0:0.8 1:-5.9 2:-2.4 3:4.2 4:10.0 
0.7031432046616989 0:3.8 1:0.4 2:1.4 3:-5.0 4:10.0 
1.0 0:4.8 1:1.2 2:1.5 3:-11.2 4:10.0 
1.0 0:-0.8 1:1.1 2:-2.5 3:-0.1 4:10.0 
1.0 0:-7.4 1:-7.4 2:6.5 3:-5.0 4:10.0 
0.3811399788432179 0:4.9 1:-3.7 2:-2.4 3:-4.5 4:10.0 
0.27922976775821734 0:-1.5 1:-0.3 2:1.6 3:-0.4 4:10.0 
1.0 0:1.5 1:9.3 2:-1.1 3:3.6 4:10.0 
1.0 0:1.5 1:-3.9 2:-3.3 3:-2.4 4:10.0 
1.0 0:1.0 1:-2.7 2:2.8 3:-0.8 4:10.0 
0.5831890671549098 0:-7.6 1:0.6 2:2.5 3:9.7 4:10.0 
1.0 0:1.8 1:-0.9 2:-0.2 3:-2.9 4:10.0 
1.0 0:2.0 1:-0.2 2:-0.2 3:-0.9 4:10.0 
1.0 0:-7.8 1:5.0 2:-8.1 3:-0.8 4:10.0 
1.0 0:2.2 1:-1.8 2:-0.1 3:2.1 4:10.0 
1.0 0:1.0 1:-1.3 2:-0.9 3:-0.2 4:10.0 
1.0 0:-0.9 1:-0.2 2:-0.8 3:9.2 4:10.0 
1.0 0:2.0 1:-0.3 2:2.1 3:-1.2 4:10.0 
0.9580268847495683 0:0.1 1:5.7 2:-4.8 3:-4.3 4:10.0 
0.8653617913890951 0:-2.8 1:3.0 2:0.6 3:2.3 4:10.0 
1.0 0:-1.6 1:-1.2 2:-2.0 3:1.1 4:10.0 
1.0 0:-8.6 1:-5.8 2:9.6 3:-3.5 4:10.0 
1.0 0:-0.3 1:-1.1 2:-0.3 3:0.8 4:10.0 
0.9464780371368452 0:2.5 1:-1.8 2:-3.6 3:-3.1 4:10.0 
1.0 0:0.7 1:3.1 2:-0.6 3:-0.7 4:10.0 
1.0 0:-2.6 1:-0.4 2:0.2 3:1.1 4:10.0 
0.41130512645127426 0:-1.6 1:-2.4 2:4.9 3:-0.3 4:10.0 
0.06195279510712709 0:1.1 1:-2.6 2:-0.2 3:0.7 4:10.0 
1.0 0:-2.5 1:2.2 2:3.6 3:5.5 4:10.0 
1.0 0:-1.1 1:2.9 2:-4.3 3:-0.9 4:10.0 
1.0 0:1.6 1:3.4 2:1.6 3:-2.1 4:10.0 
0.6813118017678271 0:2.2 1:2.2 2:-0.7 3:-5.4 4:10.0 
1.0 0:-1.7 1:2.4 2:0.3 3:-1.9 4:10.0 
0.35537485467322916 0:-2.1 1:1.5 2:1.8 3:-3.9 4:10.0 
0.8826267387370238 0:0.0 1:-1.7 2:1.3 3:-5.0 4:10.0 
1.0 0:2.0 1:4.0 2:-2.3 3:1.2 4:10.0 
1.0 0:1.1 1:1.8 2:-2.0 3:0.3 4:10.0 
1.0 0:-3.9 1:-1.6 2:9.5 3:-5.3 4:10.0 
1.0 0:-2.3 1:1.3 2:5.0 3:-4.4 4:10.0 
0.9648553904479393 0:-0.8 1:-6.6 2:-1.2 3:-1.2 4:10.0 
1.0 0:0.4 1:-4.0 2:0.2 3:-2.2 4:10.0 
1.0 0:-0.7 1:1.5 2:-2.1 3:0.6 4:10.0 
1.0 0:-0.6 1:-0.1 2:-1.1 3:-0.8 4:10.0 
0.5976529476791868 0:-1.3 1:2.0 2:-1.0 3:0.2 4:10.0 
1.0 0:-3.3 1:2.1 2:-2.3 3:1.4 4:10.0 
1.0 0:2.0 1:-1.9 2:0.6 3:-2.0 4:10.0 
1.0 0:1.8 1:-1.3 2:0.1 3:0.1 4:10.0 
1.0 0:-0.8 1:0.5 2:0.2 3:1.3 4:10.0 
1.0 0:3.4 1:-1.7 2:-1.3 3:-1.1 4:10.0 
0.6322408666790614 0:-5.0 1:0.3 2:1.8 3:1.2 4:10.0 
0.2188840589101177 0:8.6 1:-2.7 2:-2.4 3:0.9 4:10.0 
1.0 0:7.2 1:1.4 2:1.1 3:-0.7 4:10.0 
0.5436542219429703 0:0.4 1:0.3 2:-0.4 3:-3.0 4:10.0 
1.0 0:-8.4 1:1.7 2:-5.9 3:2.4 4:10.0 
1.0 0:-1.1 1:-3.9 2:3.3 3:-1.6 4:10.0 
0.4652047669053122 0:4.2 1:1.8 2:1.9 3:-3.9 4:10.0 
1.0 0:6.2 1:4.6 2:-8.2 3:7.7 4:10.0 
0.2828616844571685 0:-4.2 1:6.0 2:-3.6 3:4.1 4:10.0 
1.0 0:1.0 1:-2.2 2:0.2 3:-1.3 4:10.0 
0.48897118215709157 0:0.2 1:5.4 2:2.3 3:-0.3 4:10.0 
1.0 0:-3.7 1:-0.5 2:1.7 3:-0.1 4:10.0 
0.46094757278247495 0:0.7 1:-5.0 2:-3.3 3:-2.1 4:10.0 
1.0 0:3.2 1:-0.9 2:0.6 3:1.0 4:10.0 
1.0 0:-3.8 1:2.6 2:-1.0 3:2.8 4:10.0 
0.30776094970775214 0:0.7 1:-0.7 2:-1.4 3:2.4 4:10.0 
1.0 0:1.6 1:-1.2 2:1.1 3:0.1 4:10.0 
1.0 0:2.0 1:-3.7 2:-5.1 3:4.8 4:10.0 
0.9686325638171152 0:-6.2 1:2.9 2:-6.1 3:2.8 4:10.0 
1.0 0:1.7 1:1.6 2:2.9 3:-1.2 4:10.0 
1.0 0:9.7 1:0.6 2:9.7 3:-10.9 4:10.0 
1.0 0:-5.6 1:3.4 2:-3.5 3:-0.8 4:10.0 
0.49167271878594904 0:2.1 1:-2.3 2:-1.7 3:0.0 4:10.0 
1.0 0:-1.1 1:-0.6 2:-0.7 3:0.0 4:10.0 
1.0 0:1.5 1:2.9 2:-1.9 3:1.6 4:10.0 
1.0 0:0.6 1:1.0 2:1.7 3:-2.0 4:10.0 
0.8291697666100379 0:-3.6 1:2.4 2:7.0 3:-5.5 4:10.0 
1.0 0:1.3 1:-8.6 2:-7.9 3:-1.5 4:10.0 
1.0 0:1.6 1:-11.1 2:0.8 3:-0.9 4:10.0 
1.0 0:0.6 1:2.4 2:0.6 3:2.0 4:10.0 
1.0 0:-1.2 1:1.5 2:1.6 3:2.8 4:10.0 
1.0 0:-6.6 1:3.4 2:-0.2 3:-3.6 4:10.0 
1.0 0:-5.0 1:-4.9 2:4.1 3:-4.2 4:10.0 
1.0 0:-2.5 1:-1.8 2:4.8 3:-4.2 4:10.0 
1.0 0:-1.1 1:-1.0 2:1.6 3:0.3 4:10.0 
0.6290917373764058 0:4.6 1:-4.4 2:4.9 3:1.7 4:10.0 
0.34562765673428125 0:-2.6 1:0.7 2:0.0 3:2.9 4:10.0 
1.0 0:-0.3 1:4.9 2:5.0 3:4.5 4:10.0 
1.0 0:-0.8 1:-2.5 2:2.3 3:-1.8 4:10.0 
1.0 0:-3.8 1:3.0 2:1.8 3:-0.5 4:10.0 
1.0 0:-3.2 1:0.5 2:-3.9 3:1.2 4:10.0 
1.0 0:4.5 1:0.2 2:-1.7 3:1.9 4:10.0 
1.0 0:5.6 1:0.5 2:-0.2 3:1.0 4:10.0 
1.0 0:0.6 1:-1.1 2:0.3 3:1.9 4:10.0 
1.0 0:-1.7 1:0.9 2:0.2 3:-0.1 4:10.0 
0.16557577974453283 0:4.9 1:4.7 2:-3.6 3:3.7 4:10.0 
1.0 0:-0.2 1:6.5 2:0.6 3:1.0 4:10.0 
1.0 0:0.6 1:-0.7 2:-3.0 3:-1.0 4:10.0 
1.0 0:-1.5 1:-2.4 2:0.3 3:0.5 4:10.0 
0.8705567605524184 0:3.5 1:-0.4 2:0.7 3:-4.6 4:10.0 
1.0 0:1.4 1:0.4 2:3.4 3:0.8 4:10.0 
1.0 0:-3.1 1:2.1 2:-2.3 3:4.4 4:10.0 
1.0 0:-2.3 1:3.4 2:-0.3 3:-10.9 4:10.0 
1.0 0:0.9 1:-1.6 2:-0.5 3:-0.6 4:10.0 
1.0 0:1.7 1:-3.6 2:2.4 3:4.0 4:10.0 
1.0 0:-0.8 1:1.6 2:-1.2 3:3.2 4:10.0 
0.9810719255390677 0:-0.5 1:1.1 2:1.3 3:-3.1 4:10.0 
1.0 0:5.1 1:11.7 2:5.6 3:-7.6 4:10.0 
1.0 0:-3.5 1:-0.6 2:-1.9 3:-1.4 4:10.0 
1.0 0:0.4 1:-1.5 2:-0.3 3:-1.2 4:10.0 
0.927105663475978 0:-0.3 1:-9.8 2:6.5 3:-2.1 4:10.0 
0.9936102561511722 0:0.2 1:-2.4 2:3.9 3:0.6 4:10.0 
0.3276063962375099 0:1.3 1:-2.1 2:-0.4 3:-5.7 4:10.0 
1.0 0:-7.4 1:3.0 2:0.2 3:9.2 4:10.0 
1.0 0:-4.2 1:2.6 2:2.5 3:-5.4 4:10.0 
0.16414125242249014 0:5.6 1:3.5 2:-2.4 3:-1.9 4:10.0 
1.0 0:-1.3 1:-0.3 2:0.7 3:3.5 4:10.0 
1.0 0:2.0 1:3.3 2:-1.4 3:1.7 4:10.0 
0.09987493003984532 0:-5.0 1:3.8 2:-3.1 3:2.0 4:10.0 
1.0 0:2.1 1:-4.5 2:1.5 3:-0.5 4:10.0 
0.9663774484469417 0:-3.6 1:1.2 2:4.0 3:-3.8 4:10.0 
0.9709716151782702 0:-0.6 1:-2.8 2:0.4 3:0.8 4:10.0 
0.8234890812824345 0:7.2 1:-4.5 2:4.0 3:4.7 4:10.0 
1.0 0:1.5 1:-3.8 2:-2.9 3:0.2 4:10.0 
1.0 0:-1.4 1:-0.8 2:1.6 3:-0.4 4:10.0 
0.0688088764637565 0:-0.1 1:5.8 2:3.8 3:4.1 4:10.0 
1.0 0:5.4 1:0.0 2:5.5 3:-3.1 4:10.0 
1.0 0:1.7 1:1.1 2:-0.6 3:0.9 4:10.0 
1.0 0:-10.5 1:-6.2 2:-4.6 3:6.3 4:10.0 
1.0 0:-1.9 1:1.7 2:-0.4 3:6.2 4:10.0 
1.0 0:6.5 1:0.6 2:-3.6 3:-6.3 4:10.0 
1.0 0:1.0 1:-0.6 2:-0.6 3:0.2 4:10.0 
0.5727736053770902 0:-5.9 1:-0.1 2:4.0 3:-0.9 4:10.0 
0.28998255015565433 0:-1.2 1:1.3 2:-1.3 3:3.0 4:10.0 
1.0 0:3.2 1:-0.8 2:-1.2 3:2.5 4:10.0 
0.8896746174828793 0:-1.9 1:-2.2 2:-0.8 3:3.6 4:10.0 
0.5312429619182831 0:7.4 1:-4.8 2:0.0 3:0.8 4:10.0 
0.5745557577633036 0:2.5 1:-0.2 2:4.3 3:-2.2 4:10.0 
1.0 0:-4.4 1:-1.0 2:-2.9 3:1.1 4:10.0 
1.0 0:0.5 1:5.9 2:-6.1 3:-2.7 4:10.0 
1.0 0:-1.5 1:1.6 2:0.7 3:0.4 4:10.0 
1.0 0:-0.8 1:0.3 2:2.3 3:0.3 4:10.0 
1.0 0:-1.0 1:-1.5 2:2.1 3:1.8 4:10.0 
1.0 0:10.3 1:-2.7 2:-3.5 3:-0.4 4:10.0 
1.0 0:-1.2 1:4.1 2:-4.5 3:11.2 4:10.0 
1.0 0:-5.5 1:-1.2 2:-1.8 3:0.2 4:10.0 
0.8093193702943305 0:-2.5 1:-8.3 2:3.6 3:-3.3 4:10.0 
0.5826186475457434 0:-4.9 1:-5.9 2:-0.9 3:3.2 4:10.0 
1.0 0:0.0 1:-2.8 2:-0.6 3:-0.2 4:10.0 
1.0 0:11.3 1:-2.0 2:-1.1 3:13.1 4:10.0 
1.0 0:-4.0 1:8.6 2:-0.7 3:-0.2 4:10.0 
1.0 0:-1.2 1:-7.4 2:0.3 3:-4.5 4:10.0 
1.0 0:-8.5 1:-2.4 2:3.4 3:-0.8 4:10.0 
1.0 0:-0.2 1:1.1 2:1.1 3:1.9 4:10.0 
1.0 0:5.8 1:-2.8 2:-3.7 3:-8.7 4:10.0 
1.0 0:8.9 1:-1.7 2:-3.6 3:-2.9 4:10.0 
0.7083210012571084 0:-2.8 1:5.3 2:-3.6 3:2.0 4:10.0 
1.0 0:1.2 1:-0.7 2:1.0 3:0.8 4:10.0 
0.7594586595606057 0:-7.0 1:5.6 2:-3.0 3:-1.9 4:10.0 
1.0 0:0.5 1:1.2 2:2.1 3:-4.8 4:10.0 
1.0 0:3.0 1:-12.0 2:3.2 3:-2.4 4:10.0 
1.0 0:-1.3 1:-0.4 2:1.6 3:0.2 4:10.0 
1.0 0:4.7 1:-3.0 2:2.1 3:1.6 4:10.0 
1.0 0:2.0 1:6.1 2:-8.8 3:-2.4 4:10.0 
1.0 0:8.0 1:3.2 2:2.2 3:3.4 4:10.0 
1.0 0:6.5 1:-10.5 2:2.0 3:4.9 4:10.0 
1.0 0:0.7 1:0.8 2:-0.2 3:4.5 4:10.0 
0.8603604660655464 0:-1.4 1:8.7 2:-10.9 3:2.5 4:10.0 
1.0 0:3.5 1:2.9 2:0.6 3:0.1 4:10.0 
0.7476177566295042 0:-8.1 1:0.8 2:3.5 3:10.3 4:10.0 
0.21373093779470967 0:-0.6 1:3.4 2:0.5 3:2.1 4:10.0 
1.0 0:1.0 1:1.1 2:0.9 3:-0.2 4:10.0 
0.5752490862319694 0:-0.6 1:2.7 2:-0.8 3:-0.3 4:10.0 
1.0 0:3.6 1:4.8 2:-2.5 3:4.0 4:10.0 
1.0 0:2.0 1:-1.3 2:7.6 3:5.8 4:10.0 
0.6028212330041901 0:1.4 1:2.0 2:-4.5 3:-2.6 4:10.0 
1.0 0:-2.3 1:0.5 2:2.1 3:-3.3 4:10.0 
1.0 0:-0.8 1:-1.0 2:0.6 3:1.3 4:10.0 
0.7314783026925898 0:-2.1 1:-1.9 2:-1.6 3:6.2 4:10.0 
1.0 0:4.2 1:-6.8 2:0.2 3:-0.9 4:10.0 
0.9352614681158904 0:3.6 1:-1.5 2:3.9 3:-0.1 4:10.0 
0.9090529678376043 0:0.1 1:-0.1 2:1.2 3:10.5 4:10.0 
1.0 0:0.0 1:-1.0 2:1.8 3:3.2 4:10.0 
1.0 0:4.0 1:-2.2 2:-0.1 3:1.7 4:10.0 
1.0 0:0.3 1:-2.4 2:3.3 3:-3.6 4:10.0 
1.0 0:-1.1 1:-1.3 2:-2.7 3:3.4 4:10.0 
1.0 0:1.7 1:-2.4 2:0.3 3:-1.3 4:10.0 
0.9776366133081635 0:3.1 1:-9.7 2:3.5 3:-5.7 4:10.0 
1.0 0:2.4 1:2.3 2:-4.0 3:1.9 4:10.0 
1.0 0:-0.5 1:-2.8 2:-2.0 3:0.3 4:10.0 
1.0 0:0.9 1:-1.9 2:2.7 3:2.1 4:10.0 
1.0 0:-0.2 1:-3.1 2:-1.6 3:0.7 4:10.0 
0.24429860554347543 0:5.5 1:-3.6 2:-1.5 3:-3.4 4:10.0 
1.0 0:13.4 1:0.1 2:-0.7 3:-0.4 4:10.0 
0.13848264454428327 0:-1.9 1:0.8 2:-0.9 3:2.5 4:10.0 
1.0 0:-1.4 1:0.4 2:-0.2 3:-0.8 4:10.0 
1.0 0:0.8 1:3.9 2:-3.3 3:-0.9 4:10.0 
1.0 0:0.3 1:-1.4 2:0.2 3:0.2 4:10.0 
1.0 0:1.0 1:-10.1 2:7.0 3:-2.3 4:10.0 
1.0 0:-3.8 1:0.8 2:0.4 3:-0.4 4:10.0 
0.4369858747578 0:0.5 1:-3.0 2:3.4 3:0.8 4:10.0 
1.0 0:7.1 1:6.0 2:2.0 3:-2.4 4:10.0 
1.0 0:2.4 1:1.1 2:-1.2 3:2.1 4:10.0 
1.0 0:-2.5 1:0.3 2:-0.7 3:-0.9 4:10.0 
1.0 0:0.4 1:-6.9 2:3.2 3:-2.0 4:10.0 
0.8401055202137778 0:2.7 1:-5.7 2:-2.4 3:4.6 4:10.0 
1.0 0:1.2 1:-3.4 2:-2.3 3:-12.8 4:10.0 
1.0 0:7.2 1:7.2 2:0.4 3:-3.5 4:10.0 
0.15718801877952884 0:2.6 1:2.9 2:0.5 3:-6.8 4:10.0 
0.36288685867736653 0:4.7 1:2.3 2:-4.8 3:5.9 4:10.0 
1.0 0:-0.2 1:0.9 2:-0.1 3:-0.4 4:10.0 
1.0 0:4.4 1:-6.6 2:1.9 3:2.0 4:10.0 
1.0 0:1.5 1:4.2 2:-0.3 3:2.4 4:10.0 
1.0 0:-1.8 1:4.4 2:3.3 3:4.0 4:10.0 
1.0 0:-3.7 1:3.8 2:-1.3 3:1.9 4:10.0 
1.0 0:-0.2 1:2.3 2:0.5 3:-0.2 4:10.0 
1.0 0:3.7 1:4.0 2:-2.8 3:4.5 4:10.0 
1.0 0:-1.0 1:-2.0 2:1.8 3:-2.5 4:10.0 
1.0 0:-1.4 1:-1.2 2:1.6 3:1.0 4:10.0 
1.0 0:1.3 1:-2.5 2:0.5 3:3.0 4:10.0 
1.0 0:-5.4 1:-6.4 2:6.6 3:1.7 4:10.0 
1.0 0:5.0 1:-4.2 2:-1.3 3:-2.1 4:10.0 
1.0 0:5.5 1:-2.2 2:1.0 3:0.1 4:10.0 
0.6913062381434099 0:-4.7 1:3.8 2:-2.7 3:2.1 4:10.0 
0.9625485004027184 0:0.8 1:-3.3 2:-0.7 3:0.7 4:10.0 
1.0 0:-5.2 1:-10.1 2:8.7 3:-8.1 4:10.0 
1.0 0:-5.3 1:1.5 2:1.4 3:1.2 4:10.0 
1.0 0:5.2 1:-0.3 2:0.5 3:5.9 4:10.0 
1.0 0:-2.5 1:2.3 2:-2.3 3:-1.7 4:10.0 
1.0 0:3.1 1:-4.4 2:-0.8 3:-4.3 4:10.0 
1.0 0:2.2 1:4.1 2:-0.1 3:-0.1 4:10.0 
1.0 0:-1.9 1:-0.4 2:0.3 3:1.3 4:10.0 
1.0 0:-0.2 1:-0.3 2:-0.8 3:0.4 4:10.0 
1.0 0:2.8 1:-3.9 2:5.2 3:-9.6 4:10.0 
1.0 0:-4.1 1:4.5 2:2.0 3:-0.2 4:10.0 
0.8282401623171073 0:1.6 1:-0.9 2:-3.6 3:-0.4 4:10.0 
1.0 0:-4.8 1:-5.0 2:-1.6 3:-2.5 4:10.0 
0.9739132770502087 0:7.8 1:3.4 2:-1.0 3:-1.2 4:10.0 
1.0 0:3.9 1:1.8 2:0.4 3:3.9 4:10.0 
1.0 0:1.1 1:1.3 2:-3.5 3:4.4 4:10.0 
0.8522080825145084 0:-3.0 1:-5.1 2:10.1 3:-0.6 4:10.0 
1.0 0:3.5 1:-4.5 2:-4.3 3:-5.0 4:10.0 
1.0 0:-2.1 1:0.8 2:0.6 3:2.7 4:10.0 
1.0 0:-0.9 1:-3.9 2:-1.6 3:-0.4 4:10.0 
1.0 0:1.4 1:0.6 2:-0.3 3:-0.1 4:10.0 
1.0 0:2.7 1:-1.0 2:-4.8 3:4.9 4:10.0 
0.8873909615434201 0:2.0 1:-6.7 2:-2.6 3:1.4 4:10.0 
1.0 0:-4.9 1:-0.5 2:-0.5 3:2.5 4:10.0 
1.0 0:1.2 1:2.5 2:2.1 3:-0.7 4:10.0 
1.0 0:-4.9 1:0.3 2:1.6 3:0.4 4:10.0 
1.0 0:3.3 1:-2.5 2:1.0 3:-6.4 4:10.0 
0.9823063190712664 0:-2.0 1:-2.2 2:-0.1 3:1.5 4:10.0 
1.0 0:-2.7 1:-3.4 2:-13.5 3:-0.1 4:10.0 
1.0 0:3.3 1:1.4 2:5.1 3:-7.1 4:10.0 
1.0 0:-0.7 1:-2.8 2:-0.6 3:2.8 4:10.0 
1.0 0:-1.7 1:-3.1 2:1.7 3:-1.9 4:10.0 
0.838419982794268 0:4.3 1:1.8 2:2.3 3:-2.1 4:10.0 
1.0 0:-0.4 1:10.0 2:-4.1 3:6.5 4:10.0 
0.5420807086736648 0:-1.4 1:4.1 2:-0.5 3:1.1 4:10.0 
1.0 0:-1.6 1:0.0 2:0.3 3:-0.2 4:10.0 
1.0 0:1.7 1:-1.7 2:1.9 3:5.1 4:10.0 
0.3606997504660022 0:-1.7 1:-3.6 2:-2.0 3:1.5 4:10.0 
1.0 0:0.7 1:-0.8 2:2.8 3:0.1 4:10.0 
1.0 0:6.4 1:-0.2 2:1.4 3:2.2 4:10.0 
0.738538660645581 0:3.2 1:-2.7 2:-2.5 3:-4.0 4:10.0 
1.0 0:-0.9 1:1.3 2:0.7 3:3.5 4:10.0 
1.0 0:7.0 1:3.9 2:2.4 3:-1.5 4:10.0 
0.9938969934142159 0:-4.3 1:5.7 2:-3.1 3:2.5 4:10.0 
1.0 0:2.4 1:1.0 2:-2.4 3:-1.5 4:10.0 
0.991405050861434 0:-0.7 1:2.4 2:1.9 3:0.8 4:10.0 
1.0 0:-4.1 1:7.1 2:-2.9 3:4.5 4:10.0 
1.0 0:5.9 1:3.7 2:-3.0 3:3.3 4:10.0 
1.0 0:-0.2 1:-2.3 2:1.0 3:-1.2 4:10.0 
1.0 0:11.6 1:-6.6 2:6.1 3:-3.3 4:10.0 
1.0 0:-1.6 1:-4.0 2:4.7 3:2.0 4:10.0 
0.015539602725848988 0:-2.5 1:1.9 2:1.6 3:5.2 4:10.0 
1.0 0:-13.8 1:3.7 2:-4.9 3:-4.2 4:10.0 
1.0 0:0.6 1:-0.7 2:-0.5 3:1.4 4:10.0 
1.0 0:0.5 1:-1.8 2:-0.5 3:-0.5 4:10.0 
0.08543458904675764 0:3.7 1:-4.7 2:6.1 3:1.8 4:10.0 
1.0 0:0.7 1:1.0 2:-2.5 3:-0.8 4:10.0 
1.0 0:2.0 1:-3.0 2:-0.8 3:-0.7 4:10.0 
0.20045281323288552 0:-3.7 1:4.3 2:-2.0 3:0.7 4:10.0 
0.7355918250446928 0:0.0 1:3.3 2:-0.9 3:2.6 4:10.0 
1.0 0:-0.4 1:0.1 2:-7.9 3:-7.6 4:10.0 
1.0 0:4.2 1:-4.8 2:1.2 3:0.9 4:10.0 
0.8210674227438034 0:-5.7 1:-3.7 2:-12.2 3:-1.5 4:10.0 
1.0 0:5.0 1:7.5 2:3.2 3:-3.5 4:10.0 
1.0 0:-0.1 1:0.0 2:0.2 3:-0.5 4:10.0 
0.1876749230242503 0:-1.7 1:-0.8 2:-2.9 3:0.9 4:10.0 
1.0 0:10.4 1:1.9 2:-3.0 3:6.0 4:10.0 
0.36534283131010925 0:5.8 1:0.9 2:3.6 3:0.2 4:10.0 
0.6214819212753158 0:-1.5 1:1.0 2:-0.5 3:5.6 4:10.0 
1.0 0:4.6 1:-1.9 2:-2.6 3:3.8 4:10.0 
1.0 0:1.6 1:0.2 2:0.6 3:-2.2 4:10.0 
1.0 0:13.2 1:10.4 2:-5.1 3:-6.5 4:10.0 
1.0 0:-5.7 1:0.6 2:-1.9 3:0.1 4:10.0 
1.0 0:-5.2 1:-4.9 2:4.8 3:8.7 4:10.0 
0.8482911179837671 0:-3.8 1:-6.1 2:-2.3 3:6.2 4:10.0 
0.23620557106510334 0:4.9 1:0.2 2:1.2 3:-3.8 4:10.0 
0.36227572339906017 0:4.7 1:1.1 2:2.0 3:-4.0 4:10.0 
1.0 0:1.3 1:1.3 2:-1.5 3:-3.5 4:10.0 
1.0 0:0.2 1:-0.1 2:-1.1 3:-8.4 4:10.0 
1.0 0:1.5 1:-0.2 2:7.7 3:-4.8 4:10.0 
0.47771241065803816 0:-6.8 1:-2.3 2:3.7 3:2.7 4:10.0 
1.0 0:0.6 1:3.1 2:-4.1 3:-1.7 4:10.0 
1.0 0:-5.3 1:1.3 2:-0.9 3:-2.5 4:10.0 
1.0 0:2.4 1:4.1 2:2.5 3:-5.9 4:10.0 
1.0 0:-2.7 1:2.8 2:0.1 3:-2.2 4:10.0 
1.0 0:6.5 1:-5.0 2:-2.6 3:2.6 4:10.0 
1.0 0:-8.5 1:2.2 2:-0.8 3:-0.1 4:10.0 
1.0 0:3.3 1:0.3 2:2.1 3:-1.5 4:10.0 
1.0 0:-5.8 1:0.8 2:11.3 3:3.6 4:10.0 
1.0 0:5.0 1:-0.3 2:3.5 3:-1.3 4:10.0 
1.0 0:1.1 1:1.6 2:-0.9 3:-0.9 4:10.0 
0.9528447977703228 0:5.7 1:-4.6 2:-6.3 3:-2.7 4:10.0 
0.5898513636879971 0:3.8 1:-0.6 2:4.9 3:-4.4 4:10.0 
1.0 0:-2.2 1:-8.6 2:-0.8 3:-7.4 4:10.0 
1.0 0:4.0 1:-3.0 2:-1.9 3:-1.0 4:10.0 
1.0 0:0.8 1:2.6 2:-0.7 3:2.2 4:10.0 
1.0 0:0.0 1:1.6 2:6.3 3:12.3 4:10.0 
1.0 0:2.4 1:2.0 2:1.3 3:0.7 4:10.0 
0.44876012750807454 0:-1.7 1:0.5 2:-0.4 3:1.2 4:10.0 
1.0 0:1.5 1:-1.7 2:1.0 3:-2.2 4:10.0 
1.0 0:8.7 1:-4.6 2:3.7 3:-1.4 4:10.0 
1.0 0:-3.0 1:0.4 2:-1.5 3:-0.6 4:10.0 
1.0 0:-2.2 1:4.0 2:-8.3 3:-3.7 4:10.0 
1.0 0:2.3 1:1.5 2:4.3 3:-0.7 4:10.0 
1.0 0:-8.5 1:-1.0 2:3.9 3:1.9 4:10.0 
0.4284901842053895 0:-0.7 1:-2.6 2:4.3 3:-5.0 4:10.0 
1.0 0:3.1 1:0.0 2:-0.1 3:-2.4 4:10.0 
1.0 0:-14.2 1:13.2 2:-3.6 3:3.2 4:10.0 
1.0 0:-3.8 1:2.9 2:-2.0 3:5.5 4:10.0 
1.0 0:-0.7 1:4.7 2:0.5 3:-2.8 4:10.0 
1.0 0:-0.3 1:0.7 2:2.8 3:-6.8 4:10.0 
0.5160802500471487 0:1.5 1:-4.0 2:0.7 3:2.5 4:10.0 
1.0 0:-1.8 1:-5.1 2:7.6 3:-1.2 4:10.0 
1.0 0:-0.5 1:1.1 2:-0.9 3:1.9 4:10.0 
1.0 0:-0.5 1:1.0 2:0.3 3:1.9 4:10.0 
0.3195272256242375 0:3.4 1:0.0 2:-2.1 3:-2.5 4:10.0 
1.0 0:-0.5 1:-2.1 2:2.0 3:-1.1 4:10.0 
1.0 0:0.0 1:4.4 2:-3.4 3:-0.3 4:10.0 
1.0 0:10.0 1:-3.9 2:1.7 3:1.0 4:10.0 
1.0 0:-2.1 1:-5.5 2:4.4 3:3.4 4:10.0 
1.0 0:3.9 1:-1.8 2:4.4 3:-6.8 4:10.0 
1.0 0:1.3 1:-2.6 2:1.3 3:-3.2 4:10.0 
1.0 0:5.9 1:-5.4 2:0.6 3:0.8 4:10.0 
0.534070202352309 0:2.6 1:-0.6 2:-1.7 3:4.4 4:10.0 
1.0 0:-0.7 1:2.6 2:5.3 3:-5.3 4:10.0 
1.0 0:-2.1 1:4.3 2:5.0 3:3.4 4:10.0 
1.0 0:0.7 1:1.9 2:2.8 3:-16.7 4:10.0 
1.0 0:2.2 1:1.3 2:1.0 3:-6.7 4:10.0 
1.0 0:6.3 1:-2.7 2:8.0 3:-12.5 4:10.0 
1.0 0:-6.9 1:-1.2 2:0.0 3:-0.9 4:10.0 
0.9822431190113973 0:2.0 1:-0.6 2:-1.6 3:-0.9 4:10.0 
0.6783059542904736 0:-1.0 1:3.5 2:-5.4 3:-6.0 4:10.0 
1.0 0:-3.8 1:-3.8 2:4.1 3:-0.5 4:10.0 
1.0 0:-3.8 1:-4.3 2:2.9 3:-0.9 4:10.0 
0.9258096610025635 0:-7.2 1:8.8 2:-4.8 3:2.9 4:10.0 
1.0 0:1.1 1:-0.5 2:-1.6 3:2.9 4:10.0 
0.5751136863190139 0:0.0 1:1.7 2:-0.6 3:-0.6 4:10.0 
1.0 0:6.3 1:-3.0 2:2.4 3:1.2 4:10.0 
0.859738552296786 0:0.1 1:1.8 2:1.0 3:2.2 4:10.0 
1.0 0:-4.1 1:2.2 2:-0.7 3:-2.1 4:10.0 
1.0 0:7.2 1:-4.6 2:9.4 3:-3.6 4:10.0 
1.0 0:-3.4 1:4.5 2:-2.3 3:-3.1 4:10.0 
1.0 0:-4.2 1:-3.3 2:2.1 3:-2.3 4:10.0 
1.0 0:-1.8 1:-3.6 2:2.6 3:0.6 4:10.0 
0.10306409038928714 0:-2.7 1:3.7 2:0.9 3:-2.1 4:10.0 
1.0 0:-0.7 1:2.5 2:-3.7 3:0.8 4:10.0 
1.0 0:-3.1 1:3.1 2:2.8 3:1.5 4:10.0 
1.0 0:1.6 1:-2.5 2:3.8 3:-1.1 4:10.0 
1.0 0:1.8 1:-0.2 2:1.8 3:0.8 4:10.0 
1.0 0:-0.2 1:-0.2 2:0.3 3:-1.5 4:10.0 
1.0 0:5.1 1:3.3 2:-2.4 3:0.9 4:10.0 
1.0 0:1.4 1:4.0 2:-2.7 3:-1.1 4:10.0 
1.0 0:1.5 1:-1.9 2:0.1 3:-0.3 4:10.0 
1.0 0:-1.4 1:-0.1 2:1.9 3:-1.3 4:10.0 
1.0 0:0.6 1:0.0 2:-1.5 3:-0.2 4:10.0 
1.0 0:3.2 1:-3.1 2:0.5 3:1.8 4:10.0 
1.0 0:-1.3 1:1.0 2:-0.7 3:-0.1 4:10.0 
0.7812504462882893 0:-1.7 1:1.0 2:4.5 3:4.5 4:10.0 
0.36853668975854686 0:-0.2 1:5.4 2:-0.7 3:-0.4 4:10.0 
0.6135242262975862 0:-3.3 1:3.3 2:0.5 3:1.4 4:10.0 
0.0870213692756764 0:1.5 1:-0.9 2:-1.1 3:3.8 4:10.0 
1.0 0:-1.9 1:3.2 2:-2.7 3:0.4 4:10.0 
1.0 0:-0.8 1:-2.6 2:1.1 3:-2.2 4:10.0 
0.8667744451073176 0:5.2 1:-5.2 2:8.2 3:-4.7 4:10.0 
1.0 0:-0.2 1:1.9 2:-0.6 3:-2.1 4:10.0 
0.048403614577296555 0:-1.1 1:1.8 2:1.1 3:-1.2 4:10.0 
0.25798597954166674 0:-1.0 1:3.7 2:-2.6 3:1.5 4:10.0 
1.0 0:0.1 1:2.2 2:-0.3 3:-0.2 4:10.0 
0.16481876852007535 0:-3.3 1:-1.7 2:0.3 3:6.4 4:10.0 
1.0 0:-2.8 1:-2.1 2:2.2 3:-0.3 4:10.0 
1.0 0:2.7 1:-1.9 2:0.5 3:-2.4 4:10.0 
0.611696193500854 0:-0.7 1:-0.1 2:-6.2 3:0.4 4:10.0 
1.0 0:-2.6 1:1.4 2:2.8 3:0.6 4:10.0 
1.0 0:-4.1 1:7.6 2:-5.7 3:2.4 4:10.0 
1.0 0:-1.1 1:0.5 2:-1.0 3:-0.8 4:10.0 
1.0 0:3.6 1:0.4 2:0.1 3:1.3 4:10.0 
1.0 0:4.4 1:2.4 2:2.4 3:-0.1 4:10.0 
1.0 0:-1.6 1:-1.0 2:-0.6 3:1.4 4:10.0 
1.0 0:0.8 1:-1.4 2:-6.1 3:3.2 4:10.0 
0.5525691967147198 0:6.8 1:4.4 2:-5.9 3:-2.0 4:10.0 
1.0 0:-3.3 1:-0.8 2:-0.2 3:-5.1 4:10.0 
1.0 0:4.1 1:-5.5 2:2.7 3:-4.5 4:10.0 
0.5810574401495262 0:-1.6 1:-1.6 2:4.4 3:3.9 4:10.0 
1.0 0:-0.1 1:-1.4 2:0.1 3:-1.1 4:10.0 
0.8052907485821335 0:-3.9 1:-0.6 2:-3.0 3:1.1 4:10.0 
0.49675902804990896 0:-2.0 1:6.6 2:-2.3 3:-0.2 4:10.0 
0.7456333191685464 0:2.6 1:-2.5 2:0.6 3:-2.1 4:10.0 
1.0 0:-2.4 1:-4.7 2:1.2 3:-3.6 4:10.0 
0.5553561683649887 0:-1.6 1:-6.2 2:2.2 3:2.4 4:10.0 
1.0 0:3.8 1:1.8 2:3.3 3:0.0 4:10.0 
1.0 0:-4.1 1:3.4 2:-3.5 3:2.8 4:10.0 
1.0 0:1.8 1:-0.6 2:1.6 3:0.8 4:10.0 
1.0 0:0.5 1:-0.6 2:1.2 3:-1.4 4:10.0 
1.0 0:-6.6 1:5.6 2:1.8 3:-1.9 4:10.0 
0.043499887209213 0:-2.3 1:3.8 2:2.6 3:0.1 4:10.0 
1.0 0:0.7 1:0.1 2:-1.4 3:-0.3 4:10.0 
1.0 0:1.6 1:-3.5 2:6.3 3:-0.9 4:10.0 
1.0 0:-1.2 1:3.0 2:-3.3 3:1.9 4:10.0 
1.0 0:-2.0 1:-3.3 2:1.1 3:3.0 4:10.0 
1.0 0:-5.2 1:-3.4 2:-6.1 3:1.8 4:10.0 
1.0 0:2.0 1:3.2 2:0.6 3:0.2 4:10.0 
1.0 0:3.4 1:6.4 2:-6.1 3:7.6 4:10.0 
1.0 0:-9.2 1:-0.6 2:2.5 3:-3.6 4:10.0 
1.0 0:1.5 1:-17.4 2:6.8 3:-9.2 4:10.0 
0.9944684245573696 0:5.2 1:1.4 2:-5.7 3:1.5 4:10.0 
1.0 0:1.2 1:1.9 2:-0.6 3:0.1 4:10.0 
1.0 0:3.4 1:3.7 2:0.1 3:12.3 4:10.0 
1.0 0:1.9 1:0.9 2:0.0 3:-1.6 4:10.0 
1.0 0:2.9 1:0.4 2:0.5 3:-0.6 4:10.0 
0.9358100963549878 0:-0.7 1:-0.2 2:-4.6 3:4.4 4:10.0 
1.0 0:-1.1 1:-0.2 2:2.5 3:2.0 4:10.0 
1.0 0:-4.9 1:9.1 2:1.2 3:7.7 4:10.0 
1.0 0:1.5 1:2.6 2:-1.5 3:-3.2 4:10.0 
0.025599649351745926 0:0.0 1:3.7 2:-1.8 3:0.1 4:10.0 
1.0 0:2.0 1:-4.7 2:0.6 3:-4.6 4:10.0 
1.0 0:0.4 1:-2.7 2:2.5 3:-1.3 4:10.0 
0.4608011663678117 0:-3.5 1:-0.6 2:0.1 3:3.2 4:10.0 
0.728889173296671 0:6.7 1:-6.0 2:-0.6 3:4.8 4:10.0 
1.0 0:3.0 1:-0.4 2:1.7 3:-2.1 4:10.0 
0.22801352050379156 0:-1.1 1:6.6 2:0.9 3:7.7 4:10.0 
1.0 0:-2.9 1:4.9 2:0.3 3:5.6 4:10.0 
1.0 0:-5.6 1:0.5 2:1.0 3:-1.4 4:10.0 
1.0 0:-13.1 1:1.2 2:-5.6 3:3.7 4:10.0 
1.0 0:-1.8 1:8.1 2:2.6 3:-2.3 4:10.0 
1.0 0:-3.1 1:3.3 2:-1.9 3:-1.1 4:10.0 
0.662184222973424 0:-2.5 1:-6.4 2:4.7 3:-0.4 4:10.0 
0.7124681838082144 0:7.0 1:-4.6 2:6.8 3:-3.5 4:10.0 
1.0 0:6.9 1:-2.2 2:2.8 3:-1.3 4:10.0 
0.23200752753426 0:-0.1 1:1.0 2:1.4 3:-7.6 4:10.0 
0.550729787864112 0:-5.4 1:5.2 2:-3.8 3:3.5 4:10.0 
1.0 0:-7.3 1:-0.2 2:2.2 3:-1.3 4:10.0 
0.9891551300259377 0:-0.6 1:0.2 2:-2.2 3:-3.9 4:10.0 
0.3826647898973164 0:1.9 1:-8.0 2:8.3 3:-4.4 4:10.0 
1.0 0:-2.7 1:0.6 2:0.0 3:-9.7 4:10.0 
0.6812395790921035 0:-4.6 1:11.8 2:-4.4 3:-0.6 4:10.0 
0.39506813971821075 0:5.0 1:7.5 2:2.3 3:-2.2 4:10.0 
1.0 0:-1.5 1:-1.7 2:-0.6 3:-3.5 4:10.0 
1.0 0:-7.9 1:1.0 2:0.5 3:-5.8 4:10.0 
0.8892065599865436 0:9.3 1:-4.7 2:0.3 3:-5.6 4:10.0 
1.0 0:-8.4 1:9.0 2:2.4 3:-1.5 4:10.0 
1.0 0:5.6 1:7.4 2:-7.9 3:0.2 4:10.0 
0.9556726179643884 0:0.9 1:0.9 2:-1.8 3:-2.7 4:10.0 
1.0 0:-7.3 1:-1.6 2:2.5 3:-4.7 4:10.0 
0.9070568640759809 0:-10.0 1:0.0 2:1.8 3:5.2 4:10.0 
1.0 0:1.2 1:1.2 2:-0.1 3:0.1 4:10.0 
1.0 0:1.7 1:-2.0 2:1.9 3:1.8 4:10.0 
1.0 0:1.2 1:0.9 2:0.8 3:-0.8 4:10.0 
1.0 0:8.9 1:-0.7 2:2.4 3:-2.2 4:10.0 
1.0 0:-1.8 1:-3.5 2:2.7 3:0.3 4:10.0 
1.0 0:-3.2 1:1.1 2:-3.8 3:3.6 4:10.0 
1.0 0:2.0 1:1.5 2:-3.0 3:-0.4 4:10.0 
1.0 0:-0.4 1:-0.7 2:2.0 3:-0.2 4:10.0 
1.0 0:3.9 1:0.4 2:3.3 3:-4.9 4:10.0 
1.0 0:-3.4 1:1.7 2:-2.1 3:-0.1 4:10.0 
1.0 0:-8.1 1:-10.1 2:2.8 3:-2.6 4:10.0 
1.0 0:5.0 1:1.5 2:-3.5 3:2.2 4:10.0 
1.0 0:3.1 1:3.1 2:-2.8 3:5.6 4:10.0 
1.0 0:-8.2 1:4.6 2:-1.1 3:4.3 4:10.0 
0.14702324215180182 0:-1.7 1:7.0 2:-1.4 3:-0.3 4:10.0 
0.30676228912130715 0:-0.5 1:1.3 2:0.3 3:1.8 4:10.0 
1.0 0:2.1 1:-4.9 2:-10.4 3:-1.7 4:10.0 
1.0 0:0.3 1:0.1 2:2.3 3:-0.8 4:10.0 
1.0 0:-1.1 1:9.6 2:-11.7 3:5.3 4:10.0 
1.0 0:2.5 1:4.7 2:3.3 3:-1.7 4:10.0 
1.0 0:0.6 1:1.0 2:-0.2 3:2.3 4:10.0 
1.0 0:-3.5 1:4.5 2:-1.4 3:2.7 4:10.0 
1.0 0:1.8 1:-1.8 2:1.3 3:1.1 4:10.0 
1.0 0:-2.2 1:0.2 2:0.4 3:0.5 4:10.0 
1.0 0:-0.8 1:3.2 2:0.1 3:2.5 4:10.0 
1.0 0:-6.0 1:3.2 2:-2.2 3:3.3 4:10.0 
1.0 0:1.0 1:0.1 2:-1.4 3:2.0 4:10.0 
1.0 0:2.4 1:-3.0 2:4.6 3:-3.0 4:10.0 
1.0 0:-0.6 1:-3.1 2:-2.2 3:-1.7 4:10.0 
0.8737920905911212 0:4.8 1:0.8 2:1.3 3:-1.4 4:10.0 
1.0 0:-2.1 1:-3.0 2:-0.8 3:-0.6 4:10.0 
1.0 0:-0.6 1:-3.6 2:2.7 3:0.2 4:10.0 
0.416548026543192 0:5.7 1:-3.4 2:-3.2 3:-1.4 4:10.0 
1.0 0:-9.3 1:0.0 2:0.5 3:2.1 4:10.0 
0.9967941136666755 0:-0.5 1:0.7 2:-2.2 3:-4.1 4:10.0 
1.0 0:2.6 1:-1.7 2:1.6 3:-1.5 4:10.0 
1.0 0:0.8 1:3.6 2:-1.4 3:-8.7 4:10.0 
1.0 0:-0.3 1:2.8 2:-2.3 3:8.5 4:10.0 
1.0 0:1.4 1:-1.5 2:2.8 3:-4.0 4:10.0 
1.0 0:-5.6 1:-3.0 2:1.5 3:-5.6 4:10.0 
1.0 0:5.0 1:-0.9 2:-2.9 3:0.0 4:10.0 
1.0 0:0.9 1:1.0 2:0.4 3:-3.0 4:10.0 
0.6303943071151752 0:-4.5 1:7.4 2:0.8 3:1.9 4:10.0 
1.0 0:1.1 1:-4.2 2:-2.4 3:-3.5 4:10.0 
1.0 0:1.8 1:-2.1 2:1.2 3:0.0 4:10.0 
0.6483864749958578 0:1.0 1:2.0 2:-1.4 3:-0.5 4:10.0 
1.0 0:-3.7 1:2.4 2:-1.2 3:0.7 4:10.0 
1.0 0:-2.1 1:-7.6 2:-2.3 3:-1.7 4:10.0 
0.31088023976856094 0:-0.8 1:-6.8 2:2.0 3:2.8 4:10.0 
1.0 0:2.7 1:-2.3 2:0.5 3:1.2 4:10.0 
1.0 0:5.3 1:7.6 2:-1.0 3:8.3 4:10.0 
1.0 0:-2.0 1:5.4 2:-0.5 3:-1.6 4:10.0 
1.0 0:-2.1 1:1.2 2:2.3 3:1.8 4:10.0 
1.0 0:-2.5 1:-5.1 2:-5.5 3:-1.7 4:10.0 
1.0 0:0.3 1:-8.4 2:8.5 3:-2.5 4:10.0 
1.0 0:1.4 1:-0.3 2:0.0 3:0.6 4:10.0 
1.0 0:0.8 1:9.3 2:-14.2 3:5.3 4:10.0 
0.8394495082915714 0:-0.3 1:4.7 2:2.5 3:1.8 4:10.0 
1.0 0:1.6 1:0.1 2:1.5 3:-0.5 4:10.0 
0.27817972178340694 0:-4.6 1:6.9 2:-4.7 3:-0.2 4:10.0 
1.0 0:0.7 1:-1.0 2:0.2 3:0.0 4:10.0 
1.0 0:0.7 1:-0.4 2:0.2 3:-2.0 4:10.0 
1.0 0:5.1 1:-3.0 2:0.5 3:0.9 4:10.0 
1.0 0:1.0 1:3.4 2:-1.7 3:-1.2 4:10.0 
1.0 0:0.0 1:1.0 2:0.4 3:-0.2 4:10.0 
0.8163847844839115 0:4.0 1:-2.6 2:-2.1 3:-1.8 4:10.0 
1.0 0:5.1 1:-8.9 2:-4.1 3:-6.2 4:10.0 
1.0 0:2.9 1:-6.4 2:4.7 3:-1.8 4:10.0 
1.0 0:-2.6 1:-1.9 2:-1.7 3:-2.0 4:10.0 
1.0 0:-1.9 1:2.2 2:-0.5 3:0.6 4:10.0 
0.845226961845289 0:-6.5 1:-1.3 2:5.7 3:2.3 4:10.0 
1.0 0:-0.1 1:-0.7 2:1.6 3:1.0 4:10.0 
1.0 0:4.2 1:1.6 2:-3.0 3:-1.6 4:10.0 
0.6890796053777638 0:7.0 1:8.1 2:2.5 3:-3.9 4:10.0 
1.0 0:2.1 1:-4.2 2:-0.2 3:2.1 4:10.0 
0.5052601358381391 0:-1.0 1:1.1 2:-1.7 3:0.1 4:10.0 
0.6917618127433889 0:-4.1 1:2.6 2:2.4 3:6.2 4:10.0 
1.0 0:-0.6 1:0.0 2:-1.5 3:-0.1 4:10.0 
0.6419445708380818 0:1.9 1:-0.1 2:-1.8 3:-6.3 4:10.0 
0.42302972968408453 0:2.0 1:-0.3 2:-0.9 3:-1.8 4:10.0 
1.0 0:-1.3 1:2.8 2:-1.3 3:-0.4 4:10.0 
1.0 0:-0.8 1:-5.4 2:3.7 3:-4.3 4:10.0 
1.0 0:-6.9 1:1.4 2:-0.6 3:-10.5 4:10.0 
1.0 0:7.0 1:-0.4 2:-0.7 3:2.3 4:10.0 
1.0 0:-1.2 1:3.5 2:-1.8 3:-6.0 4:10.0 
1.0 0:-0.3 1:0.6 2:0.1 3:-0.6 4:10.0 
0.8063825405926056 0:-7.8 1:-3.3 2:-0.6 3:3.3 4:10.0 
1.0 0:-0.1 1:0.3 2:1.7 3:1.4 4:10.0 
0.9902646564813332 0:-8.4 1:1.2 2:7.1 3:1.3 4:10.0 
1.0 0:2.8 1:-1.5 2:3.1 3:0.6 4:10.0 
0.5357573451191016 0:1.8 1:-1.9 2:-1.1 3:-1.2 4:10.0 
0.873177280203937 0:-6.5 1:-3.4 2:-10.9 3:0.3 4:10.0 
0.7636982433635057 0:-2.1 1:7.2 2:2.1 3:2.2 4:10.0 
1.0 0:1.5 1:0.6 2:-2.8 3:-1.3 4:10.0 
0.7467149048310742 0:-2.6 1:3.4 2:-7.0 3:-1.8 4:10.0 
1.0 0:-0.4 1:0.8 2:-0.7 3:0.9 4:10.0 
1.0 0:1.7 1:-1.5 2:-1.0 3:-1.5 4:10.0 
1.0 0:4.5 1:0.4 2:-5.6 3:3.2 4:10.0 
1.0 0:1.4 1:0.2 2:-0.5 3:-1.4 4:10.0 
1.0 0:2.5 1:-1.7 2:-1.5 3:-1.5 4:10.0 
1.0 0:-0.9 1:0.6 2:8.0 3:4.0 4:10.0 
0.9219015006033956 0:2.8 1:-5.2 2:2.9 3:-1.7 4:10.0 
1.0 0:-0.5 1:3.2 2:-1.3 3:6.7 4:10.0 
1.0 0:-4.9 1:4.2 2:-7.9 3:-1.4 4:10.0 
0.4784017929871671 0:-2.8 1:4.1 2:0.9 3:3.8 4:10.0 
0.1725745270532665 0:2.7 1:1.1 2:4.1 3:-1.8 4:10.0 
0.47958115085665043 0:-1.3 1:0.8 2:-5.3 3:-1.5 4:10.0 
1.0 0:2.5 1:4.2 2:2.0 3:-0.9 4:10.0 
0.8626751942006455 0:-2.3 1:7.1 2:0.3 3:9.0 4:10.0 
0.20545537226598498 0:-1.9 1:8.0 2:-2.7 3:-1.2 4:10.0 
1.0 0:1.2 1:-1.2 2:2.2 3:-0.7 4:10.0 
1.0 0:0.9 1:4.9 2:-1.7 3:5.7 4:10.0 
1.0 0:1.6 1:-0.4 2:-3.2 3:1.2 4:10.0 
1.0 0:1.2 1:-1.0 2:1.0 3:-3.6 4:10.0 
0.990544923046968 0:3.9 1:-4.8 2:3.1 3:-3.0 4:10.0 
1.0 0:0.6 1:1.8 2:-1.9 3:1.9 4:10.0 
1.0 0:1.2 1:1.6 2:4.3 3:2.0 4:10.0 
1.0 0:-1.1 1:-0.1 2:-0.9 3:1.6 4:10.0 
1.0 0:-0.5 1:0.8 2:-0.8 3:0.3 4:10.0 
1.0 0:-5.7 1:5.3 2:1.0 3:-3.2 4:10.0 
0.7192401615156263 0:2.7 1:-8.3 2:-4.3 3:-0.2 4:10.0 
0.21478892654523182 0:-1.5 1:-7.2 2:1.0 3:0.3 4:10.0 
1.0 0:0.9 1:-2.2 2:-1.4 3:2.6 4:10.0 
1.0 0:-8.5 1:4.6 2:7.9 3:6.2 4:10.0 
0.4301607228472523 0:3.1 1:-0.9 2:0.2 3:-3.1 4:10.0 
1.0 0:-2.0 1:2.6 2:-1.9 3:-0.2 4:10.0 
0.4795005921318457 0:-2.9 1:-6.9 2:-0.9 3:1.2 4:10.0 
1.0 0:-2.9 1:1.1 2:-12.0 3:0.1 4:10.0 
1.0 0:0.9 1:0.1 2:-0.2 3:-0.4 4:10.0 
1.0 0:2.7 1:-0.4 2:-0.6 3:1.3 4:10.0 
0.7870133211391018 0:-1.5 1:-5.6 2:-1.6 3:6.3 4:10.0 
0.9846425292185038 0:-8.1 1:3.9 2:-2.7 3:-0.6 4:10.0 
0.44704549584044884 0:4.5 1:2.6 2:-1.2 3:-4.6 4:10.0 
0.36462465254568927 0:-2.9 1:3.1 2:1.4 3:2.5 4:10.0 
0.18104369382186922 0:-1.8 1:4.6 2:-3.3 3:-4.2 4:10.0 
1.0 0:1.3 1:6.0 2:5.5 3:-2.9 4:10.0 
1.0 0:-2.6 1:-3.6 2:2.4 3:-2.8 4:10.0 
1.0 0:-2.6 1:7.8 2:1.6 3:-9.0 4:10.0 
0.6888478906590889 0:6.9 1:0.2 2:-1.4 3:-3.3 4:10.0 
0.3628188299612302 0:-7.2 1:0.5 2:0.6 3:6.0 4:10.0 
1.0 0:-11.4 1:6.7 2:4.6 3:-1.6 4:10.0 
1.0 0:15.7 1:-12.1 2:6.5 3:-0.3 4:10.0 
1.0 0:1.7 1:-0.6 2:2.9 3:-1.9 4:10.0 
1.0 0:-6.3 1:0.9 2:2.6 3:14.4 4:10.0 
1.0 0:-5.8 1:3.0 2:-1.9 3:0.6 4:10.0 
0.6402489450560486 0:-0.1 1:-1.3 2:1.8 3:-9.0 4:10.0 
1.0 0:0.7 1:2.5 2:1.1 3:0.8 4:10.0 
1.0 0:-1.0 1:-1.3 2:-0.1 3:1.5 4:10.0 
1.0 0:-5.6 1:-1.8 2:1.9 3:-1.2 4:10.0 
1.0 0:1.4 1:2.4 2:-2.0 3:1.5 4:10.0 
0.30597762826104163 0:0.5 1:-3.6 2:-1.0 3:-0.3 4:10.0 
0.6404586934240161 0:-1.2 1:-2.2 2:3.3 3:-1.6 4:10.0 
1.0 0:-2.9 1:10.6 2:-1.7 3:5.8 4:10.0 
1.0 0:0.0 1:-0.6 2:0.4 3:-1.2 4:10.0 
1.0 0:-3.1 1:14.6 2:-11.2 3:-1.2 4:10.0 
1.0 0:2.1 1:-3.8 2:3.6 3:-0.4 4:10.0 
1.0 0:-2.1 1:-0.6 2:-1.8 3:0.5 4:10.0 
1.0 0:-2.2 1:-2.2 2:-1.1 3:1.0 4:10.0 
1.0 0:6.9 1:0.8 2:-1.1 3:6.7 4:10.0 
1.0 0:3.4 1:6.8 2:-1.8 3:-1.7 4:10.0 
0.21258265655400066 0:-2.3 1:2.0 2:-0.9 3:-0.5 4:10.0 
0.2768228815830527 0:6.1 1:-5.4 2:-1.0 3:4.1 4:10.0 
1.0 0:0.7 1:-4.4 2:0.9 3:2.0 4:10.0 
0.5425992877592323 0:-0.5 1:1.3 2:-2.5 3:-2.3 4:10.0 
1.0 0:-0.1 1:-2.0 2:-3.8 3:-1.4 4:10.0 
1.0 0:1.6 1:1.0 2:-0.8 3:0.8 4:10.0 
1.0 0:1.0 1:-1.0 2:0.0 3:-0.5 4:10.0 
1.0 0:-6.0 1:6.1 2:-7.7 3:3.7 4:10.0 
1.0 0:-0.8 1:0.3 2:0.3 3:1.8 4:10.0 
1.0 0:1.1 1:-0.1 2:0.1 3:-1.9 4:10.0 
1.0 0:-0.9 1:-2.4 2:3.4 3:1.3 4:10.0 
1.0 0:0.0 1:-2.7 2:11.6 3:3.5 4:10.0 
1.0 0:3.8 1:-2.9 2:1.2 3:-2.2 4:10.0 
0.6102821989115413 0:2.8 1:-0.9 2:-1.4 3:3.1 4:10.0 
1.0 0:1.3 1:-0.6 2:3.3 3:1.4 4:10.0 
1.0 0:4.5 1:-1.8 2:0.1 3:-5.2 4:10.0 
1.0 0:-2.9 1:-3.3 2:2.1 3:-3.3 4:10.0 
