svm_type c_svc
kernel_type rbf
gamma 0.2
nr_class 2
total_sv 1230
rho -0.12295460192207677
label 1 0
nr_sv 672 558
SV
1.0 0:0.0 1:4.0 2:12.0 3:6.0 4:1.0 5:80.0 
1.0 0:0.0 1:1.0 2:7.0 3:5.0 4:1.0 5:100.0 
0.8766367901827087 0:0.0 1:4.0 2:11.0 3:5.0 4:0.0 5:290.0 
0.8773791109152955 0:1.0 1:12.0 2:22.0 3:17.0 4:0.0 5:185.0 
1.0 0:1.0 1:8.0 2:16.0 3:12.0 4:0.0 5:40.0 
0.8769803977408889 0:3.0 1:14.0 2:29.0 3:35.0 4:0.0 5:150.0 
1.0 0:1.0 1:2.0 2:11.0 3:9.0 4:0.0 5:150.0 
1.0 0:1.0 1:2.0 2:12.0 3:19.0 4:0.0 5:150.0 
0.6047770792812944 0:1.0 1:11.0 2:21.0 3:18.0 4:0.0 5:150.0 
0.769813708924343 0:1.0 1:4.0 2:14.0 3:13.0 4:0.0 5:150.0 
0.8676364470885888 0:1.0 1:6.0 2:12.0 3:4.0 4:0.0 5:150.0 
0.48427035881787994 0:1.0 1:5.0 2:14.0 3:11.0 4:0.0 5:150.0 
0.6925338536930435 0:0.0 1:6.0 2:14.0 3:9.0 4:0.0 5:150.0 
0.8832855069872307 0:1.0 1:6.0 2:17.0 3:19.0 4:0.0 5:150.0 
0.6055716269894589 0:1.0 1:11.0 2:21.0 3:16.0 4:0.0 5:150.0 
0.8771475096159549 0:3.0 1:12.0 2:25.0 3:26.0 4:0.0 5:150.0 
0.4969440494018798 0:1.0 1:7.0 2:15.0 3:11.0 4:0.0 5:150.0 
1.0 0:0.0 1:2.0 2:11.0 3:6.0 4:0.0 5:150.0 
1.0 0:1.0 1:2.0 2:12.0 3:9.0 4:0.0 5:200.0 
1.0 0:1.0 1:3.0 2:12.0 3:10.0 4:0.0 5:200.0 
1.0 0:0.0 1:1.0 2:11.0 3:8.0 4:0.0 5:200.0 
1.0 0:1.0 1:3.0 2:12.0 3:9.0 4:0.0 5:200.0 
1.0 0:0.0 1:3.0 2:12.0 3:5.0 4:0.0 5:200.0 
1.0 0:0.0 1:2.0 2:11.0 3:6.0 4:0.0 5:40.0 
1.0 0:1.0 1:3.0 2:13.0 3:8.0 4:0.0 5:40.0 
1.0 0:0.0 1:1.0 2:8.0 3:4.0 4:0.0 5:40.0 
0.47994719474463426 0:2.0 1:12.0 2:23.0 3:21.0 4:0.0 5:40.0 
1.0 0:1.0 1:3.0 2:13.0 3:14.0 4:0.0 5:40.0 
1.0 0:0.0 1:3.0 2:11.0 3:6.0 4:0.0 5:40.0 
0.3390511960854881 0:1.0 1:2.0 2:12.0 3:8.0 4:0.0 5:50.0 
0.8772176288832875 0:2.0 1:6.0 2:19.0 3:20.0 4:0.0 5:50.0 
1.0 0:1.0 1:4.0 2:13.0 3:14.0 4:0.0 5:50.0 
0.8144840893199792 0:1.0 1:3.0 2:13.0 3:14.0 4:0.0 5:70.0 
0.8064214476740837 0:1.0 1:7.0 2:13.0 3:11.0 4:0.0 5:70.0 
1.0 0:1.0 1:4.0 2:12.0 3:5.0 4:0.0 5:40.0 
1.0 0:1.0 1:2.0 2:12.0 3:9.0 4:0.0 5:250.0 
1.0 0:1.0 1:5.0 2:13.0 3:8.0 4:0.0 5:200.0 
1.0 0:1.0 1:5.0 2:13.0 3:5.0 4:0.0 5:40.0 
0.12617528639028508 0:0.0 1:2.0 2:9.0 3:7.0 4:1.0 5:60.0 
0.8851490813660113 0:0.0 1:4.0 2:12.0 3:8.0 4:1.0 5:60.0 
0.09302971757125317 0:1.0 1:1.0 2:9.0 3:6.0 4:1.0 5:60.0 
0.8731377050752129 0:1.0 1:6.0 2:15.0 3:11.0 4:1.0 5:60.0 
0.8956880800772169 0:0.0 1:2.0 2:11.0 3:7.0 4:1.0 5:60.0 
0.7235597287347161 0:1.0 1:2.0 2:11.0 3:7.0 4:1.0 5:69.0 
1.0 0:1.0 1:0.0 2:5.0 3:5.0 4:1.0 5:69.0 
0.2687515758865332 0:1.0 1:3.0 2:11.0 3:6.0 4:1.0 5:100.0 
1.0 0:0.0 1:1.0 2:6.0 3:7.0 4:1.0 5:100.0 
0.6423157615241294 0:0.0 1:1.0 2:7.0 3:8.0 4:1.0 5:120.0 
0.13616554020442256 0:0.0 1:1.0 2:6.0 3:6.0 4:1.0 5:100.0 
1.0 0:0.0 1:1.0 2:7.0 3:5.0 4:1.0 5:100.0 
0.523238887001541 0:0.0 1:6.0 2:13.0 3:8.0 4:1.0 5:100.0 
0.6574540637436173 0:0.0 1:2.0 2:11.0 3:6.0 4:1.0 5:100.0 
1.0 0:0.0 1:1.0 2:5.0 3:4.0 4:1.0 5:100.0 
0.7870583947938788 0:0.0 1:1.0 2:6.0 3:4.0 4:1.0 5:100.0 
1.0 0:0.0 1:0.0 2:5.0 3:6.0 4:1.0 5:100.0 
1.0 0:1.0 1:1.0 2:8.0 3:4.0 4:1.0 5:100.0 
0.9584939140396371 0:0.0 1:2.0 2:11.0 3:7.0 4:1.0 5:100.0 
0.5287955591824642 0:0.0 1:1.0 2:6.0 3:7.0 4:1.0 5:211.0 
0.22150825650911454 0:0.0 1:1.0 2:6.0 3:6.0 4:1.0 5:211.0 
1.0 0:0.0 1:0.0 2:3.0 3:7.0 4:1.0 5:143.0 
0.897412191542582 0:0.0 1:3.0 2:12.0 3:10.0 4:1.0 5:143.0 
1.0 0:0.0 1:2.0 2:11.0 3:8.0 4:1.0 5:80.0 
0.5572932637518868 0:1.0 1:12.0 2:22.0 3:15.0 4:0.0 5:40.0 
0.7452803822465043 0:1.0 1:11.0 2:22.0 3:23.0 4:0.0 5:40.0 
0.5397859339162083 0:2.0 1:11.0 2:21.0 3:15.0 4:0.0 5:40.0 
1.0 0:0.0 1:0.0 2:4.0 3:4.0 4:0.0 5:60.0 
0.8770998264486999 0:3.0 1:15.0 2:30.0 3:24.0 4:0.0 5:60.0 
1.0 0:1.0 1:1.0 2:11.0 3:8.0 4:0.0 5:200.0 
0.8766257405970697 0:0.0 1:1.0 2:11.0 3:9.0 4:0.0 5:220.0 
1.0 0:0.0 1:2.0 2:8.0 3:4.0 4:0.0 5:220.0 
1.0 0:1.0 1:3.0 2:12.0 3:9.0 4:0.0 5:40.0 
1.0 0:1.0 1:3.0 2:12.0 3:8.0 4:0.0 5:40.0 
0.19712764614046685 0:1.0 1:5.0 2:14.0 3:13.0 4:0.0 5:40.0 
0.9243833778135502 0:1.0 1:6.0 2:17.0 3:16.0 4:0.0 5:40.0 
0.6003147116442626 0:1.0 1:6.0 2:16.0 3:10.0 4:0.0 5:40.0 
0.7107860236051983 0:1.0 1:2.0 2:12.0 3:12.0 4:0.0 5:100.0 
1.0 0:0.0 1:0.0 2:5.0 3:4.0 4:0.0 5:100.0 
1.0 0:1.0 1:2.0 2:12.0 3:7.0 4:0.0 5:40.0 
1.0 0:0.0 1:2.0 2:11.0 3:4.0 4:0.0 5:70.0 
1.0 0:0.0 1:4.0 2:11.0 3:5.0 4:0.0 5:70.0 
1.0 0:0.0 1:1.0 2:11.0 3:5.0 4:0.0 5:70.0 
1.0 0:0.0 1:1.0 2:5.0 3:4.0 4:0.0 5:70.0 
0.8396454750459 0:1.0 1:2.0 2:12.0 3:15.0 4:0.0 5:120.0 
0.8754137703993496 0:1.0 1:11.0 2:19.0 3:13.0 4:0.0 5:175.0 
0.8732507511475802 0:1.0 1:5.0 2:15.0 3:12.0 4:0.0 5:125.0 
0.5690152116573444 0:1.0 1:1.0 2:11.0 3:11.0 4:0.0 5:125.0 
0.8773279026213128 0:2.0 1:11.0 2:22.0 3:24.0 4:0.0 5:125.0 
0.19588464778458678 0:1.0 1:2.0 2:12.0 3:10.0 4:0.0 5:125.0 
0.5344662277864836 0:1.0 1:2.0 2:11.0 3:9.0 4:0.0 5:125.0 
0.7228122152081755 0:1.0 1:3.0 2:12.0 3:8.0 4:0.0 5:50.0 
1.0 0:1.0 1:3.0 2:13.0 3:11.0 4:0.0 5:50.0 
0.7028282699035502 0:0.0 1:2.0 2:11.0 3:14.0 4:0.0 5:90.0 
0.28360081744532145 0:0.0 1:3.0 2:12.0 3:7.0 4:0.0 5:90.0 
0.6532097820177245 0:0.0 1:8.0 2:13.0 3:12.0 4:0.0 5:90.0 
0.28033755226077417 0:0.0 1:7.0 2:13.0 3:10.0 4:0.0 5:90.0 
0.2359662692500866 0:0.0 1:3.0 2:11.0 3:12.0 4:0.0 5:90.0 
0.35381939605807355 0:1.0 1:4.0 2:13.0 3:8.0 4:0.0 5:90.0 
0.8966304849340636 0:0.0 1:2.0 2:11.0 3:9.0 4:0.0 5:90.0 
0.5231483325340994 0:1.0 1:8.0 2:17.0 3:7.0 4:0.0 5:90.0 
0.5120976552451411 0:1.0 1:9.0 2:18.0 3:7.0 4:0.0 5:90.0 
0.49606038447364265 0:1.0 1:3.0 2:12.0 3:5.0 4:0.0 5:90.0 
0.3037406796921455 0:1.0 1:3.0 2:12.0 3:12.0 4:0.0 5:90.0 
1.0 0:0.0 1:2.0 2:11.0 3:6.0 4:0.0 5:90.0 
0.4152796662427302 0:1.0 1:6.0 2:13.0 3:9.0 4:0.0 5:90.0 
0.542936257170954 0:1.0 1:8.0 2:17.0 3:13.0 4:0.0 5:90.0 
0.028177266852986098 0:1.0 1:3.0 2:12.0 3:10.0 4:0.0 5:90.0 
0.8297776457972503 0:1.0 1:11.0 2:19.0 3:11.0 4:0.0 5:90.0 
0.10908065283842959 0:0.0 1:4.0 2:12.0 3:8.0 4:0.0 5:90.0 
0.33318480996304367 0:1.0 1:8.0 2:17.0 3:12.0 4:0.0 5:90.0 
0.5993818005100621 0:1.0 1:5.0 2:14.0 3:12.0 4:0.0 5:90.0 
0.9097336651668628 0:1.0 1:14.0 2:24.0 3:20.0 4:1.0 5:70.0 
1.0 0:0.0 1:2.0 2:11.0 3:9.0 4:0.0 5:40.0 
0.46749631433000244 0:1.0 1:2.0 2:11.0 3:9.0 4:0.0 5:60.0 
0.8816743045233407 0:0.0 1:2.0 2:8.0 3:4.0 4:0.0 5:60.0 
0.8771791705228769 0:1.0 1:13.0 2:22.0 3:19.0 4:1.0 5:80.0 
0.10958359650472521 0:1.0 1:3.0 2:12.0 3:11.0 4:0.0 5:40.0 
0.702751045557067 0:1.0 1:13.0 2:23.0 3:19.0 4:0.0 5:40.0 
0.8423552721033456 0:1.0 1:5.0 2:15.0 3:15.0 4:0.0 5:40.0 
1.0 0:1.0 1:3.0 2:12.0 3:11.0 4:0.0 5:40.0 
0.5889692648188181 0:1.0 1:6.0 2:14.0 3:9.0 4:0.0 5:40.0 
0.10373351004173914 0:1.0 1:3.0 2:12.0 3:10.0 4:0.0 5:40.0 
0.9648139556613867 0:0.0 1:2.0 2:11.0 3:8.0 4:1.0 5:70.0 
0.7870115313043751 0:0.0 1:5.0 2:12.0 3:10.0 4:1.0 5:70.0 
0.06261565281041162 0:0.0 1:2.0 2:11.0 3:10.0 4:1.0 5:70.0 
0.5712728826005885 0:0.0 1:2.0 2:11.0 3:11.0 4:1.0 5:70.0 
1.0 0:1.0 1:1.0 2:11.0 3:5.0 4:1.0 5:100.0 
1.0 0:1.0 1:1.0 2:8.0 3:3.0 4:1.0 5:70.0 
0.36706242395284183 0:2.0 1:11.0 2:21.0 3:7.0 4:1.0 5:70.0 
0.7495225331334509 0:4.0 1:11.0 2:22.0 3:6.0 4:1.0 5:70.0 
0.06914877693257128 0:1.0 1:5.0 2:13.0 3:7.0 4:1.0 5:70.0 
0.405038923689334 0:1.0 1:2.0 2:11.0 3:8.0 4:1.0 5:70.0 
0.24457721722326603 0:1.0 1:4.0 2:12.0 3:9.0 4:1.0 5:70.0 
1.0 0:0.0 1:1.0 2:5.0 3:3.0 4:1.0 5:70.0 
1.0 0:0.0 1:1.0 2:5.0 3:7.0 4:1.0 5:70.0 
1.0 0:1.0 1:3.0 2:14.0 3:4.0 4:1.0 5:70.0 
1.0 0:2.0 1:8.0 2:17.0 3:6.0 4:1.0 5:70.0 
0.8179754185204092 0:11.0 1:11.0 2:25.0 3:10.0 4:1.0 5:70.0 
0.9928961028315437 0:2.0 1:3.0 2:13.0 3:5.0 4:1.0 5:70.0 
1.0 0:0.0 1:1.0 2:5.0 3:3.0 4:1.0 5:70.0 
1.0 0:1.0 1:1.0 2:7.0 3:4.0 4:1.0 5:70.0 
0.5299769710619034 0:2.0 1:6.0 2:18.0 3:8.0 4:1.0 5:70.0 
1.0 0:1.0 1:0.0 2:7.0 3:4.0 4:1.0 5:70.0 
1.0 0:0.0 1:2.0 2:7.0 3:5.0 4:1.0 5:70.0 
0.7460633757357575 0:3.0 1:12.0 2:22.0 3:12.0 4:1.0 5:70.0 
0.6426625992331955 0:2.0 1:9.0 2:19.0 3:11.0 4:1.0 5:70.0 
0.7595129744985258 0:3.0 1:7.0 2:19.0 3:6.0 4:1.0 5:70.0 
0.8286195828198192 0:11.0 1:13.0 2:24.0 3:13.0 4:1.0 5:70.0 
0.22120428635745018 0:2.0 1:5.0 2:15.0 3:5.0 4:1.0 5:70.0 
0.9221268874494218 0:3.0 1:13.0 2:27.0 3:13.0 4:1.0 5:70.0 
0.2788639080401478 0:2.0 1:8.0 2:21.0 3:7.0 4:1.0 5:70.0 
0.06989415647436446 0:2.0 1:5.0 2:15.0 3:7.0 4:1.0 5:70.0 
0.11271112602591536 0:2.0 1:11.0 2:22.0 3:11.0 4:1.0 5:70.0 
0.04433400797518997 0:2.0 1:8.0 2:21.0 3:8.0 4:1.0 5:70.0 
0.6191679580827325 0:4.0 1:11.0 2:23.0 3:9.0 4:1.0 5:70.0 
0.5443012195695257 0:2.0 1:4.0 2:16.0 3:5.0 4:1.0 5:70.0 
0.9680730714763301 0:1.0 1:6.0 2:15.0 3:5.0 4:1.0 5:70.0 
0.45327456856797993 0:3.0 1:5.0 2:16.0 3:6.0 4:1.0 5:70.0 
0.41815087382242083 0:0.0 1:2.0 2:7.0 3:4.0 4:1.0 5:70.0 
1.0 0:7.0 1:12.0 2:27.0 3:9.0 4:1.0 5:70.0 
0.20525382592681232 0:1.0 1:2.0 2:12.0 3:8.0 4:1.0 5:70.0 
0.5575981291341311 0:2.0 1:1.0 2:12.0 3:8.0 4:1.0 5:70.0 
1.0 0:0.0 1:1.0 2:5.0 3:13.0 4:1.0 5:70.0 
0.5191784729290876 0:2.0 1:6.0 2:17.0 3:6.0 4:1.0 5:70.0 
1.0 0:1.0 1:1.0 2:8.0 3:3.0 4:1.0 5:70.0 
1.0 0:0.0 1:1.0 2:5.0 3:6.0 4:1.0 5:70.0 
0.3348309435894693 0:1.0 1:2.0 2:12.0 3:4.0 4:1.0 5:70.0 
1.0 0:1.0 1:0.0 2:7.0 3:4.0 4:1.0 5:70.0 
1.0 0:3.0 1:2.0 2:12.0 3:6.0 4:1.0 5:70.0 
0.2716730767623712 0:1.0 1:1.0 2:5.0 3:3.0 4:1.0 5:70.0 
0.43923607678491594 0:1.0 1:1.0 2:7.0 3:4.0 4:1.0 5:70.0 
1.0 0:2.0 1:1.0 2:11.0 3:4.0 4:1.0 5:70.0 
1.0 0:1.0 1:2.0 2:12.0 3:4.0 4:1.0 5:70.0 
0.2741114974341676 0:1.0 1:9.0 2:21.0 3:7.0 4:1.0 5:70.0 
1.0 0:1.0 1:1.0 2:6.0 3:3.0 4:1.0 5:70.0 
1.0 0:2.0 1:2.0 2:11.0 3:4.0 4:1.0 5:70.0 
1.0 0:1.0 1:5.0 2:14.0 3:5.0 4:1.0 5:70.0 
0.9982132721431102 0:1.0 1:2.0 2:12.0 3:4.0 4:1.0 5:70.0 
1.0 0:0.0 1:1.0 2:5.0 3:4.0 4:1.0 5:70.0 
0.9579694270444961 0:7.0 1:4.0 2:18.0 3:5.0 4:1.0 5:70.0 
1.0 0:2.0 1:1.0 2:11.0 3:7.0 4:1.0 5:70.0 
0.7614189720519572 0:3.0 1:2.0 2:15.0 3:7.0 4:1.0 5:70.0 
1.0 0:2.0 1:0.0 2:7.0 3:4.0 4:1.0 5:70.0 
1.0 0:1.0 1:1.0 2:7.0 3:6.0 4:1.0 5:70.0 
1.0 0:1.0 1:1.0 2:8.0 3:4.0 4:1.0 5:70.0 
1.0 0:1.0 1:1.0 2:8.0 3:8.0 4:1.0 5:70.0 
0.801430314446314 0:1.0 1:1.0 2:5.0 3:5.0 4:1.0 5:70.0 
0.5346376474993056 0:2.0 1:0.0 2:5.0 3:4.0 4:1.0 5:70.0 
0.14651512986021945 0:1.0 1:1.0 2:11.0 3:4.0 4:1.0 5:70.0 
0.6225825446145118 0:1.0 1:4.0 2:14.0 3:6.0 4:1.0 5:70.0 
0.06135176903015785 0:1.0 1:3.0 2:13.0 3:7.0 4:1.0 5:70.0 
0.2637886444540675 0:1.0 1:1.0 2:9.0 3:5.0 4:1.0 5:70.0 
0.22604332842534636 0:1.0 1:2.0 2:11.0 3:4.0 4:1.0 5:70.0 
1.0 0:1.0 1:1.0 2:11.0 3:4.0 4:1.0 5:70.0 
1.0 0:1.0 1:1.0 2:9.0 3:3.0 4:1.0 5:70.0 
0.5089639187401342 0:2.0 1:8.0 2:21.0 3:10.0 4:1.0 5:70.0 
0.4416274564400281 0:1.0 1:11.0 2:21.0 3:9.0 4:1.0 5:70.0 
1.0 0:0.0 1:1.0 2:8.0 3:5.0 4:1.0 5:70.0 
0.6591294920120446 0:2.0 1:6.0 2:15.0 3:8.0 4:1.0 5:70.0 
1.0 0:1.0 1:1.0 2:9.0 3:6.0 4:1.0 5:70.0 
1.0 0:1.0 1:0.0 2:7.0 3:5.0 4:1.0 5:70.0 
0.7025839052665344 0:1.0 1:0.0 2:5.0 3:3.0 4:1.0 5:70.0 
1.0 0:1.0 1:1.0 2:7.0 3:5.0 4:1.0 5:70.0 
0.3246040481744501 0:1.0 1:1.0 2:9.0 3:4.0 4:1.0 5:70.0 
1.0 0:1.0 1:1.0 2:7.0 3:8.0 4:1.0 5:70.0 
0.45539059625096245 0:0.0 1:1.0 2:7.0 3:5.0 4:1.0 5:70.0 
0.6933419364443416 0:0.0 1:1.0 2:6.0 3:5.0 4:1.0 5:70.0 
1.0 0:0.0 1:1.0 2:5.0 3:4.0 4:1.0 5:100.0 
1.0 0:2.0 1:2.0 2:13.0 3:3.0 4:0.0 5:40.0 
1.0 0:2.0 1:1.0 2:11.0 3:2.0 4:0.0 5:40.0 
0.8434080214892836 0:5.0 1:2.0 2:16.0 3:3.0 4:0.0 5:40.0 
1.0 0:1.0 1:1.0 2:11.0 3:2.0 4:0.0 5:40.0 
1.0 0:5.0 1:3.0 2:15.0 3:4.0 4:0.0 5:40.0 
1.0 0:2.0 1:1.0 2:11.0 3:3.0 4:0.0 5:40.0 
1.0 0:3.0 1:1.0 2:11.0 3:3.0 4:0.0 5:40.0 
1.0 0:4.0 1:2.0 2:13.0 3:3.0 4:0.0 5:40.0 
0.7839746020050548 0:0.0 1:3.0 2:11.0 3:5.0 4:0.0 5:175.0 
0.4171201680185851 0:1.0 1:12.0 2:21.0 3:8.0 4:0.0 5:175.0 
0.6715108190736343 0:2.0 1:12.0 2:21.0 3:6.0 4:0.0 5:175.0 
0.30897285748874903 0:1.0 1:2.0 2:11.0 3:3.0 4:0.0 5:175.0 
0.9660940090837739 0:1.0 1:1.0 2:11.0 3:4.0 4:0.0 5:175.0 
0.7005639040564592 0:2.0 1:12.0 2:23.0 3:9.0 4:0.0 5:175.0 
0.7017120495025255 0:1.0 1:5.0 2:12.0 3:6.0 4:0.0 5:175.0 
1.0 0:1.0 1:1.0 2:7.0 3:6.0 4:0.0 5:40.0 
0.6433295472348516 0:0.0 1:1.0 2:7.0 3:9.0 4:0.0 5:40.0 
0.7915316372633099 0:1.0 1:5.0 2:14.0 3:28.0 4:0.0 5:40.0 
1.0 0:1.0 1:0.0 2:7.0 3:3.0 4:0.0 5:40.0 
0.8771910039387181 0:1.0 1:11.0 2:18.0 3:33.0 4:0.0 5:40.0 
1.0 0:1.0 1:0.0 2:7.0 3:2.0 4:0.0 5:40.0 
1.0 0:1.0 1:1.0 2:11.0 3:3.0 4:0.0 5:40.0 
1.0 0:1.0 1:1.0 2:11.0 3:3.0 4:0.0 5:40.0 
1.0 0:0.0 1:1.0 2:6.0 3:2.0 4:0.0 5:40.0 
0.4886814774632276 0:0.0 1:0.0 2:7.0 3:6.0 4:0.0 5:40.0 
0.8026406529685688 0:2.0 1:2.0 2:15.0 3:28.0 4:0.0 5:40.0 
1.0 0:1.0 1:1.0 2:11.0 3:11.0 4:0.0 5:40.0 
1.0 0:1.0 1:1.0 2:11.0 3:11.0 4:0.0 5:40.0 
1.0 0:0.0 1:0.0 2:5.0 3:4.0 4:0.0 5:40.0 
0.5434328515735093 0:0.0 1:1.0 2:7.0 3:6.0 4:0.0 5:40.0 
0.39572815676008266 0:1.0 1:1.0 2:8.0 3:9.0 4:0.0 5:40.0 
1.0 0:0.0 1:1.0 2:5.0 3:4.0 4:0.0 5:40.0 
1.0 0:0.0 1:1.0 2:5.0 3:4.0 4:0.0 5:40.0 
0.6162548953484563 0:0.0 1:0.0 2:6.0 3:4.0 4:0.0 5:40.0 
1.0 0:1.0 1:1.0 2:11.0 3:6.0 4:0.0 5:40.0 
0.2923926046561739 0:1.0 1:1.0 2:9.0 3:9.0 4:0.0 5:40.0 
0.8324224696837058 0:6.0 1:6.0 2:22.0 3:15.0 4:0.0 5:40.0 
0.8610915245564486 0:7.0 1:4.0 2:22.0 3:22.0 4:0.0 5:40.0 
0.5657722746844795 0:1.0 1:1.0 2:12.0 3:18.0 4:0.0 5:40.0 
1.0 0:1.0 1:1.0 2:11.0 3:11.0 4:0.0 5:40.0 
0.5678099863660678 0:1.0 1:2.0 2:12.0 3:17.0 4:0.0 5:40.0 
1.0 0:1.0 1:1.0 2:11.0 3:13.0 4:0.0 5:40.0 
0.8299135502344953 0:1.0 1:4.0 2:15.0 3:6.0 4:0.0 5:40.0 
0.5733445300188923 0:2.0 1:3.0 2:16.0 3:7.0 4:1.0 5:80.0 
0.8772949403938655 0:11.0 1:38.0 2:172.0 3:31.0 4:0.0 5:40.0 
0.24994422511160008 0:12.0 1:12.0 2:45.0 3:24.0 4:0.0 5:40.0 
0.3543307717030693 0:12.0 1:12.0 2:41.0 3:25.0 4:0.0 5:40.0 
0.4782007140639112 0:12.0 1:12.0 2:45.0 3:25.0 4:0.0 5:40.0 
0.5639992930893927 0:14.0 1:12.0 2:44.0 3:24.0 4:0.0 5:40.0 
0.1574867709760542 0:12.0 1:11.0 2:40.0 3:25.0 4:0.0 5:40.0 
0.716737174731417 0:18.0 1:12.0 2:40.0 3:23.0 4:0.0 5:40.0 
0.013649090245484864 0:12.0 1:12.0 2:42.0 3:24.0 4:0.0 5:40.0 
0.421882319538509 0:13.0 1:12.0 2:41.0 3:23.0 4:0.0 5:40.0 
0.554279807737387 0:16.0 1:11.0 2:39.0 3:24.0 4:0.0 5:40.0 
0.364760337743627 0:12.0 1:12.0 2:38.0 3:25.0 4:0.0 5:40.0 
0.6296200461021425 0:14.0 1:11.0 2:36.0 3:26.0 4:0.0 5:40.0 
0.4240974700200362 0:16.0 1:12.0 2:36.0 3:25.0 4:0.0 5:40.0 
0.1033664232060363 0:11.0 1:12.0 2:37.0 3:24.0 4:0.0 5:40.0 
0.4206155460939164 0:11.0 1:11.0 2:40.0 3:23.0 4:0.0 5:40.0 
0.22438395766439098 0:11.0 1:12.0 2:38.0 3:23.0 4:0.0 5:40.0 
0.02675195495043802 0:11.0 1:11.0 2:38.0 3:23.0 4:0.0 5:40.0 
0.43988039909178944 0:18.0 1:11.0 2:36.0 3:23.0 4:0.0 5:40.0 
1.0 0:1.0 1:1.0 2:11.0 3:3.0 4:0.0 5:40.0 
0.464285700064801 0:11.0 1:11.0 2:36.0 3:22.0 4:0.0 5:40.0 
1.0 0:1.0 1:1.0 2:11.0 3:2.0 4:0.0 5:40.0 
0.420233882236735 0:11.0 1:11.0 2:33.0 3:23.0 4:0.0 5:40.0 
0.5750681800818382 0:3.0 1:5.0 2:19.0 3:3.0 4:0.0 5:40.0 
0.3445201191142344 0:11.0 1:11.0 2:35.0 3:24.0 4:0.0 5:40.0 
1.0 0:2.0 1:3.0 2:15.0 3:3.0 4:0.0 5:40.0 
1.0 0:3.0 1:3.0 2:16.0 3:4.0 4:0.0 5:40.0 
1.0 0:2.0 1:5.0 2:17.0 3:4.0 4:0.0 5:40.0 
0.06662105082757831 0:11.0 1:11.0 2:31.0 3:23.0 4:0.0 5:40.0 
0.5465219723480307 0:11.0 1:11.0 2:33.0 3:20.0 4:0.0 5:40.0 
0.5165869452608863 0:11.0 1:11.0 2:30.0 3:23.0 4:0.0 5:40.0 
0.521199413954984 0:13.0 1:11.0 2:30.0 3:21.0 4:0.0 5:40.0 
0.40945101329676337 0:11.0 1:11.0 2:31.0 3:19.0 4:0.0 5:40.0 
0.5455939647092518 0:11.0 1:7.0 2:25.0 3:20.0 4:0.0 5:40.0 
0.0788071598713922 0:11.0 1:11.0 2:30.0 3:19.0 4:0.0 5:40.0 
0.5186051956482451 0:11.0 1:7.0 2:25.0 3:17.0 4:0.0 5:40.0 
0.639596041215014 0:11.0 1:5.0 2:25.0 3:2.0 4:0.0 5:40.0 
0.4710694161082545 0:11.0 1:11.0 2:28.0 3:21.0 4:0.0 5:40.0 
0.2311755132289209 0:11.0 1:8.0 2:25.0 3:18.0 4:0.0 5:40.0 
1.0 0:7.0 1:11.0 2:22.0 3:5.0 4:0.0 5:40.0 
0.5459475806748603 0:11.0 1:11.0 2:28.0 3:17.0 4:0.0 5:40.0 
1.0 0:3.0 1:1.0 2:13.0 3:4.0 4:0.0 5:40.0 
1.0 0:2.0 1:1.0 2:12.0 3:4.0 4:0.0 5:40.0 
0.2689425950743286 0:11.0 1:4.0 2:24.0 3:15.0 4:0.0 5:40.0 
1.0 0:5.0 1:11.0 2:22.0 3:4.0 4:0.0 5:40.0 
0.6849876492951479 0:11.0 1:5.0 2:23.0 3:21.0 4:0.0 5:40.0 
0.14234683801293596 0:11.0 1:5.0 2:24.0 3:19.0 4:0.0 5:40.0 
0.3933405036816867 0:11.0 1:5.0 2:23.0 3:17.0 4:0.0 5:40.0 
0.0575735462997892 0:11.0 1:4.0 2:23.0 3:15.0 4:0.0 5:40.0 
0.07593289727184001 0:11.0 1:4.0 2:24.0 3:17.0 4:0.0 5:40.0 
0.26412427817859874 0:11.0 1:4.0 2:23.0 3:17.0 4:0.0 5:40.0 
0.6099638257518516 0:11.0 1:6.0 2:26.0 3:13.0 4:0.0 5:40.0 
1.0 0:3.0 1:1.0 2:12.0 3:3.0 4:0.0 5:40.0 
1.0 0:3.0 1:1.0 2:12.0 3:3.0 4:0.0 5:40.0 
1.0 0:3.0 1:1.0 2:12.0 3:4.0 4:0.0 5:40.0 
0.6412173747229956 0:11.0 1:6.0 2:25.0 3:0.0 4:0.0 5:40.0 
0.12597255275623345 0:8.0 1:7.0 2:21.0 3:4.0 4:0.0 5:40.0 
0.7586841455400628 0:7.0 1:5.0 2:21.0 3:4.0 4:0.0 5:40.0 
0.011989096872638926 0:11.0 1:6.0 2:27.0 3:16.0 4:0.0 5:40.0 
0.7186912574253859 0:9.0 1:8.0 2:22.0 3:5.0 4:0.0 5:40.0 
0.3289142357556253 0:11.0 1:5.0 2:26.0 3:17.0 4:0.0 5:40.0 
0.9315264248957491 0:0.0 1:0.0 2:0.0 3:2.0 4:0.0 5:40.0 
0.4165990844696726 0:11.0 1:5.0 2:25.0 3:17.0 4:0.0 5:40.0 
0.0053050057508974196 0:11.0 1:6.0 2:26.0 3:18.0 4:0.0 5:40.0 
0.6041840371737601 0:6.0 1:8.0 2:22.0 3:3.0 4:0.0 5:40.0 
0.34527741162867837 0:5.0 1:6.0 2:21.0 3:4.0 4:0.0 5:40.0 
0.08708982863555578 0:11.0 1:8.0 2:26.0 3:18.0 4:0.0 5:40.0 
1.0 0:3.0 1:1.0 2:12.0 3:3.0 4:0.0 5:40.0 
1.0 0:3.0 1:1.0 2:12.0 3:5.0 4:0.0 5:40.0 
1.0 0:2.0 1:1.0 2:11.0 3:3.0 4:0.0 5:40.0 
0.39705457374254 0:11.0 1:6.0 2:27.0 3:17.0 4:0.0 5:40.0 
0.25111508762616286 0:11.0 1:7.0 2:26.0 3:15.0 4:0.0 5:40.0 
0.5070520481151284 0:11.0 1:5.0 2:25.0 3:16.0 4:0.0 5:40.0 
0.2353823489780509 0:11.0 1:5.0 2:26.0 3:16.0 4:0.0 5:40.0 
0.34442134288771187 0:11.0 1:6.0 2:25.0 3:16.0 4:0.0 5:40.0 
0.23324257553849725 0:11.0 1:5.0 2:24.0 3:11.0 4:0.0 5:40.0 
0.6866389026850648 0:11.0 1:4.0 2:23.0 3:10.0 4:0.0 5:40.0 
0.8709316850984922 0:17.0 1:11.0 2:34.0 3:19.0 4:0.0 5:50.0 
0.7712104028768452 0:12.0 1:11.0 2:36.0 3:20.0 4:0.0 5:50.0 
0.7678356086256807 0:12.0 1:11.0 2:33.0 3:19.0 4:0.0 5:50.0 
0.07241559602307177 0:12.0 1:11.0 2:35.0 3:23.0 4:0.0 5:40.0 
0.45511391325314926 0:18.0 1:11.0 2:35.0 3:24.0 4:0.0 5:40.0 
0.22102270084718673 0:11.0 1:5.0 2:23.0 3:13.0 4:0.0 5:40.0 
0.18225251104407666 0:11.0 1:4.0 2:23.0 3:14.0 4:0.0 5:40.0 
0.6899204077249168 0:11.0 1:11.0 2:25.0 3:16.0 4:0.0 5:40.0 
0.1738144451763743 0:11.0 1:4.0 2:23.0 3:13.0 4:0.0 5:40.0 
0.12330152158351314 0:11.0 1:11.0 2:26.0 3:18.0 4:0.0 5:40.0 
0.28161730172440974 0:11.0 1:11.0 2:27.0 3:19.0 4:0.0 5:40.0 
1.0 0:4.0 1:12.0 2:25.0 3:26.0 4:0.0 5:40.0 
1.0 0:2.0 1:1.0 2:12.0 3:9.0 4:0.0 5:40.0 
1.0 0:2.0 1:0.0 2:6.0 3:3.0 4:1.0 5:100.0 
0.3747701726996338 0:0.0 1:0.0 2:2.0 3:6.0 4:0.0 5:50.0 
0.33554373947428767 0:1.0 1:0.0 2:4.0 3:2.0 4:0.0 5:50.0 
0.023802558398357588 0:0.0 1:0.0 2:0.0 3:5.0 4:0.0 5:50.0 
0.33803671960392356 0:0.0 1:0.0 2:0.0 3:6.0 4:0.0 5:50.0 
0.47136836674791327 0:0.0 1:0.0 2:0.0 3:3.0 4:0.0 5:50.0 
0.6881153679339551 0:2.0 1:1.0 2:6.0 3:8.0 4:0.0 5:50.0 
0.006263981910102549 0:0.0 1:0.0 2:1.0 3:2.0 4:0.0 5:50.0 
5.532944245573226E-4 0:0.0 1:0.0 2:1.0 3:7.0 4:0.0 5:50.0 
0.2686333431205727 0:0.0 1:0.0 2:1.0 3:2.0 4:0.0 5:50.0 
0.6381610571223049 0:1.0 1:0.0 2:3.0 3:4.0 4:0.0 5:50.0 
0.26152263887723015 0:0.0 1:0.0 2:2.0 3:2.0 4:0.0 5:50.0 
0.8299839864161086 0:1.0 1:0.0 2:2.0 3:2.0 4:0.0 5:50.0 
0.720353699346766 0:1.0 1:0.0 2:4.0 3:3.0 4:0.0 5:50.0 
0.3529578230661261 0:0.0 1:0.0 2:1.0 3:7.0 4:0.0 5:50.0 
0.86295643014182 0:1.0 1:3.0 2:12.0 3:9.0 4:0.0 5:120.0 
0.8584211991630523 0:1.0 1:5.0 2:13.0 3:18.0 4:0.0 5:120.0 
1.0 0:1.0 1:6.0 2:13.0 3:5.0 4:0.0 5:120.0 
1.0 0:0.0 1:3.0 2:12.0 3:6.0 4:0.0 5:120.0 
0.4109540496928965 0:1.0 1:8.0 2:15.0 3:6.0 4:0.0 5:120.0 
0.525068830309361 0:2.0 1:7.0 2:15.0 3:6.0 4:0.0 5:120.0 
0.8772945867491772 0:0.0 1:11.0 2:17.0 3:7.0 4:0.0 5:50.0 
1.0 0:0.0 1:3.0 2:11.0 3:3.0 4:0.0 5:40.0 
1.0 0:0.0 1:2.0 2:9.0 3:4.0 4:0.0 5:40.0 
1.0 0:0.0 1:3.0 2:11.0 3:4.0 4:0.0 5:40.0 
1.0 0:0.0 1:4.0 2:11.0 3:4.0 4:0.0 5:40.0 
1.0 0:0.0 1:3.0 2:7.0 3:3.0 4:0.0 5:40.0 
1.0 0:0.0 1:2.0 2:8.0 3:4.0 4:0.0 5:40.0 
1.0 0:0.0 1:2.0 2:11.0 3:4.0 4:0.0 5:40.0 
1.0 0:0.0 1:2.0 2:5.0 3:5.0 4:0.0 5:40.0 
0.07378820483488127 0:0.0 1:1.0 2:6.0 3:3.0 4:0.0 5:40.0 
1.0 0:3.0 1:0.0 2:11.0 3:5.0 4:1.0 5:69.0 
0.5479528975839899 0:1.0 1:0.0 2:5.0 3:5.0 4:1.0 5:69.0 
1.0 0:2.0 1:0.0 2:11.0 3:4.0 4:1.0 5:69.0 
1.0 0:2.0 1:0.0 2:8.0 3:5.0 4:1.0 5:69.0 
1.0 0:2.0 1:0.0 2:5.0 3:4.0 4:1.0 5:69.0 
1.0 0:2.0 1:0.0 2:6.0 3:5.0 4:1.0 5:69.0 
1.0 0:1.0 1:0.0 2:7.0 3:4.0 4:1.0 5:69.0 
1.0 0:2.0 1:11.0 2:22.0 3:22.0 4:1.0 5:69.0 
0.859593521834051 0:0.0 1:1.0 2:7.0 3:5.0 4:1.0 5:143.0 
1.0 0:0.0 1:3.0 2:11.0 3:5.0 4:0.0 5:100.0 
0.1728961326758015 0:1.0 1:8.0 2:15.0 3:6.0 4:0.0 5:100.0 
0.5458603261548718 0:1.0 1:11.0 2:21.0 3:7.0 4:0.0 5:100.0 
0.5954557963555772 0:1.0 1:11.0 2:21.0 3:6.0 4:0.0 5:100.0 
0.6357432294314292 0:1.0 1:11.0 2:14.0 3:7.0 4:0.0 5:100.0 
0.6490688688823443 0:0.0 1:5.0 2:13.0 3:6.0 4:0.0 5:100.0 
0.4143849334257578 0:1.0 1:8.0 2:14.0 3:8.0 4:0.0 5:100.0 
0.3162948421839164 0:0.0 1:8.0 2:14.0 3:6.0 4:0.0 5:100.0 
0.7400773380951302 0:1.0 1:11.0 2:19.0 3:9.0 4:0.0 5:100.0 
0.535444725618826 0:1.0 1:11.0 2:17.0 3:5.0 4:0.0 5:100.0 
0.388169473753983 0:1.0 1:9.0 2:17.0 3:6.0 4:0.0 5:100.0 
0.12053915350449709 0:1.0 1:11.0 2:19.0 3:6.0 4:0.0 5:100.0 
0.14089130461610833 0:1.0 1:11.0 2:16.0 3:7.0 4:0.0 5:100.0 
1.0 0:0.0 1:2.0 2:11.0 3:4.0 4:0.0 5:100.0 
1.0 0:0.0 1:2.0 2:11.0 3:3.0 4:0.0 5:100.0 
0.8870901222400597 0:0.0 1:1.0 2:5.0 3:4.0 4:0.0 5:100.0 
1.0 0:0.0 1:2.0 2:11.0 3:5.0 4:0.0 5:100.0 
0.21321261114080478 0:0.0 1:2.0 2:8.0 3:3.0 4:0.0 5:100.0 
1.0 0:1.0 1:1.0 2:8.0 3:4.0 4:0.0 5:100.0 
0.6021863149913321 0:1.0 1:1.0 2:11.0 3:7.0 4:1.0 5:100.0 
0.8726546406049985 0:9.0 1:7.0 2:21.0 3:10.0 4:1.0 5:80.0 
1.0 0:0.0 1:1.0 2:4.0 3:4.0 4:1.0 5:120.0 
0.8771509823474275 0:1.0 1:5.0 2:15.0 3:12.0 4:0.0 5:290.0 
1.0 0:1.0 1:1.0 2:11.0 3:6.0 4:0.0 5:185.0 
1.0 0:2.0 1:5.0 2:16.0 3:4.0 4:0.0 5:200.0 
0.04418150693182406 0:1.0 1:1.0 2:11.0 3:15.0 4:0.0 5:200.0 
1.0 0:0.0 1:2.0 2:11.0 3:4.0 4:0.0 5:50.0 
1.0 0:1.0 1:4.0 2:13.0 3:5.0 4:0.0 5:50.0 
0.8021751256847257 0:0.0 1:2.0 2:12.0 3:7.0 4:0.0 5:70.0 
1.0 0:2.0 1:0.0 2:11.0 3:3.0 4:0.0 5:40.0 
1.0 0:0.0 1:3.0 2:11.0 3:5.0 4:0.0 5:40.0 
0.7421374490291786 0:1.0 1:1.0 2:11.0 3:9.0 4:0.0 5:70.0 
1.0 0:4.0 1:0.0 2:11.0 3:5.0 4:1.0 5:50.0 
1.0 0:1.0 1:1.0 2:11.0 3:9.0 4:1.0 5:50.0 
0.9893435539336953 0:3.0 1:2.0 2:15.0 3:6.0 4:0.0 5:50.0 
1.0 0:2.0 1:1.0 2:11.0 3:6.0 4:0.0 5:50.0 
1.0 0:1.0 1:2.0 2:11.0 3:10.0 4:0.0 5:50.0 
0.3854853728629792 0:1.0 1:2.0 2:12.0 3:14.0 4:1.0 5:80.0 
0.2123887322912053 0:1.0 1:1.0 2:11.0 3:5.0 4:1.0 5:80.0 
0.21965871310297813 0:0.0 1:1.0 2:5.0 3:6.0 4:1.0 5:60.0 
0.5332721192627515 0:0.0 1:0.0 2:4.0 3:7.0 4:1.0 5:60.0 
0.5503641206412625 0:0.0 1:0.0 2:3.0 3:5.0 4:1.0 5:60.0 
0.9269014330388081 0:0.0 1:0.0 2:3.0 3:5.0 4:1.0 5:60.0 
0.49915812275015536 0:1.0 1:1.0 2:6.0 3:8.0 4:1.0 5:60.0 
0.8124705175415561 0:1.0 1:1.0 2:11.0 3:12.0 4:1.0 5:60.0 
1.0 0:0.0 1:1.0 2:6.0 3:6.0 4:1.0 5:60.0 
0.04731507688996112 0:0.0 1:1.0 2:11.0 3:8.0 4:1.0 5:60.0 
0.7408467729679106 0:3.0 1:3.0 2:16.0 3:13.0 4:1.0 5:60.0 
0.390264663990287 0:1.0 1:1.0 2:8.0 3:6.0 4:1.0 5:60.0 
0.44059203371732264 0:1.0 1:1.0 2:8.0 3:8.0 4:1.0 5:60.0 
0.3382959577865439 0:0.0 1:0.0 2:5.0 3:7.0 4:1.0 5:60.0 
0.589845535732583 0:1.0 1:2.0 2:12.0 3:9.0 4:1.0 5:60.0 
0.04522945766385393 0:1.0 1:2.0 2:11.0 3:7.0 4:1.0 5:60.0 
5.182201825923854E-4 0:0.0 1:1.0 2:11.0 3:8.0 4:1.0 5:60.0 
0.6174186233120033 0:1.0 1:2.0 2:11.0 3:7.0 4:1.0 5:60.0 
0.014802212744717765 0:0.0 1:1.0 2:5.0 3:6.0 4:1.0 5:60.0 
0.4269266143390519 0:1.0 1:1.0 2:8.0 3:9.0 4:1.0 5:60.0 
0.5376451708035087 0:2.0 1:3.0 2:16.0 3:16.0 4:1.0 5:60.0 
0.3829804126068164 0:1.0 1:1.0 2:6.0 3:6.0 4:1.0 5:60.0 
0.4660006451512169 0:3.0 1:2.0 2:16.0 3:16.0 4:1.0 5:60.0 
0.4473511900286388 0:0.0 1:1.0 2:7.0 3:7.0 4:1.0 5:60.0 
1.0 0:1.0 1:0.0 2:8.0 3:6.0 4:1.0 5:60.0 
1.0 0:1.0 1:2.0 2:11.0 3:5.0 4:1.0 5:60.0 
0.33288549533662465 0:0.0 1:1.0 2:6.0 3:5.0 4:1.0 5:60.0 
0.06881432717899057 0:0.0 1:1.0 2:9.0 3:6.0 4:1.0 5:60.0 
0.42116730364889016 0:0.0 1:1.0 2:7.0 3:6.0 4:1.0 5:60.0 
0.5822750345809014 0:1.0 1:0.0 2:6.0 3:7.0 4:1.0 5:60.0 
0.5936318157802739 0:1.0 1:1.0 2:6.0 3:4.0 4:1.0 5:60.0 
0.13121895319527396 0:0.0 1:0.0 2:5.0 3:5.0 4:1.0 5:60.0 
0.3044423947095062 0:0.0 1:1.0 2:6.0 3:7.0 4:1.0 5:60.0 
0.6564818217318794 0:3.0 1:4.0 2:18.0 3:6.0 4:1.0 5:70.0 
0.16095284627767553 0:0.0 1:1.0 2:6.0 3:12.0 4:1.0 5:70.0 
1.0 0:0.0 1:1.0 2:7.0 3:12.0 4:1.0 5:70.0 
1.0 0:2.0 1:9.0 2:21.0 3:5.0 4:1.0 5:70.0 
0.09789131848158403 0:0.0 1:1.0 2:6.0 3:4.0 4:1.0 5:70.0 
1.0 0:0.0 1:1.0 2:6.0 3:7.0 4:1.0 5:70.0 
1.0 0:1.0 1:0.0 2:7.0 3:9.0 4:1.0 5:70.0 
1.0 0:0.0 1:0.0 2:5.0 3:7.0 4:1.0 5:70.0 
1.0 0:1.0 1:1.0 2:7.0 3:7.0 4:1.0 5:70.0 
0.02447160571455155 0:1.0 1:2.0 2:12.0 3:9.0 4:1.0 5:70.0 
1.0 0:1.0 1:1.0 2:8.0 3:5.0 4:1.0 5:70.0 
1.0 0:0.0 1:0.0 2:5.0 3:6.0 4:1.0 5:70.0 
1.0 0:2.0 1:2.0 2:13.0 3:16.0 4:1.0 5:70.0 
0.027140520712966347 0:0.0 1:1.0 2:6.0 3:5.0 4:1.0 5:70.0 
1.0 0:1.0 1:1.0 2:11.0 3:5.0 4:0.0 5:40.0 
0.05189663975468989 0:0.0 1:2.0 2:7.0 3:3.0 4:0.0 5:40.0 
0.9619609218447488 0:8.0 1:2.0 2:18.0 3:6.0 4:0.0 5:40.0 
0.9698408064297235 0:0.0 1:0.0 2:5.0 3:5.0 4:0.0 5:40.0 
1.0 0:0.0 1:2.0 2:11.0 3:4.0 4:0.0 5:40.0 
0.06728377856018895 0:0.0 1:1.0 2:5.0 3:5.0 4:0.0 5:40.0 
0.957596012018705 0:0.0 1:1.0 2:8.0 3:5.0 4:0.0 5:40.0 
0.8625855180940829 0:0.0 1:1.0 2:5.0 3:4.0 4:0.0 5:40.0 
1.0 0:0.0 1:2.0 2:11.0 3:4.0 4:0.0 5:40.0 
1.0 0:0.0 1:0.0 2:5.0 3:7.0 4:0.0 5:40.0 
1.0 0:1.0 1:1.0 2:11.0 3:5.0 4:0.0 5:40.0 
1.0 0:1.0 1:1.0 2:7.0 3:3.0 4:0.0 5:40.0 
1.0 0:1.0 1:1.0 2:8.0 3:3.0 4:0.0 5:40.0 
1.0 0:1.0 1:0.0 2:5.0 3:2.0 4:0.0 5:40.0 
1.0 0:1.0 1:0.0 2:5.0 3:7.0 4:1.0 5:69.0 
0.6428733737147959 0:1.0 1:3.0 2:11.0 3:6.0 4:1.0 5:69.0 
0.43095326372692494 0:1.0 1:2.0 2:12.0 3:12.0 4:1.0 5:69.0 
1.0 0:0.0 1:1.0 2:8.0 3:6.0 4:1.0 5:69.0 
0.4166769960713092 0:1.0 1:0.0 2:11.0 3:9.0 4:1.0 5:69.0 
0.4926200731705775 0:1.0 1:0.0 2:8.0 3:5.0 4:1.0 5:69.0 
0.7430110441796476 0:1.0 1:0.0 2:5.0 3:4.0 4:1.0 5:69.0 
0.9800900446469585 0:2.0 1:0.0 2:7.0 3:6.0 4:1.0 5:69.0 
1.0 0:0.0 1:0.0 2:5.0 3:8.0 4:1.0 5:150.0 
1.0 0:1.0 1:2.0 2:12.0 3:8.0 4:1.0 5:100.0 
1.0 0:1.0 1:1.0 2:11.0 3:6.0 4:1.0 5:100.0 
1.0 0:3.0 1:6.0 2:19.0 3:7.0 4:1.0 5:100.0 
0.652003665047506 0:2.0 1:2.0 2:12.0 3:16.0 4:1.0 5:100.0 
1.0 0:0.0 1:0.0 2:5.0 3:6.0 4:1.0 5:100.0 
1.0 0:1.0 1:0.0 2:5.0 3:4.0 4:1.0 5:100.0 
0.34502509814681753 0:0.0 1:4.0 2:12.0 3:6.0 4:1.0 5:100.0 
1.0 0:1.0 1:2.0 2:11.0 3:5.0 4:1.0 5:100.0 
1.0 0:1.0 1:3.0 2:13.0 3:5.0 4:1.0 5:100.0 
1.0 0:1.0 1:1.0 2:11.0 3:9.0 4:1.0 5:100.0 
0.6086100350907738 0:2.0 1:2.0 2:14.0 3:15.0 4:1.0 5:100.0 
1.0 0:1.0 1:1.0 2:11.0 3:6.0 4:1.0 5:100.0 
1.0 0:0.0 1:1.0 2:9.0 3:5.0 4:1.0 5:100.0 
0.5951980227250003 0:1.0 1:1.0 2:11.0 3:8.0 4:1.0 5:100.0 
1.0 0:0.0 1:1.0 2:6.0 3:7.0 4:1.0 5:100.0 
1.0 0:0.0 1:1.0 2:6.0 3:7.0 4:1.0 5:120.0 
1.0 0:1.0 1:1.0 2:11.0 3:10.0 4:1.0 5:100.0 
1.0 0:1.0 1:1.0 2:8.0 3:6.0 4:1.0 5:80.0 
0.2818873414653324 0:1.0 1:1.0 2:11.0 3:7.0 4:1.0 5:80.0 
1.0 0:0.0 1:1.0 2:8.0 3:4.0 4:1.0 5:80.0 
1.0 0:0.0 1:1.0 2:6.0 3:4.0 4:1.0 5:80.0 
1.0 0:0.0 1:1.0 2:7.0 3:7.0 4:1.0 5:80.0 
1.0 0:1.0 1:1.0 2:6.0 3:7.0 4:1.0 5:80.0 
0.5840120343660999 0:2.0 1:2.0 2:13.0 3:11.0 4:1.0 5:80.0 
1.0 0:1.0 1:0.0 2:8.0 3:5.0 4:1.0 5:80.0 
1.0 0:0.0 1:1.0 2:6.0 3:5.0 4:1.0 5:80.0 
1.0 0:0.0 1:0.0 2:5.0 3:7.0 4:1.0 5:80.0 
1.0 0:0.0 1:1.0 2:3.0 3:6.0 4:1.0 5:211.0 
0.7804674600004452 0:2.0 1:0.0 2:5.0 3:5.0 4:1.0 5:211.0 
1.0 0:1.0 1:1.0 2:11.0 3:14.0 4:1.0 5:143.0 
1.0 0:1.0 1:1.0 2:7.0 3:6.0 4:1.0 5:143.0 
0.4451946682148676 0:0.0 1:0.0 2:3.0 3:6.0 4:1.0 5:100.0 
1.0 0:0.0 1:0.0 2:3.0 3:5.0 4:1.0 5:100.0 
0.2522232302731084 0:0.0 1:0.0 2:4.0 3:8.0 4:1.0 5:100.0 
1.0 0:1.0 1:3.0 2:12.0 3:4.0 4:1.0 5:70.0 
0.39278817714366626 0:0.0 1:0.0 2:6.0 3:6.0 4:1.0 5:70.0 
1.0 0:1.0 1:1.0 2:8.0 3:9.0 4:1.0 5:70.0 
1.0 0:1.0 1:1.0 2:11.0 3:4.0 4:1.0 5:70.0 
1.0 0:0.0 1:0.0 2:5.0 3:5.0 4:1.0 5:70.0 
0.8183962341677541 0:1.0 1:1.0 2:6.0 3:7.0 4:1.0 5:70.0 
1.0 0:0.0 1:0.0 2:5.0 3:6.0 4:1.0 5:70.0 
1.0 0:1.0 1:1.0 2:7.0 3:8.0 4:1.0 5:70.0 
1.0 0:1.0 1:1.0 2:6.0 3:7.0 4:1.0 5:70.0 
1.0 0:1.0 1:1.0 2:11.0 3:4.0 4:1.0 5:70.0 
0.9045315934747884 0:1.0 1:1.0 2:11.0 3:7.0 4:1.0 5:70.0 
1.0 0:1.0 1:0.0 2:5.0 3:7.0 4:1.0 5:70.0 
1.0 0:0.0 1:0.0 2:5.0 3:5.0 4:1.0 5:70.0 
0.5476971002809538 0:1.0 1:1.0 2:9.0 3:8.0 4:1.0 5:85.0 
0.5674770874789482 0:0.0 1:1.0 2:8.0 3:9.0 4:1.0 5:85.0 
0.5149883144321925 0:1.0 1:0.0 2:7.0 3:4.0 4:1.0 5:85.0 
0.5324526810985513 0:1.0 1:1.0 2:6.0 3:4.0 4:1.0 5:85.0 
0.9871830805222186 0:0.0 1:0.0 2:5.0 3:8.0 4:1.0 5:80.0 
0.33462884841107443 0:1.0 1:1.0 2:8.0 3:8.0 4:1.0 5:80.0 
0.8888166838865764 0:0.0 1:0.0 2:6.0 3:8.0 4:1.0 5:80.0 
0.5949613505451243 0:1.0 1:1.0 2:7.0 3:10.0 4:1.0 5:80.0 
0.3217022392306107 0:0.0 1:1.0 2:7.0 3:10.0 4:1.0 5:80.0 
1.0 0:0.0 1:0.0 2:5.0 3:3.0 4:0.0 5:40.0 
0.16920102985722285 0:1.0 1:1.0 2:8.0 3:7.0 4:0.0 5:40.0 
1.0 0:1.0 1:1.0 2:11.0 3:4.0 4:0.0 5:40.0 
0.05377226670549724 0:1.0 1:1.0 2:11.0 3:8.0 4:0.0 5:50.0 
1.0 0:0.0 1:1.0 2:8.0 3:5.0 4:0.0 5:50.0 
1.0 0:0.0 1:0.0 2:3.0 3:2.0 4:0.0 5:50.0 
0.414961769114321 0:1.0 1:1.0 2:6.0 3:6.0 4:0.0 5:50.0 
0.6513664383564165 0:3.0 1:5.0 2:21.0 3:13.0 4:0.0 5:40.0 
1.0 0:4.0 1:9.0 2:22.0 3:12.0 4:0.0 5:40.0 
1.0 0:1.0 1:1.0 2:11.0 3:7.0 4:0.0 5:40.0 
0.1804077493142565 0:0.0 1:1.0 2:6.0 3:5.0 4:0.0 5:40.0 
1.0 0:1.0 1:2.0 2:12.0 3:5.0 4:0.0 5:40.0 
0.09245460455629388 0:0.0 1:1.0 2:6.0 3:5.0 4:0.0 5:40.0 
1.0 0:1.0 1:4.0 2:13.0 3:3.0 4:0.0 5:40.0 
1.0 0:0.0 1:1.0 2:5.0 3:3.0 4:0.0 5:40.0 
1.0 0:1.0 1:1.0 2:9.0 3:8.0 4:0.0 5:200.0 
1.0 0:1.0 1:2.0 2:11.0 3:6.0 4:0.0 5:40.0 
1.0 0:1.0 1:2.0 2:11.0 3:4.0 4:0.0 5:40.0 
0.4328022641676485 0:2.0 1:5.0 2:16.0 3:8.0 4:0.0 5:40.0 
0.9916141296981751 0:2.0 1:5.0 2:21.0 3:11.0 4:0.0 5:40.0 
0.3400019732792371 0:2.0 1:4.0 2:15.0 3:12.0 4:0.0 5:40.0 
0.8795293318885616 0:15.0 1:3.0 2:28.0 3:7.0 4:0.0 5:40.0 
1.0 0:2.0 1:2.0 2:11.0 3:3.0 4:0.0 5:40.0 
1.0 0:0.0 1:1.0 2:6.0 3:3.0 4:0.0 5:185.0 
1.0 0:1.0 1:1.0 2:9.0 3:7.0 4:0.0 5:175.0 
1.0 0:1.0 1:3.0 2:12.0 3:7.0 4:0.0 5:175.0 
1.0 0:1.0 1:2.0 2:12.0 3:5.0 4:0.0 5:175.0 
1.0 0:0.0 1:1.0 2:8.0 3:6.0 4:0.0 5:175.0 
0.9352303714901581 0:1.0 1:1.0 2:5.0 3:5.0 4:0.0 5:175.0 
1.0 0:0.0 1:1.0 2:6.0 3:5.0 4:0.0 5:175.0 
0.7529967561318596 0:6.0 1:1.0 2:13.0 3:3.0 4:0.0 5:100.0 
0.4177922218019375 0:2.0 1:0.0 2:11.0 3:4.0 4:0.0 5:100.0 
1.0 0:2.0 1:1.0 2:11.0 3:3.0 4:0.0 5:100.0 
1.0 0:2.0 1:1.0 2:11.0 3:5.0 4:0.0 5:100.0 
1.0 0:2.0 1:1.0 2:11.0 3:4.0 4:0.0 5:100.0 
0.09829232589731125 0:3.0 1:1.0 2:11.0 3:4.0 4:0.0 5:100.0 
1.0 0:4.0 1:1.0 2:12.0 3:4.0 4:0.0 5:100.0 
1.0 0:2.0 1:1.0 2:11.0 3:4.0 4:0.0 5:100.0 
1.0 0:1.0 1:1.0 2:11.0 3:5.0 4:0.0 5:100.0 
0.7519184660856788 0:1.0 1:2.0 2:11.0 3:10.0 4:0.0 5:100.0 
1.0 0:1.0 1:1.0 2:11.0 3:4.0 4:0.0 5:100.0 
0.4911972579085685 0:1.0 1:3.0 2:12.0 3:9.0 4:0.0 5:100.0 
0.4062162082350428 0:1.0 1:2.0 2:11.0 3:8.0 4:0.0 5:50.0 
1.0 0:1.0 1:1.0 2:11.0 3:4.0 4:0.0 5:120.0 
1.0 0:2.0 1:2.0 2:13.0 3:9.0 4:0.0 5:175.0 
1.0 0:1.0 1:1.0 2:11.0 3:4.0 4:0.0 5:40.0 
1.0 0:2.0 1:1.0 2:12.0 3:8.0 4:0.0 5:40.0 
1.0 0:1.0 1:1.0 2:11.0 3:3.0 4:0.0 5:40.0 
0.9239295913270377 0:1.0 1:1.0 2:11.0 3:8.0 4:0.0 5:40.0 
0.4399102220224379 0:1.0 1:1.0 2:11.0 3:8.0 4:0.0 5:40.0 
0.8499503973099215 0:2.0 1:3.0 2:15.0 3:10.0 4:0.0 5:40.0 
0.8584293140360669 0:7.0 1:9.0 2:23.0 3:8.0 4:0.0 5:40.0 
0.4174843646124815 0:1.0 1:2.0 2:12.0 3:11.0 4:0.0 5:40.0 
1.0 0:1.0 1:5.0 2:14.0 3:6.0 4:0.0 5:40.0 
0.7618639638750981 0:1.0 1:1.0 2:11.0 3:11.0 4:1.0 5:120.0 
0.05008576859742933 0:1.0 1:1.0 2:11.0 3:11.0 4:1.0 5:80.0 
0.5985531011603503 0:1.0 1:1.0 2:11.0 3:6.0 4:1.0 5:80.0 
0.6451516119244685 0:1.0 1:1.0 2:11.0 3:15.0 4:1.0 5:80.0 
0.2663572422743269 0:4.0 1:3.0 2:15.0 3:6.0 4:1.0 5:80.0 
1.0 0:1.0 1:1.0 2:11.0 3:4.0 4:1.0 5:80.0 
0.8742730233929886 0:8.0 1:11.0 2:23.0 3:13.0 4:1.0 5:80.0 
0.875420662313579 0:11.0 1:11.0 2:24.0 3:8.0 4:1.0 5:80.0 
0.849235118088695 0:5.0 1:7.0 2:21.0 3:6.0 4:1.0 5:80.0 
0.40381737055820266 0:4.0 1:2.0 2:15.0 3:6.0 4:1.0 5:80.0 
0.8770424205748666 0:4.0 1:3.0 2:15.0 3:35.0 4:1.0 5:80.0 
0.7590308183188277 0:3.0 1:5.0 2:17.0 3:6.0 4:1.0 5:80.0 
0.9967746270032259 0:3.0 1:5.0 2:19.0 3:8.0 4:1.0 5:80.0 
1.0 0:3.0 1:2.0 2:15.0 3:14.0 4:1.0 5:80.0 
0.27735629117499183 0:1.0 1:1.0 2:11.0 3:12.0 4:1.0 5:70.0 
0.01577425084798812 0:1.0 1:2.0 2:12.0 3:9.0 4:1.0 5:70.0 
0.7661637907940868 0:1.0 1:1.0 2:11.0 3:14.0 4:1.0 5:70.0 
0.6918755251768531 0:1.0 1:1.0 2:11.0 3:12.0 4:1.0 5:70.0 
0.8701532234791419 0:2.0 1:3.0 2:13.0 3:9.0 4:1.0 5:70.0 
1.0 0:1.0 1:1.0 2:11.0 3:12.0 4:1.0 5:70.0 
1.0 0:1.0 1:1.0 2:11.0 3:14.0 4:1.0 5:70.0 
1.0 0:1.0 1:3.0 2:12.0 3:19.0 4:1.0 5:70.0 
0.7113528874168672 0:1.0 1:1.0 2:11.0 3:17.0 4:1.0 5:70.0 
0.33107883769399155 0:2.0 1:2.0 2:14.0 3:13.0 4:1.0 5:70.0 
1.0 0:3.0 1:2.0 2:14.0 3:7.0 4:0.0 5:40.0 
0.2122103963268691 0:0.0 1:2.0 2:11.0 3:7.0 4:0.0 5:40.0 
0.6304965036234157 0:1.0 1:1.0 2:11.0 3:10.0 4:0.0 5:40.0 
1.0 0:0.0 1:2.0 2:11.0 3:4.0 4:0.0 5:40.0 
0.0070036076294646855 0:0.0 1:1.0 2:6.0 3:3.0 4:0.0 5:40.0 
0.922764331325095 0:0.0 1:1.0 2:6.0 3:3.0 4:0.0 5:40.0 
1.0 0:1.0 1:1.0 2:12.0 3:3.0 4:0.0 5:60.0 
0.8433931133259222 0:1.0 1:1.0 2:11.0 3:7.0 4:1.0 5:80.0 
0.5380489383724032 0:5.0 1:1.0 2:11.0 3:7.0 4:1.0 5:80.0 
0.17921960777454726 0:3.0 1:0.0 2:11.0 3:7.0 4:1.0 5:80.0 
0.8641828588983654 0:1.0 1:1.0 2:11.0 3:10.0 4:1.0 5:80.0 
0.605989585361311 0:1.0 1:1.0 2:11.0 3:6.0 4:1.0 5:80.0 
1.0 0:1.0 1:1.0 2:11.0 3:8.0 4:1.0 5:80.0 
1.0 0:1.0 1:1.0 2:11.0 3:9.0 4:1.0 5:80.0 
1.0 0:1.0 1:1.0 2:11.0 3:7.0 4:1.0 5:80.0 
0.04756944777182657 0:2.0 1:2.0 2:11.0 3:8.0 4:1.0 5:80.0 
0.009618998862992452 0:1.0 1:1.0 2:11.0 3:5.0 4:1.0 5:80.0 
0.21459580054725005 0:3.0 1:2.0 2:13.0 3:5.0 4:1.0 5:80.0 
1.0 0:1.0 1:2.0 2:11.0 3:5.0 4:1.0 5:80.0 
1.0 0:1.0 1:1.0 2:11.0 3:5.0 4:1.0 5:80.0 
0.7934962525267479 0:1.0 1:3.0 2:12.0 3:7.0 4:1.0 5:80.0 
0.5852644509483913 0:6.0 1:1.0 2:13.0 3:6.0 4:1.0 5:80.0 
1.0 0:3.0 1:2.0 2:13.0 3:6.0 4:1.0 5:100.0 
1.0 0:2.0 1:1.0 2:11.0 3:5.0 4:1.0 5:100.0 
1.0 0:1.0 1:1.0 2:11.0 3:3.0 4:0.0 5:40.0 
1.0 0:2.0 1:3.0 2:15.0 3:7.0 4:0.0 5:40.0 
1.0 0:1.0 1:2.0 2:11.0 3:5.0 4:0.0 5:40.0 
0.9701339945249549 0:2.0 1:2.0 2:13.0 3:9.0 4:0.0 5:40.0 
1.0 0:1.0 1:1.0 2:11.0 3:6.0 4:0.0 5:40.0 
1.0 0:1.0 1:2.0 2:11.0 3:6.0 4:0.0 5:40.0 
1.0 0:1.0 1:1.0 2:11.0 3:5.0 4:0.0 5:40.0 
1.0 0:1.0 1:1.0 2:11.0 3:4.0 4:0.0 5:40.0 
1.0 0:1.0 1:1.0 2:11.0 3:5.0 4:0.0 5:40.0 
1.0 0:1.0 1:1.0 2:11.0 3:5.0 4:0.0 5:40.0 
1.0 0:1.0 1:1.0 2:11.0 3:5.0 4:0.0 5:40.0 
0.5348647830708902 0:3.0 1:3.0 2:16.0 3:10.0 4:0.0 5:40.0 
0.3622313063251378 0:3.0 1:2.0 2:15.0 3:12.0 4:0.0 5:40.0 
0.156078733645652 0:0.0 1:3.0 2:11.0 3:7.0 4:1.0 5:70.0 
0.027327654171238887 0:1.0 1:2.0 2:11.0 3:10.0 4:1.0 5:70.0 
0.8327217076274589 0:1.0 1:1.0 2:11.0 3:11.0 4:1.0 5:80.0 
0.934340337287852 0:1.0 1:1.0 2:11.0 3:5.0 4:1.0 5:80.0 
0.7092151068275951 0:0.0 1:2.0 2:11.0 3:10.0 4:1.0 5:80.0 
0.4609429071631458 0:1.0 1:2.0 2:13.0 3:14.0 4:1.0 5:200.0 
1.0 0:1.0 1:1.0 2:11.0 3:9.0 4:1.0 5:200.0 
1.0 0:1.0 1:2.0 2:12.0 3:11.0 4:1.0 5:200.0 
1.0 0:1.0 1:1.0 2:11.0 3:14.0 4:1.0 5:200.0 
0.7268443883249104 0:2.0 1:4.0 2:15.0 3:11.0 4:1.0 5:200.0 
1.0 0:1.0 1:2.0 2:11.0 3:5.0 4:1.0 5:200.0 
1.0 0:1.0 1:2.0 2:11.0 3:5.0 4:1.0 5:200.0 
0.7172139108010767 0:2.0 1:1.0 2:12.0 3:17.0 4:1.0 5:200.0 
0.8772509139835934 0:4.0 1:5.0 2:21.0 3:15.0 4:1.0 5:200.0 
-1.0 0:1.0 1:1.0 2:11.0 3:9.0 4:0.0 5:40.0 
-0.8593925120200334 0:0.0 1:11.0 2:15.0 3:6.0 4:0.0 5:70.0 
-1.0 0:2.0 1:11.0 2:22.0 3:20.0 4:0.0 5:70.0 
-0.8583651687760224 0:3.0 1:11.0 2:24.0 3:28.0 4:0.0 5:70.0 
-1.0 0:2.0 1:12.0 2:22.0 3:16.0 4:0.0 5:70.0 
-1.0 0:1.0 1:2.0 2:12.0 3:10.0 4:0.0 5:70.0 
-1.0 0:1.0 1:3.0 2:13.0 3:17.0 4:0.0 5:70.0 
-1.0 0:0.0 1:0.0 2:1.0 3:5.0 4:1.0 5:143.0 
-1.0 0:11.0 1:5.0 2:25.0 3:16.0 4:0.0 5:40.0 
-1.0 0:11.0 1:6.0 2:25.0 3:17.0 4:0.0 5:40.0 
-1.0 0:0.0 1:1.0 2:6.0 3:6.0 4:1.0 5:80.0 
-1.0 0:0.0 1:2.0 2:11.0 3:7.0 4:1.0 5:80.0 
-1.0 0:0.0 1:1.0 2:11.0 3:5.0 4:1.0 5:80.0 
-1.0 0:1.0 1:1.0 2:11.0 3:6.0 4:1.0 5:80.0 
-0.5617579256349895 0:0.0 1:3.0 2:11.0 3:4.0 4:0.0 5:120.0 
-1.0 0:0.0 1:1.0 2:11.0 3:7.0 4:0.0 5:120.0 
-1.0 0:1.0 1:5.0 2:13.0 3:9.0 4:0.0 5:175.0 
-1.0 0:0.0 1:3.0 2:11.0 3:7.0 4:0.0 5:175.0 
-1.0 0:0.0 1:2.0 2:11.0 3:4.0 4:0.0 5:40.0 
-1.0 0:1.0 1:2.0 2:12.0 3:6.0 4:0.0 5:40.0 
-1.0 0:3.0 1:13.0 2:26.0 3:27.0 4:0.0 5:40.0 
-0.7568011982060017 0:1.0 1:4.0 2:12.0 3:4.0 4:0.0 5:200.0 
-0.5135354050797277 0:1.0 1:11.0 2:21.0 3:10.0 4:0.0 5:200.0 
-1.0 0:0.0 1:2.0 2:11.0 3:9.0 4:0.0 5:200.0 
-0.391899844514772 0:0.0 1:2.0 2:11.0 3:8.0 4:0.0 5:200.0 
-1.0 0:1.0 1:2.0 2:11.0 3:8.0 4:0.0 5:200.0 
-1.0 0:1.0 1:1.0 2:11.0 3:9.0 4:0.0 5:200.0 
-0.7559722238141061 0:1.0 1:1.0 2:11.0 3:10.0 4:0.0 5:200.0 
-1.0 0:0.0 1:1.0 2:11.0 3:6.0 4:0.0 5:200.0 
-0.3085416369336792 0:1.0 1:2.0 2:11.0 3:4.0 4:0.0 5:200.0 
-0.3730060698727312 0:0.0 1:3.0 2:12.0 3:7.0 4:0.0 5:200.0 
-1.0 0:1.0 1:3.0 2:13.0 3:8.0 4:0.0 5:200.0 
-0.6672988384752839 0:0.0 1:3.0 2:11.0 3:4.0 4:0.0 5:200.0 
-0.0024344358690691964 0:0.0 1:2.0 2:11.0 3:4.0 4:0.0 5:200.0 
-1.0 0:0.0 1:2.0 2:11.0 3:8.0 4:1.0 5:100.0 
-1.0 0:0.0 1:1.0 2:9.0 3:7.0 4:1.0 5:100.0 
-1.0 0:0.0 1:1.0 2:5.0 3:5.0 4:1.0 5:70.0 
-1.0 0:0.0 1:3.0 2:8.0 3:7.0 4:1.0 5:70.0 
-1.0 0:0.0 1:2.0 2:11.0 3:7.0 4:0.0 5:90.0 
-0.8336170998675715 0:1.0 1:5.0 2:13.0 3:3.0 4:0.0 5:185.0 
-1.0 0:0.0 1:11.0 2:18.0 3:6.0 4:0.0 5:185.0 
-0.3053996572898863 0:0.0 1:2.0 2:11.0 3:3.0 4:0.0 5:185.0 
-0.8410488113019148 0:0.0 1:5.0 2:12.0 3:5.0 4:0.0 5:185.0 
-0.2235531353209342 0:1.0 1:1.0 2:11.0 3:4.0 4:0.0 5:40.0 
-1.0 0:1.0 1:3.0 2:11.0 3:4.0 4:0.0 5:40.0 
-1.0 0:0.0 1:2.0 2:11.0 3:4.0 4:0.0 5:40.0 
-0.16824574338733872 0:1.0 1:4.0 2:12.0 3:6.0 4:0.0 5:40.0 
-1.0 0:1.0 1:3.0 2:11.0 3:4.0 4:0.0 5:40.0 
-0.3067576019248173 0:2.0 1:1.0 2:11.0 3:3.0 4:0.0 5:40.0 
-1.0 0:1.0 1:3.0 2:11.0 3:3.0 4:0.0 5:40.0 
-1.0 0:1.0 1:4.0 2:12.0 3:5.0 4:0.0 5:40.0 
-1.0 0:1.0 1:3.0 2:12.0 3:7.0 4:0.0 5:40.0 
-0.36869387406920423 0:1.0 1:3.0 2:13.0 3:3.0 4:0.0 5:40.0 
-1.0 0:0.0 1:4.0 2:12.0 3:6.0 4:0.0 5:40.0 
-1.0 0:1.0 1:4.0 2:13.0 3:3.0 4:0.0 5:40.0 
-0.7133231039081058 0:1.0 1:1.0 2:11.0 3:10.0 4:0.0 5:185.0 
-1.0 0:1.0 1:1.0 2:9.0 3:9.0 4:0.0 5:175.0 
-1.0 0:1.0 1:3.0 2:12.0 3:11.0 4:0.0 5:175.0 
-1.0 0:0.0 1:1.0 2:5.0 3:5.0 4:0.0 5:100.0 
-1.0 0:1.0 1:2.0 2:13.0 3:15.0 4:0.0 5:60.0 
-1.0 0:1.0 1:3.0 2:13.0 3:9.0 4:0.0 5:60.0 
-1.0 0:0.0 1:2.0 2:11.0 3:7.0 4:0.0 5:60.0 
-1.0 0:1.0 1:2.0 2:11.0 3:10.0 4:1.0 5:200.0 
-0.7566277322945321 0:11.0 1:0.0 2:18.0 3:3.0 4:0.0 5:40.0 
-0.8791609117520399 0:3.0 1:0.0 2:11.0 3:3.0 4:0.0 5:200.0 
-0.8164341031798475 0:12.0 1:11.0 2:21.0 3:6.0 4:0.0 5:40.0 
-1.0 0:0.0 1:0.0 2:4.0 3:4.0 4:0.0 5:50.0 
-1.0 0:3.0 1:2.0 2:13.0 3:3.0 4:0.0 5:40.0 
-1.0 0:11.0 1:2.0 2:21.0 3:3.0 4:0.0 5:70.0 
-1.0 0:6.0 1:0.0 2:11.0 3:27.0 4:0.0 5:40.0 
-1.0 0:11.0 1:0.0 2:16.0 3:8.0 4:1.0 5:80.0 
-1.0 0:1.0 1:0.0 2:2.0 3:2.0 4:0.0 5:50.0 
-0.014991307006380492 0:11.0 1:1.0 2:15.0 3:4.0 4:0.0 5:40.0 
-0.8385840910171367 0:12.0 1:1.0 2:21.0 3:5.0 4:0.0 5:40.0 
-0.45780551888889304 0:11.0 1:1.0 2:19.0 3:4.0 4:0.0 5:40.0 
-1.0 0:1.0 1:0.0 2:7.0 3:3.0 4:0.0 5:40.0 
-0.09362451157094145 0:2.0 1:0.0 2:6.0 3:5.0 4:1.0 5:80.0 
-1.0 0:1.0 1:1.0 2:7.0 3:4.0 4:1.0 5:80.0 
-0.5489108098749391 0:1.0 1:0.0 2:4.0 3:6.0 4:1.0 5:80.0 
-1.0 0:1.0 1:0.0 2:7.0 3:4.0 4:1.0 5:80.0 
-1.0 0:0.0 1:0.0 2:4.0 3:6.0 4:1.0 5:80.0 
-0.3621968849464507 0:1.0 1:0.0 2:5.0 3:4.0 4:1.0 5:80.0 
-0.8500211155409807 0:13.0 1:1.0 2:24.0 3:10.0 4:1.0 5:100.0 
-1.0 0:16.0 1:3.0 2:31.0 3:34.0 4:1.0 5:100.0 
-1.0 0:15.0 1:3.0 2:30.0 3:12.0 4:1.0 5:100.0 
-1.0 0:4.0 1:1.0 2:13.0 3:5.0 4:1.0 5:100.0 
-0.9072289518180532 0:14.0 1:2.0 2:26.0 3:9.0 4:1.0 5:100.0 
-0.8799420681723029 0:11.0 1:1.0 2:19.0 3:7.0 4:1.0 5:100.0 
-1.0 0:21.0 1:3.0 2:35.0 3:14.0 4:1.0 5:100.0 
-0.8047560999892781 0:12.0 1:1.0 2:21.0 3:8.0 4:1.0 5:100.0 
-0.511354014419622 0:9.0 1:0.0 2:13.0 3:4.0 4:0.0 5:40.0 
-0.2357302598200762 0:5.0 1:0.0 2:11.0 3:5.0 4:0.0 5:40.0 
-0.7042311621470184 0:11.0 1:1.0 2:15.0 3:4.0 4:0.0 5:40.0 
-0.6069910305417939 0:11.0 1:0.0 2:13.0 3:4.0 4:0.0 5:40.0 
-0.5670427167152178 0:4.0 1:0.0 2:11.0 3:3.0 4:0.0 5:40.0 
-1.0 0:14.0 1:1.0 2:23.0 3:7.0 4:0.0 5:40.0 
-0.6131307770662979 0:7.0 1:0.0 2:12.0 3:3.0 4:0.0 5:40.0 
-1.0 0:2.0 1:0.0 2:11.0 3:3.0 4:0.0 5:40.0 
-1.0 0:3.0 1:0.0 2:11.0 3:3.0 4:0.0 5:40.0 
-1.0 0:0.0 1:1.0 2:5.0 3:3.0 4:0.0 5:40.0 
-1.0 0:3.0 1:7.0 2:21.0 3:11.0 4:0.0 5:40.0 
-1.0 0:2.0 1:4.0 2:16.0 3:16.0 4:0.0 5:40.0 
-1.0 0:2.0 1:4.0 2:15.0 3:2.0 4:0.0 5:40.0 
-1.0 0:6.0 1:11.0 2:22.0 3:4.0 4:0.0 5:40.0 
-1.0 0:2.0 1:1.0 2:11.0 3:5.0 4:0.0 5:40.0 
-1.0 0:1.0 1:1.0 2:11.0 3:4.0 4:0.0 5:185.0 
-1.0 0:1.0 1:1.0 2:11.0 3:8.0 4:0.0 5:185.0 
-1.0 0:1.0 1:1.0 2:11.0 3:5.0 4:0.0 5:40.0 
-1.0 0:0.0 1:1.0 2:6.0 3:6.0 4:1.0 5:80.0 
-0.002801308217578328 0:1.0 1:0.0 2:6.0 3:4.0 4:1.0 5:80.0 
-1.0 0:1.0 1:0.0 2:6.0 3:7.0 4:1.0 5:80.0 
-1.0 0:0.0 1:0.0 2:6.0 3:5.0 4:1.0 5:70.0 
-1.0 0:0.0 1:0.0 2:4.0 3:6.0 4:1.0 5:70.0 
-1.0 0:0.0 1:0.0 2:3.0 3:4.0 4:1.0 5:70.0 
-1.0 0:0.0 1:1.0 2:6.0 3:8.0 4:1.0 5:70.0 
-0.6821535515283876 0:1.0 1:1.0 2:7.0 3:8.0 4:1.0 5:100.0 
-1.0 0:0.0 1:1.0 2:8.0 3:5.0 4:1.0 5:100.0 
-1.0 0:0.0 1:0.0 2:5.0 3:5.0 4:1.0 5:100.0 
-1.0 0:1.0 1:0.0 2:4.0 3:5.0 4:1.0 5:100.0 
-0.7061994309883995 0:1.0 1:0.0 2:5.0 3:5.0 4:1.0 5:100.0 
-1.0 0:1.0 1:2.0 2:11.0 3:9.0 4:1.0 5:50.0 
-1.0 0:1.0 1:2.0 2:12.0 3:9.0 4:1.0 5:50.0 
-0.7882326042319415 0:1.0 1:1.0 2:11.0 3:12.0 4:0.0 5:50.0 
-1.0 0:1.0 1:0.0 2:6.0 3:6.0 4:1.0 5:70.0 
-1.0 0:1.0 1:1.0 2:11.0 3:3.0 4:1.0 5:70.0 
-1.0 0:1.0 1:2.0 2:12.0 3:8.0 4:1.0 5:70.0 
-1.0 0:0.0 1:1.0 2:6.0 3:8.0 4:1.0 5:70.0 
-1.0 0:1.0 1:1.0 2:9.0 3:11.0 4:1.0 5:70.0 
-1.0 0:1.0 1:1.0 2:7.0 3:7.0 4:1.0 5:70.0 
-1.0 0:1.0 1:1.0 2:11.0 3:4.0 4:1.0 5:70.0 
-1.0 0:1.0 1:3.0 2:12.0 3:5.0 4:1.0 5:70.0 
-1.0 0:1.0 1:0.0 2:5.0 3:7.0 4:1.0 5:70.0 
-1.0 0:1.0 1:1.0 2:8.0 3:6.0 4:1.0 5:70.0 
-1.0 0:1.0 1:1.0 2:12.0 3:15.0 4:1.0 5:69.0 
-1.0 0:1.0 1:1.0 2:11.0 3:12.0 4:1.0 5:69.0 
-1.0 0:1.0 1:0.0 2:6.0 3:9.0 4:1.0 5:150.0 
-0.6921458854814106 0:0.0 1:0.0 2:3.0 3:6.0 4:1.0 5:150.0 
-0.9909865944661778 0:1.0 1:1.0 2:9.0 3:12.0 4:1.0 5:150.0 
-1.0 0:1.0 1:1.0 2:11.0 3:5.0 4:1.0 5:150.0 
-1.0 0:1.0 1:1.0 2:11.0 3:15.0 4:1.0 5:150.0 
-0.4089901168742655 0:0.0 1:1.0 2:7.0 3:10.0 4:1.0 5:100.0 
-1.0 0:2.0 1:2.0 2:14.0 3:20.0 4:1.0 5:100.0 
-1.0 0:1.0 1:1.0 2:11.0 3:8.0 4:1.0 5:100.0 
-1.0 0:1.0 1:1.0 2:11.0 3:10.0 4:1.0 5:100.0 
-0.8599173361139831 0:4.0 1:4.0 2:21.0 3:16.0 4:1.0 5:80.0 
-1.0 0:1.0 1:0.0 2:6.0 3:8.0 4:1.0 5:80.0 
-1.0 0:1.0 1:1.0 2:11.0 3:6.0 4:1.0 5:80.0 
-1.0 0:1.0 1:1.0 2:11.0 3:8.0 4:1.0 5:80.0 
-0.8508548787716166 0:3.0 1:6.0 2:21.0 3:15.0 4:1.0 5:80.0 
-0.7800361428281596 0:1.0 1:1.0 2:8.0 3:11.0 4:1.0 5:100.0 
-1.0 0:1.0 1:0.0 2:6.0 3:8.0 4:1.0 5:100.0 
-1.0 0:0.0 1:1.0 2:6.0 3:8.0 4:1.0 5:70.0 
-1.0 0:1.0 1:1.0 2:11.0 3:6.0 4:0.0 5:40.0 
-1.0 0:2.0 1:3.0 2:14.0 3:6.0 4:0.0 5:40.0 
-1.0 0:0.0 1:0.0 2:5.0 3:6.0 4:0.0 5:175.0 
-0.5920962359717823 0:1.0 1:1.0 2:8.0 3:4.0 4:0.0 5:120.0 
-1.0 0:0.0 1:0.0 2:5.0 3:5.0 4:0.0 5:40.0 
-1.0 0:1.0 1:1.0 2:11.0 3:30.0 4:0.0 5:40.0 
-1.0 0:0.0 1:1.0 2:5.0 3:4.0 4:0.0 5:70.0 
-1.0 0:0.0 1:1.0 2:9.0 3:4.0 4:0.0 5:40.0 
-1.0 0:2.0 1:3.0 2:15.0 3:9.0 4:0.0 5:40.0 
-1.0 0:2.0 1:2.0 2:14.0 3:21.0 4:0.0 5:40.0 
-1.0 0:1.0 1:1.0 2:11.0 3:11.0 4:1.0 5:80.0 
-1.0 0:1.0 1:1.0 2:7.0 3:7.0 4:0.0 5:60.0 
-1.0 0:1.0 1:1.0 2:8.0 3:7.0 4:0.0 5:60.0 
-1.0 0:1.0 1:1.0 2:11.0 3:5.0 4:0.0 5:60.0 
-1.0 0:1.0 1:0.0 2:7.0 3:6.0 4:0.0 5:60.0 
-1.0 0:0.0 1:0.0 2:3.0 3:4.0 4:0.0 5:60.0 
-1.0 0:0.0 1:1.0 2:7.0 3:6.0 4:0.0 5:60.0 
-1.0 0:0.0 1:0.0 2:5.0 3:6.0 4:0.0 5:60.0 
-1.0 0:3.0 1:3.0 2:16.0 3:14.0 4:1.0 5:80.0 
-1.0 0:1.0 1:1.0 2:11.0 3:6.0 4:0.0 5:40.0 
-1.0 0:1.0 1:1.0 2:11.0 3:5.0 4:0.0 5:40.0 
-1.0 0:1.0 1:2.0 2:11.0 3:6.0 4:0.0 5:40.0 
-1.0 0:2.0 1:1.0 2:13.0 3:9.0 4:0.0 5:40.0 
-0.21835431066008185 0:1.0 1:1.0 2:11.0 3:11.0 4:1.0 5:200.0 
-0.7393536233968945 0:2.0 1:6.0 2:14.0 3:4.0 4:0.0 5:300.0 
-0.9107029364311988 0:4.0 1:9.0 2:21.0 3:5.0 4:0.0 5:300.0 
-0.630893768136155 0:2.0 1:6.0 2:17.0 3:4.0 4:0.0 5:300.0 
-0.357603308426018 0:1.0 1:4.0 2:12.0 3:3.0 4:0.0 5:300.0 
-0.7833739517147444 0:1.0 1:3.0 2:13.0 3:2.0 4:0.0 5:300.0 
-0.4015684032333018 0:2.0 1:5.0 2:17.0 3:6.0 4:0.0 5:300.0 
-7.29310090385335E-4 0:1.0 1:2.0 2:11.0 3:4.0 4:0.0 5:300.0 
-0.9853173928572421 0:2.0 1:6.0 2:17.0 3:9.0 4:0.0 5:300.0 
-0.009887537732868766 0:1.0 1:4.0 2:14.0 3:5.0 4:0.0 5:300.0 
-0.8629575469434878 0:2.0 1:5.0 2:15.0 3:15.0 4:0.0 5:300.0 
-0.8629004552154746 0:1.0 1:4.0 2:13.0 3:15.0 4:0.0 5:300.0 
-0.43260132866692735 0:1.0 1:4.0 2:13.0 3:6.0 4:0.0 5:300.0 
-0.6455044424145376 0:1.0 1:1.0 2:11.0 3:5.0 4:0.0 5:300.0 
-0.5154726338828617 0:1.0 1:2.0 2:12.0 3:8.0 4:0.0 5:300.0 
-0.6352584042801218 0:2.0 1:7.0 2:18.0 3:6.0 4:0.0 5:300.0 
-0.3415162397145223 0:1.0 1:2.0 2:11.0 3:4.0 4:0.0 5:300.0 
-0.45817407549189965 0:2.0 1:4.0 2:14.0 3:6.0 4:0.0 5:300.0 
-1.0 0:3.0 1:8.0 2:21.0 3:16.0 4:0.0 5:300.0 
-0.768911770998202 0:3.0 1:11.0 2:22.0 3:6.0 4:0.0 5:300.0 
-0.9415773538106478 0:4.0 1:13.0 2:24.0 3:7.0 4:0.0 5:300.0 
-1.0 0:6.0 1:12.0 2:26.0 3:9.0 4:0.0 5:300.0 
-1.0 0:1.0 1:2.0 2:11.0 3:4.0 4:0.0 5:120.0 
-0.7352823927378229 0:1.0 1:4.0 2:12.0 3:4.0 4:0.0 5:120.0 
-1.0 0:2.0 1:5.0 2:14.0 3:4.0 4:0.0 5:120.0 
-1.0 0:1.0 1:1.0 2:8.0 3:3.0 4:0.0 5:70.0 
-1.0 0:1.0 1:1.0 2:9.0 3:3.0 4:0.0 5:70.0 
-1.0 0:2.0 1:11.0 2:21.0 3:4.0 4:0.0 5:70.0 
-1.0 0:1.0 1:1.0 2:8.0 3:5.0 4:0.0 5:70.0 
-1.0 0:1.0 1:2.0 2:11.0 3:4.0 4:0.0 5:70.0 
-1.0 0:0.0 1:2.0 2:11.0 3:4.0 4:0.0 5:40.0 
-0.8781449228770865 0:3.0 1:12.0 2:22.0 3:5.0 4:0.0 5:40.0 
-1.0 0:0.0 1:6.0 2:13.0 3:16.0 4:1.0 5:80.0 
-1.0 0:1.0 1:3.0 2:13.0 3:12.0 4:0.0 5:50.0 
-0.5498798747841445 0:0.0 1:1.0 2:11.0 3:13.0 4:0.0 5:50.0 
-1.0 0:0.0 1:2.0 2:11.0 3:10.0 4:0.0 5:50.0 
-1.0 0:0.0 1:5.0 2:11.0 3:12.0 4:0.0 5:70.0 
-0.663805097017119 0:1.0 1:5.0 2:12.0 3:16.0 4:0.0 5:70.0 
-0.8788152332099552 0:3.0 1:12.0 2:23.0 3:26.0 4:0.0 5:70.0 
-0.5311332564843523 0:1.0 1:5.0 2:13.0 3:16.0 4:0.0 5:70.0 
-1.0 0:1.0 1:4.0 2:12.0 3:4.0 4:0.0 5:70.0 
-1.0 0:0.0 1:1.0 2:11.0 3:5.0 4:0.0 5:50.0 
-1.0 0:4.0 1:12.0 2:25.0 3:20.0 4:0.0 5:50.0 
-1.0 0:0.0 1:1.0 2:5.0 3:7.0 4:1.0 5:60.0 
-1.0 0:1.0 1:2.0 2:12.0 3:6.0 4:1.0 5:60.0 
-1.0 0:1.0 1:4.0 2:14.0 3:4.0 4:1.0 5:70.0 
-1.0 0:2.0 1:4.0 2:16.0 3:7.0 4:1.0 5:70.0 
-1.0 0:0.0 1:1.0 2:9.0 3:8.0 4:1.0 5:70.0 
-1.0 0:6.0 1:12.0 2:26.0 3:11.0 4:1.0 5:70.0 
-1.0 0:2.0 1:2.0 2:12.0 3:5.0 4:1.0 5:69.0 
-1.0 0:1.0 1:0.0 2:5.0 3:5.0 4:1.0 5:69.0 
-0.8705081270566152 0:2.0 1:0.0 2:8.0 3:8.0 4:1.0 5:143.0 
-1.0 0:1.0 1:1.0 2:11.0 3:4.0 4:0.0 5:180.0 
-1.0 0:1.0 1:0.0 2:5.0 3:2.0 4:0.0 5:40.0 
-1.0 0:7.0 1:12.0 2:23.0 3:10.0 4:0.0 5:40.0 
-0.7819771645914614 0:3.0 1:1.0 2:12.0 3:4.0 4:0.0 5:40.0 
-1.0 0:1.0 1:1.0 2:8.0 3:3.0 4:0.0 5:40.0 
-1.0 0:1.0 1:2.0 2:11.0 3:11.0 4:0.0 5:40.0 
-1.0 0:0.0 1:1.0 2:6.0 3:6.0 4:0.0 5:40.0 
-1.0 0:0.0 1:1.0 2:9.0 3:5.0 4:0.0 5:40.0 
-1.0 0:0.0 1:1.0 2:5.0 3:5.0 4:0.0 5:40.0 
-1.0 0:0.0 1:1.0 2:6.0 3:5.0 4:0.0 5:40.0 
-1.0 0:0.0 1:3.0 2:11.0 3:4.0 4:0.0 5:40.0 
-1.0 0:0.0 1:2.0 2:8.0 3:3.0 4:0.0 5:40.0 
-1.0 0:0.0 1:3.0 2:7.0 3:4.0 4:0.0 5:40.0 
-1.0 0:4.0 1:0.0 2:8.0 3:26.0 4:0.0 5:40.0 
-1.0 0:3.0 1:0.0 2:7.0 3:9.0 4:0.0 5:40.0 
-1.0 0:2.0 1:0.0 2:8.0 3:3.0 4:1.0 5:100.0 
-0.6777859996677413 0:1.0 1:2.0 2:11.0 3:3.0 4:1.0 5:100.0 
-1.0 0:0.0 1:0.0 2:1.0 3:4.0 4:1.0 5:100.0 
-0.8897200301609288 0:3.0 1:1.0 2:11.0 3:3.0 4:0.0 5:50.0 
-1.0 0:1.0 1:1.0 2:9.0 3:4.0 4:1.0 5:50.0 
-1.0 0:4.0 1:3.0 2:18.0 3:6.0 4:1.0 5:80.0 
-1.0 0:11.0 1:6.0 2:21.0 3:27.0 4:1.0 5:80.0 
-1.0 0:1.0 1:3.0 2:13.0 3:10.0 4:1.0 5:150.0 
-1.0 0:1.0 1:11.0 2:18.0 3:9.0 4:1.0 5:150.0 
-1.0 0:1.0 1:2.0 2:11.0 3:4.0 4:1.0 5:80.0 
-1.0 0:1.0 1:1.0 2:11.0 3:5.0 4:1.0 5:80.0 
-1.0 0:1.0 1:1.0 2:11.0 3:9.0 4:1.0 5:80.0 
-1.0 0:1.0 1:1.0 2:11.0 3:9.0 4:1.0 5:80.0 
-1.0 0:0.0 1:2.0 2:11.0 3:8.0 4:1.0 5:80.0 
-1.0 0:2.0 1:13.0 2:23.0 3:11.0 4:1.0 5:80.0 
-0.8259692521787881 0:2.0 1:11.0 2:21.0 3:6.0 4:1.0 5:80.0 
-0.07300212621025041 0:1.0 1:11.0 2:17.0 3:7.0 4:1.0 5:80.0 
-0.22331662967006638 0:2.0 1:11.0 2:21.0 3:8.0 4:1.0 5:80.0 
-0.2624155716671811 0:1.0 1:11.0 2:18.0 3:9.0 4:1.0 5:80.0 
-0.9900346899468404 0:0.0 1:11.0 2:17.0 3:5.0 4:1.0 5:80.0 
-0.398491340921258 0:1.0 1:11.0 2:19.0 3:9.0 4:1.0 5:80.0 
-0.3963049991266472 0:1.0 1:11.0 2:21.0 3:8.0 4:1.0 5:80.0 
-0.5710341415042753 0:1.0 1:11.0 2:17.0 3:8.0 4:1.0 5:80.0 
-0.3253943198685084 0:1.0 1:0.0 2:6.0 3:4.0 4:1.0 5:80.0 
-1.0 0:0.0 1:4.0 2:11.0 3:7.0 4:1.0 5:80.0 
-1.0 0:1.0 1:1.0 2:5.0 3:3.0 4:1.0 5:100.0 
-1.0 0:2.0 1:2.0 2:13.0 3:6.0 4:1.0 5:100.0 
-1.0 0:1.0 1:3.0 2:13.0 3:19.0 4:0.0 5:150.0 
-0.41301965278482256 0:2.0 1:3.0 2:13.0 3:5.0 4:0.0 5:200.0 
-0.43005434783191104 0:0.0 1:3.0 2:11.0 3:5.0 4:0.0 5:200.0 
-1.0 0:1.0 1:2.0 2:12.0 3:9.0 4:0.0 5:40.0 
-1.0 0:11.0 1:14.0 2:57.0 3:23.0 4:0.0 5:40.0 
-1.0 0:3.0 1:5.0 2:21.0 3:8.0 4:0.0 5:70.0 
-1.0 0:2.0 1:9.0 2:21.0 3:5.0 4:0.0 5:70.0 
-1.0 0:0.0 1:2.0 2:11.0 3:3.0 4:0.0 5:70.0 
-0.9716218197189166 0:1.0 1:11.0 2:17.0 3:7.0 4:0.0 5:70.0 
-1.0 0:1.0 1:5.0 2:14.0 3:4.0 4:0.0 5:70.0 
-1.0 0:1.0 1:3.0 2:12.0 3:4.0 4:0.0 5:70.0 
-1.0 0:6.0 1:3.0 2:21.0 3:5.0 4:0.0 5:300.0 
-1.0 0:1.0 1:2.0 2:11.0 3:6.0 4:0.0 5:250.0 
-1.0 0:1.0 1:1.0 2:11.0 3:13.0 4:0.0 5:40.0 
-1.0 0:3.0 1:5.0 2:21.0 3:10.0 4:1.0 5:80.0 
-1.0 0:0.0 1:1.0 2:6.0 3:5.0 4:1.0 5:60.0 
-1.0 0:1.0 1:1.0 2:11.0 3:3.0 4:1.0 5:70.0 
-1.0 0:0.0 1:1.0 2:6.0 3:7.0 4:1.0 5:70.0 
-1.0 0:1.0 1:2.0 2:11.0 3:7.0 4:1.0 5:70.0 
-1.0 0:0.0 1:1.0 2:7.0 3:5.0 4:1.0 5:70.0 
-1.0 0:1.0 1:1.0 2:11.0 3:7.0 4:1.0 5:70.0 
-1.0 0:1.0 1:1.0 2:11.0 3:13.0 4:1.0 5:70.0 
-1.0 0:11.0 1:2.0 2:22.0 3:18.0 4:1.0 5:70.0 
-1.0 0:2.0 1:2.0 2:12.0 3:3.0 4:1.0 5:70.0 
-1.0 0:1.0 1:1.0 2:7.0 3:3.0 4:1.0 5:70.0 
-1.0 0:2.0 1:0.0 2:7.0 3:4.0 4:1.0 5:70.0 
-1.0 0:11.0 1:9.0 2:26.0 3:21.0 4:1.0 5:70.0 
-1.0 0:1.0 1:0.0 2:8.0 3:5.0 4:1.0 5:70.0 
-1.0 0:1.0 1:1.0 2:7.0 3:7.0 4:1.0 5:70.0 
-1.0 0:1.0 1:1.0 2:7.0 3:6.0 4:1.0 5:70.0 
-1.0 0:2.0 1:0.0 2:8.0 3:4.0 4:1.0 5:70.0 
-1.0 0:1.0 1:1.0 2:8.0 3:6.0 4:1.0 5:70.0 
-1.0 0:1.0 1:4.0 2:14.0 3:5.0 4:1.0 5:70.0 
-1.0 0:1.0 1:1.0 2:11.0 3:4.0 4:1.0 5:70.0 
-1.0 0:0.0 1:0.0 2:5.0 3:6.0 4:1.0 5:70.0 
-1.0 0:2.0 1:1.0 2:11.0 3:7.0 4:1.0 5:70.0 
-1.0 0:0.0 1:1.0 2:5.0 3:5.0 4:1.0 5:70.0 
-1.0 0:0.0 1:1.0 2:7.0 3:5.0 4:1.0 5:100.0 
-1.0 0:1.0 1:2.0 2:11.0 3:10.0 4:1.0 5:100.0 
-1.0 0:1.0 1:1.0 2:8.0 3:5.0 4:1.0 5:100.0 
-1.0 0:1.0 1:0.0 2:5.0 3:5.0 4:1.0 5:100.0 
-0.038846498776877916 0:1.0 1:1.0 2:7.0 3:4.0 4:1.0 5:120.0 
-1.0 0:0.0 1:1.0 2:7.0 3:8.0 4:1.0 5:80.0 
-1.0 0:1.0 1:1.0 2:8.0 3:5.0 4:1.0 5:80.0 
-1.0 0:1.0 1:1.0 2:11.0 3:6.0 4:1.0 5:80.0 
-1.0 0:5.0 1:5.0 2:17.0 3:13.0 4:1.0 5:80.0 
-1.0 0:0.0 1:0.0 2:5.0 3:7.0 4:1.0 5:70.0 
-1.0 0:1.0 1:1.0 2:8.0 3:4.0 4:1.0 5:70.0 
-1.0 0:1.0 1:2.0 2:11.0 3:5.0 4:0.0 5:40.0 
-1.0 0:0.0 1:1.0 2:4.0 3:2.0 4:0.0 5:40.0 
-1.0 0:0.0 1:1.0 2:6.0 3:7.0 4:0.0 5:40.0 
-1.0 0:0.0 1:1.0 2:4.0 3:3.0 4:0.0 5:40.0 
-1.0 0:1.0 1:4.0 2:12.0 3:9.0 4:0.0 5:40.0 
-1.0 0:2.0 1:6.0 2:16.0 3:12.0 4:0.0 5:40.0 
-0.7389492097991708 0:0.0 1:1.0 2:4.0 3:5.0 4:0.0 5:130.0 
-0.7963465681039635 0:0.0 1:0.0 2:2.0 3:2.0 4:0.0 5:130.0 
-0.9914465481055441 0:0.0 1:1.0 2:8.0 3:3.0 4:0.0 5:130.0 
-0.5815029466799213 0:0.0 1:1.0 2:6.0 3:5.0 4:0.0 5:130.0 
-1.0 0:1.0 1:2.0 2:13.0 3:10.0 4:0.0 5:130.0 
-1.0 0:1.0 1:2.0 2:11.0 3:11.0 4:0.0 5:40.0 
-1.0 0:1.0 1:3.0 2:14.0 3:9.0 4:0.0 5:40.0 
-1.0 0:0.0 1:0.0 2:5.0 3:3.0 4:0.0 5:185.0 
-1.0 0:0.0 1:2.0 2:7.0 3:4.0 4:0.0 5:175.0 
-0.2625775864011429 0:1.0 1:2.0 2:12.0 3:3.0 4:0.0 5:70.0 
-0.5283268453442042 0:5.0 1:2.0 2:13.0 3:4.0 4:0.0 5:70.0 
-1.0 0:1.0 1:3.0 2:12.0 3:8.0 4:0.0 5:70.0 
-1.0 0:0.0 1:1.0 2:6.0 3:4.0 4:0.0 5:70.0 
-1.0 0:1.0 1:1.0 2:11.0 3:11.0 4:0.0 5:40.0 
-1.0 0:0.0 1:2.0 2:11.0 3:5.0 4:0.0 5:40.0 
-1.0 0:0.0 1:2.0 2:11.0 3:6.0 4:1.0 5:200.0 
-1.0 0:1.0 1:1.0 2:11.0 3:12.0 4:1.0 5:200.0 
-1.0 0:6.0 1:2.0 2:19.0 3:21.0 4:1.0 5:200.0 
-0.2785115177775916 0:1.0 1:2.0 2:11.0 3:9.0 4:1.0 5:200.0 
-1.0 0:12.0 1:13.0 2:39.0 3:17.0 4:1.0 5:200.0 
-0.5476695562462836 0:2.0 1:1.0 2:12.0 3:7.0 4:1.0 5:200.0 
-1.0 0:2.0 1:2.0 2:12.0 3:9.0 4:1.0 5:200.0 
-0.5015982309797022 0:2.0 1:2.0 2:12.0 3:6.0 4:1.0 5:200.0 
-0.7424933321483018 0:0.0 1:6.0 2:12.0 3:3.0 4:0.0 5:70.0 
-1.0 0:0.0 1:3.0 2:11.0 3:5.0 4:0.0 5:40.0 
-1.0 0:1.0 1:1.0 2:7.0 3:6.0 4:1.0 5:100.0 
-1.0 0:7.0 1:5.0 2:21.0 3:7.0 4:1.0 5:69.0 
-1.0 0:2.0 1:0.0 2:6.0 3:3.0 4:1.0 5:69.0 
-1.0 0:1.0 1:1.0 2:6.0 3:4.0 4:1.0 5:69.0 
-0.7033985303881122 0:4.0 1:1.0 2:12.0 3:4.0 4:0.0 5:70.0 
-1.0 0:3.0 1:11.0 2:21.0 3:7.0 4:1.0 5:100.0 
-0.9731875451466112 0:1.0 1:1.0 2:9.0 3:3.0 4:0.0 5:40.0 
-1.0 0:6.0 1:12.0 2:23.0 3:6.0 4:0.0 5:200.0 
-0.22450194730683753 0:3.0 1:11.0 2:22.0 3:7.0 4:0.0 5:200.0 
-0.9014302248087842 0:2.0 1:11.0 2:21.0 3:5.0 4:0.0 5:200.0 
-0.7225188690391217 0:3.0 1:11.0 2:22.0 3:9.0 4:0.0 5:200.0 
-0.36921765239517224 0:1.0 1:0.0 2:6.0 3:3.0 4:0.0 5:200.0 
-0.9720198706767994 0:7.0 1:12.0 2:28.0 3:10.0 4:0.0 5:200.0 
-0.6816802428607565 0:1.0 1:0.0 2:6.0 3:5.0 4:0.0 5:200.0 
-0.2652444988195112 0:2.0 1:11.0 2:21.0 3:7.0 4:0.0 5:200.0 
-0.9168687272366219 0:0.0 1:11.0 2:21.0 3:12.0 4:0.0 5:200.0 
-0.9114307098271727 0:7.0 1:11.0 2:26.0 3:8.0 4:0.0 5:200.0 
-0.0377411349880514 0:1.0 1:1.0 2:11.0 3:3.0 4:0.0 5:200.0 
-1.0 0:1.0 1:7.0 2:14.0 3:4.0 4:0.0 5:200.0 
-1.0 0:0.0 1:2.0 2:11.0 3:3.0 4:0.0 5:220.0 
-0.5176425590263128 0:2.0 1:7.0 2:19.0 3:4.0 4:0.0 5:220.0 
-0.4978417105451905 0:1.0 1:6.0 2:14.0 3:4.0 4:0.0 5:220.0 
-0.4365860875616719 0:1.0 1:7.0 2:15.0 3:4.0 4:0.0 5:220.0 
-0.590895362869045 0:2.0 1:6.0 2:15.0 3:3.0 4:0.0 5:220.0 
-0.4687514028306655 0:2.0 1:8.0 2:19.0 3:5.0 4:0.0 5:220.0 
-0.35527347537794374 0:2.0 1:11.0 2:21.0 3:5.0 4:0.0 5:220.0 
-0.6841012188702336 0:2.0 1:8.0 2:21.0 3:4.0 4:0.0 5:220.0 
-0.7033053000069424 0:2.0 1:12.0 2:21.0 3:6.0 4:0.0 5:220.0 
-0.9053297269248338 0:4.0 1:11.0 2:23.0 3:6.0 4:0.0 5:220.0 
-0.03838753094611296 0:4.0 1:11.0 2:22.0 3:6.0 4:0.0 5:220.0 
-0.9466446182264922 0:1.0 1:0.0 2:11.0 3:3.0 4:0.0 5:70.0 
-1.0 0:3.0 1:1.0 2:11.0 3:4.0 4:0.0 5:70.0 
-1.0 0:1.0 1:1.0 2:11.0 3:4.0 4:0.0 5:140.0 
-1.0 0:1.0 1:4.0 2:13.0 3:6.0 4:0.0 5:40.0 
-1.0 0:2.0 1:1.0 2:11.0 3:3.0 4:0.0 5:40.0 
-0.1831124097465462 0:1.0 1:1.0 2:11.0 3:4.0 4:0.0 5:40.0 
-0.14154471508290362 0:1.0 1:2.0 2:12.0 3:5.0 4:0.0 5:40.0 
-1.0 0:2.0 1:1.0 2:12.0 3:6.0 4:0.0 5:40.0 
-0.4645877561690318 0:1.0 1:1.0 2:11.0 3:3.0 4:0.0 5:40.0 
-1.0 0:1.0 1:1.0 2:11.0 3:3.0 4:0.0 5:40.0 
-1.0 0:1.0 1:2.0 2:12.0 3:6.0 4:0.0 5:40.0 
-1.0 0:0.0 1:2.0 2:11.0 3:5.0 4:0.0 5:40.0 
-1.0 0:1.0 1:1.0 2:11.0 3:8.0 4:0.0 5:40.0 
-1.0 0:1.0 1:1.0 2:11.0 3:3.0 4:0.0 5:40.0 
-1.0 0:1.0 1:2.0 2:12.0 3:14.0 4:0.0 5:40.0 
-1.0 0:1.0 1:1.0 2:11.0 3:3.0 4:0.0 5:40.0 
-1.0 0:1.0 1:1.0 2:11.0 3:7.0 4:0.0 5:40.0 
-1.0 0:1.0 1:1.0 2:11.0 3:3.0 4:0.0 5:40.0 
-1.0 0:1.0 1:2.0 2:11.0 3:8.0 4:0.0 5:40.0 
-1.0 0:1.0 1:1.0 2:11.0 3:3.0 4:0.0 5:40.0 
-1.0 0:1.0 1:1.0 2:11.0 3:11.0 4:0.0 5:40.0 
-1.0 0:0.0 1:4.0 2:11.0 3:8.0 4:0.0 5:40.0 
-1.0 0:2.0 1:0.0 2:6.0 3:5.0 4:1.0 5:69.0 
-1.0 0:1.0 1:1.0 2:11.0 3:6.0 4:1.0 5:100.0 
-1.0 0:2.0 1:1.0 2:11.0 3:3.0 4:0.0 5:40.0 
-1.0 0:5.0 1:2.0 2:13.0 3:8.0 4:1.0 5:300.0 
-0.7920837377611081 0:0.0 1:1.0 2:5.0 3:4.0 4:1.0 5:300.0 
-1.0 0:3.0 1:1.0 2:11.0 3:4.0 4:1.0 5:100.0 
-0.7032549435169259 0:3.0 1:11.0 2:22.0 3:6.0 4:0.0 5:40.0 
-0.882359462178805 0:11.0 1:11.0 2:21.0 3:4.0 4:0.0 5:40.0 
-1.0 0:1.0 1:1.0 2:6.0 3:4.0 4:1.0 5:70.0 
-1.0 0:2.0 1:7.0 2:18.0 3:5.0 4:1.0 5:70.0 
-1.0 0:1.0 1:0.0 2:5.0 3:3.0 4:1.0 5:70.0 
-1.0 0:2.0 1:6.0 2:16.0 3:6.0 4:1.0 5:70.0 
-1.0 0:1.0 1:1.0 2:8.0 3:5.0 4:1.0 5:70.0 
-1.0 0:0.0 1:1.0 2:5.0 3:4.0 4:1.0 5:70.0 
-1.0 0:0.0 1:1.0 2:6.0 3:5.0 4:1.0 5:70.0 
-1.0 0:1.0 1:1.0 2:7.0 3:4.0 4:1.0 5:70.0 
-1.0 0:2.0 1:0.0 2:7.0 3:5.0 4:1.0 5:70.0 
-1.0 0:6.0 1:2.0 2:15.0 3:5.0 4:1.0 5:70.0 
-1.0 0:0.0 1:1.0 2:8.0 3:4.0 4:1.0 5:70.0 
-1.0 0:1.0 1:5.0 2:14.0 3:4.0 4:0.0 5:130.0 
-1.0 0:7.0 1:2.0 2:15.0 3:5.0 4:0.0 5:175.0 
-1.0 0:3.0 1:2.0 2:12.0 3:4.0 4:0.0 5:175.0 
-0.45870175105940997 0:4.0 1:2.0 2:13.0 3:5.0 4:0.0 5:175.0 
-1.0 0:2.0 1:1.0 2:12.0 3:5.0 4:0.0 5:175.0 
-0.1536758096740785 0:2.0 1:1.0 2:12.0 3:4.0 4:0.0 5:50.0 
-1.0 0:1.0 1:2.0 2:12.0 3:4.0 4:0.0 5:50.0 
-1.0 0:3.0 1:3.0 2:13.0 3:4.0 4:0.0 5:50.0 
-0.22534400503273913 0:2.0 1:2.0 2:13.0 3:4.0 4:0.0 5:50.0 
-1.0 0:1.0 1:1.0 2:11.0 3:4.0 4:0.0 5:40.0 
-1.0 0:1.0 1:1.0 2:11.0 3:4.0 4:0.0 5:40.0 
-1.0 0:3.0 1:4.0 2:16.0 3:6.0 4:0.0 5:40.0 
-1.0 0:3.0 1:2.0 2:12.0 3:8.0 4:0.0 5:40.0 
-0.9151067998157879 0:3.0 1:2.0 2:14.0 3:6.0 4:0.0 5:40.0 
-1.0 0:9.0 1:4.0 2:21.0 3:6.0 4:0.0 5:40.0 
-1.0 0:2.0 1:6.0 2:16.0 3:4.0 4:0.0 5:40.0 
-1.0 0:1.0 1:1.0 2:11.0 3:4.0 4:0.0 5:40.0 
-1.0 0:1.0 1:1.0 2:11.0 3:4.0 4:0.0 5:40.0 
-1.0 0:2.0 1:1.0 2:12.0 3:6.0 4:0.0 5:40.0 
-1.0 0:1.0 1:1.0 2:11.0 3:3.0 4:0.0 5:40.0 
-1.0 0:0.0 1:1.0 2:5.0 3:4.0 4:1.0 5:100.0 
-1.0 0:1.0 1:0.0 2:5.0 3:4.0 4:1.0 5:100.0 
-1.0 0:5.0 1:4.0 2:21.0 3:6.0 4:1.0 5:100.0 
-0.88897441559043 0:0.0 1:0.0 2:6.0 3:5.0 4:1.0 5:120.0 
-1.0 0:2.0 1:13.0 2:24.0 3:20.0 4:1.0 5:120.0 
-0.4502705783190316 0:0.0 1:1.0 2:8.0 3:5.0 4:1.0 5:120.0 
-1.0 0:1.0 1:0.0 2:6.0 3:6.0 4:1.0 5:120.0 
-1.0 0:0.0 1:0.0 2:3.0 3:2.0 4:0.0 5:50.0 
-0.025646956234626612 0:1.0 1:1.0 2:5.0 3:7.0 4:1.0 5:300.0 
-0.49752512775587365 0:1.0 1:1.0 2:5.0 3:7.0 4:1.0 5:300.0 
-0.161382454073256 0:1.0 1:1.0 2:7.0 3:7.0 4:1.0 5:300.0 
-0.7908076569870409 0:1.0 1:0.0 2:7.0 3:4.0 4:1.0 5:300.0 
-0.3572180491271317 0:0.0 1:1.0 2:7.0 3:8.0 4:1.0 5:300.0 
-0.818001050427437 0:0.0 1:0.0 2:5.0 3:9.0 4:1.0 5:300.0 
-0.01536539583539494 0:1.0 1:1.0 2:9.0 3:8.0 4:1.0 5:300.0 
-1.0 0:1.0 1:0.0 2:6.0 3:4.0 4:1.0 5:100.0 
-1.0 0:2.0 1:2.0 2:12.0 3:6.0 4:1.0 5:120.0 
-1.0 0:1.0 1:2.0 2:12.0 3:14.0 4:1.0 5:143.0 
-1.0 0:1.0 1:0.0 2:3.0 3:4.0 4:0.0 5:60.0 
-1.0 0:0.0 1:2.0 2:11.0 3:6.0 4:0.0 5:175.0 
-1.0 0:3.0 1:1.0 2:11.0 3:3.0 4:0.0 5:40.0 
-1.0 0:0.0 1:1.0 2:5.0 3:3.0 4:0.0 5:40.0 
-1.0 0:1.0 1:3.0 2:13.0 3:7.0 4:1.0 5:100.0 
-1.0 0:0.0 1:1.0 2:11.0 3:6.0 4:1.0 5:100.0 
-1.0 0:0.0 1:1.0 2:3.0 3:5.0 4:1.0 5:211.0 
-1.0 0:0.0 1:1.0 2:8.0 3:7.0 4:0.0 5:175.0 
-1.0 0:0.0 1:2.0 2:11.0 3:5.0 4:0.0 5:100.0 
-1.0 0:0.0 1:2.0 2:11.0 3:5.0 4:0.0 5:70.0 
-0.5112980845220196 0:1.0 1:1.0 2:9.0 3:8.0 4:1.0 5:300.0 
-0.6053892230580048 0:1.0 1:1.0 2:11.0 3:9.0 4:1.0 5:300.0 
-0.10266004993864015 0:1.0 1:2.0 2:11.0 3:7.0 4:1.0 5:300.0 
-0.7515283623754064 0:0.0 1:2.0 2:8.0 3:4.0 4:0.0 5:200.0 
-0.523773887964048 0:1.0 1:0.0 2:3.0 3:4.0 4:0.0 5:200.0 
-0.44101744595742565 0:1.0 1:1.0 2:11.0 3:3.0 4:0.0 5:200.0 
-0.27417758606761855 0:0.0 1:1.0 2:6.0 3:3.0 4:0.0 5:200.0 
-0.5668351201633227 0:0.0 1:1.0 2:3.0 3:3.0 4:0.0 5:200.0 
-0.17736791753448766 0:0.0 1:0.0 2:3.0 3:3.0 4:0.0 5:200.0 
-0.4729018349592716 0:2.0 1:2.0 2:13.0 3:4.0 4:0.0 5:200.0 
-1.0 0:0.0 1:2.0 2:11.0 3:4.0 4:0.0 5:100.0 
-1.0 0:1.0 1:1.0 2:11.0 3:4.0 4:0.0 5:100.0 
-1.0 0:1.0 1:1.0 2:11.0 3:5.0 4:0.0 5:100.0 
-1.0 0:1.0 1:3.0 2:12.0 3:6.0 4:0.0 5:100.0 
-1.0 0:0.0 1:2.0 2:11.0 3:4.0 4:0.0 5:100.0 
-1.0 0:1.0 1:1.0 2:11.0 3:4.0 4:0.0 5:100.0 
-1.0 0:1.0 1:2.0 2:11.0 3:4.0 4:0.0 5:100.0 
-0.8287479797235447 0:1.0 1:2.0 2:11.0 3:2.0 4:0.0 5:100.0 
-0.6460723392597363 0:1.0 1:3.0 2:12.0 3:4.0 4:0.0 5:100.0 
-0.026529613671787824 0:0.0 1:2.0 2:11.0 3:2.0 4:0.0 5:100.0 
-1.0 0:0.0 1:2.0 2:11.0 3:4.0 4:0.0 5:100.0 
-0.08703619451150205 0:0.0 1:2.0 2:11.0 3:2.0 4:0.0 5:100.0 
-1.0 0:2.0 1:1.0 2:11.0 3:4.0 4:0.0 5:100.0 
-0.4544074930051928 0:0.0 1:1.0 2:5.0 3:9.0 4:1.0 5:70.0 
-0.5062070392823277 0:4.0 1:0.0 2:6.0 3:12.0 4:1.0 5:70.0 
-1.0 0:0.0 1:1.0 2:9.0 3:8.0 4:1.0 5:70.0 
-0.693876882764906 0:2.0 1:0.0 2:5.0 3:19.0 4:1.0 5:70.0 
-0.8538695040773854 0:4.0 1:0.0 2:9.0 3:25.0 4:1.0 5:70.0 
-0.8414905724397623 0:1.0 1:1.0 2:8.0 3:14.0 4:1.0 5:70.0 
-1.0 0:1.0 1:1.0 2:9.0 3:13.0 4:1.0 5:70.0 
-1.0 0:13.0 1:0.0 2:17.0 3:18.0 4:1.0 5:70.0 
-0.479625037349153 0:2.0 1:0.0 2:5.0 3:15.0 4:1.0 5:70.0 
-1.0 0:2.0 1:0.0 2:5.0 3:9.0 4:1.0 5:70.0 
-0.7619001382621843 0:4.0 1:0.0 2:6.0 3:16.0 4:1.0 5:70.0 
-0.8658035660348655 0:3.0 1:0.0 2:8.0 3:27.0 4:1.0 5:70.0 
-1.0 0:0.0 1:1.0 2:5.0 3:2.0 4:1.0 5:70.0 
-1.0 0:6.0 1:0.0 2:11.0 3:21.0 4:1.0 5:70.0 
-1.0 0:1.0 1:1.0 2:7.0 3:9.0 4:1.0 5:70.0 
-1.0 0:1.0 1:0.0 2:5.0 3:5.0 4:1.0 5:70.0 
-1.0 0:2.0 1:0.0 2:5.0 3:13.0 4:1.0 5:70.0 
-0.5736697408609106 0:4.0 1:0.0 2:5.0 3:10.0 4:1.0 5:70.0 
-0.5403848142732619 0:3.0 1:0.0 2:6.0 3:19.0 4:1.0 5:70.0 
-1.0 0:2.0 1:1.0 2:12.0 3:6.0 4:1.0 5:69.0 
-1.0 0:2.0 1:1.0 2:11.0 3:5.0 4:1.0 5:69.0 
-1.0 0:1.0 1:0.0 2:5.0 3:5.0 4:1.0 5:69.0 
-1.0 0:1.0 1:0.0 2:5.0 3:7.0 4:1.0 5:69.0 
-1.0 0:1.0 1:0.0 2:7.0 3:4.0 4:1.0 5:69.0 
-1.0 0:2.0 1:0.0 2:8.0 3:5.0 4:1.0 5:69.0 
-1.0 0:1.0 1:1.0 2:9.0 3:7.0 4:1.0 5:150.0 
-0.9097706581162424 0:0.0 1:1.0 2:3.0 3:7.0 4:1.0 5:150.0 
-1.0 0:0.0 1:3.0 2:11.0 3:9.0 4:1.0 5:150.0 
-0.49350633191204607 0:1.0 1:3.0 2:11.0 3:10.0 4:1.0 5:150.0 
-0.7747580885659848 0:1.0 1:0.0 2:3.0 3:4.0 4:1.0 5:143.0 
-0.402201460865048 0:2.0 1:1.0 2:11.0 3:6.0 4:1.0 5:143.0 
-1.0 0:8.0 1:4.0 2:21.0 3:7.0 4:1.0 5:143.0 
-0.5844556589690876 0:1.0 1:0.0 2:6.0 3:5.0 4:1.0 5:100.0 
-1.0 0:2.0 1:1.0 2:11.0 3:5.0 4:1.0 5:100.0 
-1.0 0:1.0 1:1.0 2:11.0 3:6.0 4:1.0 5:100.0 
-1.0 0:2.0 1:1.0 2:12.0 3:5.0 4:1.0 5:100.0 
-1.0 0:4.0 1:3.0 2:18.0 3:8.0 4:1.0 5:100.0 
-0.8001837311319044 0:2.0 1:2.0 2:13.0 3:5.0 4:1.0 5:100.0 
-0.8874019661888756 0:1.0 1:0.0 2:5.0 3:7.0 4:1.0 5:143.0 
-0.9466632044477719 0:4.0 1:1.0 2:13.0 3:6.0 4:1.0 5:143.0 
-0.6728275572542688 0:1.0 1:0.0 2:5.0 3:6.0 4:1.0 5:143.0 
-1.0 0:2.0 1:0.0 2:7.0 3:6.0 4:1.0 5:143.0 
-0.5431380496307869 0:2.0 1:1.0 2:11.0 3:5.0 4:1.0 5:143.0 
-0.33957160983826123 0:0.0 1:0.0 2:2.0 3:3.0 4:0.0 5:130.0 
-1.0 0:1.0 1:0.0 2:6.0 3:3.0 4:0.0 5:40.0 
-1.0 0:1.0 1:1.0 2:6.0 3:4.0 4:0.0 5:40.0 
-1.0 0:1.0 1:1.0 2:11.0 3:4.0 4:0.0 5:40.0 
-1.0 0:1.0 1:1.0 2:6.0 3:3.0 4:0.0 5:40.0 
-0.22644082829634488 0:2.0 1:2.0 2:12.0 3:3.0 4:0.0 5:40.0 
-0.43662386495200806 0:2.0 1:1.0 2:9.0 3:5.0 4:0.0 5:40.0 
-1.0 0:1.0 1:0.0 2:6.0 3:4.0 4:0.0 5:40.0 
-1.0 0:1.0 1:0.0 2:5.0 3:3.0 4:0.0 5:40.0 
-1.0 0:2.0 1:1.0 2:8.0 3:5.0 4:0.0 5:40.0 
-1.0 0:1.0 1:1.0 2:7.0 3:3.0 4:0.0 5:40.0 
-1.0 0:2.0 1:1.0 2:13.0 3:4.0 4:0.0 5:40.0 
-1.0 0:2.0 1:1.0 2:11.0 3:3.0 4:0.0 5:40.0 
-1.0 0:2.0 1:2.0 2:12.0 3:3.0 4:0.0 5:40.0 
-1.0 0:1.0 1:2.0 2:12.0 3:2.0 4:0.0 5:40.0 
-1.0 0:1.0 1:1.0 2:6.0 3:4.0 4:0.0 5:185.0 
-0.7364428557241703 0:1.0 1:2.0 2:9.0 3:3.0 4:0.0 5:185.0 
-1.0 0:4.0 1:2.0 2:14.0 3:10.0 4:0.0 5:175.0 
-0.7260957001918662 0:4.0 1:1.0 2:12.0 3:4.0 4:0.0 5:40.0 
-1.0 0:3.0 1:1.0 2:12.0 3:4.0 4:0.0 5:40.0 
-1.0 0:5.0 1:1.0 2:13.0 3:4.0 4:0.0 5:40.0 
-1.0 0:3.0 1:1.0 2:13.0 3:3.0 4:0.0 5:40.0 
-1.0 0:4.0 1:2.0 2:16.0 3:4.0 4:0.0 5:40.0 
-0.050647296539615194 0:3.0 1:1.0 2:12.0 3:4.0 4:0.0 5:40.0 
-1.0 0:3.0 1:3.0 2:14.0 3:4.0 4:0.0 5:40.0 
