svm_type c_svc
kernel_type rbf
gamma 0.25
nr_class 2
total_sv 1983
rho 0.04071397340087606
label 0 1
nr_sv 992 991
SV
1.0 0:2.4 1:1.5 2:-1.7 3:-2.1 4:0.0 
0.8265693199544552 0:-1.7 1:-3.1 2:-0.9 3:-1.2 4:0.0 
1.0 0:-1.0 1:1.9 2:0.4 3:-0.3 4:0.0 
1.0 0:1.5 1:-1.9 2:0.5 3:0.2 4:0.0 
1.0 0:0.5 1:-0.5 2:2.0 3:-0.9 4:0.0 
0.9981393601126721 0:-1.0 1:-4.2 2:3.4 3:0.4 4:0.0 
1.0 0:0.4 1:1.0 2:1.8 3:-4.2 4:0.0 
1.0 0:-2.2 1:0.5 2:-0.1 3:-1.9 4:0.0 
1.0 0:-3.8 1:1.5 2:3.4 3:-1.5 4:0.0 
1.0 0:-2.6 1:-1.5 2:-0.6 3:2.5 4:0.0 
0.9511901882922504 0:-0.1 1:-2.3 2:0.3 3:-5.7 4:0.0 
0.6042709900617889 0:-0.5 1:2.3 2:0.2 3:3.0 4:0.0 
0.5428899885669721 0:-3.1 1:2.2 2:0.3 3:2.8 4:0.0 
1.0 0:-0.4 1:-1.2 2:-0.4 3:-2.7 4:0.0 
1.0 0:-0.3 1:0.4 2:-1.2 3:-0.8 4:0.0 
0.816141283574706 0:-3.1 1:2.1 2:2.1 3:1.1 4:0.0 
1.0 0:-3.1 1:5.0 2:-3.5 3:0.4 4:0.0 
0.39386793707160883 0:2.9 1:4.8 2:-1.2 3:-1.4 4:0.0 
1.0 0:6.7 1:-3.0 2:6.7 3:-14.5 4:0.0 
1.0 0:4.6 1:1.9 2:-3.5 3:1.8 4:0.0 
1.0 0:-4.9 1:-7.9 2:3.5 3:-3.8 4:0.0 
1.0 0:-2.9 1:-5.6 2:-10.0 3:4.0 4:0.0 
0.35419788019329673 0:-1.0 1:-2.0 2:1.7 3:3.0 4:0.0 
1.0 0:5.5 1:-1.5 2:-1.2 3:5.2 4:0.0 
1.0 0:-1.3 1:5.2 2:-0.6 3:-3.3 4:0.0 
0.8939852233721082 0:-3.8 1:-5.0 2:6.2 3:-1.4 4:0.0 
1.0 0:-5.2 1:-0.8 2:1.3 3:-5.0 4:0.0 
1.0 0:-6.3 1:1.8 2:2.7 3:6.1 4:0.0 
0.7130452717795805 0:-0.5 1:4.1 2:-0.5 3:2.7 4:0.0 
1.0 0:-4.5 1:0.9 2:-0.4 3:-2.2 4:0.0 
1.0 0:-7.5 1:-14.6 2:8.5 3:-11.5 4:0.0 
1.0 0:-4.7 1:2.3 2:2.8 3:9.3 4:0.0 
0.9953276007515608 0:-2.2 1:7.8 2:5.0 3:2.9 4:0.0 
0.7827618796608506 0:-5.5 1:7.5 2:2.4 3:-0.7 4:0.0 
1.0 0:4.9 1:0.8 2:5.8 3:3.8 4:0.0 
0.9257093567002564 0:-0.7 1:-4.8 2:-0.2 3:1.7 4:0.0 
1.0 0:-7.5 1:2.8 2:-2.2 3:7.2 4:0.0 
0.843389020279894 0:-1.0 1:-1.3 2:-1.4 3:-0.3 4:0.0 
1.0 0:1.0 1:-0.3 2:-0.5 3:-0.2 4:0.0 
0.8041772027500775 0:2.0 1:4.7 2:-0.9 3:-1.4 4:0.0 
1.0 0:-0.9 1:2.7 2:-0.8 3:-2.3 4:0.0 
1.0 0:2.3 1:-0.7 2:-0.4 3:-0.7 4:0.0 
1.0 0:1.8 1:-6.6 2:2.8 3:-1.6 4:0.0 
0.9144121400477443 0:-3.1 1:-1.7 2:0.5 3:1.9 4:0.0 
0.8741786612509973 0:-2.0 1:4.3 2:1.1 3:-0.1 4:0.0 
0.2555686166366954 0:-1.9 1:0.5 2:-0.3 3:-0.3 4:0.0 
1.0 0:-0.1 1:-2.2 2:2.3 3:4.3 4:0.0 
1.0 0:-0.2 1:0.6 2:-0.7 3:0.1 4:0.0 
1.0 0:2.5 1:-0.8 2:1.1 3:0.4 4:0.0 
0.8860122445235465 0:-2.0 1:1.2 2:-3.0 3:1.4 4:0.0 
1.0 0:0.3 1:-1.5 2:-0.9 3:2.9 4:0.0 
1.0 0:0.1 1:2.7 2:-5.2 3:-0.8 4:0.0 
1.0 0:-1.1 1:-1.1 2:-1.7 3:0.6 4:0.0 
1.0 0:3.8 1:-1.0 2:-2.1 3:-0.2 4:0.0 
1.0 0:0.4 1:-2.1 2:4.3 3:-1.6 4:0.0 
1.0 0:-1.3 1:-0.7 2:1.8 3:-0.7 4:0.0 
1.0 0:1.7 1:-0.2 2:2.3 3:-2.0 4:0.0 
1.0 0:4.0 1:-2.7 2:10.4 3:-2.1 4:0.0 
0.5737803900824524 0:-3.6 1:1.9 2:-1.4 3:-0.3 4:0.0 
0.8757552229800968 0:-5.8 1:-3.8 2:5.2 3:-1.4 4:0.0 
1.0 0:6.4 1:-2.0 2:0.8 3:-3.3 4:0.0 
1.0 0:-11.6 1:7.3 2:-5.5 3:-3.1 4:0.0 
0.7338000443780058 0:-4.9 1:6.5 2:2.4 3:1.0 4:0.0 
1.0 0:0.2 1:9.7 2:-0.6 3:-4.1 4:0.0 
1.0 0:2.4 1:-1.9 2:1.2 3:-3.7 4:0.0 
1.0 0:4.6 1:3.7 2:-2.5 3:-0.2 4:0.0 
1.0 0:-0.7 1:-0.9 2:0.6 3:1.4 4:0.0 
1.0 0:1.5 1:7.0 2:2.4 3:-0.1 4:0.0 
0.9873133287687829 0:-0.6 1:4.7 2:4.9 3:2.0 4:0.0 
1.0 0:5.0 1:-4.5 2:3.0 3:0.5 4:0.0 
1.0 0:-11.1 1:0.0 2:-5.2 3:-4.4 4:0.0 
1.0 0:-2.3 1:6.0 2:1.3 3:6.7 4:0.0 
1.0 0:-0.3 1:-5.7 2:10.4 3:4.3 4:0.0 
0.6715083588613207 0:-1.2 1:-1.6 2:-0.6 3:-2.4 4:0.0 
1.0 0:1.6 1:0.3 2:-0.1 3:-1.8 4:0.0 
1.0 0:-3.9 1:-6.9 2:-7.3 3:-2.2 4:0.0 
1.0 0:-0.7 1:2.1 2:-0.9 3:-7.2 4:0.0 
1.0 0:0.5 1:0.1 2:0.0 3:-2.3 4:0.0 
0.4319575176369801 0:-4.2 1:2.6 2:-0.9 3:0.9 4:0.0 
1.0 0:-2.1 1:-0.1 2:4.7 3:3.3 4:0.0 
0.48242191180213206 0:-0.7 1:2.0 2:0.9 3:0.6 4:0.0 
1.0 0:-3.1 1:3.6 2:-0.2 3:-1.4 4:0.0 
0.9384239136138515 0:-0.9 1:1.5 2:-1.4 3:2.2 4:0.0 
1.0 0:-0.8 1:-0.2 2:0.7 3:-0.5 4:0.0 
1.0 0:-8.2 1:3.8 2:1.5 3:0.9 4:0.0 
1.0 0:2.1 1:2.3 2:-0.3 3:-0.8 4:0.0 
1.0 0:-2.8 1:1.5 2:-0.8 3:-0.8 4:10.0 
1.0 0:6.4 1:-2.4 2:-2.6 3:-0.9 4:10.0 
1.0 0:13.0 1:-8.4 2:-1.2 3:2.1 4:10.0 
1.0 0:-4.1 1:3.3 2:2.3 3:-3.8 4:10.0 
0.8623634001127595 0:-4.6 1:2.0 2:4.4 3:-0.6 4:10.0 
1.0 0:0.5 1:14.6 2:-15.8 3:3.7 4:10.0 
0.9697919200605981 0:0.9 1:3.7 2:1.1 3:-6.3 4:10.0 
1.0 0:13.4 1:-3.1 2:4.1 3:-2.4 4:10.0 
0.5688341350874552 0:6.2 1:-5.5 2:0.3 3:2.6 4:10.0 
1.0 0:4.0 1:-8.8 2:-0.4 3:0.3 4:10.0 
1.0 0:-3.9 1:0.8 2:0.1 3:4.9 4:10.0 
1.0 0:-8.1 1:2.3 2:4.8 3:-1.4 4:10.0 
1.0 0:1.5 1:9.3 2:-1.1 3:3.6 4:10.0 
1.0 0:2.0 1:3.0 2:-5.1 3:-2.2 4:10.0 
1.0 0:2.0 1:-1.9 2:0.6 3:-2.0 4:10.0 
1.0 0:0.7 1:-5.0 2:-3.3 3:-2.1 4:10.0 
1.0 0:-1.2 1:1.5 2:1.6 3:2.8 4:10.0 
0.19759500119983203 0:0.6 1:-0.7 2:-3.0 3:-1.0 4:10.0 
0.38518065310535765 0:-0.2 1:-3.1 2:-0.6 3:0.4 4:10.0 
1.0 0:1.0 1:-0.6 2:-0.6 3:0.2 4:10.0 
0.8235908642060641 0:0.7 1:0.8 2:-0.2 3:4.5 4:10.0 
1.0 0:4.0 1:-2.2 2:-0.1 3:1.7 4:10.0 
1.0 0:2.4 1:1.1 2:-1.2 3:2.1 4:10.0 
0.7131151584029918 0:1.2 1:-1.2 2:-2.5 3:-0.1 4:10.0 
0.887917024159666 0:1.6 1:-0.9 2:-3.6 3:-0.4 4:10.0 
0.8283015035081537 0:-2.0 1:-2.2 2:-0.1 3:1.5 4:10.0 
0.09839449749675643 0:-0.9 1:1.3 2:0.7 3:3.5 4:10.0 
0.0034018961811679046 0:0.0 1:3.3 2:-0.9 3:2.6 4:10.0 
0.7621501451678285 0:1.3 1:1.3 2:-1.5 3:-3.5 4:10.0 
1.0 0:3.8 1:-0.6 2:4.9 3:-4.4 4:10.0 
1.0 0:1.5 1:-4.0 2:0.7 3:2.5 4:10.0 
1.0 0:-6.9 1:-1.2 2:0.0 3:-0.9 4:10.0 
1.0 0:-0.2 1:-0.2 2:0.3 3:-1.5 4:10.0 
1.0 0:-1.0 1:3.7 2:-2.6 3:1.5 4:10.0 
0.9801583840321132 0:-2.0 1:6.6 2:-2.3 3:-0.2 4:10.0 
1.0 0:-9.2 1:-0.6 2:2.5 3:-3.6 4:10.0 
0.6120023288128834 0:-3.1 1:0.9 2:1.5 3:1.2 4:10.0 
1.0 0:9.3 1:-4.7 2:0.3 3:-5.6 4:10.0 
1.0 0:5.0 1:1.5 2:-3.5 3:2.2 4:10.0 
0.8787563133015692 0:4.8 1:0.8 2:1.3 3:-1.4 4:10.0 
1.0 0:1.0 1:2.0 2:-1.4 3:-0.5 4:10.0 
0.658486493229317 0:4.0 1:-2.6 2:-2.1 3:-1.8 4:10.0 
1.0 0:4.5 1:0.4 2:-5.6 3:3.2 4:10.0 
0.9652588247505219 0:0.9 1:4.9 2:-1.7 3:5.7 4:10.0 
1.0 0:-2.9 1:1.1 2:-12.0 3:0.1 4:10.0 
1.0 0:-0.1 1:-1.3 2:1.8 3:-9.0 4:10.0 
0.7226627562320764 0:6.1 1:-5.4 2:-1.0 3:4.1 4:10.0 
1.0 0:-3.4 1:-3.2 2:-1.2 3:7.8 4:10.0 
1.0 0:3.6 1:-2.0 2:-0.5 3:1.6 4:10.0 
1.0 0:-4.0 1:4.4 2:-7.1 3:-0.5 4:10.0 
1.0 0:2.5 1:2.4 2:2.6 3:-5.2 4:10.0 
1.0 0:-2.5 1:2.4 2:-6.0 3:2.1 4:10.0 
1.0 0:-0.7 1:0.2 2:-0.1 3:-3.7 4:10.0 
1.0 0:4.5 1:-0.6 2:2.4 3:0.0 4:10.0 
0.8149355798382414 0:0.7 1:-0.1 2:-0.4 3:-4.9 4:10.0 
1.0 0:-0.7 1:-1.3 2:0.8 3:-0.6 4:10.0 
1.0 0:1.7 1:0.0 2:1.2 3:1.3 4:10.0 
0.6339778397298749 0:1.3 1:1.1 2:0.5 3:1.1 4:10.0 
1.0 0:0.4 1:-1.2 2:0.4 3:-0.3 4:10.0 
1.0 0:-0.4 1:-2.1 2:-4.0 3:2.6 4:10.0 
0.6430018657212454 0:-2.0 1:-2.0 2:-2.7 3:0.4 4:10.0 
1.0 0:1.7 1:0.5 2:-0.5 3:0.5 4:10.0 
1.0 0:-1.4 1:4.0 2:1.0 3:0.4 4:10.0 
0.6588985524719377 0:-4.7 1:3.2 2:-0.5 3:0.6 4:10.0 
0.7255197169914133 0:-1.4 1:2.3 2:-1.1 3:-1.8 4:10.0 
1.0 0:-4.6 1:-2.7 2:-2.9 3:1.4 4:10.0 
0.6878892333047635 0:-3.0 1:0.9 2:-1.1 3:3.6 4:10.0 
0.891720877467053 0:-6.3 1:3.6 2:-0.7 3:2.7 4:10.0 
1.0 0:-2.1 1:-0.4 2:1.6 3:0.9 4:10.0 
1.0 0:-1.2 1:-2.1 2:2.1 3:0.0 4:10.0 
1.0 0:2.8 1:-1.0 2:1.2 3:-11.5 4:10.0 
1.0 0:2.6 1:-9.1 2:3.9 3:-0.1 4:10.0 
1.0 0:3.7 1:4.9 2:-0.1 3:0.3 4:10.0 
0.980636548291465 0:-3.3 1:5.6 2:0.2 3:-3.6 4:10.0 
1.0 0:-1.4 1:-5.6 2:-1.4 3:-3.7 4:10.0 
1.0 0:-7.1 1:-4.8 2:-3.2 3:4.8 4:10.0 
0.642197524150313 0:-3.2 1:2.8 2:-1.3 3:2.9 4:10.0 
1.0 0:9.1 1:-3.7 2:-1.3 3:3.7 4:10.0 
1.0 0:4.8 1:5.1 2:-3.2 3:2.0 4:10.0 
1.0 0:2.8 1:3.1 2:2.6 3:-2.3 4:10.0 
0.9331126668994263 0:0.5 1:2.7 2:-0.6 3:1.5 4:10.0 
0.938239602594054 0:-0.6 1:-3.5 2:-0.7 3:2.9 4:10.0 
1.0 0:-6.8 1:5.1 2:-2.4 3:-1.4 4:10.0 
0.8871427177107923 0:-3.7 1:1.5 2:-2.9 3:-0.8 4:10.0 
0.9127277807009427 0:4.8 1:-3.7 2:1.1 3:-1.9 4:10.0 
1.0 0:3.6 1:0.5 2:2.1 3:0.3 4:10.0 
1.0 0:-2.4 1:-1.7 2:2.9 3:3.4 4:10.0 
0.7184513400866516 0:4.9 1:-4.4 2:1.8 3:3.8 4:10.0 
1.0 0:-1.5 1:0.3 2:-9.0 3:4.5 4:10.0 
1.0 0:0.9 1:0.5 2:4.0 3:-3.9 4:10.0 
0.5690002314662903 0:-3.3 1:0.1 2:3.4 3:0.0 4:10.0 
1.0 0:1.8 1:-4.5 2:-1.4 3:-5.7 4:10.0 
0.7440950994936584 0:0.4 1:-1.1 2:-0.2 3:-2.9 4:10.0 
1.0 0:2.9 1:-0.2 2:0.0 3:-1.4 4:10.0 
1.0 0:-3.3 1:1.4 2:-1.4 3:3.5 4:10.0 
1.0 0:-0.6 1:0.2 2:-0.7 3:-0.8 4:10.0 
0.844127990354213 0:0.9 1:1.3 2:0.9 3:1.1 4:10.0 
0.6215429928526067 0:1.6 1:-3.7 2:-1.2 3:-0.6 4:10.0 
0.46742713457845086 0:-0.3 1:-1.8 2:-0.9 3:0.6 4:10.0 
1.0 0:-1.9 1:-1.4 2:-1.0 3:1.7 4:10.0 
0.8946774034990517 0:1.6 1:2.6 2:4.0 3:-2.2 4:10.0 
1.0 0:-0.2 1:0.1 2:-0.6 3:4.7 4:10.0 
0.8841947966467322 0:-1.1 1:2.9 2:-1.6 3:4.2 4:10.0 
0.9909650082261326 0:2.8 1:-0.6 2:5.0 3:0.0 4:10.0 
1.0 0:5.0 1:-3.4 2:2.0 3:3.2 4:10.0 
0.8312711624451905 0:2.5 1:-4.4 2:-0.1 3:-1.4 4:10.0 
0.9505627191140178 0:-1.3 1:5.5 2:0.0 3:4.2 4:20.0 
1.0 0:2.1 1:1.4 2:-1.2 3:-2.1 4:20.0 
0.7652336523085342 0:1.9 1:-5.7 2:2.0 3:0.8 4:20.0 
1.0 0:-2.1 1:2.1 2:-0.3 3:2.5 4:20.0 
0.8267241063887618 0:-4.6 1:-1.0 2:-0.7 3:7.4 4:20.0 
1.0 0:-2.9 1:-13.5 2:2.1 3:-8.9 4:20.0 
1.0 0:-0.6 1:-4.8 2:4.9 3:3.8 4:20.0 
1.0 0:9.5 1:-1.1 2:-4.4 3:-3.6 4:20.0 
1.0 0:-2.1 1:1.3 2:0.0 3:-1.9 4:20.0 
1.0 0:2.8 1:1.1 2:-2.8 3:1.5 4:20.0 
1.0 0:0.3 1:1.9 2:-0.4 3:1.1 4:20.0 
1.0 0:2.4 1:-1.1 2:0.8 3:-0.7 4:20.0 
0.7753966890584708 0:-1.1 1:-2.0 2:-0.8 3:-0.6 4:20.0 
1.0 0:-5.2 1:0.4 2:0.8 3:-0.8 4:20.0 
0.8990820523280348 0:0.3 1:1.3 2:1.1 3:0.7 4:20.0 
1.0 0:-0.6 1:-1.0 2:-0.7 3:0.6 4:20.0 
1.0 0:0.1 1:0.2 2:0.3 3:0.1 4:20.0 
1.0 0:-3.9 1:1.3 2:-1.0 3:3.2 4:20.0 
1.0 0:-5.5 1:-0.9 2:-0.6 3:1.3 4:20.0 
1.0 0:0.5 1:-1.5 2:-1.5 3:0.2 4:20.0 
1.0 0:-1.1 1:3.4 2:-3.4 3:2.4 4:20.0 
1.0 0:-4.5 1:8.5 2:-0.3 3:2.5 4:20.0 
1.0 0:9.2 1:3.6 2:5.0 3:-1.5 4:20.0 
1.0 0:-8.7 1:2.5 2:-4.5 3:5.8 4:20.0 
1.0 0:6.2 1:4.5 2:-2.8 3:1.9 4:20.0 
1.0 0:2.7 1:2.8 2:-1.2 3:3.5 4:20.0 
0.7364397778666818 0:-4.5 1:1.8 2:0.6 3:-0.7 4:20.0 
1.0 0:5.0 1:-7.6 2:10.2 3:-2.2 4:20.0 
0.6762989522748366 0:-1.6 1:2.0 2:-4.5 3:0.6 4:20.0 
1.0 0:-1.0 1:-2.6 2:2.9 3:1.4 4:20.0 
0.9640505557048732 0:4.4 1:-4.6 2:4.9 3:-1.0 4:20.0 
0.7878616918986856 0:-1.1 1:-1.4 2:-3.6 3:1.2 4:20.0 
1.0 0:2.9 1:-1.2 2:-4.8 3:4.5 4:20.0 
1.0 0:5.9 1:-8.3 2:4.5 3:-4.2 4:20.0 
0.7804504919108083 0:0.4 1:2.3 2:-5.5 3:-4.4 4:20.0 
1.0 0:-3.7 1:-1.3 2:-2.6 3:2.4 4:20.0 
1.0 0:-7.9 1:7.2 2:-0.1 3:5.4 4:20.0 
1.0 0:-2.6 1:-5.0 2:-0.1 3:-0.7 4:20.0 
1.0 0:10.9 1:-8.8 2:2.2 3:-1.7 4:20.0 
0.6850763971140931 0:-2.1 1:1.0 2:1.9 3:-2.8 4:20.0 
1.0 0:0.8 1:-0.7 2:5.7 3:-5.4 4:20.0 
0.8364106086357165 0:1.8 1:-10.0 2:-1.2 3:3.4 4:20.0 
0.9225809313666361 0:-2.3 1:-1.9 2:-0.8 3:-2.0 4:20.0 
0.9930643612635567 0:1.0 1:-4.6 2:-2.6 3:6.4 4:20.0 
1.0 0:3.4 1:-5.5 2:-0.7 3:-1.1 4:20.0 
1.0 0:-1.5 1:1.0 2:-2.5 3:0.4 4:20.0 
0.9233847613614031 0:2.5 1:0.1 2:-0.1 3:-0.8 4:20.0 
0.43237425944960833 0:-0.9 1:3.2 2:1.5 3:-2.0 4:20.0 
0.39195315123281793 0:-0.7 1:1.6 2:0.6 3:1.2 4:20.0 
1.0 0:-1.2 1:-3.3 2:2.9 3:-2.3 4:20.0 
1.0 0:-0.8 1:-1.1 2:0.7 3:-2.8 4:20.0 
0.43734782623916507 0:-6.4 1:0.6 2:0.9 3:0.5 4:20.0 
0.04623504632085096 0:-2.0 1:0.9 2:2.0 3:2.0 4:20.0 
0.6178677580719996 0:-5.0 1:2.9 2:0.5 3:3.2 4:20.0 
1.0 0:-2.2 1:0.8 2:1.5 3:1.3 4:20.0 
1.0 0:-0.4 1:0.0 2:0.8 3:0.4 4:20.0 
0.5100842088622233 0:0.2 1:1.7 2:3.1 3:-2.1 4:20.0 
0.979539861114734 0:-4.5 1:-1.2 2:0.3 3:5.3 4:20.0 
1.0 0:-1.9 1:-1.4 2:2.6 3:-0.9 4:20.0 
1.0 0:-0.2 1:0.8 2:-0.2 3:0.2 4:20.0 
1.0 0:3.2 1:-4.4 2:2.0 3:0.4 4:20.0 
1.0 0:-0.2 1:10.0 2:-1.0 3:6.1 4:20.0 
0.8908911372361383 0:-4.5 1:2.1 2:2.1 3:3.6 4:20.0 
0.8243282383098446 0:2.7 1:-8.4 2:-0.7 3:2.0 4:20.0 
1.0 0:6.5 1:-3.5 2:2.5 3:-0.7 4:20.0 
1.0 0:2.5 1:-3.4 2:3.0 3:9.3 4:20.0 
0.9688870545889829 0:1.0 1:-7.1 2:3.4 3:-13.7 4:20.0 
1.0 0:2.1 1:5.0 2:-6.9 3:0.5 4:20.0 
1.0 0:-6.4 1:8.7 2:1.8 3:15.6 4:20.0 
1.0 0:-4.9 1:-4.4 2:2.5 3:-9.1 4:20.0 
1.0 0:-6.4 1:5.4 2:-5.1 3:13.8 4:20.0 
1.0 0:0.3 1:-5.3 2:1.5 3:-2.1 4:20.0 
1.0 0:1.7 1:5.9 2:-3.8 3:-2.9 4:20.0 
0.7025951121333386 0:-6.9 1:-0.2 2:-1.3 3:1.2 4:20.0 
0.9730636572724131 0:1.0 1:-6.5 2:6.0 3:-11.8 4:20.0 
1.0 0:4.4 1:-0.2 2:4.8 3:2.0 4:20.0 
1.0 0:0.6 1:-2.9 2:-1.1 3:-7.3 4:20.0 
0.6840823686017846 0:-2.7 1:-4.8 2:4.2 3:-1.5 4:20.0 
1.0 0:-2.9 1:0.8 2:-4.8 3:0.4 4:20.0 
1.0 0:3.3 1:0.7 2:-0.8 3:2.3 4:20.0 
1.0 0:-2.0 1:0.7 2:-1.3 3:-6.6 4:20.0 
1.0 0:-2.1 1:1.2 2:1.0 3:-0.3 4:20.0 
1.0 0:3.3 1:-0.7 2:0.0 3:-0.4 4:20.0 
1.0 0:1.2 1:0.4 2:0.7 3:0.2 4:20.0 
1.0 0:-1.2 1:-0.4 2:0.7 3:0.5 4:20.0 
1.0 0:-1.6 1:-1.9 2:0.4 3:-0.2 4:20.0 
1.0 0:0.5 1:-1.9 2:1.7 3:1.1 4:20.0 
1.0 0:-2.1 1:1.1 2:2.5 3:3.6 4:20.0 
1.0 0:0.1 1:-4.1 2:0.4 3:0.0 4:20.0 
0.909996816003344 0:-0.5 1:2.6 2:-0.6 3:2.3 4:20.0 
0.9598419694367597 0:-0.2 1:-2.5 2:-4.8 3:2.8 4:20.0 
0.3020038272797464 0:2.1 1:1.3 2:1.1 3:-1.4 4:20.0 
0.9382263745946307 0:-3.1 1:5.2 2:-1.6 3:-0.8 4:20.0 
1.0 0:-2.0 1:0.3 2:3.3 3:-10.6 4:20.0 
0.9606373907638759 0:-3.3 1:4.2 2:-3.9 3:0.7 4:20.0 
1.0 0:-8.2 1:4.7 2:2.4 3:0.7 4:20.0 
1.0 0:-7.6 1:8.9 2:3.0 3:2.7 4:20.0 
1.0 0:-4.3 1:-1.5 2:0.6 3:1.3 4:20.0 
1.0 0:-2.9 1:-3.3 2:4.3 3:0.2 4:20.0 
1.0 0:-2.1 1:-1.5 2:3.5 3:-0.5 4:20.0 
0.25858400017451805 0:1.5 1:1.6 2:2.3 3:-1.6 4:20.0 
0.9958497404330641 0:2.8 1:-5.6 2:0.2 3:5.8 4:20.0 
0.9627111303240041 0:-0.2 1:-7.2 2:4.7 3:-1.4 4:20.0 
1.0 0:-6.7 1:2.6 2:-5.9 3:2.6 4:20.0 
1.0 0:1.1 1:-0.8 2:2.0 3:-1.5 4:20.0 
1.0 0:5.4 1:1.7 2:1.0 3:-1.5 4:20.0 
1.0 0:-0.1 1:-2.0 2:-0.3 3:3.1 4:20.0 
1.0 0:1.0 1:-4.1 2:5.4 3:-3.3 4:20.0 
1.0 0:-8.7 1:6.4 2:-4.3 3:4.7 4:20.0 
0.44054436162046645 0:-1.2 1:3.4 2:2.0 3:-1.0 4:20.0 
1.0 0:0.6 1:-10.7 2:3.3 3:-10.9 4:20.0 
0.7269958609398386 0:-0.9 1:2.2 2:-4.7 3:-5.6 4:20.0 
1.0 0:4.9 1:-3.1 2:1.6 3:0.3 4:20.0 
1.0 0:1.4 1:1.4 2:0.2 3:-4.1 4:20.0 
0.7478924665353277 0:-0.5 1:4.9 2:-1.4 3:5.2 4:20.0 
1.0 0:-5.1 1:5.8 2:-5.3 3:0.6 4:30.0 
1.0 0:0.7 1:-0.1 2:6.7 3:-9.0 4:30.0 
1.0 0:9.0 1:-3.3 2:-5.1 3:2.9 4:30.0 
1.0 0:-4.0 1:6.7 2:0.1 3:6.8 4:30.0 
0.9800202708674457 0:0.4 1:-9.2 2:-0.3 3:-12.0 4:30.0 
0.800842806283338 0:0.0 1:-4.3 2:1.2 3:0.5 4:30.0 
1.0 0:5.3 1:-0.7 2:-3.4 3:7.0 4:30.0 
1.0 0:-1.6 1:-15.3 2:2.0 3:-2.9 4:30.0 
1.0 0:2.6 1:3.7 2:0.1 3:3.3 4:30.0 
1.0 0:-2.3 1:2.5 2:4.7 3:-6.8 4:30.0 
0.9797820910202151 0:-0.4 1:-10.3 2:0.2 3:-9.0 4:30.0 
1.0 0:-3.2 1:-1.9 2:5.2 3:7.3 4:30.0 
1.0 0:0.3 1:-2.0 2:-2.3 3:2.9 4:30.0 
1.0 0:3.1 1:-2.9 2:1.1 3:-0.2 4:30.0 
1.0 0:6.1 1:-4.4 2:-0.4 3:-0.5 4:30.0 
1.0 0:-0.8 1:-2.0 2:0.7 3:-0.6 4:30.0 
1.0 0:0.5 1:2.3 2:2.7 3:-2.9 4:30.0 
0.9521940869590954 0:-1.2 1:-2.1 2:-0.4 3:1.8 4:30.0 
1.0 0:-0.9 1:-2.9 2:2.8 3:-3.3 4:30.0 
1.0 0:-1.2 1:2.0 2:-3.4 3:3.1 4:30.0 
1.0 0:-2.3 1:-3.0 2:3.6 3:-0.6 4:30.0 
1.0 0:-4.6 1:-1.4 2:-1.5 3:0.8 4:30.0 
0.8460509471769583 0:7.8 1:-2.8 2:-1.3 3:-1.9 4:30.0 
1.0 0:1.3 1:-4.8 2:3.1 3:1.2 4:30.0 
1.0 0:-2.6 1:-1.1 2:2.2 3:-6.1 4:30.0 
1.0 0:-1.9 1:3.1 2:2.9 3:-1.2 4:30.0 
1.0 0:-1.5 1:0.2 2:0.7 3:-0.4 4:30.0 
1.0 0:1.8 1:2.2 2:-3.0 3:-0.9 4:30.0 
1.0 0:-4.1 1:2.3 2:1.6 3:1.5 4:30.0 
0.5804697549415362 0:8.5 1:-3.3 2:0.3 3:-0.5 4:30.0 
1.0 0:-2.9 1:10.1 2:-1.2 3:2.6 4:30.0 
1.0 0:-1.7 1:-1.0 2:-7.7 3:-1.8 4:30.0 
1.0 0:4.6 1:2.7 2:-7.2 3:1.1 4:30.0 
1.0 0:15.7 1:-2.4 2:-0.6 3:7.0 4:30.0 
1.0 0:4.2 1:0.9 2:-7.8 3:-8.8 4:30.0 
0.9651767825615598 0:-2.2 1:8.4 2:1.5 3:8.3 4:30.0 
1.0 0:-1.0 1:-7.5 2:9.6 3:-2.0 4:30.0 
1.0 0:12.7 1:-1.1 2:-3.0 3:2.9 4:30.0 
0.7472795682872022 0:2.0 1:-4.2 2:-3.3 3:0.7 4:30.0 
0.8527098880985147 0:-0.8 1:-7.1 2:3.1 3:-2.2 4:30.0 
1.0 0:6.7 1:-7.6 2:8.8 3:0.7 4:30.0 
0.9766648442320461 0:-0.2 1:-4.0 2:6.3 3:2.3 4:30.0 
1.0 0:-0.9 1:2.9 2:1.1 3:1.3 4:30.0 
1.0 0:0.0 1:1.5 2:-2.3 3:-1.1 4:30.0 
0.7175851675201258 0:2.1 1:1.9 2:1.4 3:-4.4 4:30.0 
1.0 0:1.3 1:0.6 2:1.5 3:-0.1 4:30.0 
1.0 0:4.3 1:0.5 2:4.6 3:-0.7 4:30.0 
0.8023677723947911 0:-2.4 1:-3.3 2:3.7 3:2.8 4:30.0 
1.0 0:0.1 1:-2.1 2:0.1 3:1.5 4:30.0 
1.0 0:-0.9 1:5.4 2:-2.3 3:0.9 4:30.0 
0.004014724519792578 0:-3.1 1:1.9 2:1.8 3:3.0 4:30.0 
0.6748710561146708 0:-2.4 1:0.7 2:0.2 3:3.6 4:30.0 
1.0 0:-10.7 1:-1.8 2:2.9 3:-6.9 4:30.0 
0.7119823128054098 0:-6.3 1:5.6 2:-0.2 3:-1.2 4:30.0 
1.0 0:-3.7 1:1.8 2:2.7 3:1.0 4:30.0 
0.6474079787671857 0:0.4 1:1.9 2:-0.1 3:4.8 4:30.0 
1.0 0:-2.2 1:-5.3 2:-0.3 3:5.2 4:30.0 
1.0 0:-1.8 1:-2.0 2:-1.4 3:7.6 4:30.0 
1.0 0:4.3 1:2.7 2:5.3 3:1.7 4:30.0 
1.0 0:-8.6 1:6.4 2:-5.8 3:-0.9 4:30.0 
1.0 0:-5.4 1:-3.3 2:-0.2 3:5.8 4:30.0 
0.6245397324402723 0:0.6 1:-6.3 2:2.7 3:-1.3 4:30.0 
1.0 0:0.5 1:-3.4 2:-11.7 3:-6.3 4:30.0 
1.0 0:-0.6 1:0.4 2:-2.4 3:6.5 4:30.0 
1.0 0:-5.7 1:-13.0 2:-2.0 3:-20.1 4:30.0 
1.0 0:-1.3 1:0.9 2:2.3 3:3.3 4:30.0 
1.0 0:-1.5 1:-5.3 2:7.3 3:-6.8 4:30.0 
1.0 0:3.4 1:-0.6 2:1.1 3:-4.5 4:30.0 
1.0 0:2.3 1:-0.9 2:0.1 3:2.8 4:30.0 
1.0 0:3.4 1:-3.3 2:-2.1 3:-0.3 4:30.0 
0.5632585582286781 0:-0.9 1:3.8 2:0.2 3:2.6 4:30.0 
1.0 0:4.1 1:-2.4 2:1.9 3:10.2 4:30.0 
1.0 0:0.2 1:0.8 2:0.0 3:-2.6 4:30.0 
1.0 0:2.4 1:-1.2 2:-2.8 3:-0.2 4:30.0 
0.7166399120094288 0:-1.8 1:5.2 2:0.9 3:-0.7 4:30.0 
0.29877177205670247 0:-2.2 1:4.0 2:0.6 3:0.1 4:30.0 
0.5221203804530465 0:-2.7 1:4.2 2:-0.8 3:0.6 4:30.0 
1.0 0:-4.0 1:-1.8 2:-1.3 3:-1.6 4:30.0 
0.8974517112997894 0:-3.1 1:-1.1 2:4.1 3:3.3 4:30.0 
0.7024618088179234 0:-1.7 1:2.5 2:-0.4 3:2.2 4:30.0 
0.8839780913203101 0:-6.6 1:4.2 2:-2.2 3:-1.7 4:30.0 
0.6111793633031852 0:-0.8 1:1.1 2:1.1 3:5.2 4:30.0 
0.981986800382185 0:-1.0 1:1.2 2:-2.1 3:4.4 4:30.0 
0.5213227102027949 0:-3.3 1:1.7 2:0.7 3:1.9 4:30.0 
0.9518315315034365 0:8.8 1:-1.3 2:1.2 3:0.6 4:30.0 
1.0 0:-6.5 1:3.0 2:0.3 3:-1.0 4:30.0 
1.0 0:3.0 1:-1.8 2:-6.3 3:4.2 4:30.0 
0.958764107488093 0:1.6 1:3.9 2:-4.3 3:-1.4 4:30.0 
0.7631561119476717 0:-1.7 1:-0.2 2:1.8 3:1.2 4:40.0 
0.6936415518121051 0:-2.5 1:3.1 2:1.6 3:-4.0 4:40.0 
1.0 0:4.0 1:0.0 2:-1.9 3:2.0 4:40.0 
0.7609308737029126 0:-2.3 1:-2.2 2:4.7 3:2.0 4:40.0 
1.0 0:-0.8 1:8.5 2:-1.0 3:4.0 4:40.0 
1.0 0:1.4 1:-1.5 2:-1.5 3:3.7 4:40.0 
1.0 0:-7.0 1:7.3 2:0.2 3:-1.6 4:40.0 
1.0 0:4.2 1:-0.8 2:1.4 3:-0.9 4:40.0 
1.0 0:1.1 1:0.1 2:-1.4 3:0.0 4:40.0 
0.9259272632395064 0:-0.4 1:-5.5 2:0.3 3:-1.0 4:40.0 
0.40774552043554174 0:1.4 1:0.3 2:-0.6 3:0.0 4:40.0 
1.0 0:-1.7 1:-0.5 2:-2.1 3:-1.9 4:40.0 
1.0 0:-1.1 1:4.2 2:-6.1 3:-0.1 4:40.0 
1.0 0:7.0 1:-1.4 2:-5.8 3:2.5 4:40.0 
1.0 0:0.0 1:-9.2 2:7.3 3:-8.6 4:40.0 
1.0 0:5.6 1:0.5 2:4.9 3:3.2 4:40.0 
0.7609409994442767 0:-3.8 1:0.9 2:-2.8 3:-4.2 4:40.0 
1.0 0:-2.5 1:-0.7 2:1.9 3:10.2 4:40.0 
1.0 0:2.4 1:-22.2 2:3.5 3:-14.9 4:40.0 
0.7778878647493899 0:3.5 1:-0.8 2:2.0 3:-0.7 4:40.0 
1.0 0:-1.7 1:5.1 2:-0.7 3:2.5 4:40.0 
1.0 0:-7.4 1:3.3 2:5.2 3:10.5 4:40.0 
0.73567509600813 0:5.4 1:-2.1 2:-0.1 3:-2.3 4:40.0 
0.8209250295309448 0:3.8 1:-1.0 2:-0.9 3:-6.1 4:40.0 
1.0 0:-1.8 1:1.3 2:-1.5 3:0.3 4:40.0 
1.0 0:-5.1 1:1.7 2:-1.2 3:-1.3 4:40.0 
0.9307010608578785 0:2.1 1:0.2 2:2.1 3:0.7 4:40.0 
1.0 0:1.1 1:2.7 2:2.3 3:2.5 4:40.0 
1.0 0:-3.9 1:-3.8 2:6.1 3:1.4 4:40.0 
1.0 0:-8.0 1:0.6 2:0.1 3:2.2 4:40.0 
1.0 0:10.2 1:1.6 2:1.7 3:5.2 4:40.0 
1.0 0:6.7 1:0.0 2:-12.7 3:3.3 4:40.0 
1.0 0:-13.9 1:-0.1 2:6.8 3:-3.7 4:40.0 
1.0 0:-9.3 1:2.3 2:2.4 3:4.3 4:40.0 
0.46895709289521736 0:-2.4 1:-1.1 2:-0.3 3:-1.3 4:40.0 
0.4577575447648 0:-2.8 1:-1.9 2:3.9 3:1.3 4:40.0 
0.5099301018425217 0:-2.5 1:1.3 2:-2.7 3:2.4 4:40.0 
1.0 0:-6.8 1:1.4 2:4.1 3:1.5 4:40.0 
1.0 0:1.8 1:-5.0 2:6.3 3:-4.8 4:40.0 
1.0 0:7.8 1:-1.4 2:0.3 3:0.5 4:40.0 
1.0 0:9.5 1:4.6 2:-7.7 3:-4.5 4:40.0 
0.8562082080691702 0:0.7 1:-3.2 2:1.9 3:3.6 4:40.0 
1.0 0:3.7 1:0.7 2:-0.7 3:-0.5 4:40.0 
1.0 0:0.2 1:1.5 2:7.6 3:3.4 4:40.0 
1.0 0:0.0 1:4.5 2:-7.6 3:-4.4 4:40.0 
1.0 0:3.5 1:-4.0 2:-7.3 3:-6.8 4:40.0 
0.6100383606144111 0:1.9 1:0.4 2:1.4 3:0.9 4:40.0 
0.7993851930942762 0:-1.4 1:-3.6 2:-1.1 3:0.8 4:40.0 
0.6282517994191715 0:-1.2 1:1.5 2:0.1 3:1.2 4:40.0 
1.0 0:-5.3 1:1.1 2:-1.8 3:6.5 4:40.0 
1.0 0:-3.6 1:-0.6 2:2.6 3:4.7 4:40.0 
0.3824912489262748 0:-0.5 1:-2.0 2:0.2 3:0.4 4:40.0 
1.0 0:2.1 1:0.4 2:-3.5 3:1.4 4:40.0 
1.0 0:-7.5 1:6.1 2:-5.3 3:-3.6 4:40.0 
1.0 0:0.1 1:0.2 2:-2.4 3:2.5 4:40.0 
0.9611230003941196 0:-3.1 1:-3.2 2:2.6 3:-2.0 4:40.0 
1.0 0:3.8 1:1.6 2:2.9 3:4.9 4:40.0 
1.0 0:-9.1 1:6.9 2:-6.7 3:5.9 4:40.0 
0.5353274753784274 0:3.8 1:-2.2 2:-1.5 3:-3.0 4:40.0 
1.0 0:2.6 1:-9.3 2:3.3 3:-6.7 4:40.0 
1.0 0:-7.7 1:-2.0 2:-4.7 3:-0.6 4:40.0 
0.7649300404841284 0:-3.5 1:2.8 2:-1.4 3:-4.1 4:40.0 
0.9773267641244222 0:-6.1 1:-0.7 2:3.3 3:-0.1 4:40.0 
1.0 0:-1.4 1:0.5 2:2.7 3:-5.1 4:40.0 
1.0 0:6.2 1:-4.2 2:2.2 3:-2.8 4:40.0 
1.0 0:-3.7 1:-4.7 2:-0.6 3:1.2 4:40.0 
1.0 0:-3.9 1:3.6 2:-4.3 3:1.3 4:40.0 
1.0 0:-8.3 1:1.3 2:2.9 3:8.6 4:40.0 
1.0 0:9.9 1:-11.4 2:2.2 3:-6.0 4:40.0 
0.07156904036668923 0:1.3 1:-2.0 2:0.3 3:2.0 4:40.0 
0.6986508197785775 0:1.8 1:-3.1 2:2.1 3:1.3 4:40.0 
0.3451797064264116 0:-0.8 1:0.5 2:1.5 3:3.7 4:40.0 
1.0 0:-0.3 1:-1.0 2:1.5 3:-1.3 4:40.0 
0.8569791068326169 0:0.6 1:-4.3 2:-1.2 3:1.2 4:40.0 
0.891548477713707 0:-2.9 1:0.7 2:-1.3 3:2.4 4:40.0 
1.0 0:2.5 1:-0.9 2:-0.2 3:2.0 4:40.0 
1.0 0:-0.4 1:0.2 2:0.3 3:3.1 4:40.0 
1.0 0:-5.6 1:3.7 2:-1.8 3:3.8 4:40.0 
0.6960315969622736 0:-3.2 1:4.6 2:2.0 3:0.9 4:40.0 
0.9845271616567446 0:-4.6 1:5.0 2:-6.1 3:3.8 4:40.0 
0.05802043197931095 0:3.7 1:-1.7 2:2.1 3:0.0 4:40.0 
0.8024557943367846 0:-3.7 1:3.5 2:1.2 3:-0.1 4:40.0 
1.0 0:3.6 1:-1.1 2:-1.8 3:-4.2 4:40.0 
0.8120580903279394 0:-4.3 1:-1.7 2:-0.8 3:-2.7 4:40.0 
0.9353854865451666 0:-1.5 1:5.4 2:1.3 3:-4.2 4:40.0 
1.0 0:1.0 1:7.3 2:-3.0 3:2.3 4:40.0 
1.0 0:5.9 1:-1.3 2:-2.5 3:1.7 4:40.0 
1.0 0:9.5 1:-1.2 2:-1.5 3:-4.3 4:40.0 
1.0 0:-8.1 1:7.6 2:-9.1 3:-3.5 4:40.0 
1.0 0:-3.0 1:3.7 2:4.4 3:-4.4 4:40.0 
1.0 0:4.7 1:-3.0 2:2.4 3:-0.3 4:40.0 
1.0 0:-0.9 1:2.2 2:-2.5 3:2.7 4:40.0 
1.0 0:-3.1 1:4.5 2:-0.1 3:2.6 4:50.0 
1.0 0:-6.7 1:0.1 2:1.7 3:-1.7 4:50.0 
1.0 0:8.0 1:-3.5 2:-0.1 3:-7.8 4:50.0 
1.0 0:1.3 1:-0.3 2:-0.8 3:0.9 4:50.0 
1.0 0:-13.3 1:-0.6 2:1.4 3:6.7 4:50.0 
1.0 0:3.2 1:12.4 2:-2.6 3:1.3 4:50.0 
0.6251008332923731 0:0.2 1:-5.0 2:0.7 3:-1.8 4:50.0 
0.7485254158389929 0:-0.2 1:-1.4 2:5.6 3:6.5 4:50.0 
1.0 0:-0.4 1:-1.5 2:-5.9 3:2.2 4:50.0 
0.9459329663805236 0:0.3 1:-1.7 2:1.3 3:-4.7 4:50.0 
1.0 0:3.7 1:-4.0 2:4.1 3:6.6 4:50.0 
0.39951952512272637 0:0.9 1:-2.8 2:1.8 3:-4.5 4:50.0 
0.9405441033593664 0:3.6 1:3.0 2:0.4 3:1.6 4:50.0 
0.9722831298077677 0:-6.9 1:2.1 2:-7.4 3:-5.7 4:50.0 
0.7096516375985557 0:-1.1 1:-3.1 2:1.9 3:-1.7 4:50.0 
0.56676610979457 0:-2.8 1:0.3 2:-0.7 3:6.7 4:50.0 
1.0 0:3.2 1:-3.5 2:2.1 3:-2.9 4:50.0 
1.0 0:-2.4 1:1.7 2:-0.1 3:-1.3 4:50.0 
1.0 0:1.2 1:4.1 2:4.7 3:0.0 4:50.0 
0.7685832405926509 0:-0.9 1:-0.4 2:4.4 3:7.5 4:50.0 
1.0 0:-1.5 1:-1.7 2:-1.3 3:0.3 4:50.0 
1.0 0:9.0 1:-3.8 2:-4.1 3:1.3 4:50.0 
1.0 0:-4.5 1:-0.2 2:6.9 3:-4.8 4:50.0 
1.0 0:-6.4 1:3.7 2:-5.5 3:2.9 4:50.0 
0.991484937685261 0:-9.4 1:4.6 2:-0.1 3:-1.1 4:50.0 
1.0 0:-4.3 1:-1.3 2:-4.3 3:10.3 4:50.0 
1.0 0:1.5 1:-9.6 2:-0.2 3:0.5 4:50.0 
1.0 0:6.3 1:3.3 2:-0.2 3:-0.2 4:50.0 
1.0 0:7.5 1:-3.2 2:-4.8 3:-2.6 4:50.0 
1.0 0:6.1 1:8.5 2:-1.7 3:4.0 4:50.0 
1.0 0:-6.8 1:1.0 2:-2.3 3:4.4 4:50.0 
1.0 0:4.2 1:-6.2 2:10.9 3:-16.0 4:50.0 
0.7450817301912704 0:2.3 1:-1.1 2:2.7 3:-4.4 4:50.0 
1.0 0:-3.4 1:3.2 2:2.7 3:3.2 4:50.0 
1.0 0:-6.7 1:0.2 2:-5.4 3:-4.0 4:50.0 
1.0 0:2.6 1:1.2 2:2.2 3:-8.1 4:50.0 
1.0 0:-3.0 1:1.4 2:-1.6 3:4.2 4:50.0 
1.0 0:1.9 1:-0.3 2:1.8 3:-2.0 4:50.0 
0.9163513893746825 0:-1.6 1:-2.5 2:-3.0 3:-0.6 4:50.0 
1.0 0:-0.3 1:3.2 2:-1.2 3:-0.9 4:50.0 
1.0 0:-1.6 1:0.5 2:0.7 3:-0.9 4:50.0 
1.0 0:-1.1 1:1.2 2:0.7 3:2.0 4:50.0 
1.0 0:-1.8 1:-5.4 2:-0.9 3:13.6 4:50.0 
1.0 0:2.3 1:1.8 2:0.5 3:8.1 4:50.0 
1.0 0:1.9 1:-3.2 2:-0.6 3:-4.1 4:50.0 
0.9843900237410712 0:-4.9 1:4.6 2:-1.0 3:7.3 4:50.0 
1.0 0:-0.5 1:2.8 2:-7.4 3:4.9 4:50.0 
1.0 0:-0.6 1:-2.7 2:-2.2 3:2.1 4:50.0 
0.2645485623528433 0:1.3 1:-0.2 2:1.4 3:-5.2 4:50.0 
1.0 0:-0.8 1:5.5 2:1.2 3:0.2 4:50.0 
1.0 0:2.4 1:0.8 2:-0.9 3:-4.0 4:50.0 
1.0 0:2.9 1:1.6 2:-3.6 3:-0.9 4:50.0 
0.8977249013448113 0:-9.0 1:4.8 2:1.8 3:1.5 4:50.0 
1.0 0:7.3 1:-3.1 2:1.1 3:-2.2 4:50.0 
1.0 0:6.4 1:-2.6 2:5.4 3:-5.9 4:50.0 
1.0 0:0.7 1:0.5 2:-11.2 3:-1.3 4:50.0 
1.0 0:2.1 1:-7.2 2:3.7 3:-5.0 4:50.0 
1.0 0:4.3 1:7.5 2:4.5 3:-10.9 4:50.0 
1.0 0:3.8 1:-2.1 2:-0.5 3:10.0 4:50.0 
1.0 0:10.6 1:-5.7 2:9.7 3:5.2 4:50.0 
0.9991174237403048 0:1.4 1:3.5 2:3.9 3:1.9 4:50.0 
0.8174356034576777 0:-4.0 1:1.9 2:-1.2 3:8.9 4:50.0 
1.0 0:-2.1 1:-3.7 2:6.0 3:2.7 4:50.0 
1.0 0:2.1 1:0.4 2:2.1 3:2.5 4:50.0 
0.8412695403167655 0:6.2 1:-3.0 2:2.7 3:-0.4 4:50.0 
1.0 0:-0.7 1:1.3 2:-2.9 3:-0.4 4:50.0 
1.0 0:-1.4 1:0.8 2:-2.7 3:-0.1 4:50.0 
1.0 0:2.3 1:-12.2 2:-0.8 3:-4.2 4:50.0 
1.0 0:-10.0 1:2.1 2:0.7 3:2.2 4:50.0 
1.0 0:2.0 1:-1.4 2:2.2 3:1.9 4:50.0 
0.8873626637968143 0:-5.5 1:1.3 2:-8.7 3:3.6 4:50.0 
1.0 0:10.3 1:-2.2 2:4.9 3:-1.1 4:50.0 
1.0 0:-1.8 1:12.4 2:-1.3 3:9.7 4:50.0 
1.0 0:-3.0 1:-3.4 2:2.8 3:-4.8 4:50.0 
1.0 0:5.0 1:-2.7 2:-2.0 3:1.8 4:50.0 
0.9558301485289982 0:0.8 1:3.9 2:2.4 3:4.8 4:50.0 
1.0 0:4.0 1:-0.8 2:-6.1 3:-3.1 4:50.0 
1.0 0:0.2 1:-0.4 2:1.7 3:2.6 4:50.0 
0.9409828825062003 0:2.7 1:6.8 2:-1.3 3:3.0 4:50.0 
1.0 0:0.3 1:4.5 2:-1.6 3:3.3 4:50.0 
1.0 0:-9.3 1:-1.7 2:0.1 3:-4.0 4:50.0 
1.0 0:2.5 1:-1.6 2:-1.9 3:-0.8 4:50.0 
0.7964099896578105 0:0.9 1:-3.5 2:1.0 3:-0.6 4:50.0 
0.3429869495152195 0:1.7 1:5.9 2:-0.3 3:-0.3 4:50.0 
0.578056346586215 0:-1.9 1:1.7 2:-0.6 3:7.5 4:50.0 
1.0 0:-3.6 1:1.0 2:3.6 3:2.3 4:50.0 
1.0 0:-2.2 1:-4.4 2:7.6 3:-1.4 4:50.0 
0.9952558794399086 0:-1.2 1:3.3 2:1.0 3:5.1 4:50.0 
0.724997102693427 0:2.2 1:5.7 2:-0.2 3:-1.3 4:50.0 
1.0 0:-3.2 1:6.3 2:-4.5 3:6.0 4:50.0 
0.7014642170901211 0:-5.8 1:1.3 2:-6.2 3:3.5 4:50.0 
0.7693803833904332 0:4.0 1:-2.4 2:2.8 3:2.5 4:50.0 
1.0 0:7.5 1:-0.4 2:1.3 3:-1.0 4:50.0 
0.4429645800471057 0:-4.8 1:0.8 2:0.4 3:2.1 4:60.0 
1.0 0:-7.7 1:4.3 2:-1.0 3:2.0 4:60.0 
1.0 0:2.5 1:9.7 2:-1.8 3:-4.5 4:60.0 
0.9194803170172471 0:1.3 1:-4.2 2:2.6 3:0.3 4:60.0 
1.0 0:3.1 1:1.5 2:1.5 3:2.7 4:60.0 
1.0 0:2.6 1:3.6 2:-1.2 3:-7.7 4:60.0 
1.0 0:-3.6 1:3.2 2:-0.7 3:1.8 4:60.0 
1.0 0:4.3 1:-1.8 2:-2.1 3:8.8 4:60.0 
0.769927934658926 0:-6.0 1:8.5 2:0.9 3:7.0 4:60.0 
1.0 0:-0.7 1:-4.7 2:0.9 3:-7.4 4:60.0 
0.9903960529596986 0:7.2 1:1.1 2:3.3 3:-1.7 4:60.0 
0.9186261228286665 0:-7.0 1:5.3 2:1.0 3:5.8 4:60.0 
1.0 0:-6.8 1:7.1 2:-5.7 3:5.3 4:60.0 
1.0 0:-0.4 1:-4.1 2:-6.6 3:0.1 4:60.0 
1.0 0:-12.5 1:12.0 2:-4.9 3:5.6 4:60.0 
1.0 0:2.1 1:-2.9 2:-1.6 3:-2.4 4:60.0 
1.0 0:7.9 1:-8.4 2:4.9 3:-8.3 4:60.0 
1.0 0:-0.5 1:1.3 2:10.8 3:7.9 4:60.0 
1.0 0:5.5 1:-6.9 2:-2.3 3:-8.2 4:60.0 
0.7487032056414138 0:3.4 1:-0.4 2:-6.9 3:-2.7 4:60.0 
0.5459165659459467 0:-3.1 1:1.5 2:1.0 3:-2.6 4:60.0 
1.0 0:2.0 1:-4.8 2:0.6 3:-2.2 4:60.0 
1.0 0:-2.8 1:1.0 2:1.1 3:8.1 4:60.0 
1.0 0:-2.3 1:0.8 2:3.0 3:-1.8 4:60.0 
1.0 0:2.0 1:-1.2 2:-0.8 3:3.9 4:60.0 
0.7321045145555299 0:2.4 1:4.3 2:3.0 3:2.4 4:60.0 
1.0 0:-1.2 1:3.0 2:-0.9 3:-0.4 4:60.0 
1.0 0:-10.7 1:6.2 2:0.5 3:-0.5 4:60.0 
1.0 0:2.7 1:6.4 2:-1.1 3:4.6 4:60.0 
1.0 0:-4.5 1:-3.8 2:-4.3 3:10.0 4:60.0 
0.8545762940413246 0:-0.8 1:-4.5 2:4.1 3:0.4 4:60.0 
1.0 0:7.3 1:5.7 2:-7.9 3:8.3 4:60.0 
1.0 0:0.3 1:-3.3 2:-4.6 3:7.8 4:60.0 
1.0 0:9.6 1:-6.3 2:-6.9 3:-0.2 4:60.0 
1.0 0:-7.9 1:6.0 2:-8.0 3:-0.8 4:60.0 
1.0 0:4.3 1:-4.5 2:5.9 3:-13.6 4:60.0 
1.0 0:5.5 1:-4.1 2:-1.8 3:13.8 4:60.0 
1.0 0:10.1 1:0.4 2:1.7 3:-3.7 4:60.0 
1.0 0:-1.9 1:-5.7 2:1.1 3:-7.9 4:60.0 
1.0 0:-0.8 1:-2.0 2:-2.0 3:-2.5 4:60.0 
0.8591091074504676 0:-5.5 1:0.2 2:0.9 3:1.9 4:60.0 
1.0 0:4.3 1:1.3 2:-0.1 3:0.5 4:60.0 
0.8299098205837827 0:-3.5 1:0.8 2:-0.3 3:-3.4 4:60.0 
0.9443594973589564 0:-5.0 1:5.3 2:1.0 3:1.7 4:60.0 
0.9656542653426261 0:-0.6 1:3.1 2:0.8 3:-1.0 4:60.0 
0.6281602312611695 0:1.1 1:3.1 2:-0.2 3:2.3 4:60.0 
0.46493283090903204 0:-0.8 1:2.0 2:1.2 3:1.6 4:60.0 
0.7554768962173526 0:-4.3 1:7.2 2:0.7 3:6.9 4:60.0 
0.8572169385994209 0:-0.9 1:-0.7 2:3.7 3:0.5 4:60.0 
0.5280463527780628 0:6.3 1:-3.3 2:2.3 3:-1.8 4:60.0 
0.8600622367614741 0:-0.7 1:-1.3 2:0.9 3:9.8 4:60.0 
0.7459779354763372 0:-0.2 1:-4.2 2:0.6 3:-1.5 4:60.0 
1.0 0:13.1 1:-11.4 2:-1.1 3:-6.0 4:60.0 
0.8791639040484811 0:4.7 1:0.3 2:-5.2 3:-3.1 4:60.0 
1.0 0:8.0 1:-1.0 2:-0.9 3:-2.8 4:60.0 
0.9896313025103415 0:4.5 1:-1.6 2:-8.5 3:-5.2 4:60.0 
1.0 0:-3.4 1:-6.7 2:-0.7 3:-5.3 4:60.0 
1.0 0:2.6 1:0.4 2:-1.9 3:1.0 4:60.0 
1.0 0:-3.4 1:-2.4 2:0.7 3:-12.0 4:60.0 
0.8134179659689177 0:-1.3 1:-4.7 2:-1.2 3:-1.0 4:60.0 
0.9302700116368314 0:-2.2 1:-2.4 2:-8.3 3:-3.8 4:60.0 
0.3793736872980014 0:-2.1 1:-0.5 2:1.1 3:9.0 4:60.0 
0.591153600374427 0:1.0 1:0.0 2:-0.4 3:0.8 4:60.0 
1.0 0:-0.5 1:1.9 2:-1.8 3:1.1 4:60.0 
0.9885587892450861 0:-3.0 1:0.4 2:0.3 3:0.2 4:60.0 
0.8140816155240063 0:-8.7 1:4.9 2:1.4 3:3.8 4:60.0 
0.6842267611119726 0:5.2 1:-4.3 2:3.1 3:-1.9 4:60.0 
1.0 0:5.3 1:-1.1 2:1.8 3:-0.8 4:60.0 
1.0 0:11.0 1:-1.9 2:2.2 3:7.7 4:60.0 
1.0 0:-7.9 1:5.4 2:-9.3 3:5.6 4:60.0 
1.0 0:0.7 1:-0.6 2:4.0 3:-0.4 4:60.0 
1.0 0:-2.9 1:6.8 2:1.6 3:-1.2 4:60.0 
1.0 0:-2.8 1:-3.5 2:9.8 3:-3.0 4:60.0 
1.0 0:2.9 1:-0.8 2:2.7 3:1.3 4:60.0 
1.0 0:1.3 1:-2.5 2:1.8 3:6.2 4:60.0 
0.9235200184337552 0:0.1 1:-3.4 2:-9.6 3:-3.0 4:60.0 
1.0 0:3.1 1:6.8 2:-6.1 3:0.0 4:60.0 
1.0 0:3.0 1:-12.9 2:-8.0 3:-9.6 4:60.0 
0.5071515915746229 0:1.3 1:3.1 2:3.3 3:2.9 4:60.0 
1.0 0:2.5 1:-10.8 2:4.8 3:-8.7 4:60.0 
1.0 0:-3.6 1:2.8 2:-8.1 3:-4.3 4:60.0 
1.0 0:-5.8 1:-0.7 2:0.9 3:-0.6 4:60.0 
0.8236222866941861 0:1.5 1:1.3 2:1.3 3:1.4 4:60.0 
0.34309592485745205 0:-2.8 1:1.1 2:1.2 3:1.8 4:60.0 
0.0015878814027371097 0:-5.8 1:-0.2 2:0.8 3:0.6 4:60.0 
1.0 0:-0.1 1:5.9 2:3.2 3:-2.8 4:60.0 
1.0 0:-3.5 1:6.7 2:-1.2 3:9.9 4:60.0 
1.0 0:1.6 1:0.3 2:-0.4 3:-2.5 4:60.0 
1.0 0:-2.0 1:11.4 2:-2.3 3:0.4 4:60.0 
1.0 0:-1.7 1:3.4 2:0.9 3:-5.5 4:60.0 
1.0 0:1.1 1:-2.2 2:0.1 3:-0.4 4:60.0 
0.2553177663802942 0:5.6 1:-3.5 2:2.1 3:-1.0 4:60.0 
1.0 0:3.9 1:-6.7 2:2.2 3:-5.2 4:60.0 
1.0 0:1.7 1:-1.2 2:-1.0 3:-5.1 4:60.0 
0.8939475281536122 0:7.7 1:-1.0 2:-2.0 3:-5.0 4:60.0 
1.0 0:6.8 1:-7.0 2:4.8 3:-0.4 4:60.0 
0.9604138190086037 0:2.3 1:7.0 2:4.2 3:1.0 4:70.0 
1.0 0:10.7 1:0.5 2:1.2 3:-7.2 4:70.0 
1.0 0:-4.1 1:-1.6 2:-3.5 3:-9.5 4:70.0 
0.2341618340147551 0:-0.7 1:3.0 2:1.1 3:-0.2 4:70.0 
1.0 0:-5.0 1:3.6 2:1.4 3:6.8 4:70.0 
0.9208444873476443 0:-0.6 1:-0.2 2:1.3 3:2.2 4:70.0 
0.6254201892872556 0:5.4 1:-6.5 2:1.4 3:0.5 4:70.0 
0.4505104199155327 0:-1.2 1:-1.2 2:0.0 3:1.2 4:70.0 
0.9866481703697636 0:-0.8 1:9.1 2:-3.1 3:-2.5 4:70.0 
0.8051621799397856 0:-0.2 1:5.9 2:-2.6 3:-2.5 4:70.0 
1.0 0:1.9 1:-1.5 2:-2.9 3:1.0 4:70.0 
0.5290975868317377 0:-1.6 1:3.4 2:-1.3 3:-2.6 4:70.0 
1.0 0:10.8 1:-1.4 2:0.3 3:-4.2 4:70.0 
1.0 0:-5.7 1:2.7 2:-7.1 3:9.5 4:70.0 
1.0 0:-6.7 1:2.0 2:-1.0 3:1.4 4:70.0 
1.0 0:8.8 1:-10.3 2:5.5 3:-11.8 4:70.0 
1.0 0:9.9 1:-4.8 2:3.0 3:-12.9 4:70.0 
1.0 0:3.1 1:3.5 2:5.7 3:5.8 4:70.0 
1.0 0:-8.7 1:1.3 2:12.8 3:12.9 4:70.0 
0.6049725831573377 0:6.5 1:-3.6 2:1.8 3:-0.1 4:70.0 
1.0 0:-0.9 1:1.9 2:-7.2 3:-1.8 4:70.0 
1.0 0:2.8 1:3.7 2:-2.5 3:-1.4 4:70.0 
0.981208005718758 0:0.3 1:-0.3 2:-4.7 3:-5.8 4:70.0 
0.5424815478815985 0:3.2 1:0.6 2:-1.6 3:3.8 4:70.0 
0.985033292192941 0:-0.1 1:2.9 2:0.0 3:-2.1 4:70.0 
0.9198650353460751 0:-0.3 1:1.2 2:-1.2 3:-0.1 4:70.0 
1.0 0:-0.2 1:-3.5 2:3.8 3:0.7 4:70.0 
1.0 0:-6.7 1:-6.9 2:4.7 3:4.4 4:70.0 
0.8870997608141159 0:-1.3 1:0.7 2:1.1 3:6.8 4:70.0 
1.0 0:4.8 1:4.4 2:1.7 3:5.4 4:70.0 
0.8517368906719958 0:-0.9 1:3.0 2:2.9 3:-1.0 4:70.0 
1.0 0:-0.3 1:-2.8 2:-1.0 3:1.7 4:70.0 
1.0 0:-2.3 1:-2.7 2:-2.4 3:-2.8 4:70.0 
0.9689159085246444 0:-3.1 1:-1.4 2:0.4 3:3.5 4:70.0 
1.0 0:0.4 1:-9.5 2:5.6 3:-5.8 4:70.0 
0.9268909401216686 0:6.2 1:-2.2 2:3.3 3:-2.1 4:70.0 
1.0 0:9.5 1:-4.1 2:0.0 3:1.8 4:70.0 
1.0 0:20.3 1:-7.4 2:2.3 3:-0.1 4:70.0 
1.0 0:-0.4 1:-2.6 2:-7.4 3:-9.1 4:70.0 
1.0 0:-2.3 1:-4.0 2:0.1 3:-0.9 4:70.0 
1.0 0:6.2 1:12.4 2:-7.3 3:7.6 4:70.0 
0.9303414082630247 0:6.9 1:-1.0 2:-1.2 3:-7.1 4:70.0 
1.0 0:-8.3 1:-2.7 2:2.5 3:-7.1 4:70.0 
1.0 0:9.3 1:-3.3 2:-3.6 3:-6.9 4:70.0 
0.8986030999760632 0:-3.4 1:-0.5 2:1.6 3:8.1 4:70.0 
0.6732517321394151 0:0.1 1:5.2 2:0.2 3:-1.6 4:70.0 
0.9910720273284229 0:2.7 1:0.6 2:-1.8 3:3.0 4:70.0 
0.8759800805510372 0:-1.6 1:2.8 2:0.9 3:3.6 4:70.0 
1.0 0:-2.4 1:-1.2 2:-2.9 3:2.3 4:70.0 
1.0 0:-9.0 1:4.0 2:-1.7 3:6.9 4:70.0 
1.0 0:-3.6 1:1.9 2:7.3 3:-4.7 4:70.0 
1.0 0:6.8 1:-3.4 2:8.7 3:-4.6 4:70.0 
1.0 0:-0.6 1:5.1 2:2.3 3:3.2 4:70.0 
1.0 0:4.9 1:4.2 2:3.9 3:-6.4 4:70.0 
1.0 0:-1.2 1:4.4 2:-11.8 3:3.9 4:70.0 
1.0 0:-9.7 1:-1.9 2:-14.1 3:-3.9 4:70.0 
1.0 0:7.1 1:-4.0 2:-3.9 3:-10.4 4:70.0 
0.8660889844141659 0:2.2 1:1.4 2:-4.3 3:-2.0 4:70.0 
1.0 0:-8.5 1:-4.7 2:-0.1 3:9.4 4:70.0 
0.9623559352759152 0:3.1 1:4.6 2:2.4 3:0.2 4:70.0 
1.0 0:7.5 1:-9.1 2:2.9 3:2.0 4:70.0 
0.6529207982919972 0:1.4 1:-0.4 2:-3.4 3:-2.9 4:70.0 
1.0 0:3.2 1:-1.2 2:0.2 3:-3.2 4:70.0 
0.03698198483027066 0:7.1 1:-3.3 2:1.2 3:0.6 4:70.0 
1.0 0:-3.7 1:2.1 2:-4.3 3:1.8 4:70.0 
0.8517252660270032 0:0.3 1:1.2 2:-3.7 3:0.0 4:70.0 
1.0 0:-4.4 1:7.6 2:-0.4 3:4.7 4:70.0 
1.0 0:-5.4 1:-2.2 2:2.8 3:3.7 4:70.0 
1.0 0:-2.2 1:-0.2 2:-2.9 3:7.4 4:70.0 
1.0 0:5.9 1:-4.5 2:1.4 3:7.2 4:70.0 
1.0 0:-0.6 1:-11.8 2:12.4 3:-6.5 4:70.0 
1.0 0:2.5 1:-2.5 2:5.1 3:-0.5 4:70.0 
0.8717541399553208 0:-0.9 1:-0.3 2:-5.0 3:0.5 4:70.0 
1.0 0:5.0 1:4.9 2:-3.8 3:-6.0 4:70.0 
0.6380243704033803 0:6.9 1:-2.3 2:-0.5 3:0.5 4:70.0 
1.0 0:12.5 1:-7.0 2:-1.8 3:-4.8 4:70.0 
1.0 0:-3.7 1:2.7 2:1.3 3:-5.6 4:70.0 
1.0 0:3.8 1:-4.1 2:4.9 3:-9.3 4:70.0 
1.0 0:9.9 1:0.1 2:2.0 3:2.9 4:70.0 
1.0 0:1.2 1:-5.3 2:-1.7 3:-10.0 4:70.0 
0.9637192817567315 0:2.9 1:-2.4 2:-1.8 3:-1.9 4:70.0 
0.9849468026216762 0:2.1 1:-1.1 2:2.6 3:-3.4 4:70.0 
1.0 0:-3.2 1:4.6 2:-3.9 3:-4.8 4:70.0 
1.0 0:2.0 1:-2.4 2:3.6 3:1.5 4:70.0 
0.8356670268042677 0:-1.4 1:3.8 2:-3.1 3:-0.1 4:70.0 
1.0 0:2.8 1:1.8 2:-0.6 3:-1.1 4:70.0 
0.6309625243973703 0:6.9 1:-3.7 2:-0.7 3:-0.5 4:70.0 
1.0 0:-6.4 1:0.3 2:0.0 3:-2.9 4:70.0 
0.9916719773185826 0:9.2 1:0.2 2:0.0 3:-0.5 4:70.0 
1.0 0:4.6 1:0.6 2:0.4 3:-1.1 4:70.0 
1.0 0:-3.9 1:1.9 2:1.7 3:-1.4 4:70.0 
1.0 0:-2.7 1:0.2 2:-7.2 3:7.9 4:70.0 
0.6435876034875847 0:1.2 1:-7.0 2:1.6 3:-1.7 4:70.0 
1.0 0:-7.4 1:1.9 2:-6.0 3:-0.5 4:70.0 
1.0 0:-3.1 1:-7.1 2:-2.7 3:-0.8 4:70.0 
0.9333241251143038 0:6.0 1:-2.5 2:0.9 3:-5.7 4:70.0 
1.0 0:7.1 1:-16.6 2:7.3 3:-14.1 4:70.0 
0.7443649582819551 0:4.1 1:-7.2 2:0.4 3:0.8 4:70.0 
0.9777129766313465 0:2.1 1:-1.0 2:-1.0 3:-5.5 4:70.0 
1.0 0:0.4 1:-3.0 2:0.6 3:9.1 4:70.0 
1.0 0:0.7 1:-5.3 2:1.6 3:-1.7 4:70.0 
0.9311293619575123 0:-10.8 1:0.7 2:-3.3 3:1.9 4:80.0 
0.6271495380794561 0:-5.9 1:0.6 2:-7.3 3:2.9 4:80.0 
1.0 0:-10.9 1:2.4 2:-0.9 3:-1.2 4:80.0 
0.8541127603382528 0:-2.9 1:8.3 2:-5.6 3:-4.8 4:80.0 
0.4789892363944579 0:-1.7 1:5.9 2:-3.6 3:3.1 4:80.0 
0.9746220312206183 0:-3.4 1:5.9 2:1.8 3:-2.8 4:80.0 
1.0 0:-9.7 1:1.2 2:-4.9 3:4.4 4:80.0 
1.0 0:-5.4 1:-2.7 2:-4.7 3:-4.0 4:80.0 
0.8106772668405519 0:1.0 1:-0.3 2:4.4 3:-1.2 4:80.0 
0.9032871224308475 0:-6.6 1:1.8 2:1.3 3:5.0 4:80.0 
1.0 0:2.5 1:-4.2 2:0.4 3:5.0 4:80.0 
1.0 0:-1.5 1:-12.8 2:4.1 3:-8.3 4:80.0 
0.7890637914730778 0:7.1 1:-3.6 2:1.8 3:-4.8 4:80.0 
1.0 0:9.9 1:-5.1 2:4.6 3:-3.5 4:80.0 
0.854404525987321 0:4.2 1:-3.3 2:2.2 3:-4.6 4:80.0 
0.8977542684565347 0:-0.1 1:-8.0 2:-0.6 3:-0.9 4:80.0 
1.0 0:-5.0 1:1.3 2:4.7 3:4.2 4:80.0 
1.0 0:-0.3 1:2.6 2:-1.2 3:0.8 4:80.0 
1.0 0:1.1 1:1.0 2:3.2 3:10.9 4:80.0 
1.0 0:1.2 1:12.2 2:2.3 3:3.6 4:80.0 
1.0 0:-0.9 1:7.4 2:-1.1 3:-2.5 4:80.0 
0.8698704855591204 0:-4.4 1:4.8 2:0.4 3:4.9 4:80.0 
1.0 0:2.6 1:3.9 2:-8.6 3:0.8 4:80.0 
1.0 0:-7.5 1:6.5 2:-5.5 3:-1.2 4:80.0 
1.0 0:1.0 1:6.6 2:-1.2 3:-6.0 4:80.0 
1.0 0:-3.0 1:-3.4 2:1.2 3:-0.5 4:80.0 
1.0 0:-9.7 1:2.8 2:-0.4 3:10.9 4:80.0 
1.0 0:5.3 1:0.0 2:8.5 3:3.0 4:80.0 
0.620393618052075 0:5.7 1:-3.3 2:3.6 3:-4.2 4:80.0 
1.0 0:9.4 1:-8.5 2:0.2 3:-13.4 4:80.0 
0.8770955117595042 0:-2.9 1:6.5 2:-4.2 3:-3.8 4:80.0 
0.8196631992866712 0:0.5 1:-6.0 2:2.5 3:0.2 4:80.0 
1.0 0:4.7 1:-0.3 2:-0.2 3:-1.5 4:80.0 
0.4444663967666144 0:0.0 1:-3.5 2:3.2 3:-0.8 4:80.0 
1.0 0:3.4 1:3.0 2:0.8 3:0.6 4:80.0 
1.0 0:-1.8 1:1.6 2:-3.9 3:-0.6 4:80.0 
1.0 0:-6.5 1:0.2 2:-0.7 3:2.7 4:80.0 
1.0 0:-2.5 1:2.8 2:-1.4 3:5.6 4:80.0 
0.9553522761218307 0:-2.8 1:-10.3 2:3.0 3:3.4 4:80.0 
1.0 0:-5.5 1:-1.7 2:-1.9 3:9.6 4:80.0 
1.0 0:-6.7 1:-9.7 2:11.0 3:-4.7 4:80.0 
1.0 0:-11.1 1:-13.9 2:17.0 3:-13.5 4:80.0 
1.0 0:-2.0 1:-2.1 2:0.2 3:3.6 4:80.0 
0.687769417967224 0:0.8 1:-6.3 2:1.0 3:-1.5 4:80.0 
1.0 0:6.9 1:-2.8 2:-3.6 3:7.5 4:80.0 
1.0 0:3.3 1:4.3 2:2.9 3:-0.4 4:80.0 
1.0 0:-1.3 1:9.2 2:-11.1 3:-4.5 4:80.0 
1.0 0:-2.1 1:2.9 2:1.2 3:3.6 4:80.0 
1.0 0:1.2 1:-0.3 2:-1.1 3:8.5 4:80.0 
1.0 0:-1.7 1:8.6 2:11.3 3:0.8 4:80.0 
0.6645489932549493 0:0.3 1:-1.1 2:2.8 3:-1.7 4:80.0 
1.0 0:1.4 1:-0.2 2:0.0 3:2.0 4:80.0 
1.0 0:-0.1 1:2.6 2:-8.5 3:3.3 4:80.0 
0.8532396550712337 0:-0.9 1:4.5 2:-3.4 3:2.3 4:80.0 
1.0 0:9.9 1:-3.1 2:-3.6 3:-4.6 4:80.0 
1.0 0:-5.6 1:3.5 2:0.7 3:-0.5 4:80.0 
1.0 0:-0.3 1:-1.8 2:-1.3 3:1.2 4:80.0 
0.9530744115537697 0:-2.6 1:-10.3 2:3.0 3:0.3 4:80.0 
1.0 0:-1.9 1:-1.9 2:-10.9 3:3.7 4:80.0 
1.0 0:-6.0 1:0.3 2:-2.0 3:-3.5 4:80.0 
0.8286507049028176 0:-1.1 1:-3.7 2:2.7 3:-4.4 4:80.0 
1.0 0:2.1 1:5.3 2:-0.7 3:-1.1 4:80.0 
1.0 0:13.9 1:0.0 2:4.9 3:-1.2 4:80.0 
1.0 0:3.7 1:-6.4 2:4.0 3:-3.3 4:80.0 
1.0 0:-3.1 1:-4.6 2:8.1 3:-8.0 4:80.0 
1.0 0:8.4 1:3.8 2:2.4 3:9.9 4:80.0 
1.0 0:0.5 1:-2.8 2:-4.7 3:-3.7 4:80.0 
1.0 0:3.2 1:-9.7 2:2.9 3:3.8 4:80.0 
0.6193063463797446 0:0.0 1:-3.0 2:-0.2 3:1.0 4:80.0 
1.0 0:0.2 1:-1.9 2:-1.1 3:4.3 4:80.0 
0.2737259634087125 0:-1.6 1:-2.5 2:1.0 3:0.0 4:80.0 
0.9004484541506436 0:-7.2 1:4.2 2:-1.0 3:6.2 4:80.0 
1.0 0:5.4 1:-2.4 2:3.1 3:3.5 4:80.0 
0.9056817602758311 0:-1.0 1:-5.6 2:0.8 3:4.5 4:80.0 
0.8610473033602213 0:-0.5 1:-2.3 2:1.8 3:-3.2 4:80.0 
1.0 0:0.6 1:-10.1 2:-4.2 3:3.5 4:80.0 
1.0 0:-0.4 1:4.5 2:0.9 3:0.5 4:80.0 
1.0 0:15.7 1:-2.3 2:4.6 3:3.4 4:80.0 
1.0 0:-3.4 1:-4.0 2:13.3 3:8.8 4:80.0 
1.0 0:-1.1 1:9.8 2:-7.1 3:0.5 4:80.0 
1.0 0:-0.9 1:-0.3 2:-10.3 3:-2.0 4:80.0 
0.7135434046094867 0:-1.5 1:6.0 2:-2.1 3:1.8 4:80.0 
1.0 0:-2.6 1:5.5 2:3.9 3:4.8 4:80.0 
1.0 0:-5.1 1:1.7 2:-6.3 3:-0.5 4:80.0 
1.0 0:3.4 1:1.5 2:5.3 3:6.0 4:80.0 
1.0 0:-0.7 1:3.1 2:-0.3 3:-0.5 4:80.0 
0.9949094429527179 0:-7.4 1:1.7 2:-4.7 3:2.1 4:80.0 
0.7799001784560804 0:-3.1 1:-4.5 2:1.6 3:3.6 4:80.0 
1.0 0:-3.0 1:7.2 2:1.8 3:0.4 4:80.0 
0.5371780298344185 0:-6.5 1:1.4 2:-7.8 3:2.5 4:80.0 
1.0 0:-1.4 1:3.1 2:-3.3 3:-3.7 4:80.0 
1.0 0:2.1 1:-2.1 2:-2.4 3:-0.3 4:80.0 
1.0 0:0.7 1:-5.7 2:-6.4 3:4.3 4:80.0 
1.0 0:-3.6 1:-2.4 2:-5.0 3:4.4 4:80.0 
1.0 0:-8.1 1:10.4 2:-1.6 3:9.0 4:80.0 
1.0 0:-1.6 1:5.0 2:8.9 3:5.8 4:80.0 
1.0 0:4.1 1:-8.4 2:3.9 3:-8.3 4:80.0 
1.0 0:9.9 1:10.3 2:7.2 3:-1.2 4:80.0 
1.0 0:5.9 1:4.9 2:1.3 3:-2.6 4:80.0 
1.0 0:-1.1 1:-7.9 2:4.3 3:-7.1 4:80.0 
0.369476517870321 0:-0.5 1:-4.2 2:3.1 3:0.3 4:80.0 
1.0 0:5.7 1:-5.1 2:-2.9 3:-7.2 4:80.0 
1.0 0:-3.6 1:3.9 2:4.7 3:-0.2 4:80.0 
1.0 0:-4.1 1:-1.1 2:5.2 3:0.7 4:80.0 
1.0 0:-5.6 1:4.9 2:4.5 3:-9.2 4:80.0 
0.9660877302800518 0:-0.3 1:1.5 2:0.2 3:0.2 4:80.0 
1.0 0:-8.4 1:9.6 2:-6.3 3:-0.4 4:80.0 
0.9223194052930885 0:0.8 1:1.2 2:-0.9 3:-1.4 4:80.0 
1.0 0:-2.5 1:1.0 2:-3.9 3:1.8 4:80.0 
0.9548255406678184 0:-8.8 1:2.7 2:-3.3 3:7.3 4:80.0 
1.0 0:-0.6 1:-6.1 2:-3.9 3:-3.3 4:90.0 
0.9568437117815807 0:-7.1 1:2.6 2:-5.9 3:-0.9 4:90.0 
1.0 0:5.3 1:3.2 2:-3.4 3:3.0 4:90.0 
0.8486851956480701 0:3.1 1:3.4 2:-4.9 3:-1.3 4:90.0 
0.9899089570658964 0:4.8 1:-7.7 2:-2.5 3:-4.7 4:90.0 
0.9937073814572245 0:-5.3 1:-2.1 2:-1.0 3:-5.0 4:90.0 
1.0 0:2.7 1:5.3 2:0.5 3:4.0 4:90.0 
1.0 0:-6.4 1:1.5 2:-2.1 3:0.8 4:90.0 
0.8876326687735502 0:-1.3 1:6.2 2:-0.7 3:2.0 4:90.0 
1.0 0:-11.3 1:15.8 2:0.9 3:0.6 4:90.0 
0.7773341562289755 0:-3.7 1:-2.7 2:2.7 3:-1.6 4:90.0 
1.0 0:-6.4 1:3.1 2:2.6 3:0.9 4:90.0 
1.0 0:-1.9 1:-9.1 2:2.0 3:-5.1 4:90.0 
0.9161858308648768 0:-6.1 1:4.9 2:-3.7 3:4.4 4:90.0 
1.0 0:3.7 1:1.6 2:2.0 3:4.6 4:90.0 
1.0 0:0.4 1:2.5 2:4.7 3:5.8 4:90.0 
1.0 0:-5.8 1:5.2 2:4.2 3:-4.3 4:90.0 
1.0 0:-1.7 1:1.3 2:-3.0 3:-10.1 4:90.0 
1.0 0:5.3 1:-5.0 2:-9.0 3:6.6 4:90.0 
1.0 0:10.7 1:-5.6 2:-1.9 3:-8.2 4:90.0 
0.9059889612284827 0:1.8 1:5.1 2:8.1 3:-3.5 4:90.0 
0.9840785863575557 0:-1.2 1:-3.0 2:-0.4 3:-3.5 4:90.0 
0.6508930865839597 0:-0.7 1:-1.8 2:-1.9 3:-0.3 4:90.0 
0.3078011554798553 0:-0.8 1:-1.9 2:0.0 3:-1.0 4:90.0 
0.6646186871143778 0:-3.5 1:0.9 2:-1.9 3:-4.0 4:90.0 
1.0 0:0.0 1:-8.7 2:-4.8 3:1.4 4:90.0 
1.0 0:-10.7 1:5.7 2:1.2 3:6.1 4:90.0 
0.6085422775199698 0:2.3 1:4.4 2:4.0 3:1.3 4:90.0 
0.9944676441197003 0:-0.5 1:2.8 2:1.0 3:-1.8 4:90.0 
1.0 0:-0.3 1:-3.8 2:-2.3 3:2.3 4:90.0 
1.0 0:6.7 1:2.2 2:0.2 3:3.0 4:90.0 
1.0 0:-3.9 1:2.8 2:0.0 3:-1.0 4:90.0 
0.4164276908165806 0:0.1 1:-0.1 2:-1.9 3:-1.6 4:90.0 
1.0 0:10.4 1:-11.1 2:2.7 3:-11.2 4:90.0 
1.0 0:3.4 1:-16.7 2:9.4 3:-4.4 4:90.0 
1.0 0:5.1 1:-18.7 2:0.7 3:-10.2 4:90.0 
1.0 0:2.8 1:-1.3 2:6.6 3:-4.9 4:90.0 
0.6142525824242318 0:5.3 1:-5.1 2:1.1 3:-3.9 4:90.0 
1.0 0:-2.6 1:2.1 2:2.7 3:1.8 4:90.0 
0.9040450599319673 0:2.1 1:3.9 2:5.7 3:-4.1 4:90.0 
0.8901082921131006 0:-0.3 1:-0.9 2:0.5 3:0.3 4:90.0 
0.663208475419395 0:-1.2 1:1.5 2:-0.6 3:-3.8 4:90.0 
1.0 0:2.8 1:-1.8 2:1.4 3:-1.4 4:90.0 
1.0 0:-4.3 1:0.2 2:0.7 3:7.9 4:90.0 
1.0 0:-3.3 1:-3.9 2:-1.5 3:6.1 4:90.0 
1.0 0:0.1 1:-1.2 2:-4.5 3:8.7 4:90.0 
1.0 0:5.4 1:0.9 2:-3.9 3:-4.0 4:90.0 
1.0 0:1.5 1:11.0 2:-2.9 3:3.2 4:90.0 
0.9857626405976128 0:-0.3 1:-8.9 2:-1.0 3:-2.7 4:90.0 
1.0 0:-5.3 1:-5.3 2:6.7 3:1.1 4:90.0 
1.0 0:5.8 1:5.7 2:-2.1 3:1.4 4:90.0 
1.0 0:7.0 1:-8.6 2:7.7 3:3.0 4:90.0 
1.0 0:5.2 1:-3.6 2:9.7 3:-0.5 4:90.0 
1.0 0:8.9 1:-2.7 2:-0.6 3:-4.5 4:90.0 
0.5940478367857731 0:1.2 1:-6.0 2:1.9 3:-3.6 4:90.0 
1.0 0:2.1 1:-0.8 2:2.1 3:-0.1 4:90.0 
1.0 0:2.1 1:1.0 2:-0.9 3:-0.8 4:90.0 
0.648442066770657 0:1.4 1:-5.1 2:1.8 3:-2.8 4:90.0 
1.0 0:-2.2 1:5.1 2:-1.3 3:4.4 4:90.0 
0.9300596786348596 0:-8.7 1:4.7 2:-6.2 3:0.7 4:90.0 
1.0 0:-1.8 1:6.6 2:-3.1 3:8.6 4:90.0 
1.0 0:-4.3 1:12.3 2:2.4 3:-5.9 4:90.0 
1.0 0:0.5 1:-0.3 2:10.5 3:-1.3 4:90.0 
1.0 0:-10.8 1:4.8 2:3.3 3:2.6 4:90.0 
0.7823929897721638 0:-6.2 1:6.0 2:-4.6 3:3.0 4:90.0 
1.0 0:0.1 1:10.6 2:-2.2 3:-3.0 4:90.0 
1.0 0:3.5 1:-6.9 2:9.7 3:7.8 4:90.0 
1.0 0:1.7 1:1.0 2:1.3 3:4.6 4:90.0 
0.8442429970234446 0:5.4 1:-3.2 2:0.9 3:-2.5 4:90.0 
1.0 0:6.1 1:-2.2 2:-4.7 3:0.9 4:90.0 
1.0 0:10.8 1:-1.3 2:8.5 3:-3.7 4:90.0 
1.0 0:0.9 1:-5.2 2:4.3 3:2.2 4:90.0 
0.8126919281863714 0:0.5 1:-0.5 2:-2.6 3:-4.0 4:90.0 
1.0 0:-1.1 1:4.0 2:-6.6 3:0.6 4:90.0 
1.0 0:3.6 1:-2.0 2:-1.2 3:-2.1 4:90.0 
0.9957963602471772 0:-1.6 1:-1.0 2:-1.1 3:-8.0 4:90.0 
1.0 0:10.2 1:3.7 2:0.2 3:-1.4 4:90.0 
0.7168030675956593 0:-1.0 1:-3.7 2:2.8 3:-2.4 4:90.0 
1.0 0:4.2 1:-2.4 2:2.4 3:1.3 4:90.0 
0.6586792071635116 0:1.5 1:3.9 2:5.1 3:0.4 4:90.0 
1.0 0:-10.7 1:3.0 2:-1.3 3:-2.4 4:90.0 
1.0 0:6.9 1:2.8 2:2.1 3:15.0 4:90.0 
1.0 0:2.0 1:-3.0 2:1.0 3:8.3 4:90.0 
0.2989223669456277 0:-3.7 1:1.7 2:0.9 3:-2.6 4:90.0 
1.0 0:-5.0 1:12.1 2:-1.5 3:2.1 4:90.0 
1.0 0:1.6 1:10.9 2:6.6 3:9.6 4:90.0 
1.0 0:-4.9 1:2.2 2:-6.1 3:4.8 4:90.0 
1.0 0:-0.4 1:-6.9 2:5.2 3:5.4 4:90.0 
1.0 0:-4.6 1:1.6 2:4.4 3:9.5 4:90.0 
1.0 0:-3.9 1:-3.6 2:5.4 3:3.7 4:90.0 
1.0 0:-2.1 1:4.8 2:1.2 3:0.3 4:90.0 
1.0 0:2.1 1:2.6 2:2.4 3:-0.2 4:90.0 
0.8011248331414257 0:5.8 1:-4.1 2:0.3 3:-5.7 4:90.0 
0.5222732403338026 0:-2.0 1:-2.2 2:2.5 3:-1.1 4:90.0 
1.0 0:6.7 1:-8.8 2:5.5 3:-4.2 4:90.0 
0.7251125633208062 0:3.0 1:-1.8 2:1.2 3:1.8 4:90.0 
1.0 0:7.4 1:1.8 2:3.3 3:-1.8 4:90.0 
1.0 0:-4.5 1:1.3 2:9.0 3:1.9 4:90.0 
1.0 0:5.6 1:-4.9 2:6.9 3:1.9 4:90.0 
0.7663521144459906 0:-4.7 1:0.8 2:-0.1 3:-3.1 4:90.0 
1.0 0:-7.2 1:6.9 2:-7.4 3:-2.6 4:90.0 
1.0 0:-13.2 1:7.5 2:-1.9 3:3.1 4:90.0 
0.7153700087912138 0:1.5 1:3.9 2:-5.3 3:0.2 4:90.0 
0.9464254592577145 0:3.0 1:-9.2 2:-0.3 3:-4.2 4:90.0 
0.9961161825929522 0:2.7 1:-0.4 2:-1.6 3:-6.5 4:90.0 
-1.0 0:-8.2 1:1.6 2:-0.7 3:7.0 4:0.0 
-1.0 0:-2.6 1:-0.2 2:0.7 3:0.0 4:0.0 
-1.0 0:3.1 1:2.2 2:-2.0 3:-1.2 4:0.0 
-1.0 0:3.8 1:-1.6 2:-1.0 3:-0.5 4:0.0 
-0.9727850229189468 0:-9.2 1:-0.1 2:-1.4 3:-4.7 4:0.0 
-0.954435571348687 0:8.9 1:2.4 2:-4.4 3:2.0 4:0.0 
-1.0 0:-6.2 1:1.3 2:-3.8 3:5.9 4:0.0 
-0.9594035395918136 0:-15.0 1:0.0 2:-6.2 3:2.6 4:0.0 
-1.0 0:-3.8 1:-0.1 2:2.8 3:1.9 4:0.0 
-0.6985474999276517 0:-5.7 1:-1.5 2:-3.0 3:1.4 4:0.0 
-0.9603261760563687 0:9.0 1:-5.5 2:4.1 3:-3.0 4:0.0 
-0.9591594944637944 0:-9.0 1:-12.6 2:7.2 3:-3.2 4:0.0 
-1.0 0:-3.1 1:-0.2 2:-2.8 3:-2.3 4:0.0 
-0.9593810580571647 0:-11.3 1:4.9 2:7.2 3:-2.9 4:0.0 
-0.959527193599443 0:18.6 1:-1.8 2:5.2 3:3.9 4:0.0 
-0.9186634409791606 0:4.7 1:0.1 2:2.8 3:-6.5 4:0.0 
-1.0 0:0.6 1:-0.5 2:-0.8 3:0.5 4:0.0 
-0.6132607528742443 0:1.4 1:1.1 2:-0.8 3:2.7 4:0.0 
-1.0 0:-0.1 1:-0.1 2:0.6 3:-2.5 4:0.0 
-1.0 0:0.1 1:-0.4 2:-0.1 3:-0.6 4:0.0 
-0.8907047212688486 0:9.2 1:0.2 2:0.5 3:-1.5 4:0.0 
-0.4795052523392052 0:3.7 1:-0.2 2:2.0 3:-2.6 4:0.0 
-1.0 0:0.5 1:-0.3 2:0.5 3:-2.6 4:0.0 
-1.0 0:2.1 1:-1.5 2:0.4 3:1.6 4:0.0 
-1.0 0:2.6 1:3.9 2:-0.6 3:1.5 4:0.0 
-0.5272017957447468 0:-5.4 1:-0.4 2:2.9 3:1.2 4:0.0 
-0.6519869609367068 0:-7.6 1:3.6 2:-2.6 3:1.6 4:0.0 
-1.0 0:-2.5 1:-1.6 2:1.3 3:-2.3 4:0.0 
-1.0 0:-1.4 1:2.1 2:-0.7 3:-1.9 4:0.0 
-1.0 0:-3.1 1:3.7 2:0.0 3:-1.8 4:0.0 
-1.0 0:-1.3 1:-1.2 2:4.0 3:6.1 4:0.0 
-1.0 0:0.3 1:0.6 2:-1.9 3:0.2 4:0.0 
-1.0 0:2.0 1:0.5 2:0.0 3:-1.7 4:0.0 
-1.0 0:-0.6 1:0.5 2:2.2 3:-1.9 4:0.0 
-1.0 0:2.1 1:-0.9 2:1.1 3:-1.6 4:0.0 
-1.0 0:1.6 1:-4.9 2:5.3 3:-3.6 4:0.0 
-0.7545785798247949 0:4.0 1:-1.7 2:1.5 3:-1.0 4:0.0 
-0.9593701743848595 0:-16.5 1:-3.6 2:4.3 3:-4.0 4:0.0 
-0.9583832898305928 0:0.2 1:-13.7 2:-3.6 3:-0.2 4:0.0 
-0.5410545161516547 0:3.4 1:2.1 2:1.0 3:4.5 4:0.0 
-0.9460330320926617 0:9.2 1:6.4 2:-5.1 3:2.8 4:0.0 
-1.0 0:0.0 1:5.2 2:0.6 3:-0.5 4:0.0 
-0.9588954936216728 0:4.2 1:-11.5 2:3.7 3:-5.8 4:0.0 
-1.0 0:-2.4 1:-7.2 2:3.9 3:-0.4 4:0.0 
-1.0 0:-0.1 1:-1.8 2:-0.2 3:-0.9 4:0.0 
-1.0 0:-5.3 1:0.4 2:1.2 3:-1.6 4:0.0 
-0.7906198957471335 0:-6.6 1:-0.8 2:-4.8 3:-1.0 4:0.0 
-0.6499964440877131 0:-7.4 1:4.4 2:-2.0 3:2.9 4:0.0 
-1.0 0:-0.8 1:-0.2 2:-1.0 3:4.7 4:0.0 
-0.8876662990167611 0:6.6 1:4.9 2:-1.8 3:6.1 4:0.0 
-0.45271191247823994 0:4.2 1:1.5 2:-0.7 3:0.4 4:0.0 
-0.6287997000219993 0:2.1 1:2.8 2:0.9 3:4.7 4:0.0 
-0.9642395912059624 0:-4.6 1:0.1 2:8.1 3:1.7 4:0.0 
-0.9355580069495515 0:-6.5 1:-3.3 2:1.2 3:-0.6 4:0.0 
-0.9584081150144581 0:-4.1 1:-3.8 2:-2.7 3:-8.9 4:0.0 
-1.0 0:0.5 1:-0.3 2:0.2 3:0.1 4:0.0 
-0.9670160873927323 0:-1.4 1:-8.6 2:-1.7 3:0.3 4:0.0 
-1.0 0:-1.2 1:1.1 2:0.4 3:-0.5 4:0.0 
-0.25796396085292245 0:2.4 1:0.7 2:-1.0 3:0.3 4:0.0 
-0.29737867180515665 0:3.2 1:0.7 2:-1.0 3:1.6 4:0.0 
-1.0 0:0.3 1:2.4 2:0.6 3:-2.1 4:0.0 
-0.648471098675016 0:-1.9 1:-2.1 2:1.7 3:-3.0 4:0.0 
-1.0 0:-2.3 1:-0.3 2:-0.9 3:1.8 4:0.0 
-1.0 0:1.6 1:1.4 2:2.5 3:-0.2 4:0.0 
-0.9132847014898933 0:-4.2 1:0.2 2:-3.0 3:0.0 4:0.0 
-1.0 0:0.3 1:1.0 2:-0.6 3:0.8 4:0.0 
-1.0 0:0.3 1:-2.4 2:6.1 3:0.3 4:0.0 
-0.9585891389670292 0:-4.9 1:-8.6 2:-4.7 3:-8.7 4:0.0 
-0.6636081292028456 0:1.5 1:-0.4 2:0.0 3:-1.6 4:0.0 
-1.0 0:-2.3 1:-2.0 2:-1.9 3:1.3 4:0.0 
-0.9507635883656331 0:0.7 1:2.7 2:-5.1 3:3.1 4:0.0 
-0.7174882947316343 0:3.8 1:1.1 2:1.7 3:-3.7 4:0.0 
-1.0 0:5.7 1:2.8 2:-0.7 3:-0.5 4:0.0 
-1.0 0:0.5 1:-0.5 2:-1.8 3:-1.2 4:0.0 
-0.3984258644969107 0:5.5 1:-1.7 2:0.2 3:0.1 4:0.0 
-0.9214847334986955 0:2.1 1:-0.5 2:-1.0 3:-2.3 4:0.0 
-0.5667530625469485 0:4.9 1:0.6 2:2.1 3:-0.7 4:0.0 
-1.0 0:-1.3 1:5.1 2:-5.0 3:1.6 4:0.0 
-0.9469996233656861 0:-9.4 1:-2.3 2:-0.8 3:1.9 4:0.0 
-1.0 0:-0.4 1:-0.8 2:0.6 3:2.3 4:0.0 
-0.9593571849109429 0:15.3 1:6.4 2:-2.9 3:9.5 4:0.0 
-0.9594925599408628 0:-38.2 1:-13.5 2:18.8 3:-8.6 4:0.0 
-0.9911475418852448 0:-0.3 1:-3.7 2:-4.3 3:-1.1 4:0.0 
-0.8319713431193756 0:7.8 1:-2.3 2:0.5 3:-0.3 4:0.0 
-0.9501656043403043 0:2.8 1:0.5 2:-3.2 3:-0.1 4:0.0 
-0.9568799038850556 0:13.1 1:-2.9 2:0.7 3:-1.5 4:0.0 
-0.9033225543245976 0:-7.1 1:-1.1 2:-6.7 3:1.8 4:0.0 
-0.9594985246724459 0:-3.6 1:-2.6 2:-14.3 3:-3.5 4:0.0 
-0.8892641204830309 0:6.9 1:4.1 2:-0.8 3:9.0 4:0.0 
-1.0 0:0.3 1:0.5 2:-1.2 3:3.3 4:10.0 
-0.4134296778669528 0:2.1 1:-1.3 2:2.2 3:0.3 4:10.0 
-1.0 0:-0.3 1:-1.4 2:1.6 3:-0.9 4:10.0 
-1.0 0:-3.0 1:-0.6 2:0.3 3:-0.6 4:10.0 
-1.0 0:-2.0 1:1.5 2:-1.5 3:2.4 4:10.0 
-0.9440078153842476 0:-4.7 1:0.0 2:-2.1 3:1.1 4:10.0 
-1.0 0:1.9 1:0.4 2:1.9 3:-4.4 4:10.0 
-1.0 0:1.0 1:-0.4 2:-0.1 3:1.2 4:10.0 
-0.7161938643870459 0:-4.1 1:-5.7 2:2.3 3:-4.3 4:10.0 
-1.0 0:-5.0 1:0.9 2:1.5 3:-5.2 4:10.0 
-1.0 0:2.7 1:-1.5 2:-0.2 3:1.0 4:10.0 
-0.9947211675312206 0:4.1 1:5.3 2:4.4 3:-5.2 4:10.0 
-0.9803619855649742 0:-0.6 1:2.6 2:-7.1 3:-2.7 4:10.0 
-1.0 0:5.2 1:0.7 2:1.8 3:-4.8 4:10.0 
-0.8333580733135048 0:0.4 1:4.9 2:1.1 3:-3.3 4:10.0 
-1.0 0:3.5 1:2.1 2:0.6 3:1.5 4:10.0 
-1.0 0:-0.1 1:-0.5 2:1.0 3:-3.4 4:10.0 
-1.0 0:4.0 1:3.2 2:-5.2 3:2.8 4:10.0 
-1.0 0:1.9 1:-0.1 2:-1.9 3:0.5 4:10.0 
-0.9509664499839546 0:9.3 1:1.7 2:0.1 3:0.3 4:10.0 
-1.0 0:7.8 1:-2.3 2:-0.2 3:-1.4 4:10.0 
-0.5662363125804091 0:1.8 1:-1.8 2:2.0 3:-4.3 4:10.0 
-0.9724527794107554 0:-1.6 1:6.0 2:-10.0 3:0.3 4:10.0 
-0.959097577088843 0:-15.1 1:9.3 2:5.1 3:-1.3 4:10.0 
-0.9591367477704328 0:8.0 1:4.3 2:6.3 3:10.1 4:10.0 
-0.9827811110843495 0:9.1 1:-0.5 2:-1.1 3:5.8 4:10.0 
-0.9594842379420947 0:0.2 1:19.3 2:8.9 3:-4.7 4:10.0 
-0.9918379619101699 0:-4.9 1:1.2 2:-10.0 3:1.9 4:10.0 
-0.9519127447477016 0:-7.3 1:-8.2 2:5.6 3:-4.2 4:10.0 
-0.9594884409269888 0:13.3 1:-4.9 2:7.3 3:5.4 4:10.0 
-0.9725358847375037 0:-4.5 1:7.1 2:4.3 3:-2.9 4:10.0 
-0.863658115288199 0:-0.5 1:-6.4 2:-2.4 3:1.4 4:10.0 
-0.8314251676743922 0:3.2 1:1.5 2:-0.7 3:3.2 4:10.0 
-0.9591262597743081 0:-4.5 1:7.0 2:1.8 3:12.0 4:10.0 
-0.8828296559264742 0:-4.5 1:-3.7 2:0.3 3:-3.2 4:10.0 
-1.0 0:2.5 1:-0.4 2:-0.7 3:0.9 4:10.0 
-1.0 0:-1.6 1:3.0 2:0.0 3:-0.6 4:10.0 
-1.0 0:3.6 1:-1.5 2:1.6 3:0.2 4:10.0 
-1.0 0:0.5 1:-0.4 2:-0.2 3:0.0 4:10.0 
-1.0 0:3.4 1:-0.4 2:0.4 3:-0.2 4:10.0 
-1.0 0:-2.2 1:2.0 2:-3.5 3:3.4 4:10.0 
-1.0 0:-0.8 1:-0.7 2:1.8 3:5.4 4:10.0 
-0.5194423251309087 0:1.1 1:2.3 2:1.5 3:-1.1 4:10.0 
-0.43688972352338995 0:1.3 1:3.0 2:1.1 3:-0.7 4:10.0 
-1.0 0:-0.3 1:-1.3 2:0.6 3:1.8 4:10.0 
-1.0 0:-1.6 1:-0.4 2:0.6 3:0.5 4:10.0 
-1.0 0:-0.3 1:-3.9 2:-2.2 3:0.6 4:10.0 
-0.7893419603869146 0:-5.1 1:-6.5 2:2.9 3:-2.2 4:10.0 
-1.0 0:3.3 1:-1.2 2:-5.9 3:3.5 4:10.0 
-0.6697023024536265 0:0.0 1:0.5 2:1.8 3:-2.7 4:10.0 
-1.0 0:4.8 1:-6.5 2:-2.4 3:-1.6 4:10.0 
-1.0 0:-3.3 1:-2.7 2:-4.6 3:4.1 4:10.0 
-1.0 0:0.0 1:0.8 2:2.4 3:2.0 4:10.0 
-0.9862373322212956 0:12.6 1:-6.2 2:1.5 3:-5.2 4:10.0 
-0.95904722665114 0:-10.2 1:-1.3 2:7.0 3:-8.6 4:10.0 
-1.0 0:-2.1 1:1.1 2:-0.3 3:-6.0 4:10.0 
-1.0 0:-3.6 1:1.5 2:-1.0 3:4.5 4:10.0 
-0.9729747067528611 0:11.7 1:-1.9 2:0.2 3:1.9 4:10.0 
-0.8854856080741577 0:-0.8 1:-0.4 2:-6.0 3:-1.2 4:10.0 
-1.0 0:2.0 1:4.4 2:2.4 3:-2.0 4:10.0 
-1.0 0:6.1 1:7.8 2:-2.8 3:2.2 4:10.0 
-0.7410604083282373 0:-0.7 1:0.7 2:-0.8 3:1.0 4:10.0 
-0.9135008965862436 0:-4.6 1:1.4 2:-4.6 3:5.4 4:10.0 
-0.8713010711985104 0:-1.0 1:-2.1 2:2.1 3:2.0 4:10.0 
-1.0 0:3.1 1:-3.4 2:-0.9 3:2.3 4:10.0 
-0.7813784824453459 0:-0.4 1:0.6 2:-2.7 3:0.6 4:10.0 
-0.9595198129016468 0:5.4 1:-8.3 2:-5.8 3:9.8 4:10.0 
-0.9591809842516331 0:-14.1 1:4.1 2:-0.4 3:-2.6 4:10.0 
-0.9591394369609549 0:-13.5 1:-10.0 2:0.5 3:-5.7 4:10.0 
-0.9592868624704344 0:-0.9 1:-10.4 2:7.4 3:-3.4 4:10.0 
-0.9593766794007639 0:4.1 1:-5.7 2:15.1 3:5.7 4:10.0 
-1.0 0:-0.7 1:-1.7 2:0.9 3:-2.3 4:10.0 
-1.0 0:1.7 1:1.6 2:-0.5 3:-1.6 4:10.0 
-1.0 0:0.2 1:-2.0 2:-6.2 3:1.4 4:10.0 
-0.83919645085872 0:1.3 1:-1.5 2:1.8 3:-0.1 4:10.0 
-1.0 0:1.5 1:-3.9 2:-1.3 3:-2.9 4:10.0 
-0.7991146929256954 0:2.1 1:-0.6 2:-3.9 3:3.5 4:10.0 
-1.0 0:2.1 1:0.2 2:1.8 3:-1.6 4:10.0 
-1.0 0:-4.2 1:-1.3 2:-0.7 3:1.5 4:10.0 
-1.0 0:2.6 1:3.3 2:-0.5 3:1.3 4:10.0 
-1.0 0:-7.7 1:-2.3 2:1.6 3:-0.6 4:10.0 
-0.7373364738042846 0:-6.3 1:-0.2 2:-0.3 3:1.9 4:10.0 
-1.0 0:-1.1 1:-3.0 2:1.7 3:2.6 4:10.0 
-1.0 0:3.9 1:1.6 2:-2.4 3:2.8 4:10.0 
-0.9837348662297906 0:-3.3 1:2.2 2:1.7 3:7.8 4:10.0 
-0.7179586057017003 0:0.0 1:-4.7 2:2.5 3:-2.1 4:10.0 
-1.0 0:4.8 1:-3.4 2:2.4 3:2.9 4:10.0 
-1.0 0:0.9 1:1.8 2:-2.8 3:0.3 4:10.0 
-0.5153479768681898 0:0.9 1:-3.7 2:1.5 3:-4.6 4:10.0 
-1.0 0:-0.5 1:0.2 2:-0.4 3:0.1 4:10.0 
-0.6245817663888892 0:2.8 1:3.1 2:0.4 3:-1.7 4:10.0 
-1.0 0:-3.7 1:1.7 2:-7.1 3:0.2 4:10.0 
-0.5330089932305848 0:0.7 1:-4.0 2:0.9 3:-2.9 4:10.0 
-1.0 0:0.0 1:-0.9 2:-0.5 3:-2.1 4:20.0 
-1.0 0:-0.1 1:-1.0 2:0.4 3:0.0 4:20.0 
-0.296482529035723 0:3.0 1:-1.6 2:2.2 3:1.7 4:20.0 
-0.9795341304495688 0:0.2 1:0.3 2:0.9 3:4.2 4:20.0 
-1.0 0:-3.9 1:-1.8 2:-0.6 3:1.0 4:20.0 
-1.0 0:0.0 1:-3.8 2:3.5 3:-3.3 4:20.0 
-1.0 0:-3.4 1:1.2 2:-1.0 3:1.7 4:20.0 
-1.0 0:-2.1 1:1.9 2:0.0 3:2.8 4:20.0 
-0.6811355190481818 0:-4.4 1:1.4 2:0.1 3:-5.0 4:20.0 
-0.805756040157163 0:-6.3 1:-1.4 2:3.1 3:2.7 4:20.0 
-0.9617341592516963 0:2.2 1:-11.4 2:3.2 3:0.6 4:20.0 
-0.8728461490479352 0:-4.0 1:-1.3 2:-0.9 3:-0.9 4:20.0 
-0.804280857769821 0:8.6 1:-2.0 2:8.5 3:-0.3 4:20.0 
-0.9440220862657355 0:6.0 1:2.0 2:0.8 3:3.2 4:20.0 
-0.6299448923672701 0:5.0 1:-5.0 2:-1.3 3:2.1 4:20.0 
-1.0 0:-2.7 1:1.1 2:0.0 3:0.5 4:20.0 
-1.0 0:3.5 1:0.0 2:1.0 3:-2.6 4:20.0 
-1.0 0:1.1 1:1.6 2:1.7 3:-4.7 4:20.0 
-0.8054290163731789 0:3.5 1:-0.9 2:3.5 3:-2.8 4:20.0 
-0.9792506524490451 0:-5.0 1:3.5 2:-4.3 3:-2.2 4:20.0 
-0.9289147238255394 0:-0.8 1:5.9 2:-5.4 3:5.1 4:20.0 
-1.0 0:3.5 1:-4.2 2:1.7 3:1.0 4:20.0 
-0.9594328701181306 0:-14.0 1:2.9 2:-12.1 3:7.4 4:20.0 
-1.0 0:-5.2 1:0.7 2:4.5 3:4.6 4:20.0 
-0.957182133638455 0:10.3 1:3.7 2:4.6 3:7.7 4:20.0 
-1.0 0:-3.4 1:1.5 2:-3.6 3:0.5 4:20.0 
-0.9595611915656904 0:12.3 1:-13.4 2:-0.3 3:5.8 4:20.0 
-0.982506079319222 0:5.2 1:4.3 2:-0.9 3:0.1 4:20.0 
-0.9542326563079926 0:6.9 1:-0.9 2:-1.1 3:-8.0 4:20.0 
-0.9917435215605761 0:-5.7 1:-5.0 2:1.1 3:-11.9 4:20.0 
-0.9591950242554993 0:-3.6 1:0.5 2:-12.0 3:-5.4 4:20.0 
-1.0 0:-1.2 1:3.7 2:1.7 3:3.0 4:20.0 
-0.8104438469028162 0:8.8 1:2.2 2:-1.8 3:1.8 4:20.0 
-0.30113231857809686 0:1.9 1:-2.2 2:0.3 3:2.0 4:20.0 
-1.0 0:0.0 1:-0.6 2:-1.6 3:0.2 4:20.0 
-1.0 0:1.3 1:0.7 2:-0.5 3:-0.6 4:20.0 
-1.0 0:4.9 1:-2.8 2:1.9 3:-0.4 4:20.0 
-1.0 0:-1.2 1:-2.3 2:2.3 3:-0.2 4:20.0 
-1.0 0:-1.4 1:0.4 2:-1.0 3:-0.1 4:20.0 
-1.0 0:-0.8 1:1.1 2:0.7 3:0.2 4:20.0 
-1.0 0:1.0 1:-2.8 2:4.8 3:-4.7 4:20.0 
-1.0 0:-2.4 1:-0.1 2:0.8 3:1.5 4:20.0 
-0.4375142707255278 0:-2.7 1:1.1 2:-0.5 3:5.2 4:20.0 
-0.5779186780737184 0:-1.6 1:0.5 2:-1.8 3:4.7 4:20.0 
-1.0 0:-0.6 1:-0.8 2:0.6 3:0.7 4:20.0 
-1.0 0:-0.8 1:2.2 2:-3.4 3:3.3 4:20.0 
-1.0 0:-3.0 1:1.6 2:0.8 3:5.2 4:20.0 
-1.0 0:2.1 1:2.4 2:-1.9 3:1.2 4:20.0 
-1.0 0:1.3 1:-1.3 2:-2.7 3:3.1 4:20.0 
-1.0 0:-1.9 1:-1.2 2:3.8 3:-0.6 4:20.0 
-1.0 0:-2.5 1:1.3 2:0.3 3:-1.9 4:20.0 
-0.6825429089223294 0:3.0 1:-3.0 2:0.3 3:0.3 4:20.0 
-0.9564702081797349 0:-8.0 1:0.6 2:-6.5 3:-0.4 4:20.0 
-0.9762403429163337 0:9.8 1:-4.3 2:4.6 3:-0.8 4:20.0 
-0.9594340709629522 0:-1.2 1:9.3 2:1.6 3:-5.7 4:20.0 
-0.9606870343191661 0:-3.9 1:-3.9 2:-6.0 3:-1.6 4:20.0 
-0.959194825929734 0:-0.2 1:5.3 2:6.1 3:8.4 4:20.0 
-1.0 0:1.4 1:7.4 2:-1.7 3:3.1 4:20.0 
-0.9502002966651565 0:3.3 1:-3.5 2:-8.7 3:0.8 4:20.0 
-0.9444991707803527 0:-5.8 1:-1.3 2:1.3 3:-1.0 4:20.0 
-1.0 0:2.9 1:0.8 2:0.0 3:1.6 4:20.0 
-0.7109682494067595 0:-4.0 1:1.2 2:-1.3 3:-4.3 4:20.0 
-0.9386375159364276 0:-2.3 1:-5.0 2:0.1 3:-11.1 4:20.0 
-1.0 0:10.2 1:3.8 2:7.0 3:-0.6 4:20.0 
-0.8921162136976245 0:12.2 1:4.4 2:3.6 3:3.4 4:20.0 
-0.9507856108819632 0:4.3 1:-1.9 2:-10.1 3:4.4 4:20.0 
-0.43759548102989004 0:4.3 1:-4.6 2:-1.2 3:1.6 4:20.0 
-0.949238915421331 0:-7.2 1:4.5 2:3.3 3:6.2 4:20.0 
-0.9330406700205668 0:-10.0 1:1.4 2:-4.0 3:-2.3 4:20.0 
-1.0 0:0.2 1:-1.5 2:1.6 3:-1.0 4:20.0 
-1.0 0:0.4 1:1.5 2:-0.8 3:-1.8 4:20.0 
-0.9671950536084838 0:4.9 1:2.2 2:5.1 3:1.5 4:20.0 
-1.0 0:-0.1 1:0.6 2:-0.2 3:0.2 4:20.0 
-0.9551842353992779 0:0.1 1:-0.7 2:-1.1 3:1.7 4:20.0 
-0.505092326061218 0:0.7 1:-1.5 2:-0.3 3:1.2 4:20.0 
-1.0 0:1.0 1:-2.0 2:2.4 3:0.9 4:20.0 
-1.0 0:-2.8 1:-2.8 2:-1.4 3:1.5 4:20.0 
-0.9238493108372858 0:1.0 1:1.7 2:-2.2 3:5.8 4:20.0 
-1.0 0:-6.2 1:-1.5 2:0.0 3:2.7 4:20.0 
-1.0 0:2.2 1:-0.7 2:1.9 3:0.8 4:20.0 
-0.93943079467573 0:-0.2 1:6.3 2:2.0 3:1.2 4:20.0 
-0.09339246817588442 0:1.7 1:-2.4 2:-0.5 3:-0.9 4:20.0 
-0.9381889996137415 0:-5.2 1:-4.3 2:3.5 3:2.0 4:20.0 
-0.5572873838564146 0:-4.6 1:-2.9 2:-1.0 3:1.8 4:20.0 
-0.9202960519344887 0:-3.7 1:-0.9 2:3.3 3:-1.3 4:20.0 
-0.8895434150255606 0:12.3 1:2.8 2:0.9 3:2.6 4:20.0 
-0.9158872595620413 0:2.6 1:6.1 2:-5.8 3:4.7 4:20.0 
-1.0 0:-1.0 1:-3.7 2:1.4 3:-1.3 4:20.0 
-1.0 0:3.8 1:-2.0 2:-0.9 3:-2.3 4:20.0 
-1.0 0:-1.4 1:3.3 2:-5.2 3:-1.3 4:20.0 
-0.9070140404666257 0:4.2 1:-1.6 2:6.2 3:-4.1 4:20.0 
-0.8088237177124321 0:9.1 1:-1.8 2:8.9 3:2.2 4:20.0 
-0.6409711229875386 0:7.2 1:2.9 2:-0.8 3:0.6 4:20.0 
-0.7773123876360083 0:1.7 1:-3.0 2:-0.7 3:-0.2 4:20.0 
-0.9916900195928537 0:-4.0 1:5.9 2:1.4 3:6.1 4:20.0 
-0.9594665588176562 0:0.7 1:11.1 2:-5.6 3:17.3 4:20.0 
-1.0 0:-2.1 1:-2.4 2:3.7 3:1.0 4:20.0 
-0.9536847587950726 0:-7.5 1:-9.7 2:-4.2 3:-7.3 4:20.0 
-0.9591180881859256 0:-12.4 1:4.6 2:4.1 3:4.2 4:20.0 
-0.9534732456710154 0:-9.1 1:-6.1 2:-4.8 3:-5.2 4:20.0 
-0.8534954811379727 0:-3.5 1:-1.6 2:4.0 3:0.0 4:20.0 
-0.9591576335705593 0:-5.8 1:-8.4 2:9.3 3:4.2 4:20.0 
-0.7547377269131879 0:5.4 1:-0.4 2:0.8 3:-4.3 4:20.0 
-0.8176400443515248 0:-4.6 1:-1.0 2:0.6 3:-1.2 4:20.0 
-1.0 0:0.8 1:1.2 2:0.0 3:1.6 4:20.0 
-1.0 0:0.4 1:1.1 2:0.3 3:0.3 4:20.0 
-1.0 0:1.4 1:-1.2 2:-0.1 3:-0.3 4:20.0 
-0.24185298198361835 0:4.9 1:3.1 2:4.8 3:1.5 4:20.0 
-0.9593625126155761 0:5.7 1:-9.2 2:3.6 3:-4.0 4:30.0 
-0.7213405320814618 0:-9.9 1:0.5 2:1.8 3:4.2 4:30.0 
-1.0 0:2.9 1:-4.5 2:1.5 3:-0.1 4:30.0 
-0.9618659248792755 0:14.3 1:2.9 2:-5.0 3:2.1 4:30.0 
-0.9728657487908031 0:-2.4 1:2.5 2:4.1 3:5.7 4:30.0 
-0.9594943461068708 0:-11.2 1:-5.3 2:-5.3 3:-16.5 4:30.0 
-0.7501398496396494 0:-6.1 1:1.6 2:-1.1 3:4.3 4:30.0 
-1.0 0:2.3 1:-1.6 2:-1.1 3:-0.6 4:30.0 
-1.0 0:4.3 1:-4.1 2:-0.4 3:-2.0 4:30.0 
-1.0 0:7.3 1:1.2 2:5.1 3:-2.0 4:30.0 
-1.0 0:0.9 1:-2.5 2:1.8 3:1.1 4:30.0 
-1.0 0:-1.6 1:-1.2 2:0.2 3:-0.3 4:30.0 
-1.0 0:-0.5 1:-1.3 2:-2.4 3:5.5 4:30.0 
-0.6300716876193241 0:-4.2 1:-2.2 2:0.2 3:0.6 4:30.0 
-0.9736018755704541 0:-2.2 1:6.4 2:-4.9 3:3.1 4:30.0 
-0.5775655927358194 0:-8.9 1:-0.3 2:3.3 3:1.9 4:30.0 
-0.9057117118166151 0:-8.8 1:-3.0 2:7.5 3:-2.5 4:30.0 
-0.9512473006026022 0:-11.0 1:-4.0 2:-0.5 3:-3.8 4:30.0 
-0.5993117322004812 0:-8.7 1:-1.6 2:2.2 3:2.9 4:30.0 
-0.4658794145092708 0:-5.4 1:-0.4 2:0.0 3:1.6 4:30.0 
-0.7896165678503474 0:-4.3 1:2.0 2:-0.3 3:-2.8 4:30.0 
-1.0 0:-0.7 1:2.1 2:-0.6 3:0.7 4:30.0 
-0.4852756252242244 0:1.9 1:3.6 2:-0.6 3:1.0 4:30.0 
-1.0 0:-6.2 1:1.8 2:-0.5 3:-0.6 4:30.0 
-0.9059918884101206 0:-5.5 1:-3.4 2:8.0 3:-2.6 4:30.0 
-1.0 0:-0.8 1:-0.1 2:-2.7 3:3.2 4:30.0 
-1.0 0:-3.3 1:-2.0 2:-8.9 3:-1.5 4:30.0 
-0.8816429477770461 0:-5.2 1:0.7 2:-4.0 3:2.3 4:30.0 
-0.95925931420815 0:15.9 1:6.1 2:-8.7 3:10.6 4:30.0 
-0.9593977058062197 0:-1.2 1:0.4 2:-6.2 3:-9.7 4:30.0 
-0.9595213979275187 0:-12.3 1:2.3 2:5.0 3:13.9 4:30.0 
-0.9591674640223833 0:-7.8 1:-12.3 2:0.7 3:-2.0 4:30.0 
-0.9592189418843298 0:-12.8 1:3.5 2:-6.5 3:-4.3 4:30.0 
-0.9492519592194707 0:-11.1 1:-7.9 2:-2.2 3:-4.2 4:30.0 
-0.9809107464974386 0:-7.1 1:2.9 2:-4.2 3:-4.6 4:30.0 
-0.9329447128401925 0:6.1 1:3.3 2:-2.4 3:0.0 4:30.0 
-1.0 0:3.4 1:-1.6 2:5.4 3:-1.3 4:30.0 
-0.7820178612922329 0:-1.4 1:0.8 2:2.2 3:-1.0 4:30.0 
-1.0 0:-2.2 1:-2.8 2:-1.0 3:-0.8 4:30.0 
-1.0 0:0.6 1:0.2 2:-3.3 3:-0.3 4:30.0 
-1.0 0:-5.5 1:-0.3 2:-1.7 3:-2.4 4:30.0 
-1.0 0:1.7 1:-2.3 2:0.1 3:3.3 4:30.0 
-1.0 0:-4.8 1:-3.4 2:-2.6 3:0.2 4:30.0 
-0.9136764926197652 0:4.7 1:-0.1 2:-5.9 3:-0.1 4:30.0 
-0.33206411055079965 0:-4.8 1:-1.4 2:1.9 3:0.1 4:30.0 
-0.8847139989480751 0:1.1 1:0.7 2:-2.0 3:-2.9 4:30.0 
-1.0 0:1.0 1:-1.2 2:-2.0 3:0.9 4:30.0 
-0.9797668178934412 0:2.2 1:2.6 2:-5.9 3:4.2 4:30.0 
-0.764245956321228 0:-8.2 1:0.7 2:1.0 3:0.4 4:30.0 
-0.8899959997866802 0:3.4 1:-1.1 2:3.0 3:1.9 4:30.0 
-0.4816029712163011 0:-1.6 1:0.9 2:-0.2 3:-0.3 4:30.0 
-0.9596385640915609 0:-18.4 1:5.0 2:0.2 3:0.1 4:30.0 
-0.6350094460186194 0:2.2 1:2.9 2:-1.1 3:-0.7 4:30.0 
-1.0 0:1.7 1:3.1 2:-3.2 3:-3.6 4:30.0 
-0.9596163962175809 0:-16.7 1:-5.7 2:7.7 3:-5.1 4:30.0 
-0.8021186469642388 0:7.1 1:0.7 2:-5.1 3:-0.6 4:30.0 
-0.9591690631498072 0:13.9 1:2.1 2:-8.6 3:-6.8 4:30.0 
-0.9592630304853027 0:12.1 1:1.3 2:-7.9 3:13.4 4:30.0 
-0.9593899881615608 0:-9.9 1:-11.5 2:4.6 3:-8.6 4:30.0 
-0.8452768962275587 0:1.3 1:-6.3 2:-0.8 3:-5.5 4:30.0 
-1.0 0:-2.0 1:2.4 2:-4.2 3:4.4 4:30.0 
-0.9594923918868511 0:-9.1 1:12.7 2:2.7 3:-6.4 4:30.0 
-0.5250931717806868 0:2.8 1:0.8 2:-0.9 3:-2.1 4:30.0 
-1.0 0:-3.5 1:-3.4 2:2.7 3:0.0 4:30.0 
-0.9521365195661582 0:10.5 1:2.3 2:-2.3 3:-1.0 4:30.0 
-0.9504222596816857 0:1.5 1:3.1 2:1.8 3:1.6 4:30.0 
-0.9591920411991192 0:-10.7 1:-0.9 2:-5.2 3:-9.3 4:30.0 
-0.9693993688474849 0:4.7 1:2.8 2:-4.0 3:-8.9 4:30.0 
-0.8952023241771888 0:-0.2 1:-0.5 2:-1.2 3:-1.9 4:30.0 
-0.2599137837208252 0:2.9 1:-0.5 2:-1.0 3:-1.7 4:30.0 
-1.0 0:-2.9 1:-3.0 2:2.2 3:-2.9 4:30.0 
-1.0 0:-0.2 1:3.1 2:-2.2 3:2.2 4:30.0 
-1.0 0:-3.4 1:2.4 2:1.6 3:-0.3 4:30.0 
-1.0 0:-3.5 1:3.2 2:2.4 3:0.8 4:30.0 
-1.0 0:1.1 1:0.6 2:0.5 3:2.5 4:30.0 
-1.0 0:-0.6 1:2.5 2:2.4 3:3.3 4:30.0 
-0.926590867267572 0:-3.4 1:1.6 2:3.6 3:-2.1 4:30.0 
-0.8152338201691266 0:-3.0 1:-0.6 2:0.8 3:1.0 4:30.0 
-0.6212462699307438 0:1.0 1:0.6 2:3.8 3:3.6 4:30.0 
-0.9839015981636315 0:-3.0 1:5.0 2:-2.0 3:4.9 4:30.0 
-1.0 0:0.2 1:-1.4 2:0.1 3:4.1 4:30.0 
-1.0 0:-4.5 1:0.1 2:0.3 3:3.1 4:30.0 
-0.8147924971943733 0:-9.3 1:1.9 2:-0.7 3:3.4 4:30.0 
-0.7537388851832714 0:1.2 1:0.1 2:5.9 3:3.2 4:30.0 
-1.0 0:-0.2 1:5.1 2:1.5 3:-4.3 4:30.0 
-0.958687485774241 0:-15.7 1:-3.5 2:9.6 3:1.5 4:30.0 
-1.0 0:0.5 1:-13.0 2:1.0 3:-2.1 4:30.0 
-0.9602152091485568 0:3.9 1:-1.9 2:-4.9 3:-5.9 4:30.0 
-1.0 0:6.8 1:-1.4 2:1.6 3:-3.4 4:30.0 
-0.958851183758687 0:-9.5 1:-6.3 2:5.3 3:-15.4 4:30.0 
-0.9961111055029662 0:9.0 1:-4.2 2:0.0 3:-4.5 4:30.0 
-0.9592346941382386 0:17.6 1:-1.5 2:-0.5 3:-0.6 4:30.0 
-1.0 0:-0.2 1:-5.6 2:1.2 3:-4.1 4:30.0 
-1.0 0:-3.1 1:1.2 2:4.5 3:1.5 4:30.0 
-0.943817759653658 0:1.4 1:5.9 2:-0.8 3:-1.0 4:30.0 
-0.9584717611529311 0:10.2 1:3.7 2:-4.6 3:-5.9 4:30.0 
-0.9583472815601555 0:21.0 1:-2.1 2:3.3 3:-2.7 4:30.0 
-0.9596443144365071 0:24.5 1:1.8 2:-5.4 3:4.3 4:30.0 
-1.0 0:9.2 1:-4.4 2:2.5 3:1.2 4:30.0 
-0.9672930691494969 0:15.3 1:-4.9 2:0.6 3:10.4 4:30.0 
-1.0 0:-0.2 1:1.2 2:2.7 3:-0.9 4:30.0 
-0.6960097900266088 0:1.2 1:1.9 2:0.0 3:-0.6 4:30.0 
-0.5905031809580076 0:-1.8 1:1.3 2:-0.9 3:0.5 4:30.0 
-0.8731319804275763 0:-5.4 1:0.1 2:-4.9 3:5.3 4:30.0 
-0.8769694067436056 0:1.6 1:0.6 2:3.5 3:0.3 4:30.0 
-1.0 0:-1.5 1:2.0 2:-2.7 3:5.1 4:40.0 
-1.0 0:-1.0 1:4.1 2:4.0 3:-2.6 4:40.0 
-1.0 0:5.1 1:-0.9 2:-2.5 3:1.1 4:40.0 
-0.755160101628461 0:4.8 1:0.7 2:1.1 3:2.4 4:40.0 
-0.9594640600515439 0:-18.1 1:-4.3 2:8.9 3:-10.4 4:40.0 
-0.9594078893874405 0:-18.0 1:2.3 2:18.3 3:-14.7 4:40.0 
-0.998582539040339 0:-1.9 1:-3.4 2:2.7 3:7.9 4:40.0 
-0.9591353461613775 0:-17.5 1:-3.9 2:-0.3 3:3.2 4:40.0 
-0.947938091831848 0:-2.3 1:1.9 2:-4.4 3:8.7 4:40.0 
-0.9592611002744451 0:2.5 1:-9.8 2:7.5 3:-17.8 4:40.0 
-1.0 0:-6.9 1:-0.3 2:-6.5 3:1.1 4:40.0 
-0.987654471392323 0:3.4 1:6.7 2:-1.4 3:0.3 4:40.0 
-0.9466455031582114 0:10.7 1:3.7 2:2.2 3:-2.9 4:40.0 
-1.0 0:12.7 1:1.2 2:0.0 3:6.1 4:40.0 
-0.8641728638500786 0:2.2 1:0.6 2:-2.5 3:-1.7 4:40.0 
-0.9590020422040557 0:9.2 1:-7.8 2:5.4 3:4.2 4:40.0 
-1.0 0:1.6 1:-0.9 2:4.4 3:1.7 4:40.0 
-1.0 0:4.3 1:0.2 2:1.0 3:0.3 4:40.0 
-1.0 0:-0.9 1:-8.2 2:0.8 3:0.7 4:40.0 
-1.0 0:2.3 1:0.3 2:1.1 3:1.6 4:40.0 
-0.9483107979612734 0:-7.9 1:9.0 2:-0.8 3:4.3 4:40.0 
-1.0 0:-7.4 1:-0.8 2:0.9 3:1.5 4:40.0 
-0.959081980492747 0:-1.9 1:-4.0 2:-4.2 3:7.1 4:40.0 
-0.9908011434714301 0:-0.4 1:7.8 2:2.7 3:3.6 4:40.0 
-1.0 0:-0.5 1:1.1 2:0.7 3:-1.1 4:40.0 
-0.956968625593583 0:12.7 1:1.3 2:3.3 3:0.6 4:40.0 
-0.9165769076985131 0:-8.9 1:-2.4 2:5.7 3:2.1 4:40.0 
-1.0 0:-5.1 1:-2.4 2:7.3 3:1.4 4:40.0 
-1.0 0:-2.7 1:1.8 2:-3.3 3:0.1 4:40.0 
-0.998871722692761 0:1.2 1:-2.9 2:3.0 3:-3.5 4:40.0 
-0.3848946457731819 0:-1.1 1:0.5 2:5.0 3:-0.7 4:40.0 
-0.9601813983714825 0:-4.8 1:-9.7 2:8.6 3:-6.3 4:40.0 
-0.9291902221230824 0:-11.2 1:-7.9 2:4.4 3:-9.4 4:40.0 
-0.9515583471324612 0:-8.1 1:-0.7 2:2.2 3:-5.4 4:40.0 
-0.9593901119344391 0:-45.2 1:-2.1 2:13.4 3:18.1 4:40.0 
-0.9027548572847539 0:-2.6 1:0.4 2:5.6 3:-2.9 4:40.0 
-0.9459163606400732 0:-6.9 1:-8.4 2:4.3 3:0.4 4:40.0 
-1.0 0:-1.7 1:4.7 2:-4.7 3:-5.6 4:40.0 
-0.8795119444805124 0:3.5 1:2.7 2:3.1 3:-1.6 4:40.0 
-1.0 0:6.2 1:-1.8 2:-2.8 3:0.3 4:40.0 
-0.8223996153154686 0:-5.5 1:0.4 2:2.9 3:4.5 4:40.0 
-1.0 0:3.5 1:-1.0 2:1.4 3:-2.1 4:40.0 
-1.0 0:-1.6 1:3.7 2:-0.3 3:-0.9 4:40.0 
-1.0 0:-1.3 1:-2.4 2:-0.7 3:2.4 4:40.0 
-0.9621121266582915 0:1.0 1:-6.5 2:4.9 3:0.3 4:40.0 
-1.0 0:-0.4 1:2.9 2:4.4 3:1.5 4:40.0 
-0.9637107136651253 0:3.9 1:-4.6 2:-3.1 3:2.4 4:40.0 
-1.0 0:0.6 1:-1.8 2:-2.3 3:1.5 4:40.0 
-0.9565685426828239 0:-11.1 1:6.6 2:1.2 3:3.5 4:40.0 
-0.9588420377935701 0:6.5 1:8.4 2:2.8 3:0.7 4:40.0 
-0.7448669642860877 0:4.9 1:0.6 2:2.7 3:-3.2 4:40.0 
-0.9593798944031156 0:-13.5 1:8.2 2:-3.3 3:7.3 4:40.0 
-0.8636086913256211 0:6.0 1:5.1 2:1.9 3:-7.6 4:40.0 
-0.9597103286173361 0:8.9 1:-2.2 2:6.3 3:6.7 4:40.0 
-1.0 0:-0.9 1:0.9 2:-1.9 3:-1.2 4:40.0 
-1.0 0:4.8 1:-3.2 2:2.8 3:-0.2 4:40.0 
-0.9602692837900982 0:-13.7 1:-0.2 2:3.8 3:0.7 4:40.0 
-0.8173938003580516 0:0.5 1:-2.6 2:-6.7 3:-0.4 4:40.0 
-0.9575908119575366 0:-3.2 1:-0.3 2:-7.2 3:-5.7 4:40.0 
-0.9599555813757195 0:-1.7 1:-5.1 2:0.1 3:-6.4 4:40.0 
-0.9309370116131009 0:-0.4 1:-0.4 2:-3.4 3:-9.3 4:40.0 
-0.9596599760947708 0:13.4 1:16.6 2:-7.8 3:4.6 4:40.0 
-0.959495311355269 0:-4.1 1:1.6 2:-14.9 3:-5.1 4:40.0 
-0.9432533961821205 0:12.3 1:4.5 2:0.0 3:4.0 4:40.0 
-1.0 0:-2.9 1:-2.4 2:6.5 3:0.3 4:40.0 
-1.0 0:2.2 1:-0.6 2:-2.0 3:-4.1 4:40.0 
-0.9537299341203229 0:-9.6 1:0.5 2:-0.8 3:-2.9 4:40.0 
-1.0 0:1.8 1:0.2 2:-1.1 3:2.3 4:40.0 
-1.0 0:-3.9 1:0.1 2:-0.7 3:0.7 4:40.0 
-1.0 0:-0.4 1:0.4 2:-2.2 3:2.3 4:40.0 
-1.0 0:-6.0 1:-6.2 2:-0.3 3:0.4 4:40.0 
-1.0 0:-0.7 1:0.1 2:3.1 3:-0.6 4:40.0 
-0.7625273735610425 0:1.9 1:-2.2 2:-6.5 3:2.5 4:40.0 
-0.9566586736457291 0:6.1 1:3.0 2:-4.5 3:7.4 4:40.0 
-0.7243095381196507 0:5.2 1:4.6 2:2.7 3:-4.2 4:40.0 
-0.9590774838976606 0:-14.9 1:4.4 2:0.2 3:-1.5 4:40.0 
-0.9542682132966924 0:8.7 1:3.2 2:-2.0 3:4.2 4:40.0 
-0.8988081577215686 0:8.6 1:6.4 2:2.8 3:-5.5 4:40.0 
-1.0 0:6.5 1:0.1 2:3.4 3:2.4 4:40.0 
-0.7862800323928463 0:0.8 1:0.5 2:-6.3 3:-0.3 4:40.0 
-0.9588833279754135 0:13.1 1:-5.9 2:6.0 3:8.5 4:40.0 
-0.7628659342703437 0:4.6 1:6.6 2:3.6 3:-5.4 4:40.0 
-0.9282584205877811 0:-1.1 1:2.7 2:-1.7 3:-8.3 4:40.0 
-0.8854728985309881 0:0.7 1:-0.1 2:-5.0 3:2.2 4:40.0 
-0.6368765736445303 0:-0.7 1:2.1 2:-1.7 3:-0.5 4:40.0 
-1.0 0:3.9 1:-1.1 2:-0.4 3:5.1 4:40.0 
-0.9292667058687607 0:-9.0 1:-5.4 2:3.3 3:-8.2 4:40.0 
-0.9413996381871962 0:8.4 1:-0.8 2:2.1 3:-3.5 4:40.0 
-0.9592879028825683 0:21.8 1:6.2 2:-6.1 3:3.3 4:40.0 
-1.0 0:-6.7 1:2.0 2:5.0 3:3.6 4:40.0 
-0.959653220854677 0:-19.1 1:-11.3 2:3.1 3:-15.9 4:40.0 
-0.8013619147101214 0:2.0 1:2.0 2:-2.6 3:-0.8 4:40.0 
-0.955793615049827 0:-1.7 1:-4.5 2:-8.4 3:-4.8 4:40.0 
-1.0 0:1.3 1:5.2 2:-1.6 3:3.6 4:40.0 
-0.9080646901638315 0:-8.3 1:-5.8 2:6.6 3:2.2 4:40.0 
-1.0 0:-0.5 1:0.9 2:-0.9 3:3.3 4:40.0 
-1.0 0:-4.9 1:6.1 2:-1.1 3:2.5 4:40.0 
-1.0 0:2.1 1:-0.7 2:-3.0 3:1.3 4:40.0 
-0.8748387154788544 0:-4.7 1:0.5 2:3.4 3:6.0 4:40.0 
-0.9134390066972039 0:-2.0 1:3.3 2:7.5 3:-0.9 4:40.0 
-0.9265457890125247 0:6.6 1:-0.2 2:2.8 3:-0.8 4:40.0 
-0.8373424338397972 0:6.1 1:0.5 2:-2.1 3:3.3 4:50.0 
-1.0 0:-2.1 1:1.3 2:-2.0 3:0.4 4:50.0 
-0.9960137570632409 0:4.7 1:4.2 2:1.5 3:6.9 4:50.0 
-0.8606618136963199 0:-5.8 1:-5.0 2:3.5 3:-1.7 4:50.0 
-0.9343922513647379 0:-1.5 1:5.4 2:1.3 3:2.1 4:50.0 
-1.0 0:-1.7 1:2.3 2:3.8 3:3.0 4:50.0 
-0.8974224444979236 0:-6.0 1:0.8 2:-0.9 3:2.0 4:50.0 
-0.9587873237208167 0:16.0 1:1.8 2:-0.6 3:-0.2 4:50.0 
-0.960431038449623 0:-9.5 1:3.1 2:3.6 3:-4.8 4:50.0 
-0.9596412257071001 0:8.5 1:16.2 2:-8.2 3:2.5 4:50.0 
-0.9596744746540743 0:7.8 1:4.1 2:-13.1 3:-1.6 4:50.0 
-0.9657730510965525 0:4.6 1:-6.7 2:3.8 3:-8.7 4:50.0 
-0.9855009778855616 0:0.6 1:2.3 2:-0.8 3:10.8 4:50.0 
-0.9626343786999324 0:11.1 1:-4.2 2:1.8 3:-10.4 4:50.0 
-0.9558306984707944 0:2.2 1:-7.4 2:-3.2 3:-3.8 4:50.0 
-0.8949114672196891 0:-5.8 1:-6.8 2:0.1 3:-3.5 4:50.0 
-0.9607075114170581 0:-10.2 1:1.6 2:-6.9 3:-1.9 4:50.0 
-0.9467304078974965 0:6.9 1:-2.1 2:-3.2 3:-7.6 4:50.0 
-0.990003874736392 0:0.6 1:2.3 2:3.3 3:-0.7 4:50.0 
-1.0 0:-7.0 1:-2.1 2:0.0 3:-3.4 4:50.0 
-1.0 0:0.2 1:-1.0 2:2.3 3:1.3 4:50.0 
-1.0 0:2.3 1:1.6 2:6.2 3:0.1 4:50.0 
-0.5481120149507129 0:5.7 1:-2.7 2:3.0 3:-4.5 4:50.0 
-0.7961284164528393 0:-2.5 1:4.7 2:-2.2 3:-1.2 4:50.0 
-1.0 0:3.8 1:-5.1 2:0.3 3:-2.2 4:50.0 
-1.0 0:3.7 1:-0.2 2:3.6 3:-3.3 4:50.0 
-1.0 0:-1.2 1:0.2 2:-4.6 3:0.2 4:50.0 
-0.8124922614430644 0:-4.2 1:-4.3 2:0.1 3:-2.0 4:50.0 
-0.9350001717393804 0:-1.6 1:5.8 2:1.0 3:-2.6 4:50.0 
-0.965179228275103 0:0.0 1:-5.9 2:6.5 3:-7.0 4:50.0 
-1.0 0:-9.4 1:-1.2 2:-3.9 3:-3.8 4:50.0 
-1.0 0:7.1 1:-2.6 2:-3.9 3:-4.3 4:50.0 
-1.0 0:-5.5 1:3.6 2:-5.9 3:0.6 4:50.0 
-0.956309688975892 0:10.6 1:-1.5 2:-0.9 3:7.9 4:50.0 
-0.4656562913306719 0:-4.4 1:1.0 2:4.1 3:5.8 4:50.0 
-0.21986397721567136 0:-5.5 1:-3.2 2:1.7 3:-0.8 4:50.0 
-0.9592945877418089 0:1.8 1:11.1 2:-1.1 3:-5.5 4:50.0 
-1.0 0:1.6 1:-2.3 2:-1.2 3:-3.4 4:50.0 
-0.9152034103336191 0:0.7 1:-3.0 2:-2.4 3:-4.6 4:50.0 
-1.0 0:-0.1 1:-2.8 2:1.2 3:-5.7 4:50.0 
-0.4212215944742307 0:-4.2 1:-0.3 2:1.0 3:-0.1 4:50.0 
-0.9283326111399232 0:-6.9 1:-2.8 2:0.8 3:4.1 4:50.0 
-0.14332284794803068 0:-5.3 1:-0.2 2:-0.1 3:1.0 4:50.0 
-1.0 0:-0.1 1:-3.5 2:-4.1 3:3.6 4:50.0 
-0.9121651189456284 0:-0.5 1:-5.7 2:-2.0 3:5.2 4:50.0 
-0.9591294272209324 0:-7.8 1:-11.2 2:7.7 3:-5.0 4:50.0 
-0.5614175991131835 0:1.1 1:0.5 2:2.5 3:0.8 4:50.0 
-1.0 0:-6.0 1:-0.1 2:3.5 3:1.1 4:50.0 
-1.0 0:-0.9 1:-0.7 2:-8.3 3:0.6 4:50.0 
-0.9591588813746276 0:14.0 1:-10.3 2:2.3 3:2.4 4:50.0 
-1.0 0:12.1 1:-1.3 2:5.1 3:-1.3 4:50.0 
-0.9575724334445773 0:12.8 1:-6.9 2:1.9 3:-6.6 4:50.0 
-0.9596715243879307 0:-17.1 1:10.0 2:-5.0 3:-0.8 4:50.0 
-0.9571051338795913 0:8.3 1:-3.8 2:2.6 3:8.0 4:50.0 
-0.9593920620451594 0:-12.3 1:4.4 2:5.6 3:6.9 4:50.0 
-0.7984645912827651 0:5.9 1:-2.3 2:3.3 3:-5.2 4:50.0 
-1.0 0:4.6 1:-0.5 2:-1.8 3:-1.3 4:50.0 
-0.8678582777613257 0:-6.0 1:2.7 2:0.8 3:-0.9 4:50.0 
-0.9422652007887443 0:-4.1 1:-0.1 2:-4.6 3:-3.3 4:50.0 
-0.718170236436303 0:-5.3 1:-0.6 2:-2.5 3:-3.5 4:50.0 
-0.7541607130807889 0:-5.0 1:0.0 2:4.7 3:4.3 4:50.0 
-1.0 0:8.5 1:3.4 2:0.1 3:-1.2 4:50.0 
-0.7096516033964451 0:-2.5 1:4.8 2:0.4 3:-0.3 4:50.0 
-0.5717952161797039 0:-5.9 1:-2.0 2:1.4 3:-0.9 4:50.0 
-1.0 0:1.0 1:0.7 2:2.0 3:1.9 4:50.0 
-0.923910016524945 0:-8.3 1:-4.7 2:2.8 3:1.8 4:50.0 
-0.8420288989543582 0:-5.6 1:4.3 2:-2.8 3:-1.3 4:50.0 
-1.0 0:-1.7 1:6.1 2:1.2 3:5.9 4:50.0 
-1.0 0:-0.6 1:1.7 2:0.7 3:-1.1 4:50.0 
-1.0 0:9.3 1:-2.6 2:1.3 3:-0.8 4:50.0 
-0.9732555879893023 0:-1.2 1:4.8 2:-1.8 3:9.0 4:50.0 
-1.0 0:-3.2 1:-4.7 2:4.3 3:-4.9 4:50.0 
-1.0 0:1.5 1:-2.4 2:-0.6 3:1.2 4:50.0 
-1.0 0:-1.0 1:-0.7 2:-2.3 3:0.2 4:50.0 
-0.5488174433624867 0:-4.9 1:-0.3 2:0.2 3:-1.6 4:50.0 
-0.9596037889116416 0:18.1 1:-0.7 2:-4.0 3:10.5 4:50.0 
-0.9593736314370652 0:3.8 1:-2.8 2:5.2 3:-19.6 4:50.0 
-0.9592520984820384 0:19.1 1:-1.9 2:-12.9 3:7.6 4:50.0 
-0.9590952793407116 0:20.1 1:1.1 2:2.3 3:-2.2 4:50.0 
-0.9602484751574715 0:-14.7 1:-1.6 2:-0.1 3:-3.5 4:50.0 
-0.9606722632627107 0:11.5 1:-6.4 2:-5.4 3:-2.9 4:50.0 
-1.0 0:7.5 1:0.8 2:2.2 3:0.7 4:50.0 
-1.0 0:-9.1 1:1.3 2:-1.5 3:1.7 4:50.0 
-1.0 0:-1.4 1:-2.9 2:0.2 3:2.6 4:50.0 
-1.0 0:-2.0 1:3.5 2:-1.6 3:2.2 4:50.0 
-1.0 0:2.4 1:-0.8 2:0.5 3:0.7 4:50.0 
-0.9870110786756052 0:-4.9 1:1.1 2:2.2 3:-2.6 4:50.0 
-0.7305307511411008 0:-2.4 1:3.0 2:-0.2 3:-0.2 4:50.0 
-0.9202881347813703 0:6.4 1:2.7 2:5.1 3:0.1 4:50.0 
-1.0 0:-0.9 1:4.2 2:1.2 3:2.7 4:50.0 
-0.9668009153743871 0:-8.7 1:5.8 2:-2.4 3:4.9 4:50.0 
-0.9598146482176123 0:-10.2 1:-3.0 2:4.9 3:-5.1 4:50.0 
-0.9210803698487855 0:9.0 1:2.7 2:-3.7 3:2.3 4:50.0 
-0.9593861425532987 0:-8.6 1:-3.7 2:-7.1 3:9.3 4:50.0 
-0.8162214150022152 0:5.4 1:2.8 2:-3.7 3:3.3 4:50.0 
-1.0 0:0.7 1:-3.8 2:5.1 3:-0.4 4:50.0 
-1.0 0:1.6 1:4.4 2:6.3 3:3.7 4:50.0 
-0.9592154470518799 0:5.6 1:-0.9 2:4.8 3:10.6 4:50.0 
-0.9539294477474851 0:-9.6 1:-8.8 2:4.1 3:-9.2 4:50.0 
-1.0 0:6.5 1:4.9 2:-2.5 3:-1.7 4:50.0 
-1.0 0:3.0 1:0.2 2:-3.2 3:1.5 4:50.0 
-0.5887316267747836 0:-5.5 1:0.0 2:4.2 3:6.7 4:50.0 
-0.9596239691998162 0:13.1 1:-0.7 2:-1.0 3:-5.5 4:50.0 
-0.9615209691242218 0:-2.8 1:-0.4 2:9.6 3:1.8 4:50.0 
-0.9541412609561671 0:-6.6 1:-11.9 2:3.2 3:-10.3 4:50.0 
-0.5051715190549091 0:-1.8 1:1.9 2:-1.7 3:2.0 4:50.0 
-0.956828403116089 0:-0.9 1:1.9 2:1.0 3:-3.0 4:50.0 
-1.0 0:-2.2 1:0.7 2:0.2 3:0.5 4:50.0 
-1.0 0:7.9 1:-1.9 2:-1.2 3:0.6 4:50.0 
-0.9950071842293235 0:-6.5 1:-1.7 2:7.2 3:-2.2 4:50.0 
-0.9904784540461292 0:-4.0 1:6.8 2:-5.6 3:3.7 4:60.0 
-0.7738688277313786 0:-4.3 1:-5.7 2:-1.4 3:2.0 4:60.0 
-1.0 0:-2.0 1:4.3 2:-7.6 3:-2.7 4:60.0 
-0.9945651592157109 0:5.1 1:-3.4 2:-1.9 3:-4.8 4:60.0 
-1.0 0:1.5 1:-3.8 2:0.3 3:-1.8 4:60.0 
-1.0 0:-2.1 1:-5.6 2:1.7 3:-7.6 4:60.0 
-0.9592648388989458 0:-17.3 1:-17.9 2:5.4 3:-9.6 4:60.0 
-0.9590746680749903 0:-1.1 1:7.5 2:-2.5 3:-11.8 4:60.0 
-0.9591954926495545 0:-13.0 1:9.9 2:-4.6 3:-4.6 4:60.0 
-1.0 0:-2.6 1:1.9 2:3.4 3:-2.0 4:60.0 
-0.96064749505241 0:-4.7 1:6.1 2:-1.6 3:14.8 4:60.0 
-0.9543080835451131 0:-3.8 1:2.1 2:7.6 3:-0.9 4:60.0 
-1.0 0:0.0 1:-1.1 2:2.4 3:-1.8 4:60.0 
-1.0 0:0.0 1:-2.4 2:0.6 3:-6.1 4:60.0 
-0.9820601360489492 0:-0.2 1:-2.8 2:-0.1 3:4.4 4:60.0 
-0.9515833451476493 0:5.4 1:8.9 2:-2.1 3:3.7 4:60.0 
-0.8432741715615517 0:-4.0 1:5.2 2:-3.0 3:6.2 4:60.0 
-1.0 0:9.9 1:-0.6 2:0.8 3:-3.4 4:60.0 
-0.9596140528466994 0:-7.2 1:-1.2 2:9.6 3:-5.8 4:60.0 
-1.0 0:0.6 1:-3.0 2:-4.2 3:0.8 4:60.0 
-1.0 0:-4.8 1:0.1 2:-1.6 3:2.1 4:60.0 
-0.9591102892603334 0:24.7 1:0.0 2:0.2 3:9.9 4:60.0 
-0.9585955065799211 0:-20.8 1:3.1 2:5.1 3:0.1 4:60.0 
-0.95909582956584 0:-18.1 1:-2.6 2:7.9 3:-13.9 4:60.0 
-0.9591634359657136 0:12.5 1:-3.4 2:-6.2 3:11.2 4:60.0 
-0.9591010873825299 0:2.3 1:-10.0 2:11.0 3:1.0 4:60.0 
-0.9605159771695897 0:-12.7 1:5.2 2:-8.0 3:1.0 4:60.0 
-0.9690988944384916 0:3.3 1:-7.1 2:-6.0 3:-8.5 4:60.0 
-0.9595023682673188 0:0.4 1:-4.0 2:7.9 3:4.6 4:60.0 
-0.7780578044600169 0:13.6 1:-5.3 2:0.8 3:-7.9 4:60.0 
-0.9583117901943751 0:-20.5 1:2.6 2:3.4 3:-4.9 4:60.0 
-0.9531240805997082 0:2.7 1:-13.8 2:2.8 3:1.5 4:60.0 
-0.925203444505216 0:2.8 1:4.1 2:-3.3 3:-3.5 4:60.0 
-0.561327991126854 0:3.6 1:-0.9 2:0.9 3:-3.1 4:60.0 
-1.0 0:-2.7 1:3.5 2:2.3 3:0.3 4:60.0 
-0.9629310593868476 0:-13.8 1:4.2 2:0.8 3:2.2 4:60.0 
-1.0 0:-1.3 1:6.4 2:-0.8 3:-1.5 4:60.0 
-0.93856360532418 0:0.8 1:-1.3 2:5.3 3:-2.6 4:60.0 
-0.8735291904994803 0:-2.6 1:-5.5 2:1.4 3:3.4 4:60.0 
-1.0 0:-10.2 1:5.7 2:-1.6 3:-0.7 4:60.0 
-0.9654984233399646 0:-0.9 1:5.5 2:5.8 3:1.8 4:60.0 
-0.1313456131492848 0:1.3 1:-1.1 2:4.3 3:-3.2 4:60.0 
-0.6200840415985479 0:2.7 1:0.7 2:2.1 3:-2.2 4:60.0 
-0.9413281023412202 0:4.1 1:-1.8 2:3.9 3:-3.4 4:60.0 
-1.0 0:3.2 1:1.2 2:-1.3 3:-6.9 4:60.0 
-1.0 0:-4.5 1:2.7 2:-1.8 3:0.7 4:60.0 
-0.9511750793896483 0:7.0 1:-6.2 2:-3.4 3:-2.7 4:60.0 
-0.9591551885452827 0:-2.7 1:-16.1 2:-10.3 3:-11.9 4:60.0 
-0.8927667298968138 0:-5.7 1:-1.5 2:-0.7 3:-1.7 4:60.0 
-0.9584266366166605 0:11.5 1:3.3 2:-5.8 3:3.5 4:60.0 
-0.9469190378743461 0:5.1 1:-1.7 2:-3.2 3:-8.6 4:60.0 
-0.9011989663262514 0:8.8 1:2.6 2:-6.5 3:-5.1 4:60.0 
-1.0 0:0.2 1:2.2 2:-1.5 3:-1.2 4:60.0 
-1.0 0:4.5 1:0.7 2:0.6 3:2.2 4:60.0 
-0.7041047313597907 0:2.3 1:3.5 2:-3.7 3:0.7 4:60.0 
-1.0 0:2.5 1:6.5 2:-2.3 3:3.3 4:60.0 
-1.0 0:3.3 1:-2.0 2:0.7 3:-1.2 4:60.0 
-1.0 0:2.7 1:2.4 2:1.6 3:-0.4 4:60.0 
-1.0 0:1.6 1:-0.6 2:0.8 3:2.8 4:60.0 
-0.9608373120723146 0:-7.3 1:6.7 2:-3.5 3:3.3 4:60.0 
-1.0 0:-1.1 1:-0.3 2:-2.8 3:1.5 4:60.0 
-0.5511492580338418 0:4.2 1:-2.4 2:0.2 3:-2.4 4:60.0 
-1.0 0:-1.5 1:-4.0 2:2.0 3:-9.4 4:60.0 
-0.9590308138778199 0:-7.2 1:6.5 2:17.8 3:-16.3 4:60.0 
-0.9593936562004836 0:24.4 1:3.6 2:-2.8 3:3.3 4:60.0 
-0.9615392127372103 0:-0.9 1:-9.1 2:5.6 3:0.4 4:60.0 
-0.9596606443250499 0:-8.3 1:-2.0 2:-13.8 3:3.0 4:60.0 
-0.9595225157434432 0:19.4 1:1.4 2:5.0 3:-2.6 4:60.0 
-0.9720579594599579 0:-2.8 1:-6.4 2:-8.3 3:2.0 4:60.0 
-0.9591729835049213 0:-7.7 1:8.9 2:7.3 3:2.8 4:60.0 
-0.9592082707836687 0:-0.7 1:-14.6 2:3.7 3:-12.7 4:60.0 
-0.6300257644200686 0:-2.9 1:2.2 2:-2.5 3:-1.0 4:60.0 
-1.0 0:-0.3 1:-0.9 2:-1.6 3:-2.4 4:60.0 
-0.5880159247599716 0:4.1 1:4.6 2:-2.9 3:2.3 4:60.0 
-0.7255210156985783 0:-3.6 1:-3.8 2:-0.2 3:1.2 4:60.0 
-1.0 0:3.5 1:3.3 2:-0.5 3:4.2 4:60.0 
-0.7474040339647984 0:2.3 1:4.8 2:-5.1 3:1.9 4:60.0 
-1.0 0:-2.8 1:0.8 2:-1.3 3:6.6 4:60.0 
-1.0 0:-6.8 1:0.4 2:2.8 3:2.4 4:60.0 
-0.9528473859248388 0:2.6 1:-9.8 2:1.4 3:2.9 4:60.0 
-0.7149122647910507 0:-4.8 1:-2.0 2:0.3 3:-1.3 4:60.0 
-0.9033532042878095 0:-2.5 1:1.3 2:-5.7 3:0.7 4:60.0 
-0.9580529275105406 0:-12.3 1:-0.3 2:2.2 3:0.9 4:60.0 
-1.0 0:4.3 1:1.3 2:-0.4 3:1.3 4:60.0 
-1.0 0:-1.6 1:1.9 2:2.4 3:10.3 4:60.0 
-0.7780499995012168 0:11.4 1:-5.2 2:1.5 3:-8.6 4:60.0 
-0.9378266583388991 0:6.0 1:-0.7 2:-3.6 3:-0.5 4:60.0 
-0.9592478641860016 0:11.9 1:-0.5 2:6.5 3:3.6 4:60.0 
-0.9022232928032907 0:11.1 1:1.1 2:-5.1 3:-3.9 4:60.0 
-1.0 0:-3.8 1:11.9 2:-2.9 3:2.6 4:60.0 
-1.0 0:0.6 1:0.3 2:2.1 3:-0.2 4:60.0 
-0.933396151665136 0:9.3 1:-2.1 2:2.1 3:-2.2 4:60.0 
-0.9758656114676917 0:4.3 1:6.8 2:-1.1 3:-3.7 4:60.0 
-0.9584850082878799 0:9.4 1:2.2 2:-3.5 3:7.7 4:60.0 
-0.8967528271598257 0:-0.3 1:-0.8 2:1.8 3:4.7 4:60.0 
-1.0 0:-2.2 1:1.8 2:-0.9 3:-0.3 4:60.0 
-0.9393636470339062 0:-5.8 1:5.8 2:-1.5 3:4.6 4:60.0 
-1.0 0:2.2 1:-2.1 2:2.7 3:1.8 4:60.0 
-0.8758358216909005 0:4.9 1:-0.6 2:-1.1 3:0.7 4:60.0 
-0.7682018251420089 0:-4.2 1:-3.5 2:1.8 3:-1.9 4:60.0 
-0.7100550299788936 0:-1.2 1:-3.4 2:1.5 3:-3.3 4:70.0 
-1.0 0:1.1 1:-2.8 2:3.1 3:1.9 4:70.0 
-1.0 0:-5.0 1:1.7 2:-0.9 3:1.2 4:70.0 
-0.9590478962816392 0:7.9 1:-0.2 2:-0.3 3:9.8 4:70.0 
-0.9592542006162219 0:11.4 1:5.0 2:6.8 3:-9.3 4:70.0 
-0.9610483526841678 0:-9.0 1:1.4 2:-10.3 3:-3.4 4:70.0 
-0.959666705017278 0:-1.9 1:12.3 2:-7.5 3:0.6 4:70.0 
-0.9150486313767853 0:-8.7 1:3.5 2:-1.5 3:-1.5 4:70.0 
-0.7540297364427608 0:2.9 1:-1.9 2:0.0 3:3.0 4:70.0 
-0.9588665069539867 0:-19.3 1:2.7 2:8.7 3:-9.7 4:70.0 
-0.9592205243568567 0:15.2 1:-15.3 2:4.5 3:-4.7 4:70.0 
-0.8137589528469065 0:-3.2 1:-4.1 2:0.1 3:-7.4 4:70.0 
-0.9529957848723521 0:-2.5 1:5.9 2:7.0 3:4.8 4:70.0 
-1.0 0:1.1 1:2.0 2:-6.0 3:0.4 4:70.0 
-0.9627048663604667 0:-1.7 1:5.1 2:-3.8 3:4.4 4:70.0 
-0.8738129299797545 0:0.9 1:-4.9 2:2.2 3:-5.8 4:70.0 
-0.8895236961915449 0:2.5 1:-2.1 2:4.5 3:3.7 4:70.0 
-0.9583996125867791 0:13.0 1:5.2 2:3.0 3:-4.0 4:70.0 
-1.0 0:1.5 1:2.4 2:-2.0 3:-1.7 4:70.0 
-1.0 0:3.0 1:1.8 2:-1.0 3:1.3 4:70.0 
-0.8665173725617905 0:-0.6 1:1.1 2:5.5 3:1.9 4:70.0 
-1.0 0:1.6 1:5.8 2:-2.4 3:1.0 4:70.0 
-1.0 0:2.7 1:0.0 2:0.3 3:-1.1 4:70.0 
-0.9706022096263995 0:5.1 1:3.2 2:-2.5 3:6.6 4:70.0 
-0.6984110657524428 0:12.6 1:-1.4 2:-3.8 3:1.2 4:70.0 
-0.9601668667686124 0:-9.3 1:-2.4 2:6.7 3:-4.2 4:70.0 
-0.6059468345340056 0:1.1 1:-1.7 2:2.3 3:4.1 4:70.0 
-0.8247406505178242 0:-5.8 1:4.3 2:-0.7 3:-1.3 4:70.0 
-0.9613501821261762 0:-2.6 1:-0.2 2:-10.2 3:1.2 4:70.0 
-0.9567971102254867 0:-14.4 1:-1.5 2:3.9 3:-5.4 4:70.0 
-0.9593161043810335 0:-13.9 1:4.8 2:-8.0 3:-5.7 4:70.0 
-1.0 0:1.3 1:-4.3 2:3.1 3:-0.6 4:70.0 
-0.9596485482135474 0:-13.7 1:10.1 2:9.0 3:2.9 4:70.0 
-0.9596075625276526 0:18.1 1:-6.7 2:4.9 3:-9.0 4:70.0 
-0.5986349433319665 0:-5.7 1:-5.3 2:-3.4 3:-5.6 4:70.0 
-0.47078044230170873 0:-0.9 1:-1.7 2:1.2 3:-4.3 4:70.0 
-0.9692024879647767 0:16.3 1:-6.7 2:2.6 3:1.3 4:70.0 
-1.0 0:1.4 1:2.2 2:0.4 3:-2.6 4:70.0 
-1.0 0:-3.6 1:4.8 2:1.5 3:-1.8 4:70.0 
-0.44765839300090526 0:-6.2 1:-1.4 2:2.2 3:1.3 4:70.0 
-1.0 0:-3.2 1:-5.0 2:0.1 3:-0.9 4:70.0 
-0.95936241673274 0:-11.1 1:-4.2 2:9.8 3:-12.8 4:70.0 
-0.8090402386113694 0:4.2 1:1.6 2:2.4 3:2.6 4:70.0 
-1.0 0:8.9 1:-2.3 2:3.3 3:4.4 4:70.0 
-0.9591015799636495 0:3.3 1:7.5 2:-7.5 3:4.0 4:70.0 
-0.9597546272538371 0:10.2 1:4.6 2:-1.4 3:-3.0 4:70.0 
-0.9474267332904978 0:10.7 1:-1.8 2:-3.4 3:-2.6 4:70.0 
-0.9591441369949694 0:18.6 1:4.1 2:-11.2 3:14.6 4:70.0 
-0.7618083494384003 0:-1.3 1:-4.8 2:-0.4 3:-4.8 4:70.0 
-0.9602000680350005 0:-0.5 1:-4.4 2:8.1 3:-8.6 4:70.0 
-0.9563402891960802 0:10.9 1:2.8 2:-7.8 3:3.9 4:70.0 
-0.729034544349839 0:10.9 1:-0.6 2:-3.4 3:2.2 4:70.0 
-0.9682231470908969 0:-2.8 1:10.4 2:2.5 3:4.2 4:70.0 
-1.0 0:-3.3 1:-2.2 2:-0.6 3:-1.3 4:70.0 
-0.823280594959948 0:-5.7 1:1.9 2:4.3 3:3.0 4:70.0 
-0.9326799977039214 0:0.8 1:-1.0 2:-2.1 3:6.4 4:70.0 
-1.0 0:12.3 1:-2.9 2:0.1 3:-1.4 4:70.0 
-1.0 0:-4.2 1:0.4 2:-2.9 3:0.3 4:70.0 
-0.8824430262143502 0:-1.7 1:-1.9 2:4.3 3:-5.0 4:70.0 
-0.8807476216187105 0:-8.4 1:-1.0 2:4.6 3:1.3 4:70.0 
-0.975362849908274 0:-5.2 1:5.5 2:-3.2 3:1.8 4:70.0 
-0.8662680725974368 0:-8.2 1:-6.3 2:-3.9 3:-6.1 4:70.0 
-0.9533545639243799 0:6.3 1:-1.1 2:7.4 3:1.9 4:70.0 
-0.9594770406253478 0:-1.5 1:10.3 2:-0.5 3:10.8 4:70.0 
-1.0 0:-3.8 1:-1.9 2:3.0 3:1.8 4:70.0 
-0.9504063315517514 0:-15.3 1:-6.0 2:1.3 3:-2.7 4:70.0 
-0.7407020356725965 0:-6.6 1:1.3 2:2.0 3:2.2 4:70.0 
-0.5322195849065003 0:3.4 1:-3.0 2:1.1 3:3.9 4:70.0 
-0.9865506060413359 0:-0.7 1:2.9 2:4.4 3:4.0 4:70.0 
-0.9660822063698774 0:6.1 1:-1.2 2:-2.9 3:3.6 4:70.0 
-1.0 0:3.1 1:-3.9 2:-2.1 3:-4.7 4:70.0 
-0.958961012399904 0:11.8 1:-3.9 2:-1.7 3:9.5 4:70.0 
-0.9595427890237269 0:5.7 1:2.8 2:-7.1 3:13.6 4:70.0 
-1.0 0:2.1 1:-4.5 2:5.3 3:1.0 4:70.0 
-0.971721397810703 0:3.6 1:-5.5 2:1.6 3:-8.2 4:70.0 
-0.5412936635205721 0:-2.2 1:-2.0 2:0.8 3:-5.7 4:70.0 
-1.0 0:3.6 1:-0.1 2:-0.2 3:-2.8 4:70.0 
-1.0 0:7.9 1:-3.5 2:-3.0 3:1.3 4:70.0 
-0.9676761794564702 0:-5.7 1:4.2 2:-5.5 3:-8.0 4:70.0 
-1.0 0:0.1 1:-1.4 2:-0.7 3:3.8 4:70.0 
-1.0 0:0.3 1:-0.6 2:-2.4 3:1.0 4:70.0 
-1.0 0:-1.9 1:-0.7 2:-3.5 3:9.8 4:70.0 
-0.9594928526795752 0:-13.6 1:0.7 2:4.7 3:8.7 4:70.0 
-0.9226543484351882 0:-9.9 1:1.7 2:1.1 3:2.7 4:70.0 
-0.9465204031159611 0:-11.8 1:0.0 2:0.2 3:-0.5 4:70.0 
-0.9385718047881573 0:13.1 1:-3.7 2:-5.4 3:3.8 4:70.0 
-0.9412576271720734 0:0.1 1:-4.7 2:-2.6 3:6.7 4:70.0 
-0.9636075760429429 0:12.4 1:-5.0 2:-5.1 3:-3.6 4:70.0 
-0.9690494859984464 0:-7.6 1:2.1 2:-9.4 3:2.1 4:70.0 
-0.7903290348631469 0:6.3 1:1.0 2:3.4 3:1.8 4:70.0 
-0.7662547661941488 0:-5.0 1:-3.6 2:-2.8 3:-6.6 4:70.0 
-0.9597028151286422 0:-4.6 1:-2.5 2:9.6 3:-1.6 4:70.0 
-0.9485017898922605 0:-12.1 1:-5.7 2:3.2 3:-4.9 4:70.0 
-0.9591546400908619 0:-28.1 1:-4.0 2:1.9 3:-8.9 4:70.0 
-0.9563034503260871 0:11.7 1:4.4 2:-3.3 3:3.9 4:70.0 
-0.9077834439974168 0:6.6 1:0.4 2:4.0 3:5.5 4:70.0 
-0.9578978028388666 0:-7.1 1:-1.5 2:-1.8 3:3.7 4:70.0 
-0.894466604673592 0:-7.3 1:-3.1 2:1.9 3:2.1 4:70.0 
-0.5732572754730672 0:-4.1 1:-2.0 2:0.7 3:0.1 4:70.0 
-0.9564692019005148 0:-10.4 1:-5.2 2:-2.1 3:3.1 4:70.0 
-1.0 0:-2.2 1:0.4 2:0.8 3:1.8 4:80.0 
-0.959454900323197 0:12.8 1:0.6 2:10.0 3:-8.7 4:80.0 
-0.9974092242326787 0:-7.5 1:2.5 2:-0.4 3:-1.7 4:80.0 
-1.0 0:-3.4 1:5.0 2:1.2 3:1.4 4:80.0 
-0.9868950680089065 0:-3.8 1:-0.5 2:-13.8 3:4.3 4:80.0 
-0.9596613193120485 0:-19.9 1:2.7 2:0.5 3:0.3 4:80.0 
-0.9591664852180705 0:30.1 1:-2.9 2:1.1 3:8.9 4:80.0 
-1.0 0:4.8 1:1.6 2:0.4 3:1.9 4:80.0 
-0.9586904787959426 0:-8.8 1:10.5 2:6.7 3:6.9 4:80.0 
-0.8837278578823206 0:22.4 1:-5.3 2:2.8 3:-1.8 4:80.0 
-0.9680273620563826 0:4.8 1:-3.4 2:6.5 3:0.8 4:80.0 
-0.9567349814203069 0:-11.8 1:-0.2 2:-2.3 3:-10.8 4:80.0 
-0.8877856165423835 0:-1.6 1:-7.2 2:-1.0 3:-7.7 4:80.0 
-1.0 0:3.5 1:2.3 2:-0.2 3:-3.0 4:80.0 
-0.7613724316351671 0:8.3 1:1.8 2:0.0 3:6.7 4:80.0 
-1.0 0:1.4 1:2.8 2:0.6 3:0.8 4:80.0 
-1.0 0:1.3 1:4.4 2:-1.9 3:1.7 4:80.0 
-0.785656338834478 0:6.1 1:-0.3 2:2.1 3:4.6 4:80.0 
-1.0 0:-1.2 1:2.8 2:0.2 3:-0.2 4:80.0 
-0.960115264539275 0:4.4 1:-1.8 2:-8.4 3:6.9 4:80.0 
-0.7007287057643409 0:-4.0 1:-1.3 2:-1.1 3:2.1 4:80.0 
-0.9601338760968291 0:-5.7 1:-7.0 2:4.9 3:6.6 4:80.0 
-0.9587209569859005 0:-7.4 1:-3.0 2:5.1 3:-3.0 4:80.0 
-0.9591490097463593 0:17.4 1:0.6 2:11.0 3:3.7 4:80.0 
-0.9596742156770846 0:0.0 1:-10.7 2:8.1 3:-18.8 4:80.0 
-1.0 0:0.6 1:-0.6 2:1.3 3:-3.3 4:80.0 
-0.9746756352412608 0:10.9 1:-1.1 2:-0.6 3:-6.3 4:80.0 
-0.9568033691401326 0:16.9 1:-4.9 2:-3.8 3:-6.1 4:80.0 
-1.0 0:4.1 1:-4.0 2:6.0 3:-5.3 4:80.0 
-0.9567503063653601 0:-10.2 1:-3.5 2:-3.5 3:-7.8 4:80.0 
-0.9560442167052953 0:7.3 1:-1.0 2:-3.6 3:-1.5 4:80.0 
-1.0 0:0.3 1:3.1 2:3.0 3:0.4 4:80.0 
-1.0 0:-4.5 1:-3.5 2:0.4 3:0.1 4:80.0 
-0.7568137051103124 0:-1.6 1:-1.9 2:-3.1 3:0.7 4:80.0 
-0.9692953009991262 0:1.8 1:8.0 2:0.8 3:2.4 4:80.0 
-0.937245085732149 0:-2.9 1:4.5 2:-5.8 3:-1.0 4:80.0 
-1.0 0:-10.1 1:1.6 2:-7.1 3:4.6 4:80.0 
-0.9006917638213516 0:-9.0 1:0.1 2:-7.0 3:-5.2 4:80.0 
-0.7778144252046493 0:0.2 1:-0.5 2:-3.2 3:0.0 4:80.0 
-1.0 0:-3.7 1:2.0 2:5.1 3:-0.2 4:80.0 
-0.958914917886299 0:-11.3 1:0.7 2:5.9 3:-4.9 4:80.0 
-1.0 0:-4.7 1:2.2 2:-4.6 3:3.3 4:80.0 
-0.9592758177042041 0:17.7 1:0.7 2:-0.6 3:5.3 4:80.0 
-1.0 0:4.1 1:4.4 2:3.6 3:-2.7 4:80.0 
-1.0 0:3.2 1:-2.4 2:-0.1 3:-3.2 4:80.0 
-0.9591295651693649 0:11.9 1:-0.9 2:-9.4 3:-6.2 4:80.0 
-0.9224533297132036 0:-6.3 1:-7.7 2:-0.5 3:-4.3 4:80.0 
-0.741834901781337 0:-6.7 1:-2.7 2:-8.0 3:-4.8 4:80.0 
-0.9604403109956924 0:9.5 1:-0.5 2:-6.1 3:4.5 4:80.0 
-1.0 0:1.9 1:-2.8 2:-0.6 3:2.5 4:80.0 
-0.882243645508586 0:1.7 1:-0.9 2:-4.9 3:-0.3 4:80.0 
-1.0 0:-0.7 1:5.3 2:-2.9 3:-1.5 4:80.0 
-1.0 0:0.2 1:11.6 2:0.5 3:5.4 4:80.0 
-1.0 0:-4.7 1:2.7 2:0.0 3:-1.1 4:80.0 
-1.0 0:-1.9 1:-0.6 2:-1.4 3:2.4 4:80.0 
-1.0 0:-2.0 1:0.3 2:-4.2 3:0.7 4:80.0 
-0.8658682861388728 0:2.9 1:-6.3 2:2.2 3:2.0 4:80.0 
-0.7735068586593177 0:3.2 1:0.1 2:-1.4 3:-4.1 4:80.0 
-1.0 0:1.5 1:-5.5 2:3.9 3:-2.6 4:80.0 
-0.9592441180128687 0:-11.1 1:-9.7 2:1.3 3:-14.4 4:80.0 
-0.7720825035541272 0:8.6 1:3.5 2:-1.6 3:6.9 4:80.0 
-0.6419216470978981 0:-8.2 1:-2.2 2:-8.9 3:-3.9 4:80.0 
-0.9594410491567982 0:16.4 1:7.9 2:-5.4 3:3.1 4:80.0 
-0.9588658388725321 0:22.0 1:-3.8 2:13.3 3:7.0 4:80.0 
-0.9589260199750461 0:19.1 1:9.1 2:4.2 3:13.6 4:80.0 
-1.0 0:-1.2 1:-2.9 2:-3.2 3:-3.0 4:80.0 
-1.0 0:-6.1 1:1.8 2:-3.4 3:-2.4 4:80.0 
-1.0 0:6.2 1:-2.4 2:-0.3 3:0.1 4:80.0 
-0.7206168186289406 0:2.3 1:2.8 2:0.1 3:2.6 4:80.0 
-1.0 0:-5.8 1:4.5 2:-5.9 3:0.3 4:80.0 
-0.12384563736420096 0:-4.2 1:2.2 2:-4.3 3:4.2 4:80.0 
-1.0 0:2.2 1:0.0 2:0.0 3:0.6 4:80.0 
-0.9421067280740248 0:1.4 1:-7.3 2:0.6 3:3.0 4:80.0 
-0.9591779986216844 0:-4.7 1:6.4 2:-4.5 3:12.0 4:80.0 
-0.9324579601520998 0:19.5 1:-1.9 2:-1.8 3:-1.2 4:80.0 
-0.8841438216968464 0:22.6 1:-3.2 2:1.8 3:-3.9 4:80.0 
-1.0 0:3.3 1:-9.4 2:2.5 3:-9.8 4:80.0 
-0.9988454450224538 0:0.5 1:-3.1 2:3.1 3:-7.5 4:80.0 
-0.9302136491298206 0:-5.1 1:-4.4 2:1.6 3:-5.5 4:80.0 
-0.828337713417758 0:-2.9 1:-6.4 2:-0.6 3:-5.0 4:80.0 
-0.929461830047352 0:16.7 1:-2.6 2:-0.6 3:-3.3 4:80.0 
-1.0 0:-0.7 1:2.1 2:-3.6 3:0.0 4:80.0 
-0.9551810208831558 0:4.4 1:-7.6 2:5.0 3:2.3 4:80.0 
-1.0 0:-2.5 1:3.2 2:-3.2 3:5.0 4:80.0 
-1.0 0:-2.3 1:3.2 2:-1.9 3:-0.1 4:80.0 
-0.9601564670572249 0:-3.8 1:3.6 2:-3.6 3:-8.8 4:80.0 
-1.0 0:-6.1 1:0.2 2:-1.6 3:0.4 4:80.0 
-1.0 0:2.0 1:0.6 2:-1.9 3:5.2 4:80.0 
-0.9671149930140698 0:-7.0 1:9.9 2:1.5 3:11.9 4:80.0 
-0.9595343990424304 0:2.9 1:1.1 2:7.7 3:-4.6 4:80.0 
-0.9609347575943051 0:9.1 1:2.3 2:3.0 3:-2.7 4:80.0 
-0.9578452015810791 0:-7.1 1:3.1 2:1.1 3:-6.0 4:80.0 
-1.0 0:-2.9 1:0.2 2:6.7 3:0.8 4:80.0 
-0.7715496862504646 0:7.5 1:-1.4 2:2.6 3:5.0 4:80.0 
-0.9591339491722718 0:8.9 1:3.2 2:-1.4 3:-1.5 4:80.0 
-1.0 0:1.8 1:-1.6 2:1.4 3:2.2 4:80.0 
-1.0 0:-7.0 1:6.4 2:-8.2 3:-0.8 4:80.0 
-0.9591821352123602 0:-24.2 1:-2.7 2:-4.2 3:-8.9 4:80.0 
-0.9602277278986566 0:-13.0 1:-2.3 2:-0.3 3:-1.2 4:80.0 
-0.9618987712030286 0:10.8 1:-2.2 2:2.0 3:-0.4 4:80.0 
-0.9233947208363541 0:-7.6 1:-1.8 2:2.9 3:-1.5 4:90.0 
-1.0 0:-0.9 1:0.7 2:3.1 3:-0.2 4:90.0 
-1.0 0:2.2 1:0.3 2:0.3 3:-0.3 4:90.0 
-0.9796152574548528 0:1.8 1:-8.5 2:3.9 3:-1.4 4:90.0 
-0.8747173430371292 0:10.5 1:5.1 2:0.1 3:5.8 4:90.0 
-0.9735198378264256 0:-4.7 1:-0.5 2:-4.0 3:0.0 4:90.0 
-1.0 0:-0.7 1:7.6 2:-2.3 3:10.7 4:90.0 
-0.9515170120992905 0:-1.5 1:4.7 2:-5.3 3:2.8 4:90.0 
-0.94851522160414 0:0.1 1:0.0 2:3.9 3:-3.0 4:90.0 
-0.8922313775392704 0:5.0 1:-0.1 2:-2.2 3:-1.1 4:90.0 
-0.5700673006378637 0:0.6 1:3.4 2:-0.5 3:1.5 4:90.0 
-0.9596435324917963 0:4.0 1:-5.3 2:7.7 3:-8.4 4:90.0 
-0.9597557920867154 0:5.2 1:1.0 2:11.5 3:-6.0 4:90.0 
-0.9596675736716508 0:1.2 1:-1.0 2:0.7 3:-12.9 4:90.0 
-0.9587713859738074 0:10.4 1:0.8 2:5.7 3:2.8 4:90.0 
-1.0 0:6.8 1:2.2 2:0.7 3:3.8 4:90.0 
-0.9429012656277386 0:-1.9 1:0.0 2:-6.7 3:0.8 4:90.0 
-0.9446230051983521 0:11.6 1:2.9 2:-1.5 3:8.6 4:90.0 
-1.0 0:-3.2 1:2.0 2:-0.8 3:1.6 4:90.0 
-0.7609206157093659 0:0.5 1:1.4 2:0.6 3:1.3 4:90.0 
-0.5571051153297906 0:-0.3 1:2.9 2:-0.6 3:3.1 4:90.0 
-0.9594559588979763 0:-9.2 1:13.5 2:-4.4 3:-1.0 4:90.0 
-0.9100396498165442 0:-3.5 1:-1.0 2:-4.1 3:3.4 4:90.0 
-0.9588747008301308 0:0.8 1:9.6 2:-9.6 3:2.7 4:90.0 
-0.7668455152342261 0:8.1 1:3.8 2:0.4 3:4.3 4:90.0 
-0.8664679707417094 0:-9.0 1:1.8 2:1.4 3:-2.0 4:90.0 
-1.0 0:-5.4 1:3.9 2:-1.7 3:-0.8 4:90.0 
-0.9592232642043863 0:22.5 1:1.3 2:0.3 3:5.1 4:90.0 
-1.0 0:-1.0 1:-5.4 2:3.8 3:7.1 4:90.0 
-1.0 0:-12.0 1:3.0 2:2.5 3:2.4 4:90.0 
-0.9599019371161519 0:5.7 1:-1.8 2:9.2 3:6.8 4:90.0 
-0.9591529822460039 0:19.2 1:-3.1 2:4.3 3:3.9 4:90.0 
-0.9594694990895153 0:13.3 1:-3.8 2:8.0 3:-9.1 4:90.0 
-1.0 0:10.3 1:-2.2 2:-2.3 3:-6.9 4:90.0 
-0.9312998321064786 0:-8.5 1:-8.7 2:1.1 3:-1.7 4:90.0 
-1.0 0:3.2 1:-2.1 2:3.0 3:0.6 4:90.0 
-1.0 0:-6.6 1:0.8 2:0.6 3:-1.5 4:90.0 
-0.9455307558978732 0:-5.3 1:-6.1 2:1.3 3:0.2 4:90.0 
-0.6977677820367127 0:-3.5 1:4.7 2:-3.7 3:3.0 4:90.0 
-1.0 0:-4.1 1:2.8 2:-5.2 3:4.1 4:90.0 
-1.0 0:-0.7 1:5.7 2:1.2 3:-1.7 4:90.0 
-0.9500545808204964 0:6.3 1:6.3 2:2.7 3:5.8 4:90.0 
-0.9735366550237323 0:2.4 1:-2.1 2:-8.9 3:6.0 4:90.0 
-0.9478892759379356 0:12.9 1:-3.4 2:-5.1 3:2.3 4:90.0 
-0.978991711437261 0:11.8 1:-9.2 2:5.0 3:-13.4 4:90.0 
-0.9591284837660107 0:3.4 1:5.2 2:-6.4 3:6.5 4:90.0 
-0.9482286432190277 0:12.9 1:0.6 2:-4.8 3:3.6 4:90.0 
-0.905979412665056 0:-0.9 1:-9.4 2:8.0 3:-2.8 4:90.0 
-0.9972493504410915 0:8.9 1:-0.2 2:0.8 3:-0.6 4:90.0 
-0.9521726457430855 0:4.7 1:-4.4 2:-3.2 3:-1.4 4:90.0 
-0.8693078255949688 0:1.7 1:1.3 2:-2.5 3:3.8 4:90.0 
-0.9772029467324338 0:-6.1 1:-0.9 2:5.4 3:4.9 4:90.0 
-0.9104083220036451 0:-1.5 1:-6.6 2:7.0 3:-1.3 4:90.0 
-0.9756351479269028 0:-5.8 1:5.5 2:3.5 3:4.1 4:90.0 
-0.8419993598724206 0:4.5 1:-1.0 2:-3.0 3:4.1 4:90.0 
-0.6883343166990191 0:3.6 1:1.3 2:-1.7 3:0.1 4:90.0 
-1.0 0:8.7 1:-3.3 2:-1.3 3:-3.0 4:90.0 
-0.959626548374684 0:15.6 1:-7.7 2:1.2 3:-1.3 4:90.0 
-1.0 0:2.2 1:-3.4 2:-0.5 3:-3.1 4:90.0 
-1.0 0:3.5 1:2.0 2:1.9 3:3.2 4:90.0 
-0.959660813389673 0:-9.9 1:2.5 2:2.1 3:-11.8 4:90.0 
-1.0 0:3.6 1:-0.9 2:1.6 3:-2.0 4:90.0 
-0.9694666503631515 0:-4.2 1:-2.6 2:2.2 3:-8.3 4:90.0 
-0.96175650986259 0:-8.8 1:-2.8 2:-3.9 3:-4.5 4:90.0 
-1.0 0:-2.1 1:-1.4 2:5.1 3:4.8 4:90.0 
-0.959074927826068 0:16.1 1:4.3 2:2.0 3:10.5 4:90.0 
-1.0 0:3.5 1:-0.7 2:9.5 3:-0.4 4:90.0 
-0.9553728632680072 0:-1.5 1:8.3 2:-4.9 3:0.7 4:90.0 
-0.9592698678922682 0:5.0 1:12.9 2:-19.2 3:-3.5 4:90.0 
-0.2930901383796586 0:0.1 1:2.2 2:1.0 3:2.3 4:90.0 
-0.7182917960820617 0:-4.7 1:3.4 2:-2.6 3:2.1 4:90.0 
-1.0 0:-1.5 1:-4.2 2:0.0 3:-0.6 4:90.0 
-0.9434381412018998 0:-6.2 1:-8.3 2:2.4 3:-4.5 4:90.0 
-0.5040512655531462 0:3.2 1:0.1 2:-1.9 3:0.9 4:90.0 
-0.9583644791715771 0:5.3 1:1.4 2:-2.6 3:8.6 4:90.0 
-0.9590749950564986 0:-16.3 1:1.0 2:6.3 3:3.8 4:90.0 
-1.0 0:-5.2 1:-5.3 2:5.3 3:1.8 4:90.0 
-0.8161787772507691 0:4.5 1:0.5 2:0.3 3:-3.1 4:90.0 
-0.9556003579847442 0:-9.7 1:-4.3 2:0.7 3:-4.7 4:90.0 
-1.0 0:5.8 1:3.5 2:-4.0 3:2.6 4:90.0 
-0.8802405563856491 0:5.4 1:-3.0 2:-1.0 3:4.6 4:90.0 
-0.9596297387521376 0:4.5 1:-1.4 2:-14.8 3:-0.6 4:90.0 
-0.9593641118995149 0:-25.5 1:6.3 2:-2.9 3:-5.8 4:90.0 
-1.0 0:8.3 1:-0.5 2:-5.3 3:-0.2 4:90.0 
-0.8978176216623629 0:2.8 1:-6.1 2:-1.5 3:-1.9 4:90.0 
