svm_type c_svc
kernel_type rbf
gamma 0.25
nr_class 2
total_sv 7727
rho 0.09857283327174934
label 0 1
nr_sv 3839 3888
SV
1.0 0:2.4 1:1.5 2:-1.7 3:-2.1 4:0.0 
1.0 0:2.1 1:-2.2 2:0.2 3:-1.5 4:0.0 
1.0 0:-4.8 1:-3.3 2:0.1 3:1.6 4:0.0 
1.0 0:-1.7 1:-3.1 2:-0.9 3:-1.2 4:0.0 
0.12432420687569183 0:-4.1 1:3.4 2:-0.8 3:0.0 4:0.0 
0.9380072345446329 0:2.4 1:-6.3 2:5.3 3:1.2 4:0.0 
1.0 0:-1.0 1:1.9 2:0.4 3:-0.3 4:0.0 
1.0 0:0.9 1:-0.1 2:2.2 3:1.6 4:0.0 
0.6692576126114843 0:3.4 1:-0.3 2:-3.8 3:1.9 4:0.0 
1.0 0:0.0 1:-6.0 2:-3.2 3:1.7 4:0.0 
1.0 0:1.5 1:-1.9 2:0.5 3:0.2 4:0.0 
0.06972751425902016 0:0.0 1:-1.1 2:1.1 3:2.4 4:0.0 
0.7568208419529813 0:0.2 1:4.0 2:-0.8 3:1.3 4:0.0 
1.0 0:3.9 1:-0.7 2:2.7 3:-1.6 4:0.0 
1.0 0:0.5 1:-0.5 2:2.0 3:-0.9 4:0.0 
1.0 0:3.6 1:1.1 2:-2.6 3:2.6 4:0.0 
1.0 0:-4.1 1:7.4 2:-5.2 3:1.1 4:0.0 
0.2849565729169447 0:-2.4 1:-2.3 2:-1.4 3:0.6 4:0.0 
0.6344121339894545 0:-1.0 1:-4.2 2:3.4 3:0.4 4:0.0 
1.0 0:-2.7 1:-3.1 2:-0.3 3:-2.2 4:0.0 
0.49979893081952326 0:-1.7 1:4.4 2:2.8 3:-0.8 4:0.0 
1.0 0:-1.6 1:-1.5 2:-4.8 3:-1.9 4:0.0 
1.0 0:0.4 1:1.0 2:1.8 3:-4.2 4:0.0 
0.8127267534348243 0:5.0 1:-0.6 2:-5.4 3:3.2 4:0.0 
0.07775616914543047 0:-1.2 1:3.1 2:-4.3 3:-0.8 4:0.0 
1.0 0:4.6 1:-0.5 2:6.1 3:-4.0 4:0.0 
1.0 0:-2.2 1:0.5 2:-0.1 3:-1.9 4:0.0 
1.0 0:4.4 1:0.5 2:-3.6 3:-1.4 4:0.0 
0.4537764220324237 0:-1.2 1:-4.9 2:1.1 3:4.0 4:0.0 
1.0 0:1.0 1:0.5 2:-1.2 3:0.2 4:0.0 
1.0 0:-3.8 1:1.5 2:3.4 3:-1.5 4:0.0 
1.0 0:-2.9 1:3.6 2:1.1 3:-4.4 4:0.0 
1.0 0:5.1 1:4.1 2:-1.8 3:8.8 4:0.0 
0.3265987378102545 0:-3.8 1:5.1 2:-0.3 3:3.8 4:0.0 
1.0 0:-2.6 1:-1.5 2:-0.6 3:2.5 4:0.0 
0.25463237603167577 0:-2.8 1:4.8 2:-0.9 3:0.9 4:0.0 
1.0 0:-9.9 1:16.3 2:-1.7 3:0.7 4:0.0 
0.953406826505131 0:-1.1 1:-3.8 2:3.0 3:-9.1 4:0.0 
0.6090232276361487 0:-0.1 1:-2.3 2:0.3 3:-5.7 4:0.0 
1.0 0:-0.3 1:2.9 2:0.0 3:-0.7 4:0.0 
1.0 0:-3.1 1:-2.4 2:-0.6 3:-6.6 4:0.0 
1.0 0:2.2 1:-0.4 2:0.7 3:0.4 4:0.0 
1.0 0:-0.5 1:2.3 2:0.2 3:3.0 4:0.0 
1.0 0:7.3 1:1.7 2:-3.4 3:3.9 4:0.0 
0.832582860772495 0:6.5 1:-7.1 2:-4.7 3:0.3 4:0.0 
1.0 0:2.6 1:0.3 2:-0.2 3:0.2 4:0.0 
0.6138117055235739 0:-3.1 1:2.2 2:0.3 3:2.8 4:0.0 
0.9003170303568161 0:-2.1 1:-4.4 2:7.2 3:0.7 4:0.0 
1.0 0:2.4 1:-0.7 2:2.2 3:-4.7 4:0.0 
0.6653232359074593 0:-2.9 1:4.4 2:0.6 3:0.6 4:0.0 
1.0 0:1.8 1:0.5 2:-3.3 3:1.8 4:0.0 
1.0 0:-0.1 1:-0.5 2:-1.6 3:-1.4 4:0.0 
0.9963504478416481 0:-0.4 1:-1.2 2:-0.4 3:-2.7 4:0.0 
0.5488097253940296 0:0.7 1:5.3 2:4.0 3:0.4 4:0.0 
1.0 0:-2.9 1:0.2 2:-4.4 3:-3.9 4:0.0 
1.0 0:4.9 1:1.0 2:4.9 3:-2.2 4:0.0 
1.0 0:-0.3 1:0.4 2:-1.2 3:-0.8 4:0.0 
1.0 0:-0.9 1:-6.2 2:0.0 3:-2.9 4:0.0 
1.0 0:1.6 1:2.4 2:-0.2 3:6.0 4:0.0 
1.0 0:-0.7 1:-0.5 2:0.6 3:1.8 4:0.0 
0.9030365086173562 0:-3.1 1:2.1 2:2.1 3:1.1 4:0.0 
1.0 0:-2.7 1:-0.8 2:-0.4 3:4.4 4:0.0 
1.0 0:5.1 1:-10.1 2:-3.8 3:1.2 4:0.0 
1.0 0:-0.4 1:1.3 2:-0.1 3:1.6 4:0.0 
1.0 0:-3.1 1:5.0 2:-3.5 3:0.4 4:0.0 
0.11389420427189134 0:4.1 1:-6.2 2:3.6 3:-0.1 4:0.0 
1.0 0:-2.3 1:1.8 2:-3.7 3:0.6 4:0.0 
1.0 0:5.4 1:1.5 2:0.6 3:-4.1 4:0.0 
1.0 0:-2.6 1:-0.4 2:-8.8 3:-3.2 4:0.0 
0.9910188368080959 0:2.5 1:-0.5 2:-1.5 3:-7.3 4:0.0 
1.0 0:0.8 1:3.4 2:0.6 3:3.2 4:0.0 
1.0 0:6.7 1:-3.0 2:6.7 3:-14.5 4:0.0 
0.7551293371814526 0:-0.6 1:1.1 2:-2.0 3:1.7 4:0.0 
1.0 0:1.5 1:1.3 2:-2.1 3:3.4 4:0.0 
0.8087932705777673 0:-1.2 1:-1.4 2:2.1 3:2.4 4:0.0 
0.4893939384045346 0:4.6 1:1.9 2:-3.5 3:1.8 4:0.0 
1.0 0:5.7 1:6.2 2:-7.2 3:-2.3 4:0.0 
1.0 0:-1.5 1:1.6 2:1.0 3:1.3 4:0.0 
1.0 0:0.7 1:2.5 2:1.7 3:-0.6 4:0.0 
1.0 0:-4.9 1:-7.9 2:3.5 3:-3.8 4:0.0 
1.0 0:4.1 1:-4.6 2:-2.7 3:-0.5 4:0.0 
1.0 0:2.6 1:0.3 2:0.6 3:-1.9 4:0.0 
1.0 0:0.3 1:0.6 2:-1.6 3:1.8 4:0.0 
1.0 0:-2.9 1:-5.6 2:-10.0 3:4.0 4:0.0 
1.0 0:-2.4 1:-7.7 2:7.1 3:1.6 4:0.0 
1.0 0:0.4 1:1.1 2:-1.1 3:0.3 4:0.0 
1.0 0:-2.5 1:0.7 2:2.1 3:-0.1 4:0.0 
1.0 0:-1.0 1:-3.0 2:-10.7 3:0.6 4:0.0 
1.0 0:0.6 1:-1.6 2:1.4 3:-1.8 4:0.0 
0.23551064054379814 0:-2.7 1:0.5 2:-2.3 3:1.7 4:0.0 
1.0 0:5.5 1:-1.5 2:-1.2 3:5.2 4:0.0 
1.0 0:-3.0 1:8.8 2:-1.3 3:0.0 4:0.0 
0.34799799000559956 0:-2.2 1:3.6 2:-1.1 3:1.2 4:0.0 
0.1546123953353167 0:-1.0 1:-1.0 2:-0.9 3:1.6 4:0.0 
0.32103692259639893 0:-1.3 1:5.2 2:-0.6 3:-3.3 4:0.0 
1.0 0:-0.5 1:-2.7 2:0.6 3:8.2 4:0.0 
1.0 0:-1.0 1:-0.9 2:-0.1 3:-0.9 4:0.0 
1.0 0:-1.3 1:-0.7 2:-3.7 3:2.4 4:0.0 
1.0 0:-3.8 1:-5.0 2:6.2 3:-1.4 4:0.0 
1.0 0:-0.2 1:1.0 2:-1.3 3:-1.0 4:0.0 
1.0 0:-0.4 1:1.0 2:-0.8 3:0.9 4:0.0 
1.0 0:1.5 1:-5.9 2:-0.4 3:1.0 4:0.0 
0.962509807071673 0:-5.2 1:-0.8 2:1.3 3:-5.0 4:0.0 
1.0 0:-6.2 1:-7.7 2:0.4 3:-1.9 4:0.0 
0.17649479443371935 0:0.6 1:1.5 2:-2.3 3:-2.6 4:0.0 
1.0 0:2.2 1:-3.9 2:0.6 3:3.7 4:0.0 
1.0 0:-6.3 1:1.8 2:2.7 3:6.1 4:0.0 
1.0 0:1.1 1:0.0 2:0.4 3:-1.5 4:0.0 
0.9493099381180723 0:-1.2 1:-3.5 2:9.5 3:0.5 4:0.0 
1.0 0:3.0 1:6.0 2:-0.8 3:0.3 4:0.0 
0.5752616391370979 0:-0.5 1:4.1 2:-0.5 3:2.7 4:0.0 
1.0 0:1.2 1:-1.5 2:3.0 3:-2.1 4:0.0 
1.0 0:1.3 1:1.3 2:-0.3 3:1.9 4:0.0 
1.0 0:-7.5 1:2.2 2:7.6 3:-3.9 4:0.0 
1.0 0:-4.5 1:0.9 2:-0.4 3:-2.2 4:0.0 
1.0 0:-4.6 1:1.8 2:0.3 3:-3.0 4:0.0 
1.0 0:0.1 1:-1.5 2:0.1 3:3.2 4:0.0 
0.05602259467921661 0:1.2 1:0.2 2:0.4 3:-3.8 4:0.0 
1.0 0:-7.5 1:-14.6 2:8.5 3:-11.5 4:0.0 
1.0 0:-3.6 1:-1.0 2:1.2 3:-1.1 4:0.0 
1.0 0:0.1 1:-0.4 2:0.3 3:2.7 4:0.0 
0.908187644570906 0:3.2 1:-8.1 2:4.2 3:-0.2 4:0.0 
0.009220644972448724 0:-3.0 1:2.2 2:0.9 3:1.1 4:0.0 
1.0 0:1.9 1:-1.6 2:2.6 3:0.0 4:0.0 
1.0 0:0.9 1:-1.2 2:1.9 3:-0.1 4:0.0 
1.0 0:9.0 1:-2.7 2:2.0 3:-0.4 4:0.0 
1.0 0:-4.7 1:2.3 2:2.8 3:9.3 4:0.0 
0.6019088171815643 0:-1.4 1:-2.6 2:0.3 3:0.9 4:0.0 
1.0 0:-5.7 1:0.8 2:-0.2 3:2.0 4:0.0 
0.35932199430059625 0:0.1 1:4.8 2:-2.7 3:-1.7 4:0.0 
1.0 0:-2.2 1:7.8 2:5.0 3:2.9 4:0.0 
0.24438014753865137 0:-1.5 1:-1.9 2:-1.6 3:1.6 4:0.0 
1.0 0:-2.8 1:-3.3 2:-2.3 3:-0.4 4:0.0 
1.0 0:0.9 1:-3.7 2:-0.3 3:-1.0 4:0.0 
0.8270022063109811 0:-5.5 1:7.5 2:2.4 3:-0.7 4:0.0 
1.0 0:3.8 1:0.6 2:-2.8 3:-0.3 4:0.0 
0.4512085070644267 0:-1.0 1:3.0 2:-2.0 3:-3.0 4:0.0 
0.944175413424958 0:0.8 1:5.3 2:-1.0 3:-4.0 4:0.0 
1.0 0:4.9 1:0.8 2:5.8 3:3.8 4:0.0 
1.0 0:-2.9 1:3.4 2:-2.2 3:2.4 4:0.0 
1.0 0:1.2 1:3.0 2:2.6 3:0.5 4:0.0 
1.0 0:1.6 1:-0.3 2:-1.8 3:3.9 4:0.0 
0.8110162721238569 0:-0.7 1:-4.8 2:-0.2 3:1.7 4:0.0 
1.0 0:-7.2 1:2.4 2:-0.2 3:1.8 4:0.0 
0.9558383492014217 0:-5.8 1:6.6 2:-6.4 3:2.3 4:0.0 
1.0 0:-7.5 1:2.8 2:-2.2 3:7.2 4:0.0 
0.5373415306895271 0:-2.4 1:6.1 2:2.1 3:-1.2 4:0.0 
0.7136332293869296 0:0.9 1:4.3 2:4.1 3:-3.5 4:0.0 
1.0 0:-0.7 1:2.4 2:-7.1 3:1.9 4:0.0 
1.0 0:-1.0 1:-1.3 2:-1.4 3:-0.3 4:0.0 
1.0 0:-5.0 1:1.3 2:-1.4 3:0.1 4:0.0 
1.0 0:4.3 1:3.3 2:2.6 3:-6.6 4:0.0 
0.29786461808376735 0:-1.9 1:3.8 2:-3.8 3:0.1 4:0.0 
1.0 0:1.0 1:-0.3 2:-0.5 3:-0.2 4:0.0 
1.0 0:-5.2 1:-0.3 2:1.1 3:2.9 4:0.0 
0.9324189257541627 0:0.0 1:-4.7 2:2.6 3:6.3 4:0.0 
1.0 0:-0.3 1:-3.6 2:2.3 3:0.6 4:0.0 
0.7382076451344157 0:2.0 1:4.7 2:-0.9 3:-1.4 4:0.0 
0.9470878599913878 0:-2.6 1:4.1 2:0.7 3:4.2 4:0.0 
0.9745252049108792 0:0.4 1:-3.9 2:4.9 3:-2.2 4:0.0 
0.9968819688492816 0:0.2 1:-6.6 2:1.4 3:10.3 4:0.0 
1.0 0:-0.9 1:2.7 2:-0.8 3:-2.3 4:0.0 
1.0 0:-1.5 1:-1.0 2:-0.3 3:1.4 4:0.0 
1.0 0:5.2 1:7.3 2:-4.7 3:-8.5 4:0.0 
1.0 0:3.0 1:-1.5 2:-2.2 3:1.2 4:0.0 
1.0 0:2.3 1:-0.7 2:-0.4 3:-0.7 4:0.0 
1.0 0:-2.7 1:0.8 2:1.6 3:0.0 4:0.0 
1.0 0:6.7 1:5.6 2:-3.1 3:1.5 4:0.0 
0.3369382943680172 0:0.4 1:5.1 2:-0.8 3:1.5 4:0.0 
1.0 0:1.8 1:-6.6 2:2.8 3:-1.6 4:0.0 
0.6934976022912872 0:1.7 1:-0.4 2:-1.5 3:-6.6 4:0.0 
0.9805221450745212 0:-2.7 1:-1.9 2:3.2 3:-10.3 4:0.0 
0.8506046610984103 0:3.8 1:-2.5 2:1.8 3:1.3 4:0.0 
1.0 0:-3.1 1:-1.7 2:0.5 3:1.9 4:0.0 
1.0 0:3.6 1:0.8 2:1.8 3:2.9 4:0.0 
1.0 0:-4.3 1:-2.7 2:0.3 3:0.4 4:0.0 
1.0 0:5.1 1:-7.8 2:10.2 3:5.0 4:0.0 
0.9465081962356052 0:-2.0 1:4.3 2:1.1 3:-0.1 4:0.0 
1.0 0:0.6 1:2.8 2:-1.3 3:1.6 4:0.0 
1.0 0:-0.1 1:-5.6 2:5.1 3:-3.8 4:0.0 
1.0 0:1.0 1:-4.0 2:-1.0 3:-1.5 4:0.0 
1.0 0:-1.9 1:0.5 2:-0.3 3:-0.3 4:0.0 
1.0 0:2.9 1:1.5 2:-0.1 3:-1.7 4:0.0 
1.0 0:5.0 1:-9.5 2:-0.7 3:-5.9 4:0.0 
1.0 0:2.0 1:-1.1 2:-1.8 3:1.2 4:0.0 
1.0 0:-0.1 1:-2.2 2:2.3 3:4.3 4:0.0 
0.904992298298953 0:5.1 1:2.9 2:-2.4 3:-3.8 4:0.0 
0.5876851165803206 0:6.5 1:-3.7 2:-1.0 3:-2.5 4:0.0 
1.0 0:-2.9 1:-8.4 2:-1.2 3:1.6 4:0.0 
1.0 0:-0.2 1:0.6 2:-0.7 3:0.1 4:0.0 
1.0 0:3.4 1:2.8 2:2.1 3:-1.3 4:0.0 
1.0 0:0.4 1:-2.1 2:0.7 3:0.8 4:0.0 
1.0 0:2.9 1:-1.2 2:0.2 3:-1.4 4:0.0 
1.0 0:2.5 1:-0.8 2:1.1 3:0.4 4:0.0 
1.0 0:10.2 1:-10.6 2:2.2 3:-2.0 4:0.0 
1.0 0:0.0 1:-2.2 2:-0.7 3:0.5 4:0.0 
1.0 0:1.9 1:-1.5 2:0.9 3:-0.7 4:0.0 
1.0 0:-3.6 1:6.2 2:-3.8 3:4.3 4:0.0 
1.0 0:-2.9 1:-2.3 2:4.3 3:2.4 4:0.0 
1.0 0:2.1 1:-1.7 2:-2.8 3:1.6 4:0.0 
1.0 0:0.3 1:-1.5 2:-0.9 3:2.9 4:0.0 
0.8928587478821179 0:6.4 1:-4.5 2:-1.5 3:-2.2 4:0.0 
1.0 0:-1.7 1:6.8 2:-8.5 3:-2.8 4:0.0 
1.0 0:2.5 1:-0.2 2:0.9 3:-3.8 4:0.0 
0.9536958054526476 0:0.1 1:2.7 2:-5.2 3:-0.8 4:0.0 
1.0 0:3.8 1:13.7 2:-5.7 3:6.4 4:0.0 
1.0 0:-1.4 1:0.8 2:-1.1 3:1.1 4:0.0 
1.0 0:-1.1 1:-1.1 2:-1.7 3:0.6 4:0.0 
0.7387518312840193 0:-4.2 1:6.1 2:1.2 3:3.4 4:0.0 
1.0 0:3.9 1:-2.1 2:1.8 3:0.5 4:0.0 
1.0 0:-0.1 1:-2.1 2:-0.2 3:-0.2 4:0.0 
0.07341724307807992 0:3.8 1:-1.0 2:-2.1 3:-0.2 4:0.0 
1.0 0:0.1 1:2.2 2:3.0 3:-0.9 4:0.0 
1.0 0:-0.2 1:-0.2 2:3.4 3:-0.9 4:0.0 
1.0 0:-0.4 1:-3.5 2:1.8 3:-2.6 4:0.0 
0.8118540488284234 0:0.4 1:-2.1 2:4.3 3:-1.6 4:0.0 
1.0 0:-2.3 1:-3.7 2:0.9 3:5.1 4:0.0 
1.0 0:-9.3 1:-10.4 2:-0.6 3:-12.3 4:0.0 
1.0 0:-2.8 1:-0.6 2:-1.3 3:0.2 4:0.0 
1.0 0:-1.3 1:-0.7 2:1.8 3:-0.7 4:0.0 
1.0 0:-3.1 1:-0.3 2:-4.1 3:3.1 4:0.0 
0.055286566854344375 0:-2.2 1:-0.7 2:-2.2 3:0.9 4:0.0 
1.0 0:-0.2 1:-4.4 2:1.0 3:0.3 4:0.0 
1.0 0:1.7 1:-0.2 2:2.3 3:-2.0 4:0.0 
0.760199997015774 0:4.0 1:-0.5 2:-1.2 3:-1.2 4:0.0 
1.0 0:4.0 1:-2.7 2:10.4 3:-2.1 4:0.0 
0.8818816404619987 0:-2.4 1:3.4 2:-1.9 3:6.1 4:0.0 
1.0 0:1.4 1:-0.2 2:-0.2 3:-1.4 4:0.0 
1.0 0:0.0 1:1.1 2:2.0 3:2.0 4:0.0 
1.0 0:-3.6 1:1.9 2:-1.4 3:-0.3 4:0.0 
0.9492936004723129 0:1.3 1:2.9 2:-3.4 3:1.4 4:0.0 
1.0 0:-1.3 1:1.2 2:1.4 3:0.7 4:0.0 
1.0 0:-3.5 1:0.8 2:-0.4 3:2.9 4:0.0 
1.0 0:-5.8 1:-3.8 2:5.2 3:-1.4 4:0.0 
1.0 0:-1.2 1:0.1 2:2.3 3:-2.5 4:0.0 
1.0 0:-1.6 1:-0.1 2:6.9 3:-0.4 4:0.0 
1.0 0:6.4 1:-2.0 2:0.8 3:-3.3 4:0.0 
1.0 0:4.0 1:-2.8 2:-4.6 3:8.6 4:0.0 
0.7095040212431059 0:2.8 1:3.0 2:-1.4 3:-2.3 4:0.0 
0.9602824958641576 0:-2.1 1:-0.7 2:0.0 3:-1.8 4:0.0 
1.0 0:-11.6 1:7.3 2:-5.5 3:-3.1 4:0.0 
0.9999833475153426 0:2.9 1:-5.4 2:0.8 3:9.6 4:0.0 
1.0 0:0.4 1:1.1 2:1.1 3:-1.5 4:0.0 
0.2306573347929504 0:-0.5 1:5.2 2:-0.4 3:-0.1 4:0.0 
0.680340986367871 0:-4.9 1:6.5 2:2.4 3:1.0 4:0.0 
1.0 0:3.2 1:3.3 2:-2.3 3:0.2 4:0.0 
0.6025127765618847 0:-2.5 1:-1.4 2:-1.0 3:-2.3 4:0.0 
1.0 0:1.0 1:-1.2 2:1.5 3:1.1 4:0.0 
1.0 0:0.2 1:9.7 2:-0.6 3:-4.1 4:0.0 
1.0 0:3.1 1:5.7 2:5.0 3:-4.5 4:0.0 
0.7737883747508802 0:1.3 1:4.6 2:-3.0 3:2.0 4:0.0 
1.0 0:5.4 1:2.6 2:1.3 3:-0.7 4:0.0 
0.990844433532578 0:-2.3 1:1.4 2:2.7 3:-2.0 4:0.0 
0.2421467209170054 0:-2.6 1:4.8 2:-0.1 3:-1.8 4:0.0 
1.0 0:-1.5 1:0.7 2:-9.8 3:-0.6 4:0.0 
0.16248177034374464 0:-1.7 1:2.2 2:1.6 3:1.6 4:0.0 
1.0 0:0.2 1:0.2 2:-3.2 3:-2.1 4:0.0 
1.0 0:-1.7 1:0.4 2:-0.1 3:3.4 4:0.0 
1.0 0:1.4 1:-2.3 2:-1.8 3:-1.0 4:0.0 
0.9243131701207957 0:4.6 1:3.7 2:-2.5 3:-0.2 4:0.0 
1.0 0:3.8 1:-1.3 2:-1.6 3:-0.1 4:0.0 
1.0 0:-1.7 1:-0.7 2:0.9 3:0.0 4:0.0 
1.0 0:-1.4 1:3.7 2:1.2 3:-2.4 4:0.0 
1.0 0:-0.7 1:-0.9 2:0.6 3:1.4 4:0.0 
1.0 0:1.5 1:-0.4 2:-0.1 3:-1.5 4:0.0 
1.0 0:-2.7 1:0.7 2:-0.8 3:1.7 4:0.0 
1.0 0:-6.2 1:3.3 2:-3.8 3:5.0 4:0.0 
1.0 0:1.5 1:7.0 2:2.4 3:-0.1 4:0.0 
1.0 0:2.9 1:0.3 2:-1.6 3:0.4 4:0.0 
1.0 0:-2.5 1:-3.1 2:-3.6 3:1.4 4:0.0 
1.0 0:2.9 1:-1.9 2:0.8 3:-2.0 4:0.0 
1.0 0:-0.6 1:4.7 2:4.9 3:2.0 4:0.0 
1.0 0:-0.6 1:1.6 2:-0.7 3:-1.0 4:0.0 
0.511377898028429 0:-1.7 1:3.4 2:-3.6 3:1.9 4:0.0 
1.0 0:-2.8 1:-4.1 2:-5.5 3:3.9 4:0.0 
0.6773602332008841 0:5.0 1:-4.5 2:3.0 3:0.5 4:0.0 
1.0 0:0.6 1:-0.6 2:0.9 3:-2.7 4:0.0 
0.3952059974002187 0:-2.7 1:1.7 2:1.8 3:2.2 4:0.0 
1.0 0:-11.1 1:0.0 2:-5.2 3:-4.4 4:0.0 
1.0 0:0.4 1:-2.0 2:1.3 3:-1.1 4:0.0 
0.5312349630392005 0:0.7 1:-0.6 2:1.0 3:-3.7 4:0.0 
1.0 0:0.9 1:0.4 2:8.9 3:3.2 4:0.0 
1.0 0:-2.3 1:6.0 2:1.3 3:6.7 4:0.0 
0.5225623644295891 0:3.3 1:-1.6 2:-2.7 3:-0.2 4:0.0 
1.0 0:1.1 1:2.8 2:-0.9 3:-0.3 4:0.0 
0.8447821290960459 0:-1.9 1:2.6 2:-2.3 3:-7.0 4:0.0 
1.0 0:-0.3 1:-5.7 2:10.4 3:4.3 4:0.0 
1.0 0:-0.2 1:-0.6 2:0.6 3:1.0 4:0.0 
1.0 0:1.2 1:2.3 2:0.8 3:0.1 4:0.0 
1.0 0:-10.0 1:-12.4 2:7.3 3:-3.9 4:0.0 
0.9876492909416095 0:-1.2 1:-1.6 2:-0.6 3:-2.4 4:0.0 
1.0 0:1.8 1:9.3 2:-3.0 3:-0.1 4:0.0 
1.0 0:0.4 1:0.1 2:1.5 3:-0.2 4:0.0 
0.9748147584841772 0:-2.7 1:-8.1 2:0.3 3:-3.5 4:0.0 
0.7715333811968704 0:1.6 1:0.3 2:-0.1 3:-1.8 4:0.0 
1.0 0:0.3 1:1.7 2:-3.6 3:1.9 4:0.0 
1.0 0:3.2 1:6.1 2:2.6 3:2.6 4:0.0 
1.0 0:3.9 1:-3.8 2:1.1 3:-1.4 4:0.0 
1.0 0:-3.9 1:-6.9 2:-7.3 3:-2.2 4:0.0 
1.0 0:-2.7 1:0.3 2:-1.7 3:1.1 4:0.0 
1.0 0:-3.2 1:-1.0 2:1.4 3:-2.3 4:0.0 
1.0 0:-6.0 1:0.0 2:3.8 3:-2.1 4:0.0 
0.9668381247782742 0:-0.7 1:2.1 2:-0.9 3:-7.2 4:0.0 
1.0 0:-3.5 1:1.3 2:-0.5 3:2.1 4:0.0 
1.0 0:0.4 1:0.4 2:-3.2 3:0.8 4:0.0 
1.0 0:-6.2 1:8.2 2:-6.4 3:-0.6 4:0.0 
0.838422036745935 0:0.5 1:0.1 2:0.0 3:-2.3 4:0.0 
0.9346909454305625 0:4.6 1:-2.7 2:-5.9 3:4.5 4:0.0 
0.8829796209212266 0:5.6 1:-6.6 2:-5.3 3:2.4 4:0.0 
0.8008110216032858 0:5.2 1:-6.1 2:3.9 3:-1.4 4:0.0 
1.0 0:-4.2 1:2.6 2:-0.9 3:0.9 4:0.0 
1.0 0:2.1 1:-1.2 2:0.3 3:1.3 4:0.0 
1.0 0:-6.6 1:-7.3 2:3.4 3:1.7 4:0.0 
1.0 0:4.4 1:-2.7 2:1.5 3:-3.2 4:0.0 
1.0 0:-2.1 1:-0.1 2:4.7 3:3.3 4:0.0 
0.3987726401976256 0:2.7 1:3.1 2:-3.8 3:-0.4 4:0.0 
0.7847261468737716 0:4.7 1:3.2 2:-4.8 3:1.9 4:0.0 
0.8016562677436305 0:0.1 1:-2.3 2:3.7 3:-0.4 4:0.0 
1.0 0:-0.7 1:2.0 2:0.9 3:0.6 4:0.0 
0.7686533473905142 0:-2.3 1:-1.2 2:-3.5 3:1.4 4:0.0 
0.46166716384593737 0:-0.7 1:3.9 2:3.9 3:-2.8 4:0.0 
1.0 0:-1.4 1:1.9 2:8.4 3:8.2 4:0.0 
1.0 0:-3.1 1:3.6 2:-0.2 3:-1.4 4:0.0 
0.27078910820099356 0:3.3 1:1.2 2:-1.3 3:-3.5 4:0.0 
0.7505885857401617 0:-1.8 1:3.2 2:-3.0 3:-2.6 4:0.0 
1.0 0:4.9 1:-3.1 2:0.4 3:2.0 4:0.0 
0.8664860755976472 0:-0.9 1:1.5 2:-1.4 3:2.2 4:0.0 
0.9009027418624815 0:-0.4 1:4.1 2:-0.1 3:-0.8 4:0.0 
1.0 0:-3.3 1:-1.4 2:2.1 3:-5.0 4:0.0 
1.0 0:-0.8 1:-0.2 2:0.7 3:-0.5 4:0.0 
1.0 0:-2.0 1:0.8 2:-2.5 3:5.9 4:0.0 
0.622786596587514 0:4.8 1:-0.7 2:-0.8 3:-3.3 4:0.0 
1.0 0:-8.2 1:3.8 2:1.5 3:0.9 4:0.0 
1.0 0:4.5 1:-3.7 2:0.1 3:0.7 4:0.0 
1.0 0:1.9 1:-3.8 2:-0.4 3:2.9 4:0.0 
1.0 0:-0.8 1:-3.0 2:1.1 3:-3.9 4:0.0 
1.0 0:2.1 1:2.3 2:-0.3 3:-0.8 4:0.0 
1.0 0:0.4 1:0.8 2:-0.9 3:1.8 4:0.0 
1.0 0:1.1 1:2.8 2:0.7 3:1.7 4:10.0 
0.8986641517334272 0:7.5 1:0.9 2:-1.1 3:0.0 4:10.0 
0.023086041369073836 0:-0.6 1:3.2 2:-1.6 3:0.2 4:10.0 
1.0 0:6.7 1:-1.9 2:-0.5 3:-8.9 4:10.0 
0.6321658333244502 0:6.4 1:-2.4 2:-2.6 3:-0.9 4:10.0 
1.0 0:-3.0 1:-1.7 2:-6.0 3:1.8 4:10.0 
1.0 0:1.3 1:-0.6 2:-0.5 3:-1.1 4:10.0 
1.0 0:-3.0 1:-8.8 2:0.0 3:2.6 4:10.0 
0.7749922952287159 0:13.0 1:-8.4 2:-1.2 3:2.1 4:10.0 
1.0 0:3.5 1:-2.4 2:3.3 3:4.2 4:10.0 
1.0 0:-2.4 1:-1.5 2:-2.6 3:-1.3 4:10.0 
1.0 0:1.5 1:2.5 2:0.8 3:2.3 4:10.0 
1.0 0:-4.1 1:3.3 2:2.3 3:-3.8 4:10.0 
1.0 0:2.8 1:-1.9 2:2.6 3:-2.2 4:10.0 
1.0 0:-1.1 1:0.8 2:-0.7 3:0.5 4:10.0 
1.0 0:-0.7 1:0.8 2:-3.2 3:1.8 4:10.0 
1.0 0:-4.6 1:2.0 2:4.4 3:-0.6 4:10.0 
1.0 0:-4.4 1:0.5 2:3.2 3:7.5 4:10.0 
1.0 0:-0.8 1:-3.0 2:2.2 3:-0.5 4:10.0 
1.0 0:0.5 1:14.6 2:-15.8 3:3.7 4:10.0 
1.0 0:3.9 1:0.2 2:-7.8 3:-3.4 4:10.0 
1.0 0:-1.8 1:2.9 2:-2.6 3:-2.8 4:10.0 
1.0 0:-3.3 1:-2.6 2:6.5 3:-3.1 4:10.0 
0.5110511544201948 0:0.9 1:3.7 2:1.1 3:-6.3 4:10.0 
0.7131020760192198 0:1.7 1:-2.3 2:-2.4 3:-1.4 4:10.0 
1.0 0:-1.6 1:-2.7 2:2.3 3:0.9 4:10.0 
1.0 0:13.4 1:-3.1 2:4.1 3:-2.4 4:10.0 
0.19650263030904377 0:3.0 1:-2.9 2:0.1 3:-2.1 4:10.0 
0.13745056612360232 0:-1.5 1:1.3 2:-0.1 3:0.9 4:10.0 
1.0 0:1.0 1:1.2 2:2.0 3:0.7 4:10.0 
0.46643558219712783 0:6.2 1:-5.5 2:0.3 3:2.6 4:10.0 
0.9510332321220977 0:-1.6 1:-1.4 2:2.3 3:-4.4 4:10.0 
0.43953962549396686 0:-1.8 1:-3.2 2:-2.4 3:1.1 4:10.0 
0.8846061856820997 0:1.8 1:1.4 2:-0.2 3:-3.8 4:10.0 
1.0 0:4.0 1:-8.8 2:-0.4 3:0.3 4:10.0 
1.0 0:2.3 1:0.3 2:2.4 3:-1.2 4:10.0 
1.0 0:1.4 1:3.8 2:-0.8 3:1.1 4:10.0 
1.0 0:-1.3 1:-5.0 2:1.3 3:-0.1 4:10.0 
0.4441777137423638 0:-3.9 1:0.8 2:0.1 3:4.9 4:10.0 
1.0 0:-0.9 1:-2.3 2:-0.3 3:-2.2 4:10.0 
1.0 0:-4.9 1:-0.9 2:-0.5 3:2.0 4:10.0 
0.2368211002090737 0:1.9 1:-0.1 2:-1.4 3:-0.8 4:10.0 
1.0 0:-8.1 1:2.3 2:4.8 3:-1.4 4:10.0 
1.0 0:1.1 1:0.4 2:1.5 3:-0.5 4:10.0 
1.0 0:0.2 1:-5.3 2:3.0 3:-1.7 4:10.0 
1.0 0:1.5 1:9.3 2:-1.1 3:3.6 4:10.0 
1.0 0:2.0 1:-0.2 2:-0.2 3:-0.9 4:10.0 
1.0 0:1.6 1:-4.7 2:-1.0 3:3.9 4:10.0 
1.0 0:-8.6 1:-5.8 2:9.6 3:-3.5 4:10.0 
0.7454096687945977 0:2.0 1:3.0 2:-5.1 3:-2.2 4:10.0 
1.0 0:1.6 1:3.4 2:1.6 3:-2.1 4:10.0 
1.0 0:2.0 1:4.0 2:-2.3 3:1.2 4:10.0 
1.0 0:0.4 1:-4.0 2:0.2 3:-2.2 4:10.0 
1.0 0:2.0 1:-1.9 2:0.6 3:-2.0 4:10.0 
1.0 0:-5.0 1:0.3 2:1.8 3:1.2 4:10.0 
0.43452246265449723 0:-1.1 1:-3.9 2:3.3 3:-1.6 4:10.0 
1.0 0:6.2 1:4.6 2:-8.2 3:7.7 4:10.0 
1.0 0:0.7 1:-5.0 2:-3.3 3:-2.1 4:10.0 
1.0 0:1.6 1:-1.2 2:1.1 3:0.1 4:10.0 
0.6386205925807859 0:-5.6 1:3.4 2:-3.5 3:-0.8 4:10.0 
1.0 0:-3.6 1:2.4 2:7.0 3:-5.5 4:10.0 
0.8193120062079783 0:-1.2 1:1.5 2:1.6 3:2.8 4:10.0 
1.0 0:-1.1 1:-1.0 2:1.6 3:0.3 4:10.0 
1.0 0:-0.8 1:-2.5 2:2.3 3:-1.8 4:10.0 
1.0 0:5.6 1:0.5 2:-0.2 3:1.0 4:10.0 
0.19946893996240206 0:-2.7 1:0.9 2:0.0 3:5.1 4:10.0 
0.6949702062414449 0:-0.8 1:1.6 2:-1.2 3:3.2 4:10.0 
1.0 0:-0.3 1:-9.8 2:6.5 3:-2.1 4:10.0 
0.18914172102257631 0:1.5 1:-3.8 2:-2.9 3:0.2 4:10.0 
1.0 0:-10.5 1:-6.2 2:-4.6 3:6.3 4:10.0 
1.0 0:1.0 1:-0.6 2:-0.6 3:0.2 4:10.0 
1.0 0:-1.9 1:-2.2 2:-0.8 3:3.6 4:10.0 
1.0 0:-1.5 1:1.6 2:0.7 3:0.4 4:10.0 
1.0 0:-1.2 1:4.1 2:-4.5 3:11.2 4:10.0 
0.9341704177348708 0:-0.2 1:1.1 2:1.1 3:1.9 4:10.0 
0.7656059497054165 0:-7.0 1:5.6 2:-3.0 3:-1.9 4:10.0 
1.0 0:2.0 1:6.1 2:-8.8 3:-2.4 4:10.0 
0.8662928532881304 0:0.7 1:0.8 2:-0.2 3:4.5 4:10.0 
0.21784114559415427 0:-0.6 1:3.4 2:0.5 3:2.1 4:10.0 
0.4681078207161895 0:-2.4 1:4.6 2:2.7 3:-0.3 4:10.0 
0.7939456438737713 0:-2.1 1:-1.9 2:-1.6 3:6.2 4:10.0 
0.941706009401981 0:4.0 1:-2.2 2:-0.1 3:1.7 4:10.0 
1.0 0:2.4 1:2.3 2:-4.0 3:1.9 4:10.0 
1.0 0:13.4 1:0.1 2:-0.7 3:-0.4 4:10.0 
0.7698481199098821 0:1.0 1:-10.1 2:7.0 3:-2.3 4:10.0 
1.0 0:2.4 1:1.1 2:-1.2 3:2.1 4:10.0 
1.0 0:7.2 1:7.2 2:0.4 3:-3.5 4:10.0 
0.8434591010621557 0:4.4 1:-6.6 2:1.9 3:2.0 4:10.0 
1.0 0:3.7 1:4.0 2:-2.8 3:4.5 4:10.0 
0.5641568144147087 0:-4.7 1:3.8 2:-2.7 3:2.1 4:10.0 
1.0 0:5.2 1:-0.3 2:0.5 3:5.9 4:10.0 
1.0 0:-0.2 1:-0.3 2:-0.8 3:0.4 4:10.0 
1.0 0:-3.0 1:-5.1 2:10.1 3:-0.6 4:10.0 
0.32309633240137986 0:-0.9 1:-3.9 2:-1.6 3:-0.4 4:10.0 
0.7333271247388461 0:2.0 1:-6.7 2:-2.6 3:1.4 4:10.0 
1.0 0:-2.0 1:-2.2 2:-0.1 3:1.5 4:10.0 
0.40575869170600665 0:6.5 1:-2.4 2:-1.8 3:-3.1 4:10.0 
0.5638323379333732 0:1.5 1:-3.9 2:4.2 3:-0.2 4:10.0 
1.0 0:0.7 1:-0.8 2:2.8 3:0.1 4:10.0 
0.06959602140109471 0:-0.9 1:1.3 2:0.7 3:3.5 4:10.0 
1.0 0:4.7 1:-1.9 2:-0.2 3:-1.9 4:10.0 
1.0 0:11.6 1:-6.6 2:6.1 3:-3.3 4:10.0 
1.0 0:0.5 1:-1.8 2:-0.5 3:-0.5 4:10.0 
1.0 0:0.0 1:3.3 2:-0.9 3:2.6 4:10.0 
1.0 0:5.0 1:7.5 2:3.2 3:-3.5 4:10.0 
0.6192392369810097 0:-1.5 1:1.0 2:-0.5 3:5.6 4:10.0 
0.5517288448840453 0:-1.1 1:2.2 2:-1.9 3:0.0 4:10.0 
0.9824007621995301 0:1.3 1:1.3 2:-1.5 3:-3.5 4:10.0 
1.0 0:0.6 1:3.1 2:-4.1 3:-1.7 4:10.0 
0.7825677895107016 0:6.5 1:-5.0 2:-2.6 3:2.6 4:10.0 
1.0 0:1.1 1:1.6 2:-0.9 3:-0.9 4:10.0 
0.8687931811954328 0:3.8 1:-0.6 2:4.9 3:-4.4 4:10.0 
1.0 0:2.4 1:2.0 2:1.3 3:0.7 4:10.0 
1.0 0:-2.2 1:4.0 2:-8.3 3:-3.7 4:10.0 
1.0 0:3.1 1:0.0 2:-0.1 3:-2.4 4:10.0 
1.0 0:1.5 1:-4.0 2:0.7 3:2.5 4:10.0 
0.20478292823682964 0:3.4 1:0.0 2:-2.1 3:-2.5 4:10.0 
1.0 0:-2.1 1:-5.5 2:4.4 3:3.4 4:10.0 
0.7531519756252736 0:-0.7 1:2.6 2:5.3 3:-5.3 4:10.0 
1.0 0:-6.9 1:-1.2 2:0.0 3:-0.9 4:10.0 
1.0 0:-7.2 1:8.8 2:-4.8 3:2.9 4:10.0 
0.3335998795227766 0:-4.1 1:2.2 2:-0.7 3:-2.1 4:10.0 
1.0 0:-2.7 1:3.7 2:0.9 3:-2.1 4:10.0 
1.0 0:-0.2 1:-0.2 2:0.3 3:-1.5 4:10.0 
1.0 0:-1.4 1:-0.1 2:1.9 3:-1.3 4:10.0 
0.575390623387523 0:-1.7 1:1.0 2:4.5 3:4.5 4:10.0 
1.0 0:-0.8 1:-2.6 2:1.1 3:-2.2 4:10.0 
1.0 0:-0.7 1:-0.1 2:-6.2 3:0.4 4:10.0 
1.0 0:3.6 1:0.4 2:0.1 3:1.3 4:10.0 
1.0 0:-3.3 1:-0.8 2:-0.2 3:-5.1 4:10.0 
1.0 0:-2.0 1:6.6 2:-2.3 3:-0.2 4:10.0 
1.0 0:-4.1 1:3.4 2:-3.5 3:2.8 4:10.0 
1.0 0:0.7 1:0.1 2:-1.4 3:-0.3 4:10.0 
1.0 0:-1.2 1:3.0 2:-3.3 3:1.9 4:10.0 
0.9603379889437651 0:-9.2 1:-0.6 2:2.5 3:-3.6 4:10.0 
1.0 0:3.4 1:3.7 2:0.1 3:12.3 4:10.0 
1.0 0:-4.9 1:9.1 2:1.2 3:7.7 4:10.0 
1.0 0:-3.5 1:-0.6 2:0.1 3:3.2 4:10.0 
1.0 0:-3.1 1:0.9 2:1.5 3:1.2 4:10.0 
0.5806055387973328 0:-3.1 1:3.3 2:-1.9 3:-1.1 4:10.0 
0.587263325879488 0:-0.1 1:1.0 2:1.4 3:-7.6 4:10.0 
1.0 0:-2.7 1:0.6 2:0.0 3:-9.7 4:10.0 
1.0 0:9.3 1:-4.7 2:0.3 3:-5.6 4:10.0 
0.9468341750393999 0:-7.3 1:-1.6 2:2.5 3:-4.7 4:10.0 
1.0 0:0.6 1:0.2 2:0.2 3:0.3 4:10.0 
1.0 0:5.0 1:1.5 2:-3.5 3:2.2 4:10.0 
1.0 0:2.1 1:-4.9 2:-10.4 3:-1.7 4:10.0 
1.0 0:0.6 1:1.0 2:-0.2 3:2.3 4:10.0 
0.3308193731358418 0:-6.0 1:3.2 2:-2.2 3:3.3 4:10.0 
1.0 0:4.8 1:0.8 2:1.3 3:-1.4 4:10.0 
1.0 0:-9.3 1:0.0 2:0.5 3:2.1 4:10.0 
1.0 0:1.4 1:-1.5 2:2.8 3:-4.0 4:10.0 
0.3964646130011942 0:1.0 1:2.0 2:-1.4 3:-0.5 4:10.0 
0.971933339085136 0:5.3 1:7.6 2:-1.0 3:8.3 4:10.0 
0.23284300064984653 0:1.4 1:-0.3 2:0.0 3:0.6 4:10.0 
1.0 0:0.7 1:-1.0 2:0.2 3:0.0 4:10.0 
0.19855489914651858 0:4.0 1:-2.6 2:-2.1 3:-1.8 4:10.0 
1.0 0:-2.6 1:-1.9 2:-1.7 3:-2.0 4:10.0 
1.0 0:4.2 1:1.6 2:-3.0 3:-1.6 4:10.0 
1.0 0:-1.0 1:1.1 2:-1.7 3:0.1 4:10.0 
1.0 0:2.0 1:-0.3 2:-0.9 3:-1.8 4:10.0 
1.0 0:7.0 1:-0.4 2:-0.7 3:2.3 4:10.0 
1.0 0:-0.1 1:0.3 2:1.7 3:1.4 4:10.0 
1.0 0:-2.1 1:7.2 2:2.1 3:2.2 4:10.0 
1.0 0:4.5 1:0.4 2:-5.6 3:3.2 4:10.0 
1.0 0:-0.9 1:0.6 2:8.0 3:4.0 4:10.0 
1.0 0:-1.2 1:0.3 2:-0.6 3:2.1 4:10.0 
0.8013578991382843 0:-1.9 1:8.0 2:-2.7 3:-1.2 4:10.0 
1.0 0:0.9 1:4.9 2:-1.7 3:5.7 4:10.0 
0.9668770438039734 0:1.2 1:1.6 2:4.3 3:2.0 4:10.0 
0.6832021736670605 0:4.5 1:-1.3 2:-1.7 3:0.6 4:10.0 
1.0 0:3.1 1:-0.9 2:0.2 3:-3.1 4:10.0 
1.0 0:-2.9 1:1.1 2:-12.0 3:0.1 4:10.0 
1.0 0:4.5 1:2.6 2:-1.2 3:-4.6 4:10.0 
1.0 0:1.6 1:-1.4 2:-1.1 3:4.1 4:10.0 
1.0 0:15.7 1:-12.1 2:6.5 3:-0.3 4:10.0 
0.8434229939906689 0:-0.1 1:-1.3 2:1.8 3:-9.0 4:10.0 
1.0 0:-1.1 1:0.5 2:-1.3 3:2.1 4:10.0 
1.0 0:-2.1 1:-0.6 2:-1.8 3:0.5 4:10.0 
0.5619260203610773 0:6.1 1:-5.4 2:-1.0 3:4.1 4:10.0 
1.0 0:1.0 1:-1.0 2:0.0 3:-0.5 4:10.0 
1.0 0:-1.6 1:2.5 2:1.4 3:-0.8 4:10.0 
1.0 0:4.5 1:-1.8 2:0.1 3:-5.2 4:10.0 
0.9470892689508265 0:-3.4 1:-3.2 2:-1.2 3:7.8 4:10.0 
0.5958520176256816 0:2.5 1:-1.5 2:-1.2 3:-3.4 4:10.0 
1.0 0:-4.8 1:9.0 2:-7.0 3:3.2 4:10.0 
0.9520601914327261 0:3.6 1:-2.0 2:-0.5 3:1.6 4:10.0 
1.0 0:0.4 1:-0.3 2:0.8 3:1.0 4:10.0 
0.6971180211137705 0:-2.1 1:4.6 2:-0.7 3:2.1 4:10.0 
1.0 0:-4.0 1:4.4 2:-7.1 3:-0.5 4:10.0 
0.7422196331897916 0:2.8 1:-0.2 2:3.4 3:-2.1 4:10.0 
0.5373518804642167 0:-0.8 1:-2.6 2:-1.3 3:3.2 4:10.0 
0.7057884032754702 0:2.5 1:0.6 2:-1.0 3:5.9 4:10.0 
1.0 0:2.5 1:2.4 2:2.6 3:-5.2 4:10.0 
0.8988895371308365 0:-2.8 1:0.1 2:-2.2 3:5.4 4:10.0 
1.0 0:-4.9 1:2.5 2:1.2 3:-2.5 4:10.0 
0.95520735643672 0:-2.5 1:2.4 2:-6.0 3:2.1 4:10.0 
1.0 0:-1.9 1:3.5 2:-1.0 3:-0.1 4:10.0 
1.0 0:4.7 1:0.9 2:-1.2 3:1.7 4:10.0 
1.0 0:-4.3 1:-6.5 2:3.7 3:-1.4 4:10.0 
1.0 0:-0.7 1:0.2 2:-0.1 3:-3.7 4:10.0 
0.9780875522371821 0:1.8 1:3.7 2:-4.0 3:1.1 4:10.0 
1.0 0:1.5 1:-6.2 2:-0.2 3:-0.7 4:10.0 
0.9003610646941127 0:0.9 1:0.3 2:0.1 3:-5.5 4:10.0 
1.0 0:4.5 1:-0.6 2:2.4 3:0.0 4:10.0 
1.0 0:1.6 1:1.7 2:-0.6 3:4.7 4:10.0 
0.8711437139377282 0:5.6 1:2.1 2:-4.5 3:4.3 4:10.0 
0.9702341993581454 0:-2.7 1:1.1 2:0.0 3:-0.6 4:10.0 
1.0 0:11.4 1:2.5 2:-4.2 3:-0.2 4:10.0 
1.0 0:4.2 1:-2.3 2:2.3 3:0.5 4:10.0 
1.0 0:-0.7 1:-1.3 2:0.8 3:-0.6 4:10.0 
1.0 0:6.3 1:-3.2 2:3.7 3:-6.0 4:10.0 
1.0 0:-7.9 1:-1.6 2:3.6 3:-6.6 4:10.0 
1.0 0:3.2 1:2.1 2:-0.2 3:-0.4 4:10.0 
0.9820681787487553 0:1.7 1:0.0 2:1.2 3:1.3 4:10.0 
1.0 0:2.2 1:0.9 2:-0.6 3:2.6 4:10.0 
1.0 0:-0.6 1:-2.9 2:2.1 3:-3.4 4:10.0 
1.0 0:-9.7 1:-10.2 2:7.6 3:-11.1 4:10.0 
0.7675717305438461 0:-0.6 1:3.8 2:1.8 3:0.4 4:10.0 
0.5292371838650185 0:3.4 1:-7.0 2:1.5 3:2.5 4:10.0 
1.0 0:0.4 1:-1.2 2:0.4 3:-0.3 4:10.0 
1.0 0:0.6 1:1.0 2:2.9 3:-0.4 4:10.0 
0.8287209769546254 0:-2.2 1:0.4 2:3.8 3:6.0 4:10.0 
1.0 0:-0.4 1:-2.1 2:-4.0 3:2.6 4:10.0 
1.0 0:-3.4 1:-2.7 2:-0.2 3:1.0 4:10.0 
1.0 0:-0.5 1:5.6 2:-1.5 3:1.5 4:10.0 
0.9925159435651226 0:-3.7 1:4.7 2:-2.7 3:2.8 4:10.0 
1.0 0:-3.2 1:-4.4 2:0.6 3:0.9 4:10.0 
1.0 0:-2.4 1:-0.5 2:0.8 3:-1.3 4:10.0 
1.0 0:-7.8 1:3.0 2:2.4 3:-0.2 4:10.0 
1.0 0:1.7 1:0.5 2:-0.5 3:0.5 4:10.0 
1.0 0:1.1 1:1.8 2:-3.3 3:1.4 4:10.0 
1.0 0:0.5 1:-1.9 2:-1.2 3:-3.7 4:10.0 
1.0 0:10.7 1:-7.3 2:-4.7 3:-15.0 4:10.0 
0.5760301248097239 0:-1.4 1:4.0 2:1.0 3:0.4 4:10.0 
1.0 0:2.8 1:1.1 2:2.2 3:-1.0 4:10.0 
1.0 0:-2.4 1:1.0 2:-2.6 3:2.0 4:10.0 
0.7263037814209617 0:-0.7 1:-4.7 2:0.5 3:-0.3 4:10.0 
1.0 0:-4.7 1:3.2 2:-0.5 3:0.6 4:10.0 
0.31789486150814483 0:-1.5 1:4.6 2:-2.4 3:1.4 4:10.0 
0.7684007231366672 0:2.4 1:-3.4 2:-3.3 3:1.3 4:10.0 
0.6663497228696577 0:-4.7 1:0.0 2:0.6 3:4.8 4:10.0 
1.0 0:-1.4 1:2.3 2:-1.1 3:-1.8 4:10.0 
0.6960756393300175 0:0.0 1:3.8 2:4.9 3:-3.5 4:10.0 
1.0 0:-6.0 1:5.8 2:-8.7 3:3.3 4:10.0 
1.0 0:-3.2 1:-3.2 2:0.2 3:-1.2 4:10.0 
0.9891566126497624 0:-4.6 1:-2.7 2:-2.9 3:1.4 4:10.0 
1.0 0:10.3 1:-4.8 2:2.1 3:-2.7 4:10.0 
0.9426074033569671 0:1.2 1:5.9 2:0.3 3:0.8 4:10.0 
1.0 0:-3.2 1:0.6 2:0.4 3:1.2 4:10.0 
1.0 0:3.7 1:-5.9 2:-3.7 3:6.8 4:10.0 
0.8246613025102207 0:1.5 1:2.0 2:-6.2 3:-1.8 4:10.0 
1.0 0:0.2 1:-1.0 2:-2.4 3:1.1 4:10.0 
1.0 0:-6.3 1:3.6 2:-0.7 3:2.7 4:10.0 
0.9725957912490077 0:-7.2 1:1.1 2:4.3 3:1.0 4:10.0 
1.0 0:-0.6 1:-9.9 2:4.9 3:2.5 4:10.0 
1.0 0:-0.3 1:1.1 2:-0.6 3:-1.4 4:10.0 
1.0 0:-2.1 1:-0.4 2:1.6 3:0.9 4:10.0 
1.0 0:-8.7 1:8.6 2:-6.8 3:-4.0 4:10.0 
1.0 0:7.9 1:-5.2 2:2.0 3:-4.7 4:10.0 
1.0 0:-2.1 1:-0.6 2:-1.1 3:-2.7 4:10.0 
0.4333681687962534 0:-1.2 1:-2.1 2:2.1 3:0.0 4:10.0 
1.0 0:-2.0 1:2.1 2:-5.4 3:0.2 4:10.0 
0.9528841283259748 0:3.4 1:-6.4 2:4.7 3:-2.1 4:10.0 
1.0 0:2.8 1:-1.0 2:1.2 3:-11.5 4:10.0 
1.0 0:7.0 1:-0.8 2:4.1 3:-0.8 4:10.0 
1.0 0:-3.1 1:1.2 2:1.9 3:-5.3 4:10.0 
1.0 0:0.3 1:-1.4 2:-0.5 3:-0.8 4:10.0 
1.0 0:2.6 1:-9.1 2:3.9 3:-0.1 4:10.0 
1.0 0:-3.6 1:1.5 2:-4.1 3:-2.0 4:10.0 
1.0 0:-3.9 1:3.4 2:10.8 3:5.1 4:10.0 
1.0 0:-1.5 1:3.2 2:1.5 3:0.9 4:10.0 
1.0 0:-6.6 1:-0.2 2:1.8 3:0.2 4:10.0 
1.0 0:2.2 1:-2.6 2:1.4 3:-0.6 4:10.0 
1.0 0:-1.7 1:-2.4 2:0.5 3:0.6 4:10.0 
1.0 0:1.0 1:-1.3 2:-1.2 3:-1.6 4:10.0 
1.0 0:4.8 1:-4.0 2:1.2 3:-2.2 4:10.0 
0.054372430479458486 0:-1.3 1:1.3 2:-1.5 3:2.1 4:10.0 
1.0 0:3.7 1:4.9 2:-0.1 3:0.3 4:10.0 
1.0 0:-0.2 1:7.3 2:0.6 3:8.1 4:10.0 
0.7999215935473867 0:-3.3 1:5.6 2:0.2 3:-3.6 4:10.0 
0.9096682618215566 0:-4.6 1:3.9 2:-0.4 3:3.9 4:10.0 
0.0512950430009821 0:1.7 1:-1.3 2:-1.8 3:-1.7 4:10.0 
0.39235943820358976 0:5.9 1:1.0 2:-2.6 3:-1.1 4:10.0 
1.0 0:-1.4 1:-5.6 2:-1.4 3:-3.7 4:10.0 
0.1490137035625196 0:-2.5 1:2.7 2:-5.9 3:1.1 4:10.0 
1.0 0:1.9 1:0.3 2:0.8 3:-0.5 4:10.0 
1.0 0:0.3 1:-0.5 2:-2.8 3:0.8 4:10.0 
1.0 0:-7.1 1:-4.8 2:-3.2 3:4.8 4:10.0 
1.0 0:-2.9 1:-10.0 2:-5.1 3:-10.7 4:10.0 
0.371671637360264 0:0.9 1:2.4 2:-1.0 3:0.7 4:10.0 
0.08706541306929397 0:0.2 1:-2.3 2:-1.0 3:1.4 4:10.0 
1.0 0:-3.2 1:2.8 2:-1.3 3:2.9 4:10.0 
1.0 0:-1.2 1:-5.0 2:-1.3 3:0.6 4:10.0 
0.7653638227515256 0:4.7 1:0.3 2:4.5 3:-3.1 4:10.0 
0.9993787334015007 0:0.5 1:-0.6 2:-4.1 3:-0.9 4:10.0 
1.0 0:9.1 1:-3.7 2:-1.3 3:3.7 4:10.0 
1.0 0:-7.1 1:-1.6 2:-0.6 3:3.7 4:10.0 
1.0 0:-1.1 1:1.1 2:-1.0 3:-0.2 4:10.0 
1.0 0:1.1 1:-0.8 2:-1.6 3:1.5 4:10.0 
1.0 0:4.8 1:5.1 2:-3.2 3:2.0 4:10.0 
1.0 0:9.0 1:-0.6 2:-5.6 3:1.8 4:10.0 
0.9520762513845856 0:-8.6 1:3.0 2:-1.9 3:4.2 4:10.0 
1.0 0:0.9 1:2.0 2:-1.4 3:-1.0 4:10.0 
1.0 0:2.8 1:3.1 2:2.6 3:-2.3 4:10.0 
0.8476724140089534 0:-0.7 1:-1.9 2:2.8 3:-2.4 4:10.0 
1.0 0:2.2 1:-4.8 2:5.5 3:-4.1 4:10.0 
0.9447051669130391 0:1.9 1:-0.7 2:-0.7 3:1.1 4:10.0 
0.07359950722344945 0:0.5 1:2.7 2:-0.6 3:1.5 4:10.0 
1.0 0:-2.2 1:-3.1 2:0.8 3:-2.2 4:10.0 
0.26219088155458836 0:-2.6 1:-0.4 2:-1.1 3:2.6 4:10.0 
0.281161390244673 0:-0.6 1:-3.5 2:-0.7 3:2.9 4:10.0 
0.100753554761646 0:0.7 1:-2.3 2:-0.3 3:-0.5 4:10.0 
1.0 0:-1.6 1:-0.6 2:4.8 3:1.9 4:10.0 
1.0 0:0.0 1:0.8 2:-0.6 3:2.6 4:10.0 
0.30388527928481684 0:-6.8 1:5.1 2:-2.4 3:-1.4 4:10.0 
0.441498745197613 0:4.8 1:-0.7 2:-2.0 3:-0.4 4:10.0 
0.7557647979518208 0:7.5 1:2.2 2:-2.1 3:-1.8 4:10.0 
1.0 0:-3.7 1:1.5 2:-2.9 3:-0.8 4:10.0 
1.0 0:0.3 1:-2.5 2:0.7 3:-0.8 4:10.0 
0.20885576158273791 0:-2.6 1:3.8 2:-0.9 3:2.2 4:10.0 
1.0 0:-4.6 1:-4.0 2:-1.0 3:2.0 4:10.0 
0.029337526650007613 0:4.8 1:-3.7 2:1.1 3:-1.9 4:10.0 
1.0 0:1.1 1:-2.1 2:0.8 3:0.9 4:10.0 
1.0 0:-12.9 1:-4.3 2:5.5 3:9.1 4:10.0 
1.0 0:3.6 1:0.5 2:2.1 3:0.3 4:10.0 
0.6563418700817073 0:-2.1 1:5.1 2:3.4 3:-1.5 4:10.0 
0.7132748327556041 0:0.3 1:-0.4 2:3.0 3:-7.0 4:10.0 
0.7763155214078615 0:12.2 1:-7.1 2:-2.1 3:1.5 4:10.0 
1.0 0:-2.4 1:-1.7 2:2.9 3:3.4 4:10.0 
1.0 0:0.8 1:1.9 2:0.5 3:0.3 4:10.0 
1.0 0:-1.2 1:-3.6 2:-1.8 3:-1.2 4:10.0 
0.5642490577416258 0:4.9 1:-4.4 2:1.8 3:3.8 4:10.0 
0.6686343976618494 0:0.7 1:0.8 2:2.3 3:0.4 4:10.0 
1.0 0:-2.5 1:2.3 2:2.0 3:2.3 4:10.0 
1.0 0:0.8 1:2.6 2:2.3 3:6.6 4:10.0 
1.0 0:-1.5 1:0.3 2:-9.0 3:4.5 4:10.0 
1.0 0:0.5 1:1.8 2:0.0 3:2.3 4:10.0 
0.8297376262195815 0:2.4 1:-0.9 2:-1.6 3:-0.3 4:10.0 
1.0 0:0.5 1:3.2 2:1.6 3:-4.6 4:10.0 
1.0 0:0.9 1:0.5 2:4.0 3:-3.9 4:10.0 
1.0 0:-3.6 1:1.0 2:-1.4 3:0.5 4:10.0 
1.0 0:2.0 1:2.3 2:4.1 3:-1.9 4:10.0 
0.7789353644306894 0:4.4 1:-5.7 2:-2.6 3:1.4 4:10.0 
1.0 0:-3.3 1:0.1 2:3.4 3:0.0 4:10.0 
1.0 0:-2.0 1:4.9 2:-3.6 3:2.3 4:10.0 
0.6045640422413219 0:-1.2 1:-3.3 2:-4.1 3:-0.4 4:10.0 
0.6503194435458164 0:-3.8 1:2.3 2:-0.4 3:-1.9 4:10.0 
1.0 0:1.8 1:-4.5 2:-1.4 3:-5.7 4:10.0 
1.0 0:2.7 1:-2.1 2:-0.4 3:1.1 4:10.0 
0.23966492483360408 0:0.9 1:-2.0 2:-4.5 3:0.3 4:10.0 
1.0 0:-7.1 1:3.0 2:-8.4 3:7.2 4:10.0 
1.0 0:0.4 1:-1.1 2:-0.2 3:-2.9 4:10.0 
0.30280934660975656 0:1.6 1:-1.5 2:-2.3 3:1.4 4:10.0 
0.8207043489407168 0:-1.9 1:6.5 2:1.1 3:-1.9 4:10.0 
1.0 0:7.2 1:-2.8 2:-0.6 3:-1.0 4:10.0 
1.0 0:2.9 1:-0.2 2:0.0 3:-1.4 4:10.0 
1.0 0:-8.4 1:0.4 2:-1.2 3:0.8 4:10.0 
0.9534985079276138 0:-3.4 1:-1.3 2:-2.2 3:1.9 4:10.0 
1.0 0:6.1 1:0.5 2:0.2 3:-3.7 4:10.0 
1.0 0:-3.3 1:1.4 2:-1.4 3:3.5 4:10.0 
0.3832605232123537 0:-1.2 1:-2.1 2:-2.1 3:0.7 4:10.0 
0.909961533216545 0:2.5 1:-2.4 2:6.3 3:-2.2 4:10.0 
1.0 0:-1.1 1:-0.3 2:-2.4 3:-0.8 4:10.0 
1.0 0:-0.6 1:0.2 2:-0.7 3:-0.8 4:10.0 
1.0 0:-3.5 1:0.8 2:-2.3 3:1.1 4:10.0 
1.0 0:5.2 1:-0.5 2:-4.9 3:6.0 4:10.0 
1.0 0:6.5 1:-7.9 2:2.7 3:0.2 4:10.0 
1.0 0:-4.0 1:-1.3 2:1.6 3:-1.0 4:10.0 
1.0 0:-4.1 1:5.4 2:1.4 3:0.6 4:10.0 
1.0 0:-6.6 1:-5.2 2:-9.4 3:-1.9 4:10.0 
0.16749245410096733 0:1.6 1:-3.7 2:-1.2 3:-0.6 4:10.0 
1.0 0:-0.8 1:-0.3 2:-0.2 3:-0.7 4:10.0 
1.0 0:3.6 1:1.7 2:-3.2 3:5.6 4:10.0 
1.0 0:-8.5 1:5.7 2:1.5 3:7.9 4:10.0 
1.0 0:-0.3 1:-1.8 2:-0.9 3:0.6 4:10.0 
1.0 0:2.1 1:2.1 2:-1.4 3:0.8 4:10.0 
1.0 0:2.1 1:0.9 2:-4.5 3:-6.9 4:10.0 
0.9613657315291165 0:3.4 1:-2.7 2:7.8 3:0.0 4:10.0 
1.0 0:-1.9 1:-1.4 2:-1.0 3:1.7 4:10.0 
1.0 0:2.5 1:-1.9 2:0.1 3:-0.2 4:10.0 
1.0 0:5.7 1:-10.9 2:8.1 3:0.1 4:10.0 
1.0 0:3.2 1:-1.0 2:-5.7 3:0.4 4:10.0 
0.6937702193941664 0:1.6 1:2.6 2:4.0 3:-2.2 4:10.0 
1.0 0:7.1 1:-1.9 2:-2.0 3:-4.2 4:10.0 
1.0 0:0.2 1:-0.2 2:0.3 3:-0.2 4:10.0 
1.0 0:-0.2 1:0.1 2:-0.6 3:4.7 4:10.0 
1.0 0:4.7 1:7.8 2:0.3 3:5.9 4:10.0 
0.8528155331470675 0:2.9 1:-2.7 2:3.5 3:2.3 4:10.0 
0.9475096640107799 0:1.7 1:-8.8 2:-3.3 3:0.5 4:10.0 
1.0 0:3.9 1:0.2 2:0.8 3:-2.7 4:10.0 
1.0 0:-1.8 1:3.8 2:0.5 3:-5.7 4:10.0 
1.0 0:-1.1 1:2.9 2:-1.6 3:4.2 4:10.0 
1.0 0:1.7 1:3.7 2:-3.3 3:2.3 4:10.0 
0.7149120809907684 0:-1.9 1:0.9 2:-6.6 3:0.0 4:10.0 
1.0 0:0.7 1:0.0 2:1.8 3:-0.2 4:10.0 
0.5242614349986997 0:2.8 1:-0.6 2:5.0 3:0.0 4:10.0 
1.0 0:2.1 1:-7.6 2:-0.2 3:1.5 4:10.0 
1.0 0:-1.9 1:-4.4 2:1.4 3:-4.2 4:10.0 
1.0 0:1.1 1:2.7 2:-1.7 3:-0.6 4:10.0 
1.0 0:5.0 1:-3.4 2:2.0 3:3.2 4:10.0 
1.0 0:-5.7 1:-7.5 2:2.7 3:1.7 4:10.0 
0.150575930846909 0:2.5 1:0.6 2:3.7 3:1.5 4:10.0 
1.0 0:2.5 1:-4.4 2:-0.1 3:-1.4 4:10.0 
1.0 0:5.6 1:2.5 2:4.8 3:-7.2 4:10.0 
0.8295533999704297 0:1.7 1:-4.2 2:4.2 3:0.0 4:10.0 
1.0 0:-0.9 1:-0.3 2:-0.9 3:2.4 4:10.0 
1.0 0:-1.3 1:5.5 2:0.0 3:4.2 4:20.0 
1.0 0:3.3 1:6.7 2:2.0 3:4.4 4:20.0 
1.0 0:2.2 1:1.0 2:2.1 3:-0.7 4:20.0 
0.7947838519748577 0:7.3 1:-8.7 2:8.7 3:-2.7 4:20.0 
0.08610474790001307 0:2.1 1:1.4 2:-1.2 3:-2.1 4:20.0 
1.0 0:1.3 1:0.7 2:0.2 3:0.5 4:20.0 
1.0 0:-5.1 1:1.8 2:-0.4 3:3.3 4:20.0 
1.0 0:2.4 1:-0.4 2:-2.8 3:-2.0 4:20.0 
0.09553321682557256 0:1.9 1:-5.7 2:2.0 3:0.8 4:20.0 
1.0 0:-0.7 1:0.0 2:-1.8 3:-0.8 4:20.0 
0.28387260510905316 0:-2.4 1:3.0 2:2.9 3:-1.0 4:20.0 
1.0 0:0.4 1:-7.9 2:4.4 3:5.5 4:20.0 
1.0 0:-2.1 1:2.1 2:-0.3 3:2.5 4:20.0 
1.0 0:-7.8 1:5.1 2:-0.7 3:-1.8 4:20.0 
1.0 0:17.6 1:-9.9 2:-2.1 3:3.1 4:20.0 
0.8567830859575492 0:-4.6 1:-1.0 2:-0.7 3:7.4 4:20.0 
0.5856945001989062 0:1.3 1:0.8 2:1.5 3:-0.8 4:20.0 
0.7013815106398966 0:-6.3 1:1.5 2:0.1 3:-0.6 4:20.0 
1.0 0:-0.4 1:-2.9 2:-3.2 3:-1.2 4:20.0 
1.0 0:-2.9 1:-13.5 2:2.1 3:-8.9 4:20.0 
1.0 0:-2.9 1:-0.2 2:1.8 3:0.5 4:20.0 
1.0 0:-3.9 1:1.3 2:5.2 3:1.5 4:20.0 
1.0 0:-4.9 1:6.2 2:-6.7 3:17.8 4:20.0 
0.9976714932073918 0:-0.6 1:-4.8 2:4.9 3:3.8 4:20.0 
1.0 0:-1.8 1:-1.5 2:0.6 3:0.8 4:20.0 
1.0 0:1.3 1:2.1 2:-2.3 3:-4.2 4:20.0 
1.0 0:3.2 1:4.0 2:-1.6 3:2.8 4:20.0 
0.9795087473577778 0:9.5 1:-1.1 2:-4.4 3:-3.6 4:20.0 
0.4246281776993151 0:0.7 1:4.2 2:-0.3 3:-0.4 4:20.0 
1.0 0:3.0 1:0.8 2:0.4 3:0.6 4:20.0 
0.9601579366355169 0:-2.6 1:1.9 2:0.5 3:-5.2 4:20.0 
1.0 0:-2.1 1:1.3 2:0.0 3:-1.9 4:20.0 
1.0 0:-3.9 1:3.2 2:-2.4 3:2.7 4:20.0 
0.2615647594266367 0:0.9 1:6.4 2:-2.9 3:-1.6 4:20.0 
0.7263303023806099 0:2.0 1:-2.3 2:2.3 3:7.8 4:20.0 
1.0 0:2.8 1:1.1 2:-2.8 3:1.5 4:20.0 
0.41586576849087314 0:-2.1 1:0.3 2:1.9 3:1.7 4:20.0 
0.9131038195177645 0:-6.2 1:7.7 2:0.7 3:-0.4 4:20.0 
1.0 0:0.3 1:1.9 2:-0.4 3:1.1 4:20.0 
1.0 0:4.1 1:-0.4 2:-5.7 3:-4.0 4:20.0 
1.0 0:9.2 1:-5.4 2:0.2 3:-1.0 4:20.0 
1.0 0:-9.2 1:10.1 2:-4.1 3:1.6 4:20.0 
1.0 0:2.4 1:-1.1 2:0.8 3:-0.7 4:20.0 
1.0 0:-1.1 1:-4.3 2:2.1 3:0.4 4:20.0 
0.9418697308026679 0:1.5 1:-8.8 2:-1.8 3:1.2 4:20.0 
1.0 0:-3.0 1:-1.2 2:-3.5 3:1.1 4:20.0 
0.44867327919601896 0:-1.1 1:-2.0 2:-0.8 3:-0.6 4:20.0 
1.0 0:0.7 1:-0.4 2:3.7 3:1.3 4:20.0 
0.9048648327643424 0:-3.0 1:2.2 2:6.8 3:-5.8 4:20.0 
1.0 0:0.1 1:-1.7 2:4.7 3:7.6 4:20.0 
1.0 0:-5.2 1:0.4 2:0.8 3:-0.8 4:20.0 
1.0 0:-3.5 1:6.3 2:-7.8 3:5.5 4:20.0 
1.0 0:-3.8 1:1.6 2:0.8 3:2.3 4:20.0 
1.0 0:-5.7 1:0.0 2:6.0 3:2.4 4:20.0 
1.0 0:0.3 1:1.3 2:1.1 3:0.7 4:20.0 
0.0691234694456185 0:-0.2 1:-0.3 2:2.5 3:2.2 4:20.0 
1.0 0:-4.6 1:6.5 2:-8.9 3:0.5 4:20.0 
0.807539983681079 0:3.8 1:-6.1 2:0.5 3:-6.0 4:20.0 
0.9765596526335131 0:-1.7 1:7.5 2:0.1 3:-0.2 4:20.0 
0.8412580668044878 0:-5.5 1:9.7 2:0.3 3:4.0 4:20.0 
1.0 0:2.0 1:-2.6 2:0.2 3:1.0 4:20.0 
1.0 0:0.1 1:0.2 2:0.3 3:0.1 4:20.0 
1.0 0:-3.2 1:2.0 2:-0.4 3:1.7 4:20.0 
1.0 0:-1.9 1:3.5 2:12.9 3:8.8 4:20.0 
1.0 0:-2.2 1:-0.6 2:-4.0 3:8.3 4:20.0 
1.0 0:-3.9 1:1.3 2:-1.0 3:3.2 4:20.0 
1.0 0:3.6 1:-0.2 2:0.8 3:-2.3 4:20.0 
0.8907141032512674 0:1.4 1:-0.7 2:0.0 3:-1.3 4:20.0 
1.0 0:-5.5 1:-0.9 2:-0.6 3:1.3 4:20.0 
1.0 0:6.9 1:-0.5 2:5.5 3:-5.1 4:20.0 
1.0 0:0.3 1:-1.5 2:0.2 3:-5.2 4:20.0 
1.0 0:0.5 1:-1.5 2:-1.5 3:0.2 4:20.0 
0.45468807914988346 0:-0.9 1:-4.8 2:3.4 3:0.1 4:20.0 
1.0 0:-7.0 1:2.5 2:2.8 3:4.3 4:20.0 
1.0 0:0.0 1:1.1 2:2.2 3:2.8 4:20.0 
1.0 0:-1.1 1:3.4 2:-3.4 3:2.4 4:20.0 
0.9141606107674958 0:1.4 1:0.2 2:5.7 3:-2.4 4:20.0 
0.6828172763180437 0:3.8 1:-6.1 2:0.9 3:-3.3 4:20.0 
0.5870329419938037 0:-4.5 1:8.5 2:-0.3 3:2.5 4:20.0 
1.0 0:3.7 1:-5.6 2:-7.2 3:-2.9 4:20.0 
0.2596041046469699 0:3.8 1:-4.2 2:3.9 3:-1.9 4:20.0 
1.0 0:-1.1 1:1.3 2:2.0 3:4.6 4:20.0 
1.0 0:9.2 1:3.6 2:5.0 3:-1.5 4:20.0 
0.7013093414467995 0:4.8 1:-4.3 2:1.5 3:-1.2 4:20.0 
0.4966653935036498 0:-4.2 1:5.0 2:2.8 3:2.7 4:20.0 
0.29514904301709155 0:0.8 1:-3.9 2:3.3 3:-0.7 4:20.0 
1.0 0:-8.7 1:2.5 2:-4.5 3:5.8 4:20.0 
1.0 0:6.6 1:-2.7 2:1.2 3:4.3 4:20.0 
1.0 0:1.9 1:0.4 2:-0.1 3:-7.0 4:20.0 
1.0 0:-0.2 1:-1.2 2:0.1 3:-0.9 4:20.0 
1.0 0:6.2 1:4.5 2:-2.8 3:1.9 4:20.0 
1.0 0:-14.3 1:7.0 2:-15.9 3:8.6 4:20.0 
0.8501391170213816 0:-3.8 1:-8.3 2:-0.5 3:-6.8 4:20.0 
0.42135174156400473 0:-0.7 1:0.4 2:0.9 3:0.7 4:20.0 
0.6642561245893817 0:2.7 1:2.8 2:-1.2 3:3.5 4:20.0 
0.8646761691083414 0:-2.9 1:9.7 2:0.9 3:1.1 4:20.0 
1.0 0:2.4 1:0.9 2:-0.1 3:0.0 4:20.0 
1.0 0:-2.8 1:-0.8 2:-0.2 3:1.2 4:20.0 
1.0 0:-4.5 1:1.8 2:0.6 3:-0.7 4:20.0 
1.0 0:-7.6 1:3.5 2:8.5 3:11.2 4:20.0 
1.0 0:3.6 1:-0.1 2:-0.2 3:2.7 4:20.0 
0.9144017159398337 0:5.0 1:-7.6 2:10.2 3:-2.2 4:20.0 
0.9702402569120105 0:5.9 1:-2.7 2:-6.8 3:-2.6 4:20.0 
0.6895429673385587 0:2.3 1:-0.6 2:-0.8 3:0.2 4:20.0 
1.0 0:1.0 1:0.9 2:1.0 3:1.9 4:20.0 
0.9107341611542173 0:-1.6 1:2.0 2:-4.5 3:0.6 4:20.0 
1.0 0:6.0 1:6.9 2:-6.5 3:7.4 4:20.0 
1.0 0:1.4 1:-0.2 2:0.0 3:2.6 4:20.0 
1.0 0:-1.0 1:-2.6 2:2.9 3:1.4 4:20.0 
1.0 0:7.7 1:2.4 2:-0.7 3:-1.1 4:20.0 
1.0 0:0.5 1:-1.7 2:1.5 3:-1.3 4:20.0 
0.49604575461827954 0:0.8 1:-5.2 2:-1.1 3:-0.7 4:20.0 
0.3163175492439929 0:4.4 1:-4.6 2:4.9 3:-1.0 4:20.0 
1.0 0:3.0 1:-5.6 2:-2.2 3:-8.4 4:20.0 
1.0 0:3.6 1:1.7 2:2.9 3:-0.3 4:20.0 
1.0 0:-0.5 1:-1.1 2:0.8 3:5.3 4:20.0 
1.0 0:-1.1 1:-1.4 2:-3.6 3:1.2 4:20.0 
1.0 0:4.3 1:-5.4 2:1.2 3:3.7 4:20.0 
1.0 0:-2.5 1:6.4 2:1.4 3:5.6 4:20.0 
0.991112862401329 0:2.9 1:-1.2 2:-4.8 3:4.5 4:20.0 
0.4741078170608276 0:6.8 1:-8.0 2:5.3 3:-2.8 4:20.0 
0.4528925488484497 0:-2.1 1:2.1 2:0.3 3:-2.6 4:20.0 
0.918175135798722 0:-5.8 1:8.5 2:-2.7 3:-3.2 4:20.0 
0.7872550473812282 0:5.9 1:-8.3 2:4.5 3:-4.2 4:20.0 
0.8571765685275233 0:0.1 1:2.5 2:-1.8 3:-1.5 4:20.0 
1.0 0:1.1 1:-1.1 2:1.5 3:1.1 4:20.0 
1.0 0:0.4 1:2.3 2:-5.5 3:-4.4 4:20.0 
1.0 0:2.2 1:2.8 2:-1.0 3:2.2 4:20.0 
1.0 0:0.9 1:2.3 2:1.1 3:4.1 4:20.0 
1.0 0:4.9 1:-5.2 2:11.7 3:-6.2 4:20.0 
1.0 0:-3.7 1:-1.3 2:-2.6 3:2.4 4:20.0 
1.0 0:-0.7 1:2.4 2:-1.1 3:3.8 4:20.0 
0.36040519618123035 0:-0.8 1:-2.1 2:1.4 3:-0.6 4:20.0 
1.0 0:3.2 1:-0.9 2:-3.7 3:2.2 4:20.0 
1.0 0:-7.9 1:7.2 2:-0.1 3:5.4 4:20.0 
1.0 0:3.6 1:-2.7 2:-1.5 3:0.2 4:20.0 
1.0 0:-0.3 1:-2.1 2:1.2 3:0.3 4:20.0 
0.7599644537471277 0:0.5 1:-6.4 2:2.7 3:-4.0 4:20.0 
1.0 0:-2.6 1:-5.0 2:-0.1 3:-0.7 4:20.0 
0.023755177630756682 0:0.8 1:2.7 2:-0.8 3:-0.6 4:20.0 
0.1492303234665205 0:0.0 1:-1.5 2:-1.1 3:2.0 4:20.0 
0.9592123388973137 0:11.6 1:-1.8 2:-5.1 3:-5.1 4:20.0 
0.9830936031686651 0:10.9 1:-8.8 2:2.2 3:-1.7 4:20.0 
0.40651751508825096 0:0.5 1:2.0 2:0.8 3:-2.9 4:20.0 
0.3322497750392033 0:4.8 1:-4.5 2:3.7 3:-0.4 4:20.0 
1.0 0:-3.6 1:-1.6 2:0.0 3:-7.5 4:20.0 
1.0 0:-2.1 1:1.0 2:1.9 3:-2.8 4:20.0 
1.0 0:-0.4 1:-2.7 2:2.3 3:2.1 4:20.0 
0.9638999966754443 0:-0.4 1:0.4 2:-1.6 3:2.3 4:20.0 
0.47448166369208844 0:-1.2 1:-0.8 2:3.5 3:-2.6 4:20.0 
1.0 0:0.8 1:-0.7 2:5.7 3:-5.4 4:20.0 
0.313251042014763 0:-1.6 1:2.5 2:0.0 3:0.5 4:20.0 
0.7509579404198743 0:-1.8 1:3.1 2:-1.3 3:0.8 4:20.0 
1.0 0:1.8 1:-10.0 2:-1.2 3:3.4 4:20.0 
1.0 0:-4.0 1:4.6 2:-1.6 3:0.3 4:20.0 
0.9820280386784068 0:2.4 1:-0.6 2:4.6 3:4.4 4:20.0 
1.0 0:-0.1 1:-2.6 2:-1.2 3:1.5 4:20.0 
1.0 0:-2.3 1:-1.9 2:-0.8 3:-2.0 4:20.0 
1.0 0:-6.0 1:-0.1 2:-1.7 3:0.2 4:20.0 
0.8727149098394646 0:-5.4 1:5.8 2:1.2 3:1.7 4:20.0 
1.0 0:1.0 1:1.0 2:-2.0 3:-6.5 4:20.0 
1.0 0:1.0 1:-4.6 2:-2.6 3:6.4 4:20.0 
0.21103567683116353 0:-0.9 1:1.5 2:3.7 3:2.3 4:20.0 
0.973788014070278 0:0.5 1:3.1 2:7.3 3:-6.1 4:20.0 
1.0 0:-4.7 1:1.0 2:-6.3 3:-1.0 4:20.0 
0.727042070138175 0:3.4 1:-5.5 2:-0.7 3:-1.1 4:20.0 
1.0 0:-4.1 1:-0.6 2:-0.9 3:0.6 4:20.0 
0.8457342932511661 0:-3.8 1:1.1 2:3.2 3:-7.5 4:20.0 
0.9628684728966642 0:-2.4 1:5.0 2:-1.3 3:5.4 4:20.0 
1.0 0:-1.5 1:1.0 2:-2.5 3:0.4 4:20.0 
0.6697712570725854 0:1.2 1:-4.8 2:-2.7 3:4.6 4:20.0 
1.0 0:-4.1 1:-1.0 2:4.0 3:-2.2 4:20.0 
0.7112023828605162 0:-4.9 1:3.8 2:3.8 3:-0.8 4:20.0 
1.0 0:-1.9 1:-1.0 2:-2.2 3:2.9 4:20.0 
1.0 0:6.5 1:-3.1 2:5.7 3:0.0 4:20.0 
0.945082854245919 0:-2.0 1:3.3 2:9.4 3:-6.4 4:20.0 
1.0 0:-1.3 1:3.3 2:-3.3 3:2.7 4:20.0 
1.0 0:3.0 1:0.5 2:-2.6 3:-8.6 4:20.0 
0.8697820049832262 0:8.3 1:-6.5 2:1.5 3:-1.3 4:20.0 
0.820314516618361 0:-0.7 1:1.6 2:0.6 3:1.2 4:20.0 
0.7294963951142022 0:0.2 1:-1.1 2:0.4 3:2.0 4:20.0 
1.0 0:-1.6 1:1.2 2:-2.6 3:2.8 4:20.0 
0.9905643113830414 0:7.7 1:-2.7 2:-6.2 3:0.0 4:20.0 
1.0 0:-1.2 1:-3.3 2:2.9 3:-2.3 4:20.0 
1.0 0:2.3 1:2.8 2:-2.3 3:3.3 4:20.0 
1.0 0:5.0 1:-2.6 2:-1.6 3:1.8 4:20.0 
1.0 0:4.5 1:-5.4 2:-1.7 3:1.0 4:20.0 
1.0 0:-0.8 1:-1.1 2:0.7 3:-2.8 4:20.0 
1.0 0:2.4 1:-3.4 2:2.4 3:-2.3 4:20.0 
1.0 0:-9.2 1:-10.0 2:-0.4 3:-5.3 4:20.0 
1.0 0:-6.4 1:0.6 2:0.9 3:0.5 4:20.0 
1.0 0:-1.5 1:1.2 2:0.4 3:0.9 4:20.0 
0.5679680534918496 0:3.0 1:-7.9 2:0.1 3:1.2 4:20.0 
1.0 0:-4.4 1:3.5 2:-3.4 3:2.0 4:20.0 
1.0 0:-2.8 1:-1.7 2:0.6 3:1.7 4:20.0 
0.5116540249258474 0:-6.4 1:7.1 2:-4.0 3:-2.1 4:20.0 
1.0 0:1.5 1:-0.2 2:-0.7 3:-2.2 4:20.0 
0.9530638519520704 0:-5.0 1:2.9 2:0.5 3:3.2 4:20.0 
0.8060968041977856 0:5.4 1:-6.7 2:4.9 3:-2.0 4:20.0 
0.861804677374856 0:-6.8 1:6.2 2:-5.6 3:-0.6 4:20.0 
1.0 0:2.5 1:-0.4 2:3.4 3:-1.4 4:20.0 
0.9486742347933425 0:-1.1 1:-2.2 2:-1.4 3:-0.7 4:20.0 
1.0 0:5.8 1:3.9 2:-4.7 3:2.1 4:20.0 
1.0 0:-0.6 1:1.6 2:0.6 3:-2.0 4:20.0 
1.0 0:-0.4 1:0.0 2:0.8 3:0.4 4:20.0 
1.0 0:-8.8 1:-3.5 2:7.9 3:-0.5 4:20.0 
0.8629472339394217 0:3.1 1:5.4 2:-5.1 3:1.1 4:20.0 
1.0 0:-1.3 1:4.6 2:-2.5 3:-5.9 4:20.0 
1.0 0:0.2 1:1.7 2:3.1 3:-2.1 4:20.0 
0.8110159259884328 0:7.8 1:-7.0 2:10.4 3:-2.7 4:20.0 
1.0 0:-3.7 1:0.9 2:3.7 3:7.3 4:20.0 
1.0 0:2.0 1:0.6 2:0.9 3:0.6 4:20.0 
1.0 0:-4.5 1:-1.2 2:0.3 3:5.3 4:20.0 
1.0 0:10.4 1:-5.9 2:4.1 3:-0.3 4:20.0 
1.0 0:-1.9 1:-5.8 2:-0.7 3:-1.1 4:20.0 
1.0 0:-5.9 1:-0.1 2:-1.1 3:2.7 4:20.0 
1.0 0:-1.9 1:-1.4 2:2.6 3:-0.9 4:20.0 
1.0 0:-10.7 1:1.0 2:-0.1 3:5.8 4:20.0 
1.0 0:7.2 1:-5.3 2:1.4 3:-4.8 4:20.0 
1.0 0:0.5 1:-0.3 2:-0.6 3:0.1 4:20.0 
1.0 0:-0.2 1:0.8 2:-0.2 3:0.2 4:20.0 
0.8313829225975863 0:-4.5 1:-7.8 2:1.5 3:-6.5 4:20.0 
1.0 0:3.6 1:0.3 2:-0.9 3:-2.0 4:20.0 
1.0 0:3.2 1:-4.4 2:2.0 3:0.4 4:20.0 
0.9865699462634445 0:6.3 1:-4.2 2:-2.2 3:-2.2 4:20.0 
1.0 0:-5.0 1:1.3 2:-1.9 3:1.9 4:20.0 
1.0 0:-0.2 1:10.0 2:-1.0 3:6.1 4:20.0 
0.15209374961645267 0:-1.0 1:-5.4 2:-0.6 3:-0.1 4:20.0 
1.0 0:0.5 1:0.6 2:-1.4 3:0.8 4:20.0 
1.0 0:-0.2 1:-2.4 2:0.3 3:0.5 4:20.0 
0.593194649635098 0:-4.5 1:2.1 2:2.1 3:3.6 4:20.0 
0.9424487401674453 0:1.8 1:-4.3 2:-0.3 3:1.1 4:20.0 
0.01259309968070092 0:0.3 1:2.1 2:1.1 3:-1.1 4:20.0 
1.0 0:0.1 1:2.4 2:-0.7 3:2.3 4:20.0 
0.7202791738743669 0:2.7 1:-8.4 2:-0.7 3:2.0 4:20.0 
1.0 0:-2.8 1:2.3 2:-1.1 3:-1.0 4:20.0 
1.0 0:4.5 1:-1.4 2:1.0 3:-1.6 4:20.0 
1.0 0:7.4 1:-3.3 2:-0.1 3:-0.8 4:20.0 
1.0 0:6.5 1:-3.5 2:2.5 3:-0.7 4:20.0 
0.9485767095032276 0:-4.3 1:-0.1 2:4.6 3:-6.1 4:20.0 
1.0 0:0.3 1:1.6 2:0.0 3:-1.0 4:20.0 
1.0 0:-3.2 1:1.4 2:-1.5 3:5.7 4:20.0 
0.8175236716425307 0:2.5 1:-3.4 2:3.0 3:9.3 4:20.0 
0.7572327413036942 0:2.2 1:-1.7 2:4.8 3:1.6 4:20.0 
1.0 0:-1.8 1:-0.5 2:-1.6 3:1.6 4:20.0 
1.0 0:-1.4 1:0.5 2:0.3 3:1.0 4:20.0 
1.0 0:1.0 1:-7.1 2:3.4 3:-13.7 4:20.0 
1.0 0:0.2 1:-3.7 2:2.2 3:-4.9 4:20.0 
0.5450604949196999 0:-0.3 1:0.3 2:2.7 3:-3.4 4:20.0 
1.0 0:-1.3 1:4.9 2:-1.7 3:2.4 4:20.0 
0.8625294177059979 0:2.1 1:5.0 2:-6.9 3:0.5 4:20.0 
1.0 0:1.0 1:-4.1 2:-3.6 3:0.1 4:20.0 
1.0 0:-5.7 1:1.5 2:-0.6 3:0.3 4:20.0 
1.0 0:-1.3 1:3.6 2:2.0 3:1.9 4:20.0 
1.0 0:-6.4 1:8.7 2:1.8 3:15.6 4:20.0 
0.8929693343329127 0:1.6 1:-3.3 2:2.5 3:-2.2 4:20.0 
1.0 0:-3.9 1:2.5 2:-2.0 3:1.0 4:20.0 
1.0 0:-3.6 1:3.9 2:-0.8 3:3.5 4:20.0 
1.0 0:-4.9 1:-4.4 2:2.5 3:-9.1 4:20.0 
1.0 0:-7.6 1:6.0 2:1.9 3:10.4 4:20.0 
0.7865966659827773 0:-1.4 1:-1.4 2:2.2 3:-0.9 4:20.0 
1.0 0:-6.4 1:5.4 2:-5.1 3:13.8 4:20.0 
0.8888166867328802 0:2.0 1:-5.2 2:-0.4 3:-4.6 4:20.0 
0.7132721727911282 0:-4.2 1:-3.4 2:0.3 3:4.2 4:20.0 
1.0 0:-5.8 1:2.9 2:-0.6 3:-0.1 4:20.0 
1.0 0:0.3 1:-5.3 2:1.5 3:-2.1 4:20.0 
1.0 0:0.6 1:-0.1 2:0.0 3:-1.0 4:20.0 
1.0 0:0.6 1:1.3 2:0.8 3:2.7 4:20.0 
0.738693565310953 0:-4.7 1:3.6 2:5.7 3:-0.8 4:20.0 
0.9404735340125016 0:1.7 1:5.9 2:-3.8 3:-2.9 4:20.0 
0.49891510105905945 0:-0.4 1:2.9 2:-0.5 3:0.3 4:20.0 
1.0 0:2.5 1:5.1 2:-1.8 3:0.1 4:20.0 
0.9339267527749797 0:0.0 1:6.2 2:-2.2 3:0.2 4:20.0 
0.20633650365386563 0:-6.9 1:-0.2 2:-1.3 3:1.2 4:20.0 
0.13096794014079902 0:0.6 1:-1.3 2:1.8 3:-1.5 4:20.0 
0.6605963137516185 0:-6.6 1:1.9 2:-0.3 3:-0.4 4:20.0 
1.0 0:6.0 1:-2.5 2:-1.3 3:-2.8 4:20.0 
1.0 0:1.0 1:-6.5 2:6.0 3:-11.8 4:20.0 
0.718309933933098 0:0.3 1:-0.5 2:-1.3 3:0.2 4:20.0 
1.0 0:6.9 1:-7.3 2:-1.2 3:4.3 4:20.0 
1.0 0:-6.6 1:2.7 2:-0.9 3:18.1 4:20.0 
1.0 0:4.4 1:-0.2 2:4.8 3:2.0 4:20.0 
1.0 0:-0.2 1:1.2 2:0.5 3:-1.0 4:20.0 
1.0 0:-0.7 1:0.1 2:-0.9 3:0.6 4:20.0 
1.0 0:2.9 1:5.0 2:-2.8 3:4.6 4:20.0 
1.0 0:0.6 1:-2.9 2:-1.1 3:-7.3 4:20.0 
1.0 0:0.2 1:-2.0 2:0.1 3:1.6 4:20.0 
1.0 0:1.4 1:-1.1 2:-0.4 3:0.5 4:20.0 
1.0 0:-8.1 1:5.5 2:-11.2 3:-4.5 4:20.0 
1.0 0:-2.7 1:-4.8 2:4.2 3:-1.5 4:20.0 
1.0 0:-0.5 1:-4.2 2:1.3 3:1.2 4:20.0 
1.0 0:0.6 1:2.7 2:2.6 3:2.9 4:20.0 
1.0 0:-3.8 1:11.1 2:7.9 3:4.2 4:20.0 
0.7959044427598383 0:-2.9 1:0.8 2:-4.8 3:0.4 4:20.0 
1.0 0:-1.3 1:0.3 2:0.6 3:0.7 4:20.0 
1.0 0:5.3 1:-1.3 2:-2.6 3:0.1 4:20.0 
1.0 0:2.3 1:6.6 2:-3.5 3:3.3 4:20.0 
1.0 0:3.3 1:0.7 2:-0.8 3:2.3 4:20.0 
1.0 0:-1.2 1:0.8 2:-1.8 3:-2.4 4:20.0 
1.0 0:4.0 1:1.2 2:2.2 3:-1.1 4:20.0 
1.0 0:2.5 1:-3.8 2:3.7 3:0.3 4:20.0 
1.0 0:-2.0 1:0.7 2:-1.3 3:-6.6 4:20.0 
1.0 0:-3.5 1:-3.9 2:1.5 3:2.7 4:20.0 
1.0 0:6.9 1:-0.8 2:-4.6 3:2.3 4:20.0 
1.0 0:6.6 1:7.3 2:-5.3 3:2.5 4:20.0 
1.0 0:-2.1 1:1.2 2:1.0 3:-0.3 4:20.0 
1.0 0:1.7 1:-4.1 2:0.7 3:1.1 4:20.0 
1.0 0:1.8 1:8.3 2:0.0 3:0.8 4:20.0 
0.808398477404857 0:-3.4 1:5.6 2:-4.7 3:-2.1 4:20.0 
0.9041408152390041 0:3.3 1:-0.7 2:0.0 3:-0.4 4:20.0 
1.0 0:-4.2 1:0.4 2:-1.5 3:0.3 4:20.0 
1.0 0:0.8 1:-4.9 2:7.4 3:-4.1 4:20.0 
1.0 0:-1.1 1:2.7 2:-2.0 3:-0.6 4:20.0 
1.0 0:1.2 1:0.4 2:0.7 3:0.2 4:20.0 
1.0 0:-0.5 1:1.4 2:3.5 3:-0.6 4:20.0 
1.0 0:-0.7 1:-4.9 2:-2.9 3:-3.5 4:20.0 
1.0 0:-4.5 1:-5.5 2:5.1 3:-5.7 4:20.0 
1.0 0:-1.2 1:-0.4 2:0.7 3:0.5 4:20.0 
1.0 0:-2.0 1:-3.9 2:0.4 3:-0.5 4:20.0 
1.0 0:1.6 1:-1.9 2:-3.6 3:0.7 4:20.0 
0.7816062704843229 0:5.4 1:-0.6 2:2.4 3:-6.8 4:20.0 
1.0 0:-1.6 1:-1.9 2:0.4 3:-0.2 4:20.0 
1.0 0:-8.1 1:6.2 2:-3.9 3:1.6 4:20.0 
1.0 0:6.4 1:2.6 2:-3.4 3:6.0 4:20.0 
0.769063069371643 0:-1.4 1:0.3 2:-1.8 3:1.1 4:20.0 
1.0 0:0.5 1:-1.9 2:1.7 3:1.1 4:20.0 
1.0 0:7.4 1:1.1 2:3.5 3:-2.8 4:20.0 
1.0 0:7.7 1:-6.6 2:1.5 3:-8.4 4:20.0 
1.0 0:-1.1 1:0.3 2:-1.7 3:-0.7 4:20.0 
1.0 0:-2.1 1:1.1 2:2.5 3:3.6 4:20.0 
0.44987715926623634 0:1.5 1:1.8 2:-0.8 3:-3.5 4:20.0 
0.5390232662520467 0:0.1 1:0.1 2:5.1 3:-5.5 4:20.0 
0.10069024082690228 0:-0.7 1:-1.3 2:-2.6 3:1.0 4:20.0 
0.41349185945315986 0:0.1 1:-4.1 2:0.4 3:0.0 4:20.0 
0.24029796102781906 0:-0.3 1:-2.5 2:1.3 3:2.0 4:20.0 
1.0 0:-3.4 1:10.6 2:-3.1 3:5.9 4:20.0 
0.038149146987119 0:-0.4 1:-1.7 2:0.5 3:-0.7 4:20.0 
1.0 0:-0.5 1:2.6 2:-0.6 3:2.3 4:20.0 
1.0 0:1.3 1:-2.5 2:-0.4 3:2.1 4:20.0 
1.0 0:-3.4 1:2.9 2:-0.2 3:0.6 4:20.0 
0.08377677700359061 0:1.9 1:-0.3 2:2.1 3:-1.4 4:20.0 
1.0 0:-0.2 1:-2.5 2:-4.8 3:2.8 4:20.0 
0.736738288462576 0:-3.7 1:-1.8 2:-1.0 3:-8.4 4:20.0 
1.0 0:12.0 1:-0.1 2:0.5 3:-2.7 4:20.0 
1.0 0:1.0 1:-3.0 2:0.3 3:-0.6 4:20.0 
1.0 0:2.1 1:1.3 2:1.1 3:-1.4 4:20.0 
1.0 0:0.4 1:3.1 2:-0.5 3:0.1 4:20.0 
1.0 0:-2.3 1:-3.7 2:8.4 3:-1.9 4:20.0 
0.692712972174915 0:-3.1 1:5.2 2:-1.6 3:-0.8 4:20.0 
0.9535080814431787 0:-0.4 1:-4.1 2:5.9 3:-4.1 4:20.0 
1.0 0:3.3 1:-3.2 2:7.2 3:-1.6 4:20.0 
1.0 0:-2.0 1:0.3 2:3.3 3:-10.6 4:20.0 
1.0 0:-0.7 1:4.2 2:-7.6 3:-0.6 4:20.0 
1.0 0:-0.6 1:1.4 2:10.0 3:6.3 4:20.0 
0.2748190395838997 0:-2.8 1:2.2 2:1.1 3:1.5 4:20.0 
0.8704180073496367 0:-3.3 1:4.2 2:-3.9 3:0.7 4:20.0 
1.0 0:-3.9 1:5.4 2:2.3 3:7.7 4:20.0 
1.0 0:0.0 1:1.4 2:-2.9 3:-1.0 4:20.0 
1.0 0:-4.1 1:-0.4 2:-1.6 3:-0.4 4:20.0 
1.0 0:-8.2 1:4.7 2:2.4 3:0.7 4:20.0 
1.0 0:13.1 1:1.3 2:0.0 3:16.5 4:20.0 
1.0 0:-1.6 1:2.3 2:-1.9 3:3.7 4:20.0 
0.41293340466750783 0:-0.3 1:-0.6 2:1.6 3:-0.3 4:20.0 
1.0 0:-7.6 1:8.9 2:3.0 3:2.7 4:20.0 
1.0 0:-7.0 1:6.6 2:-10.3 3:4.0 4:20.0 
1.0 0:2.5 1:-3.8 2:0.2 3:0.0 4:20.0 
1.0 0:-4.2 1:-2.0 2:1.0 3:2.2 4:20.0 
1.0 0:-4.3 1:-1.5 2:0.6 3:1.3 4:20.0 
1.0 0:6.1 1:-0.4 2:0.1 3:-5.8 4:20.0 
1.0 0:0.7 1:0.3 2:-1.6 3:-1.8 4:20.0 
1.0 0:0.2 1:-2.7 2:-1.8 3:0.5 4:20.0 
1.0 0:-2.9 1:-3.3 2:4.3 3:0.2 4:20.0 
0.9927403114794578 0:-8.6 1:1.6 2:6.2 3:-0.6 4:20.0 
1.0 0:2.8 1:-1.0 2:0.2 3:-2.3 4:20.0 
1.0 0:-7.0 1:5.2 2:-2.2 3:-3.0 4:20.0 
1.0 0:-2.1 1:-1.5 2:3.5 3:-0.5 4:20.0 
0.9961803086868232 0:-8.3 1:-0.2 2:6.8 3:0.1 4:20.0 
1.0 0:1.3 1:0.6 2:1.8 3:0.2 4:20.0 
0.009189364754857184 0:-2.6 1:5.3 2:-2.2 3:1.4 4:20.0 
1.0 0:1.5 1:1.6 2:2.3 3:-1.6 4:20.0 
1.0 0:-7.5 1:-4.8 2:-1.0 3:-6.4 4:20.0 
1.0 0:0.4 1:2.5 2:0.8 3:-0.5 4:20.0 
1.0 0:3.4 1:2.0 2:-2.5 3:5.8 4:20.0 
0.892592208539669 0:2.8 1:-5.6 2:0.2 3:5.8 4:20.0 
0.5300072171211174 0:-5.5 1:5.3 2:3.1 3:3.2 4:20.0 
1.0 0:1.3 1:1.0 2:3.8 3:-3.1 4:20.0 
0.9439139892199256 0:-0.2 1:-7.2 2:4.7 3:-1.4 4:20.0 
1.0 0:1.8 1:0.3 2:-3.6 3:5.4 4:20.0 
1.0 0:3.3 1:-1.7 2:-0.3 3:0.8 4:20.0 
1.0 0:0.6 1:-8.9 2:2.1 3:-1.4 4:20.0 
1.0 0:-6.7 1:2.6 2:-5.9 3:2.6 4:20.0 
1.0 0:0.7 1:0.2 2:-0.9 3:1.1 4:20.0 
0.9941918371003393 0:1.4 1:-7.0 2:2.6 3:3.4 4:20.0 
0.023109082467861426 0:1.1 1:-0.8 2:2.0 3:-1.5 4:20.0 
1.0 0:3.1 1:-0.5 2:0.2 3:0.6 4:20.0 
1.0 0:-2.2 1:-0.2 2:0.9 3:-4.5 4:20.0 
1.0 0:-4.4 1:3.1 2:0.2 3:1.1 4:20.0 
1.0 0:5.4 1:1.7 2:1.0 3:-1.5 4:20.0 
1.0 0:4.3 1:-1.2 2:2.0 3:-1.8 4:20.0 
0.8396703662770922 0:3.4 1:-0.5 2:2.2 3:-7.6 4:20.0 
1.0 0:-9.5 1:0.1 2:8.4 3:-11.2 4:20.0 
0.6103771863693964 0:-0.1 1:-2.0 2:-0.3 3:3.1 4:20.0 
1.0 0:0.7 1:-0.7 2:0.8 3:-0.8 4:20.0 
1.0 0:1.1 1:-0.6 2:-2.1 3:4.4 4:20.0 
0.8829822900674329 0:1.0 1:-4.1 2:5.4 3:-3.3 4:20.0 
0.386227325048073 0:-1.1 1:1.4 2:1.3 3:-4.7 4:20.0 
0.429940743792158 0:1.0 1:0.9 2:0.8 3:-2.0 4:20.0 
1.0 0:-10.2 1:4.4 2:2.0 3:3.8 4:20.0 
1.0 0:-8.7 1:6.4 2:-4.3 3:4.7 4:20.0 
0.46782219487009596 0:-1.3 1:-1.1 2:2.5 3:1.5 4:20.0 
1.0 0:13.7 1:-7.7 2:3.0 3:-3.0 4:20.0 
1.0 0:-1.2 1:3.4 2:2.0 3:-1.0 4:20.0 
0.6134828867563232 0:-1.2 1:-0.5 2:-2.2 3:2.7 4:20.0 
0.6896810513523732 0:-2.2 1:5.9 2:-5.5 3:-1.6 4:20.0 
1.0 0:0.6 1:-10.7 2:3.3 3:-10.9 4:20.0 
0.8968878653217792 0:-3.2 1:5.4 2:0.9 3:4.2 4:20.0 
0.5169055140794989 0:-3.8 1:5.0 2:-1.4 3:0.8 4:20.0 
0.866745671187233 0:-0.9 1:2.2 2:-4.7 3:-5.6 4:20.0 
1.0 0:-0.5 1:1.2 2:-0.1 3:2.8 4:20.0 
1.0 0:5.3 1:3.9 2:0.3 3:0.2 4:20.0 
1.0 0:4.9 1:-3.1 2:1.6 3:0.3 4:20.0 
1.0 0:-0.6 1:0.6 2:1.2 3:-0.3 4:20.0 
1.0 0:-2.6 1:-0.8 2:-0.2 3:-0.6 4:20.0 
0.7673471674580181 0:-2.4 1:1.2 2:-4.5 3:-0.3 4:20.0 
1.0 0:1.4 1:1.4 2:0.2 3:-4.1 4:20.0 
0.21577332215788003 0:-1.6 1:-1.8 2:0.9 3:2.4 4:20.0 
1.0 0:-0.6 1:1.2 2:-5.6 3:0.1 4:20.0 
0.3636637569151146 0:6.4 1:-5.7 2:0.1 3:-1.1 4:20.0 
0.8074319260934106 0:-0.5 1:4.9 2:-1.4 3:5.2 4:20.0 
1.0 0:-2.1 1:0.6 2:0.7 3:2.3 4:20.0 
1.0 0:0.0 1:-2.7 2:1.1 3:-2.0 4:30.0 
1.0 0:-2.9 1:-1.4 2:-0.7 3:-0.7 4:30.0 
1.0 0:-5.1 1:5.8 2:-5.3 3:0.6 4:30.0 
1.0 0:-6.8 1:1.1 2:-6.9 3:-1.3 4:30.0 
0.9214442256367171 0:2.6 1:-2.6 2:-0.6 3:-4.7 4:30.0 
0.8812326559360464 0:1.8 1:2.8 2:-2.1 3:5.2 4:30.0 
0.11370966074335168 0:-2.9 1:3.0 2:0.9 3:2.8 4:30.0 
1.0 0:-0.3 1:-6.5 2:1.3 3:-4.6 4:30.0 
1.0 0:-1.4 1:2.0 2:2.8 3:-1.4 4:30.0 
1.0 0:-3.2 1:3.3 2:-6.5 3:3.5 4:30.0 
0.8505153932669659 0:0.7 1:-0.1 2:6.7 3:-9.0 4:30.0 
0.722392338107659 0:-0.7 1:5.3 2:-0.8 3:1.2 4:30.0 
0.14212011487041726 0:2.1 1:-4.3 2:-0.9 3:-2.0 4:30.0 
1.0 0:9.0 1:-3.3 2:-5.1 3:2.9 4:30.0 
1.0 0:2.1 1:-1.1 2:-5.2 3:-7.7 4:30.0 
1.0 0:8.5 1:3.9 2:-1.7 3:-1.2 4:30.0 
1.0 0:-4.0 1:6.7 2:0.1 3:6.8 4:30.0 
1.0 0:-1.7 1:2.2 2:-2.6 3:1.2 4:30.0 
1.0 0:-9.7 1:0.0 2:0.3 3:2.0 4:30.0 
0.9262232267272954 0:-3.1 1:5.2 2:-2.3 3:-4.2 4:30.0 
1.0 0:0.4 1:-9.2 2:-0.3 3:-12.0 4:30.0 
1.0 0:-3.2 1:-5.8 2:-1.5 3:-5.1 4:30.0 
0.053840338140344834 0:-1.0 1:2.3 2:0.9 3:1.8 4:30.0 
1.0 0:-2.3 1:-4.4 2:-6.3 3:4.8 4:30.0 
1.0 0:0.0 1:-4.3 2:1.2 3:0.5 4:30.0 
1.0 0:1.9 1:-0.5 2:1.7 3:-2.0 4:30.0 
1.0 0:-1.0 1:2.7 2:-0.2 3:1.9 4:30.0 
1.0 0:3.4 1:4.3 2:-2.7 3:-0.6 4:30.0 
0.8282808607616348 0:5.3 1:-0.7 2:-3.4 3:7.0 4:30.0 
1.0 0:0.0 1:-0.3 2:-0.7 3:0.1 4:30.0 
1.0 0:1.9 1:-2.6 2:-2.0 3:1.4 4:30.0 
1.0 0:-10.8 1:0.4 2:-3.0 3:3.7 4:30.0 
1.0 0:-1.6 1:-15.3 2:2.0 3:-2.9 4:30.0 
1.0 0:3.6 1:-0.3 2:0.8 3:-1.5 4:30.0 
1.0 0:8.0 1:-1.9 2:-0.2 3:6.5 4:30.0 
0.39008415966390864 0:-6.4 1:7.2 2:0.4 3:2.8 4:30.0 
1.0 0:2.6 1:3.7 2:0.1 3:3.3 4:30.0 
1.0 0:-2.6 1:0.1 2:-2.4 3:0.0 4:30.0 
0.18836910621941247 0:1.1 1:-4.2 2:-0.7 3:-1.2 4:30.0 
1.0 0:1.8 1:-1.3 2:-3.1 3:-2.6 4:30.0 
1.0 0:-2.3 1:2.5 2:4.7 3:-6.8 4:30.0 
1.0 0:0.8 1:0.3 2:1.3 3:-1.7 4:30.0 
1.0 0:-1.6 1:5.9 2:1.6 3:5.6 4:30.0 
1.0 0:3.6 1:0.2 2:-2.4 3:-6.5 4:30.0 
1.0 0:-0.4 1:-10.3 2:0.2 3:-9.0 4:30.0 
0.9984166393318369 0:-5.0 1:3.8 2:-0.4 3:0.6 4:30.0 
1.0 0:0.0 1:1.2 2:1.0 3:2.6 4:30.0 
0.6645182701955684 0:-4.6 1:5.1 2:-3.3 3:-2.3 4:30.0 
1.0 0:-3.2 1:-1.9 2:5.2 3:7.3 4:30.0 
1.0 0:-4.3 1:2.8 2:2.5 3:0.4 4:30.0 
0.9981404435759924 0:-7.4 1:9.2 2:-12.0 3:7.5 4:30.0 
1.0 0:-2.1 1:-11.8 2:9.0 3:-9.4 4:30.0 
1.0 0:0.3 1:-2.0 2:-2.3 3:2.9 4:30.0 
1.0 0:1.5 1:0.0 2:0.4 3:5.5 4:30.0 
0.8715421170888143 0:-0.8 1:1.0 2:-6.3 3:3.1 4:30.0 
1.0 0:8.6 1:-3.4 2:1.3 3:-3.1 4:30.0 
1.0 0:3.1 1:-2.9 2:1.1 3:-0.2 4:30.0 
1.0 0:-3.8 1:3.7 2:-0.4 3:0.7 4:30.0 
1.0 0:5.1 1:0.2 2:0.2 3:-7.7 4:30.0 
0.9810588701867834 0:-2.2 1:-3.4 2:-4.1 3:-0.7 4:30.0 
0.8395513220773405 0:1.1 1:-1.9 2:-4.7 3:3.7 4:30.0 
1.0 0:-5.4 1:-7.3 2:0.2 3:8.4 4:30.0 
1.0 0:5.1 1:-5.0 2:-0.1 3:-0.5 4:30.0 
1.0 0:-0.8 1:-2.0 2:0.7 3:-0.6 4:30.0 
0.965389549196212 0:-1.6 1:-1.5 2:1.3 3:5.4 4:30.0 
1.0 0:6.9 1:-2.5 2:5.7 3:0.8 4:30.0 
0.8631474953180408 0:1.8 1:-0.6 2:7.8 3:-7.5 4:30.0 
1.0 0:0.5 1:2.3 2:2.7 3:-2.9 4:30.0 
1.0 0:-1.7 1:-0.9 2:-1.9 3:3.8 4:30.0 
1.0 0:3.6 1:-6.1 2:-0.8 3:-11.7 4:30.0 
1.0 0:-4.5 1:4.6 2:1.5 3:-2.0 4:30.0 
1.0 0:-1.2 1:-2.1 2:-0.4 3:1.8 4:30.0 
1.0 0:-0.7 1:1.5 2:0.8 3:1.6 4:30.0 
1.0 0:8.2 1:-5.2 2:7.8 3:-6.6 4:30.0 
1.0 0:-0.1 1:-5.8 2:3.1 3:-9.6 4:30.0 
0.3485588298708996 0:-0.9 1:-2.9 2:2.8 3:-3.3 4:30.0 
1.0 0:-10.8 1:0.0 2:3.3 3:-9.5 4:30.0 
0.9497929131707731 0:-4.4 1:0.7 2:-2.5 3:5.6 4:30.0 
1.0 0:-0.2 1:-1.4 2:-0.4 3:-1.6 4:30.0 
1.0 0:-1.2 1:2.0 2:-3.4 3:3.1 4:30.0 
1.0 0:4.6 1:3.0 2:-2.3 3:-0.3 4:30.0 
1.0 0:2.3 1:0.3 2:-1.9 3:0.0 4:30.0 
1.0 0:0.2 1:-5.6 2:-0.4 3:-3.0 4:30.0 
1.0 0:-2.3 1:-3.0 2:3.6 3:-0.6 4:30.0 
1.0 0:0.3 1:-0.6 2:0.8 3:0.2 4:30.0 
1.0 0:5.9 1:2.0 2:-4.2 3:-1.7 4:30.0 
0.5477286100360077 0:2.5 1:1.0 2:1.0 3:5.6 4:30.0 
1.0 0:-4.6 1:-1.4 2:-1.5 3:0.8 4:30.0 
1.0 0:-4.2 1:-7.5 2:0.8 3:4.6 4:30.0 
1.0 0:-2.1 1:4.2 2:-4.4 3:0.6 4:30.0 
1.0 0:2.7 1:-0.8 2:1.0 3:-0.1 4:30.0 
0.7495415765187594 0:7.8 1:-2.8 2:-1.3 3:-1.9 4:30.0 
1.0 0:3.0 1:-4.8 2:6.0 3:-4.3 4:30.0 
0.2059509407666233 0:2.1 1:4.2 2:-0.6 3:4.2 4:30.0 
1.0 0:0.9 1:0.0 2:0.4 3:0.0 4:30.0 
1.0 0:1.3 1:-4.8 2:3.1 3:1.2 4:30.0 
0.7237862486491176 0:1.8 1:-3.1 2:-1.3 3:0.5 4:30.0 
1.0 0:0.3 1:3.4 2:-3.2 3:2.9 4:30.0 
1.0 0:-1.2 1:1.4 2:-1.0 3:-2.0 4:30.0 
1.0 0:-2.6 1:-1.1 2:2.2 3:-6.1 4:30.0 
1.0 0:6.1 1:-3.6 2:6.5 3:-13.3 4:30.0 
1.0 0:0.9 1:3.0 2:-0.2 3:-2.0 4:30.0 
1.0 0:-3.8 1:1.3 2:1.3 3:0.6 4:30.0 
0.8913411799671246 0:-1.9 1:3.1 2:2.9 3:-1.2 4:30.0 
1.0 0:6.1 1:-3.3 2:1.2 3:0.1 4:30.0 
1.0 0:-0.7 1:4.2 2:-1.1 3:7.8 4:30.0 
1.0 0:-1.5 1:0.2 2:0.7 3:-0.4 4:30.0 
1.0 0:-4.4 1:0.1 2:-10.8 3:-5.5 4:30.0 
1.0 0:4.7 1:-2.5 2:-5.2 3:14.4 4:30.0 
1.0 0:-2.3 1:2.2 2:-3.4 3:1.4 4:30.0 
0.6950294822806995 0:1.8 1:2.2 2:-3.0 3:-0.9 4:30.0 
0.8216363933505296 0:5.9 1:0.7 2:-2.0 3:7.0 4:30.0 
1.0 0:-2.1 1:-4.1 2:0.2 3:1.0 4:30.0 
1.0 0:5.2 1:2.7 2:-1.0 3:4.0 4:30.0 
1.0 0:2.3 1:-0.1 2:-0.2 3:-1.2 4:30.0 
1.0 0:4.9 1:1.8 2:2.0 3:-4.4 4:30.0 
1.0 0:8.5 1:-3.3 2:0.3 3:-0.5 4:30.0 
0.9584395034480623 0:0.6 1:0.9 2:-4.5 3:6.5 4:30.0 
0.4841022541245427 0:2.2 1:-6.7 2:-0.3 3:-2.5 4:30.0 
1.0 0:2.5 1:-7.2 2:-1.6 3:-5.1 4:30.0 
1.0 0:-2.9 1:10.1 2:-1.2 3:2.6 4:30.0 
1.0 0:7.2 1:-0.9 2:1.1 3:2.0 4:30.0 
1.0 0:-1.3 1:0.2 2:1.9 3:-0.2 4:30.0 
1.0 0:5.6 1:-2.3 2:2.1 3:-1.7 4:30.0 
1.0 0:-1.7 1:-1.0 2:-7.7 3:-1.8 4:30.0 
1.0 0:-6.0 1:-2.3 2:-0.3 3:-3.2 4:30.0 
0.9108193814545955 0:-8.0 1:7.2 2:-2.9 3:4.9 4:30.0 
0.23328053458363537 0:-1.6 1:-2.1 2:2.3 3:-4.2 4:30.0 
1.0 0:4.6 1:2.7 2:-7.2 3:1.1 4:30.0 
1.0 0:6.1 1:0.8 2:1.2 3:-4.0 4:30.0 
1.0 0:-1.5 1:-2.1 2:3.1 3:-4.0 4:30.0 
0.9669552259130256 0:-8.6 1:2.0 2:0.3 3:-1.0 4:30.0 
1.0 0:15.7 1:-2.4 2:-0.6 3:7.0 4:30.0 
1.0 0:-1.1 1:-0.7 2:0.3 3:-2.1 4:30.0 
1.0 0:0.4 1:0.8 2:0.5 3:1.1 4:30.0 
0.8386852481621316 0:-5.5 1:6.7 2:1.1 3:3.6 4:30.0 
1.0 0:4.2 1:0.9 2:-7.8 3:-8.8 4:30.0 
0.8689409305485017 0:-2.6 1:-3.2 2:0.0 3:-4.4 4:30.0 
1.0 0:-2.2 1:-1.6 2:-3.1 3:0.4 4:30.0 
1.0 0:-5.5 1:10.6 2:-7.3 3:2.3 4:30.0 
1.0 0:-2.2 1:8.4 2:1.5 3:8.3 4:30.0 
0.3867257248292214 0:5.0 1:-2.6 2:-1.1 3:-3.7 4:30.0 
1.0 0:9.6 1:2.1 2:-3.7 3:-6.6 4:30.0 
1.0 0:2.1 1:1.3 2:-2.0 3:-0.2 4:30.0 
1.0 0:-1.0 1:-7.5 2:9.6 3:-2.0 4:30.0 
1.0 0:2.3 1:1.7 2:2.2 3:-0.8 4:30.0 
1.0 0:-0.6 1:2.4 2:2.5 3:1.1 4:30.0 
1.0 0:7.4 1:-3.3 2:2.7 3:0.1 4:30.0 
1.0 0:12.7 1:-1.1 2:-3.0 3:2.9 4:30.0 
1.0 0:-0.5 1:-2.3 2:1.6 3:0.0 4:30.0 
1.0 0:-0.2 1:5.7 2:-1.5 3:-4.2 4:30.0 
1.0 0:-1.2 1:-2.2 2:1.8 3:-1.9 4:30.0 
0.571485915302859 0:2.0 1:-4.2 2:-3.3 3:0.7 4:30.0 
1.0 0:-1.0 1:-0.9 2:1.0 3:0.5 4:30.0 
0.10072187007516055 0:-2.9 1:0.0 2:-3.0 3:5.6 4:30.0 
1.0 0:5.0 1:-4.0 2:0.5 3:-4.4 4:30.0 
1.0 0:-0.8 1:-7.1 2:3.1 3:-2.2 4:30.0 
1.0 0:-2.0 1:-0.2 2:2.5 3:3.0 4:30.0 
1.0 0:1.4 1:10.2 2:4.2 3:4.0 4:30.0 
1.0 0:-6.6 1:1.6 2:3.6 3:7.7 4:30.0 
1.0 0:6.7 1:-7.6 2:8.8 3:0.7 4:30.0 
1.0 0:-3.6 1:-1.3 2:0.7 3:1.9 4:30.0 
0.7856123358985561 0:-9.4 1:6.8 2:-4.1 3:-0.6 4:30.0 
1.0 0:-5.2 1:-6.1 2:5.6 3:-9.3 4:30.0 
1.0 0:-0.2 1:-4.0 2:6.3 3:2.3 4:30.0 
1.0 0:1.1 1:-1.9 2:3.1 3:-3.5 4:30.0 
1.0 0:3.8 1:5.0 2:1.3 3:4.8 4:30.0 
0.8871553492106667 0:4.1 1:3.4 2:7.0 3:3.0 4:30.0 
0.3826923993157169 0:3.8 1:5.1 2:-3.5 3:2.6 4:30.0 
0.7204338445516026 0:1.0 1:3.0 2:0.6 3:-4.1 4:30.0 
1.0 0:-3.5 1:3.8 2:-0.8 3:6.2 4:30.0 
1.0 0:0.0 1:1.5 2:-2.3 3:-1.1 4:30.0 
1.0 0:0.7 1:4.2 2:-0.1 3:1.5 4:30.0 
0.24024907647193577 0:6.3 1:-3.4 2:-0.8 3:-0.5 4:30.0 
1.0 0:-3.7 1:-12.5 2:12.0 3:-10.8 4:30.0 
0.8872994034280466 0:2.1 1:1.9 2:1.4 3:-4.4 4:30.0 
1.0 0:0.7 1:-4.4 2:2.9 3:-2.2 4:30.0 
0.8935354001300678 0:-0.7 1:-2.6 2:4.7 3:3.8 4:30.0 
1.0 0:-1.8 1:1.4 2:-2.3 3:0.9 4:30.0 
1.0 0:1.3 1:0.6 2:1.5 3:-0.1 4:30.0 
1.0 0:0.3 1:-1.3 2:0.9 3:2.0 4:30.0 
1.0 0:-5.2 1:-7.4 2:12.5 3:-8.7 4:30.0 
1.0 0:-8.7 1:0.4 2:0.9 3:-1.2 4:30.0 
1.0 0:4.3 1:0.5 2:4.6 3:-0.7 4:30.0 
1.0 0:-4.7 1:0.7 2:-3.8 3:3.9 4:30.0 
1.0 0:2.6 1:-2.3 2:-1.7 3:-0.8 4:30.0 
1.0 0:9.2 1:-9.3 2:2.7 3:-4.7 4:30.0 
0.7230937847474304 0:-2.4 1:-3.3 2:3.7 3:2.8 4:30.0 
1.0 0:-3.5 1:-1.1 2:2.9 3:-3.4 4:30.0 
0.9282415595667176 0:4.1 1:5.6 2:-4.7 3:-0.7 4:30.0 
1.0 0:-2.3 1:1.3 2:15.1 3:6.2 4:30.0 
1.0 0:-3.5 1:0.3 2:0.4 3:-1.9 4:30.0 
1.0 0:0.3 1:3.0 2:1.9 3:0.9 4:30.0 
0.06395746246015654 0:1.6 1:4.9 2:-3.4 3:-0.8 4:30.0 
1.0 0:0.1 1:-2.1 2:0.1 3:1.5 4:30.0 
1.0 0:9.5 1:2.4 2:-4.6 3:-1.8 4:30.0 
1.0 0:2.5 1:6.1 2:1.6 3:0.9 4:30.0 
1.0 0:2.4 1:-0.8 2:-1.6 3:-2.0 4:30.0 
1.0 0:-0.9 1:5.4 2:-2.3 3:0.9 4:30.0 
0.8462233506704664 0:5.8 1:-13.8 2:7.9 3:-7.2 4:30.0 
1.0 0:1.3 1:-2.2 2:-7.5 3:-4.0 4:30.0 
1.0 0:0.2 1:-0.8 2:-0.9 3:0.7 4:30.0 
0.7574686009057953 0:-3.1 1:1.9 2:1.8 3:3.0 4:30.0 
1.0 0:-2.2 1:-0.7 2:-0.2 3:-3.0 4:30.0 
1.0 0:7.5 1:1.7 2:-3.6 3:3.7 4:30.0 
0.8001772994966586 0:0.2 1:-3.4 2:0.0 3:-1.0 4:30.0 
1.0 0:-2.4 1:0.7 2:0.2 3:3.6 4:30.0 
0.7614710261841096 0:6.2 1:-0.5 2:-1.2 3:-8.1 4:30.0 
0.8245823234982804 0:-1.3 1:-2.8 2:-1.7 3:-1.3 4:30.0 
0.9037150785567574 0:-4.1 1:5.4 2:0.3 3:1.3 4:30.0 
1.0 0:-10.7 1:-1.8 2:2.9 3:-6.9 4:30.0 
0.7612256069758847 0:3.7 1:7.0 2:-3.5 3:2.2 4:30.0 
0.9963798723406728 0:-2.0 1:-0.3 2:-5.7 3:0.6 4:30.0 
1.0 0:1.1 1:-2.0 2:2.0 3:-1.0 4:30.0 
0.776956891126261 0:-6.3 1:5.6 2:-0.2 3:-1.2 4:30.0 
0.9329554232986549 0:3.9 1:-2.0 2:4.2 3:11.4 4:30.0 
1.0 0:-10.7 1:3.2 2:-1.5 3:19.6 4:30.0 
1.0 0:-2.6 1:-1.5 2:-1.1 3:2.8 4:30.0 
1.0 0:-3.7 1:1.8 2:2.7 3:1.0 4:30.0 
1.0 0:-14.5 1:0.2 2:-9.0 3:6.4 4:30.0 
1.0 0:12.4 1:-7.6 2:-3.4 3:-7.0 4:30.0 
1.0 0:-1.7 1:-0.3 2:0.2 3:1.9 4:30.0 
0.8078576198119521 0:0.4 1:1.9 2:-0.1 3:4.8 4:30.0 
0.6877906614282431 0:-4.0 1:1.5 2:-2.3 3:9.6 4:30.0 
1.0 0:5.3 1:-1.4 2:-1.1 3:-2.2 4:30.0 
1.0 0:2.7 1:-5.4 2:4.2 3:2.7 4:30.0 
1.0 0:-2.2 1:-5.3 2:-0.3 3:5.2 4:30.0 
1.0 0:7.9 1:-4.5 2:0.8 3:0.0 4:30.0 
1.0 0:-0.3 1:-2.1 2:-2.0 3:-0.7 4:30.0 
1.0 0:1.1 1:0.5 2:-0.2 3:3.5 4:30.0 
0.8748965553155309 0:-1.8 1:-2.0 2:-1.4 3:7.6 4:30.0 
1.0 0:4.2 1:-0.4 2:-2.7 3:0.8 4:30.0 
1.0 0:-1.0 1:0.3 2:1.2 3:0.2 4:30.0 
0.4711258127337542 0:-1.6 1:3.5 2:2.5 3:1.0 4:30.0 
1.0 0:4.3 1:2.7 2:5.3 3:1.7 4:30.0 
0.6947051494697428 0:-1.7 1:4.4 2:0.8 3:-1.4 4:30.0 
1.0 0:2.5 1:3.7 2:2.5 3:-0.3 4:30.0 
0.06465157820856016 0:-2.5 1:1.4 2:2.2 3:3.1 4:30.0 
0.7626692078766653 0:-8.6 1:6.4 2:-5.8 3:-0.9 4:30.0 
0.8469877971262159 0:8.0 1:-13.8 2:7.8 3:-7.2 4:30.0 
1.0 0:-0.5 1:1.2 2:-0.4 3:1.4 4:30.0 
1.0 0:-2.9 1:0.1 2:7.2 3:5.8 4:30.0 
1.0 0:-5.4 1:-3.3 2:-0.2 3:5.8 4:30.0 
1.0 0:7.2 1:2.1 2:0.5 3:-10.4 4:30.0 
1.0 0:-0.4 1:-3.5 2:0.5 3:-3.4 4:30.0 
0.9959644078878411 0:-5.8 1:9.4 2:-9.6 3:6.6 4:30.0 
0.7012327536804913 0:0.6 1:-6.3 2:2.7 3:-1.3 4:30.0 
1.0 0:1.5 1:1.0 2:-1.9 3:-6.9 4:30.0 
1.0 0:-2.2 1:-1.6 2:1.8 3:0.8 4:30.0 
0.9582896880928781 0:-4.9 1:2.7 2:-4.1 3:7.5 4:30.0 
1.0 0:0.5 1:-3.4 2:-11.7 3:-6.3 4:30.0 
1.0 0:5.1 1:-2.5 2:9.3 3:-1.0 4:30.0 
1.0 0:1.4 1:1.7 2:0.1 3:1.8 4:30.0 
0.4913263947070722 0:-1.6 1:2.6 2:0.3 3:1.3 4:30.0 
0.5953288920450317 0:-0.6 1:0.4 2:-2.4 3:6.5 4:30.0 
1.0 0:3.8 1:-3.4 2:-0.1 3:-9.6 4:30.0 
1.0 0:-4.6 1:1.4 2:-2.7 3:3.6 4:30.0 
1.0 0:-2.6 1:4.1 2:-5.4 3:3.5 4:30.0 
1.0 0:-5.7 1:-13.0 2:-2.0 3:-20.1 4:30.0 
0.5007041006426683 0:-0.2 1:4.4 2:0.7 3:1.5 4:30.0 
1.0 0:0.0 1:-0.8 2:2.7 3:-0.4 4:30.0 
1.0 0:-1.3 1:0.9 2:2.3 3:3.3 4:30.0 
1.0 0:-2.7 1:2.8 2:-1.8 3:2.6 4:30.0 
0.6046901192709823 0:-6.4 1:6.1 2:-0.2 3:1.6 4:30.0 
1.0 0:-1.9 1:0.5 2:7.4 3:-1.9 4:30.0 
1.0 0:-1.5 1:-5.3 2:7.3 3:-6.8 4:30.0 
0.8048165998511213 0:4.3 1:-0.7 2:-3.7 3:-1.8 4:30.0 
0.6509117998738644 0:2.4 1:4.9 2:-3.2 3:3.5 4:30.0 
1.0 0:5.7 1:4.6 2:-1.9 3:0.7 4:30.0 
1.0 0:3.4 1:-0.6 2:1.1 3:-4.5 4:30.0 
1.0 0:3.8 1:-0.2 2:0.9 3:3.4 4:30.0 
1.0 0:-3.3 1:4.6 2:4.6 3:3.0 4:30.0 
1.0 0:1.8 1:-2.4 2:4.3 3:-0.1 4:30.0 
1.0 0:2.3 1:-0.9 2:0.1 3:2.8 4:30.0 
1.0 0:1.1 1:0.3 2:-0.2 3:-0.8 4:30.0 
1.0 0:6.9 1:-1.0 2:-7.1 3:1.9 4:30.0 
1.0 0:-1.7 1:-2.1 2:3.4 3:1.2 4:30.0 
0.6613827362973993 0:3.4 1:-3.3 2:-2.1 3:-0.3 4:30.0 
0.7843160772522951 0:2.1 1:-4.8 2:4.1 3:-0.2 4:30.0 
1.0 0:1.7 1:4.3 2:-2.3 3:0.9 4:30.0 
1.0 0:-0.7 1:-3.8 2:11.7 3:-2.4 4:30.0 
1.0 0:-0.9 1:3.8 2:0.2 3:2.6 4:30.0 
1.0 0:1.0 1:2.0 2:0.5 3:0.6 4:30.0 
1.0 0:-8.0 1:-0.1 2:10.0 3:0.1 4:30.0 
1.0 0:-7.8 1:-1.4 2:1.9 3:-8.0 4:30.0 
0.9373870680159322 0:4.1 1:-2.4 2:1.9 3:10.2 4:30.0 
1.0 0:-0.6 1:-1.8 2:-1.6 3:0.9 4:30.0 
1.0 0:1.1 1:-0.9 2:-0.5 3:-3.5 4:30.0 
1.0 0:3.4 1:4.2 2:4.9 3:-6.5 4:30.0 
1.0 0:0.2 1:0.8 2:0.0 3:-2.6 4:30.0 
1.0 0:-1.1 1:3.5 2:-4.2 3:6.9 4:30.0 
1.0 0:-10.1 1:-2.6 2:2.3 3:1.5 4:30.0 
1.0 0:-1.2 1:2.6 2:3.0 3:6.1 4:30.0 
1.0 0:2.4 1:-1.2 2:-2.8 3:-0.2 4:30.0 
0.5027589532346339 0:-0.7 1:4.4 2:-1.4 3:1.1 4:30.0 
0.988112491247922 0:2.9 1:-6.1 2:1.4 3:-4.3 4:30.0 
0.6282715283380589 0:2.0 1:-2.0 2:-3.6 3:-3.5 4:30.0 
0.5561850043249751 0:-1.8 1:5.2 2:0.9 3:-0.7 4:30.0 
0.18961730209978692 0:-3.2 1:-0.4 2:-2.9 3:5.2 4:30.0 
1.0 0:2.2 1:-5.4 2:0.7 3:5.2 4:30.0 
0.9666710218999583 0:-7.6 1:5.1 2:-2.8 3:6.2 4:30.0 
1.0 0:-0.6 1:1.1 2:2.3 3:-2.3 4:30.0 
0.03933249737450734 0:3.5 1:3.1 2:-4.2 3:0.3 4:30.0 
1.0 0:2.8 1:-4.0 2:0.0 3:-3.3 4:30.0 
0.4249236881243735 0:-2.7 1:4.2 2:-0.8 3:0.6 4:30.0 
0.7702612599262382 0:-1.4 1:1.1 2:1.9 3:3.2 4:30.0 
1.0 0:-4.6 1:3.1 2:-0.1 3:2.9 4:30.0 
0.7248507739382866 0:-2.6 1:-0.5 2:1.6 3:3.9 4:30.0 
1.0 0:-4.0 1:-1.8 2:-1.3 3:-1.6 4:30.0 
0.793509146691148 0:-5.3 1:1.0 2:-1.3 3:9.1 4:30.0 
1.0 0:3.3 1:2.0 2:-5.6 3:2.2 4:30.0 
0.537980217044648 0:2.7 1:-5.7 2:-2.4 3:-3.8 4:30.0 
0.8648778500894005 0:-3.1 1:-1.1 2:4.1 3:3.3 4:30.0 
0.5695737749609265 0:-2.5 1:0.7 2:-7.3 3:2.7 4:30.0 
0.138954197507612 0:0.0 1:-2.1 2:2.1 3:-1.6 4:30.0 
1.0 0:-1.7 1:2.5 2:-0.4 3:2.2 4:30.0 
1.0 0:-1.0 1:2.4 2:6.0 3:8.8 4:30.0 
1.0 0:-3.8 1:1.2 2:1.1 3:3.9 4:30.0 
1.0 0:-1.1 1:-1.0 2:1.1 3:-0.1 4:30.0 
0.8744042353089889 0:-6.6 1:4.2 2:-2.2 3:-1.7 4:30.0 
1.0 0:-2.8 1:8.4 2:-8.9 3:1.5 4:30.0 
1.0 0:9.4 1:-4.4 2:-0.8 3:2.4 4:30.0 
1.0 0:2.3 1:1.9 2:-0.9 3:-4.0 4:30.0 
0.5625902934632451 0:-0.8 1:1.1 2:1.1 3:5.2 4:30.0 
1.0 0:7.0 1:4.5 2:-4.6 3:-1.9 4:30.0 
1.0 0:-2.9 1:3.7 2:-10.8 3:-4.1 4:30.0 
1.0 0:2.1 1:2.4 2:2.0 3:-1.1 4:30.0 
1.0 0:-1.0 1:1.2 2:-2.1 3:4.4 4:30.0 
0.9255118137477012 0:7.6 1:0.9 2:-4.6 3:-3.0 4:30.0 
0.9427895983666567 0:-2.4 1:-3.8 2:-2.5 3:9.0 4:30.0 
1.0 0:-0.4 1:2.9 2:-2.7 3:2.3 4:30.0 
1.0 0:-3.3 1:1.7 2:0.7 3:1.9 4:30.0 
1.0 0:0.7 1:9.0 2:-9.8 3:-3.0 4:30.0 
1.0 0:2.3 1:-5.2 2:-4.1 3:-3.6 4:30.0 
1.0 0:-2.9 1:-1.3 2:1.0 3:-1.3 4:30.0 
1.0 0:8.8 1:-1.3 2:1.2 3:0.6 4:30.0 
0.8528961793743162 0:-1.6 1:-0.2 2:-1.8 3:5.4 4:30.0 
1.0 0:1.2 1:-2.0 2:-1.7 3:-2.1 4:30.0 
1.0 0:-2.4 1:2.5 2:0.2 3:-0.4 4:30.0 
1.0 0:-6.5 1:3.0 2:0.3 3:-1.0 4:30.0 
1.0 0:-5.1 1:6.8 2:-2.8 3:-0.7 4:30.0 
1.0 0:3.5 1:-0.2 2:-7.4 3:-3.1 4:30.0 
1.0 0:0.5 1:0.9 2:1.2 3:1.4 4:30.0 
0.9489234543529705 0:3.0 1:-1.8 2:-6.3 3:4.2 4:30.0 
0.8494968787453534 0:7.4 1:-5.6 2:0.9 3:-2.5 4:30.0 
0.6966945172459416 0:3.6 1:-6.6 2:3.8 3:3.0 4:30.0 
1.0 0:2.0 1:2.4 2:-0.2 3:2.0 4:30.0 
0.7829224825994708 0:1.6 1:3.9 2:-4.3 3:-1.4 4:30.0 
0.7849664834442176 0:5.2 1:2.2 2:-2.5 3:-0.3 4:40.0 
1.0 0:-10.6 1:0.7 2:-0.6 3:-1.1 4:40.0 
1.0 0:10.8 1:-13.2 2:0.6 3:-1.9 4:40.0 
1.0 0:-1.7 1:-0.2 2:1.8 3:1.2 4:40.0 
1.0 0:4.8 1:-2.6 2:-0.3 3:5.0 4:40.0 
0.8275699333009152 0:-5.6 1:-1.6 2:2.1 3:-1.0 4:40.0 
0.626104562244746 0:3.5 1:3.1 2:-1.5 3:-5.4 4:40.0 
1.0 0:-2.5 1:3.1 2:1.6 3:-4.0 4:40.0 
1.0 0:-1.0 1:1.0 2:1.0 3:1.8 4:40.0 
1.0 0:1.3 1:-13.7 2:5.5 3:-4.1 4:40.0 
0.7763789653541376 0:5.7 1:0.5 2:-4.3 3:-6.3 4:40.0 
1.0 0:4.0 1:0.0 2:-1.9 3:2.0 4:40.0 
0.780344938881954 0:3.3 1:-0.2 2:-5.0 3:-1.4 4:40.0 
1.0 0:8.5 1:-3.7 2:8.2 3:-0.1 4:40.0 
1.0 0:-2.3 1:-2.2 2:4.7 3:2.0 4:40.0 
1.0 0:-1.5 1:-3.9 2:2.2 3:2.7 4:40.0 
0.6202551602050076 0:2.8 1:-3.6 2:0.1 3:-4.4 4:40.0 
0.7777113056553633 0:-4.9 1:-6.6 2:1.0 3:-2.9 4:40.0 
1.0 0:-0.8 1:8.5 2:-1.0 3:4.0 4:40.0 
1.0 0:3.7 1:4.9 2:2.2 3:4.1 4:40.0 
1.0 0:-3.8 1:5.0 2:-1.6 3:-2.9 4:40.0 
0.809778437373536 0:1.1 1:-1.5 2:-1.6 3:-4.1 4:40.0 
0.7794125155061373 0:1.4 1:-1.5 2:-1.5 3:3.7 4:40.0 
0.957596606429259 0:4.7 1:5.7 2:-6.2 3:-4.0 4:40.0 
1.0 0:6.3 1:-5.6 2:4.5 3:-4.3 4:40.0 
1.0 0:-5.0 1:0.1 2:1.6 3:-0.3 4:40.0 
1.0 0:-7.0 1:7.3 2:0.2 3:-1.6 4:40.0 
0.43577541533277847 0:-1.8 1:-3.6 2:3.2 3:-0.4 4:40.0 
0.9044115294106461 0:7.6 1:4.1 2:-6.8 3:-2.4 4:40.0 
0.8890428554295717 0:1.3 1:-0.4 2:-2.2 3:4.0 4:40.0 
1.0 0:4.2 1:-0.8 2:1.4 3:-0.9 4:40.0 
0.982775717672136 0:-0.5 1:5.3 2:3.0 3:-5.2 4:40.0 
1.0 0:0.4 1:0.9 2:-0.5 3:3.0 4:40.0 
1.0 0:1.1 1:0.1 2:-1.4 3:0.0 4:40.0 
1.0 0:9.4 1:-1.0 2:-0.5 3:4.2 4:40.0 
0.6040136262795046 0:-6.0 1:2.0 2:-1.1 3:0.0 4:40.0 
0.7961825023078839 0:-0.4 1:-5.5 2:0.3 3:-1.0 4:40.0 
0.6125733245315126 0:1.9 1:-3.6 2:6.1 3:-1.6 4:40.0 
1.0 0:1.4 1:-7.3 2:1.2 3:-5.8 4:40.0 
1.0 0:-4.2 1:12.1 2:-0.4 3:-2.1 4:40.0 
0.42603202789421246 0:1.4 1:0.3 2:-0.6 3:0.0 4:40.0 
1.0 0:0.9 1:-7.6 2:-2.2 3:-12.1 4:40.0 
1.0 0:-1.4 1:1.5 2:-1.9 3:0.4 4:40.0 
1.0 0:-4.6 1:-0.2 2:-0.7 3:4.3 4:40.0 
1.0 0:-1.7 1:-0.5 2:-2.1 3:-1.9 4:40.0 
1.0 0:-1.9 1:4.3 2:2.5 3:2.3 4:40.0 
1.0 0:-4.0 1:-7.1 2:5.0 3:0.8 4:40.0 
1.0 0:-1.1 1:4.2 2:-6.1 3:-0.1 4:40.0 
0.709062850661348 0:9.7 1:-4.8 2:-8.0 3:-0.2 4:40.0 
1.0 0:-3.5 1:-1.6 2:-1.5 3:0.4 4:40.0 
1.0 0:0.2 1:4.7 2:6.1 3:-2.4 4:40.0 
1.0 0:7.0 1:-1.4 2:-5.8 3:2.5 4:40.0 
1.0 0:8.4 1:-3.6 2:1.8 3:-4.9 4:40.0 
1.0 0:-2.4 1:1.9 2:1.2 3:-1.0 4:40.0 
1.0 0:-12.7 1:9.2 2:-0.3 3:-1.2 4:40.0 
1.0 0:0.0 1:-9.2 2:7.3 3:-8.6 4:40.0 
1.0 0:-0.6 1:0.4 2:7.0 3:2.2 4:40.0 
1.0 0:1.7 1:2.3 2:3.1 3:0.3 4:40.0 
0.644240839818519 0:5.1 1:-3.3 2:1.6 3:4.8 4:40.0 
1.0 0:5.6 1:0.5 2:4.9 3:3.2 4:40.0 
1.0 0:-1.2 1:-3.6 2:-1.5 3:-1.5 4:40.0 
0.7504564618387506 0:3.1 1:1.1 2:-2.0 3:1.3 4:40.0 
0.7660598380805809 0:7.1 1:-2.3 2:0.2 3:-1.6 4:40.0 
1.0 0:-3.8 1:0.9 2:-2.8 3:-4.2 4:40.0 
1.0 0:-0.5 1:-1.4 2:-1.3 3:2.0 4:40.0 
1.0 0:-0.1 1:1.6 2:4.7 3:-0.5 4:40.0 
1.0 0:-2.5 1:-0.7 2:1.9 3:10.2 4:40.0 
0.5759942876831214 0:0.2 1:0.4 2:-1.3 3:-4.3 4:40.0 
0.3386732880926115 0:2.0 1:1.6 2:2.1 3:1.2 4:40.0 
1.0 0:-8.2 1:8.0 2:0.0 3:3.4 4:40.0 
1.0 0:2.4 1:-22.2 2:3.5 3:-14.9 4:40.0 
1.0 0:0.2 1:0.9 2:-1.0 3:2.1 4:40.0 
1.0 0:3.6 1:-0.8 2:-2.3 3:1.2 4:40.0 
1.0 0:2.6 1:7.8 2:-2.3 3:-1.2 4:40.0 
0.9063072548635138 0:3.5 1:-0.8 2:2.0 3:-0.7 4:40.0 
0.7550105127592034 0:-3.4 1:-0.3 2:3.7 3:2.5 4:40.0 
0.9713214341454867 0:3.6 1:1.1 2:-0.6 3:-0.7 4:40.0 
0.9029116889250247 0:1.2 1:-2.4 2:4.9 3:-5.6 4:40.0 
0.4033867763265327 0:-1.7 1:5.1 2:-0.7 3:2.5 4:40.0 
1.0 0:-4.2 1:-2.5 2:3.4 3:4.1 4:40.0 
1.0 0:-11.0 1:8.9 2:3.0 3:2.7 4:40.0 
1.0 0:1.4 1:0.2 2:-0.9 3:0.5 4:40.0 
1.0 0:-7.4 1:3.3 2:5.2 3:10.5 4:40.0 
1.0 0:-4.0 1:0.3 2:0.0 3:0.5 4:40.0 
0.7584435263934559 0:1.1 1:-3.1 2:-2.5 3:1.5 4:40.0 
1.0 0:2.5 1:-2.2 2:-1.2 3:1.4 4:40.0 
0.25663192001224194 0:5.4 1:-2.1 2:-0.1 3:-2.3 4:40.0 
0.12816813758800735 0:1.0 1:-1.1 2:1.3 3:3.5 4:40.0 
1.0 0:3.5 1:4.3 2:-2.6 3:1.4 4:40.0 
1.0 0:2.2 1:-0.8 2:-5.6 3:3.9 4:40.0 
0.7199578899858144 0:3.1 1:4.1 2:-1.3 3:-3.7 4:40.0 
0.7332642050757282 0:7.3 1:0.6 2:-3.6 3:-5.3 4:40.0 
0.40091813755311406 0:3.8 1:-1.0 2:-0.9 3:-6.1 4:40.0 
1.0 0:5.1 1:-6.8 2:1.2 3:3.9 4:40.0 
1.0 0:-4.9 1:7.4 2:-3.0 3:0.7 4:40.0 
1.0 0:7.1 1:-3.6 2:-2.1 3:1.3 4:40.0 
1.0 0:-1.8 1:1.3 2:-1.5 3:0.3 4:40.0 
1.0 0:0.3 1:-0.9 2:4.9 3:0.6 4:40.0 
1.0 0:1.3 1:5.6 2:1.7 3:9.8 4:40.0 
0.9022745760943885 0:3.6 1:0.8 2:-0.9 3:-2.6 4:40.0 
1.0 0:-5.1 1:1.7 2:-1.2 3:-1.3 4:40.0 
1.0 0:-7.6 1:2.9 2:-6.6 3:-2.0 4:40.0 
1.0 0:-0.8 1:-7.2 2:-3.3 3:-6.9 4:40.0 
0.3357664670664793 0:1.1 1:-2.0 2:-0.3 3:5.1 4:40.0 
0.9088727613684507 0:2.1 1:0.2 2:2.1 3:0.7 4:40.0 
0.9668875316711137 0:3.1 1:-1.9 2:2.8 3:-0.5 4:40.0 
1.0 0:4.1 1:1.5 2:0.4 3:3.9 4:40.0 
1.0 0:5.3 1:8.4 2:4.0 3:2.3 4:40.0 
0.9976534416343835 0:1.1 1:2.7 2:2.3 3:2.5 4:40.0 
1.0 0:2.2 1:1.0 2:-1.1 3:-0.4 4:40.0 
1.0 0:-2.1 1:-1.4 2:-1.7 3:8.5 4:40.0 
0.8119656450795498 0:-0.7 1:-3.6 2:-3.6 3:-7.5 4:40.0 
1.0 0:-3.9 1:-3.8 2:6.1 3:1.4 4:40.0 
1.0 0:6.1 1:-0.5 2:1.8 3:0.3 4:40.0 
0.028638183098381027 0:0.7 1:-1.0 2:-1.8 3:3.6 4:40.0 
0.8335744882115088 0:5.1 1:-3.3 2:-2.2 3:-3.0 4:40.0 
1.0 0:-8.0 1:0.6 2:0.1 3:2.2 4:40.0 
1.0 0:-3.0 1:0.1 2:-7.2 3:1.4 4:40.0 
1.0 0:4.3 1:-12.9 2:3.3 3:-3.4 4:40.0 
1.0 0:-0.4 1:-0.4 2:-1.0 3:-1.7 4:40.0 
1.0 0:10.2 1:1.6 2:1.7 3:5.2 4:40.0 
1.0 0:-0.7 1:-1.9 2:1.4 3:1.9 4:40.0 
0.5949363554822192 0:-1.0 1:5.2 2:-1.8 3:2.3 4:40.0 
0.45641678459938556 0:-1.9 1:2.2 2:-0.4 3:2.5 4:40.0 
1.0 0:6.7 1:0.0 2:-12.7 3:3.3 4:40.0 
0.8041025416367887 0:0.3 1:-1.5 2:6.5 3:-5.8 4:40.0 
1.0 0:1.4 1:-1.3 2:0.9 3:-0.8 4:40.0 
0.3111957208400678 0:1.1 1:-4.1 2:2.0 3:-0.2 4:40.0 
1.0 0:-13.9 1:-0.1 2:6.8 3:-3.7 4:40.0 
1.0 0:1.5 1:5.3 2:3.0 3:19.4 4:40.0 
0.6163926432344611 0:-4.6 1:3.5 2:-3.3 3:5.8 4:40.0 
1.0 0:3.9 1:-2.1 2:1.4 3:2.4 4:40.0 
1.0 0:-9.3 1:2.3 2:2.4 3:4.3 4:40.0 
0.9492564961470747 0:1.6 1:2.4 2:-3.0 3:-4.3 4:40.0 
1.0 0:-2.2 1:-8.1 2:0.7 3:-3.1 4:40.0 
1.0 0:0.1 1:5.7 2:1.2 3:-0.1 4:40.0 
1.0 0:-2.4 1:-1.1 2:-0.3 3:-1.3 4:40.0 
0.8953969228467822 0:2.2 1:-3.1 2:3.7 3:5.5 4:40.0 
0.7673419139927389 0:1.6 1:-0.1 2:-0.7 3:-3.8 4:40.0 
0.9378564131749537 0:-1.5 1:-2.2 2:-5.8 3:1.1 4:40.0 
0.8572580922741464 0:-2.8 1:-1.9 2:3.9 3:1.3 4:40.0 
1.0 0:8.1 1:-10.0 2:4.8 3:-11.5 4:40.0 
1.0 0:-1.6 1:-2.2 2:2.1 3:-0.3 4:40.0 
0.45444413844526144 0:-4.7 1:-5.5 2:2.0 3:-2.4 4:40.0 
0.9127192414032435 0:-2.5 1:1.3 2:-2.7 3:2.4 4:40.0 
1.0 0:-0.1 1:-3.1 2:-6.8 3:0.1 4:40.0 
1.0 0:-0.7 1:2.7 2:-1.2 3:0.3 4:40.0 
0.9258834249567564 0:-2.1 1:10.4 2:2.1 3:2.0 4:40.0 
1.0 0:-6.8 1:1.4 2:4.1 3:1.5 4:40.0 
1.0 0:5.2 1:1.1 2:2.8 3:-4.5 4:40.0 
1.0 0:0.4 1:-6.2 2:-3.6 3:0.7 4:40.0 
0.7260579243472909 0:4.1 1:-3.5 2:-0.2 3:-0.6 4:40.0 
1.0 0:1.8 1:-5.0 2:6.3 3:-4.8 4:40.0 
0.3191335149714845 0:4.8 1:-0.5 2:-2.5 3:-4.2 4:40.0 
1.0 0:5.3 1:-5.8 2:-1.9 3:4.5 4:40.0 
1.0 0:9.7 1:1.4 2:-4.1 3:-0.2 4:40.0 
1.0 0:7.8 1:-1.4 2:0.3 3:0.5 4:40.0 
1.0 0:0.9 1:-0.9 2:-4.0 3:2.7 4:40.0 
0.6652203943574918 0:1.0 1:3.6 2:1.1 3:3.3 4:40.0 
0.7647170320185223 0:6.0 1:-6.1 2:1.3 3:-3.0 4:40.0 
1.0 0:9.5 1:4.6 2:-7.7 3:-4.5 4:40.0 
1.0 0:-1.2 1:-5.2 2:-0.3 3:-9.5 4:40.0 
0.7402597249499241 0:1.1 1:0.3 2:2.2 3:5.0 4:40.0 
1.0 0:-4.5 1:2.9 2:7.3 3:7.3 4:40.0 
0.9920942736826638 0:0.7 1:-3.2 2:1.9 3:3.6 4:40.0 
0.4700355336135111 0:1.8 1:-2.1 2:-0.6 3:-4.9 4:40.0 
0.8874082064610914 0:-4.1 1:1.1 2:-1.8 3:1.6 4:40.0 
0.8287768119871951 0:-3.8 1:2.8 2:-7.0 3:-1.9 4:40.0 
1.0 0:3.7 1:0.7 2:-0.7 3:-0.5 4:40.0 
1.0 0:-2.7 1:-3.9 2:1.9 3:-2.1 4:40.0 
1.0 0:-10.7 1:8.4 2:3.2 3:-4.1 4:40.0 
0.7654943753657854 0:0.2 1:1.5 2:7.6 3:3.4 4:40.0 
0.08760584444263837 0:2.8 1:-2.3 2:0.6 3:1.0 4:40.0 
1.0 0:1.8 1:-5.3 2:3.2 3:1.0 4:40.0 
0.6647418725715222 0:3.6 1:-3.9 2:1.8 3:-5.9 4:40.0 
1.0 0:0.0 1:4.5 2:-7.6 3:-4.4 4:40.0 
0.5956116105533648 0:-5.7 1:3.8 2:0.0 3:-0.2 4:40.0 
0.5748058625081319 0:-4.2 1:3.7 2:-4.8 3:5.5 4:40.0 
0.10179122012860353 0:2.0 1:-2.7 2:-0.4 3:-3.3 4:40.0 
1.0 0:3.5 1:-4.0 2:-7.3 3:-6.8 4:40.0 
1.0 0:-3.8 1:1.1 2:0.7 3:0.9 4:40.0 
0.10712815471571172 0:4.8 1:-4.6 2:-1.8 3:2.4 4:40.0 
0.7730917357754781 0:5.2 1:-3.0 2:2.4 3:-5.6 4:40.0 
1.0 0:1.9 1:0.4 2:1.4 3:0.9 4:40.0 
0.1609902020269282 0:-1.5 1:-3.7 2:0.1 3:1.3 4:40.0 
0.8834545869227711 0:-5.6 1:4.3 2:-3.7 3:-0.5 4:40.0 
1.0 0:-1.4 1:-3.6 2:-1.1 3:0.8 4:40.0 
0.734829621576347 0:-3.2 1:-6.7 2:5.2 3:-0.3 4:40.0 
1.0 0:1.8 1:3.2 2:-0.5 3:1.7 4:40.0 
1.0 0:2.6 1:3.5 2:-3.6 3:-2.3 4:40.0 
0.5612675490416952 0:-1.2 1:1.5 2:0.1 3:1.2 4:40.0 
1.0 0:-0.1 1:0.8 2:-2.4 3:-1.0 4:40.0 
1.0 0:1.0 1:1.4 2:-4.1 3:-0.6 4:40.0 
0.9252281631173799 0:3.1 1:-10.8 2:5.5 3:-2.1 4:40.0 
1.0 0:-5.3 1:1.1 2:-1.8 3:6.5 4:40.0 
1.0 0:2.3 1:-2.5 2:-0.9 3:-2.5 4:40.0 
1.0 0:-7.5 1:-2.0 2:13.9 3:11.8 4:40.0 
1.0 0:8.6 1:-3.4 2:5.7 3:2.4 4:40.0 
1.0 0:-3.6 1:-0.6 2:2.6 3:4.7 4:40.0 
1.0 0:6.4 1:0.6 2:0.0 3:-3.4 4:40.0 
1.0 0:-5.0 1:2.4 2:-6.3 3:-4.1 4:40.0 
0.18845738540380086 0:3.8 1:1.5 2:-3.9 3:1.9 4:40.0 
1.0 0:-0.4 1:-1.2 2:0.2 3:-3.6 4:40.0 
0.958609084491784 0:0.2 1:-0.8 2:-0.9 3:-0.1 4:40.0 
1.0 0:2.1 1:0.4 2:-3.5 3:1.4 4:40.0 
0.9536801170856725 0:-0.1 1:-5.8 2:4.1 3:1.4 4:40.0 
1.0 0:-3.9 1:0.2 2:-7.9 3:-3.8 4:40.0 
1.0 0:-1.5 1:3.9 2:1.0 3:4.4 4:40.0 
1.0 0:-7.5 1:6.1 2:-5.3 3:-3.6 4:40.0 
0.5462587320890332 0:2.0 1:-5.5 2:5.9 3:-2.8 4:40.0 
1.0 0:-1.4 1:-1.1 2:1.5 3:-9.4 4:40.0 
0.4091972451910394 0:1.6 1:2.1 2:2.3 3:3.2 4:40.0 
1.0 0:0.1 1:0.2 2:-2.4 3:2.5 4:40.0 
1.0 0:2.0 1:-1.9 2:4.1 3:1.4 4:40.0 
1.0 0:-2.3 1:3.7 2:0.1 3:-0.8 4:40.0 
1.0 0:-3.1 1:-3.2 2:2.6 3:-2.0 4:40.0 
0.542742000532438 0:-4.8 1:7.5 2:-6.8 3:2.6 4:40.0 
0.9948208215900336 0:3.3 1:-8.5 2:5.6 3:-0.2 4:40.0 
0.37325451721101816 0:-5.5 1:1.8 2:-0.6 3:1.4 4:40.0 
0.8166034112849601 0:3.8 1:1.6 2:2.9 3:4.9 4:40.0 
1.0 0:-0.5 1:4.0 2:-4.3 3:2.3 4:40.0 
1.0 0:3.6 1:-5.2 2:-2.4 3:-5.0 4:40.0 
0.20983858198484023 0:2.5 1:-1.0 2:1.4 3:3.1 4:40.0 
1.0 0:-9.1 1:6.9 2:-6.7 3:5.9 4:40.0 
1.0 0:11.0 1:-9.8 2:6.0 3:-7.5 4:40.0 
1.0 0:-2.1 1:2.4 2:-8.0 3:-5.6 4:40.0 
0.18386327167930822 0:-3.0 1:3.7 2:-0.3 3:-5.1 4:40.0 
0.21093119916089437 0:1.9 1:-2.7 2:-1.5 3:1.6 4:40.0 
0.4084227179882058 0:3.1 1:-4.4 2:0.2 3:0.6 4:40.0 
0.8539255130505435 0:-0.2 1:6.1 2:-0.2 3:2.0 4:40.0 
0.9387736830601118 0:2.6 1:-9.3 2:3.3 3:-6.7 4:40.0 
1.0 0:0.6 1:0.4 2:-8.0 3:0.7 4:40.0 
1.0 0:4.5 1:-4.9 2:-0.5 3:1.4 4:40.0 
0.8782979173035047 0:1.0 1:-3.4 2:-4.5 3:2.3 4:40.0 
1.0 0:-7.7 1:-2.0 2:-4.7 3:-0.6 4:40.0 
0.6553830174921057 0:-3.1 1:8.0 2:1.9 3:-0.2 4:40.0 
1.0 0:-1.5 1:0.0 2:-2.9 3:2.5 4:40.0 
0.9315607796248951 0:-3.5 1:2.8 2:-1.4 3:-4.1 4:40.0 
1.0 0:-5.9 1:-20.3 2:9.5 3:-16.4 4:40.0 
1.0 0:-5.1 1:-3.8 2:0.3 3:2.1 4:40.0 
1.0 0:1.8 1:-6.3 2:3.9 3:-0.5 4:40.0 
1.0 0:-6.1 1:-0.7 2:3.3 3:-0.1 4:40.0 
0.787611218978449 0:2.6 1:0.8 2:4.4 3:1.2 4:40.0 
1.0 0:0.4 1:1.7 2:1.9 3:2.4 4:40.0 
1.0 0:-1.4 1:0.5 2:2.7 3:-5.1 4:40.0 
1.0 0:-1.8 1:-6.6 2:0.8 3:1.0 4:40.0 
1.0 0:-1.3 1:2.3 2:2.6 3:4.1 4:40.0 
0.8983102176578018 0:6.2 1:-4.2 2:2.2 3:-2.8 4:40.0 
1.0 0:-1.5 1:4.8 2:4.4 3:1.0 4:40.0 
1.0 0:0.3 1:9.9 2:2.1 3:2.7 4:40.0 
1.0 0:-2.7 1:7.6 2:0.3 3:-0.6 4:40.0 
0.9414506616828472 0:-3.7 1:-4.7 2:-0.6 3:1.2 4:40.0 
0.9636790011701842 0:-0.3 1:-3.3 2:1.0 3:-0.5 4:40.0 
1.0 0:6.3 1:4.9 2:-4.3 3:-3.5 4:40.0 
0.7004624700757293 0:5.4 1:-1.7 2:-0.7 3:-6.4 4:40.0 
1.0 0:-3.9 1:3.6 2:-4.3 3:1.3 4:40.0 
0.5651200710731106 0:5.7 1:-1.5 2:5.8 3:0.4 4:40.0 
1.0 0:-5.3 1:-2.7 2:-4.1 3:1.9 4:40.0 
1.0 0:4.9 1:3.1 2:-1.6 3:-1.9 4:40.0 
1.0 0:-8.3 1:1.3 2:2.9 3:8.6 4:40.0 
1.0 0:2.2 1:-0.1 2:1.4 3:2.5 4:40.0 
1.0 0:-3.4 1:6.8 2:-14.7 3:-7.7 4:40.0 
1.0 0:9.9 1:-11.4 2:2.2 3:-6.0 4:40.0 
1.0 0:0.0 1:-0.2 2:1.3 3:1.0 4:40.0 
1.0 0:3.2 1:6.8 2:-1.6 3:-2.9 4:40.0 
1.0 0:-11.3 1:5.6 2:4.5 3:5.4 4:40.0 
0.9683456043580102 0:1.3 1:-2.0 2:0.3 3:2.0 4:40.0 
1.0 0:-1.0 1:2.6 2:1.7 3:0.4 4:40.0 
1.0 0:2.3 1:4.1 2:-4.2 3:2.5 4:40.0 
1.0 0:0.5 1:-12.8 2:8.2 3:-9.5 4:40.0 
0.1968422582966291 0:1.8 1:-3.1 2:2.1 3:1.3 4:40.0 
0.6005124563486203 0:-0.8 1:-5.1 2:3.4 3:-1.3 4:40.0 
0.7662401804610022 0:-3.3 1:5.5 2:-3.3 3:5.6 4:40.0 
1.0 0:7.5 1:-4.4 2:-5.0 3:1.3 4:40.0 
0.6410851262176186 0:-0.8 1:0.5 2:1.5 3:3.7 4:40.0 
1.0 0:1.2 1:1.9 2:-0.4 3:3.0 4:40.0 
0.7920177897451431 0:3.6 1:-1.3 2:1.5 3:5.3 4:40.0 
1.0 0:3.5 1:-3.4 2:-3.7 3:1.9 4:40.0 
1.0 0:-0.3 1:-1.0 2:1.5 3:-1.3 4:40.0 
1.0 0:-2.8 1:4.2 2:-3.0 3:-1.3 4:40.0 
1.0 0:4.3 1:-7.6 2:2.7 3:-5.4 4:40.0 
0.005990390008899943 0:1.3 1:-0.4 2:-1.1 3:-5.0 4:40.0 
0.6668151586306806 0:0.6 1:-4.3 2:-1.2 3:1.2 4:40.0 
1.0 0:-6.5 1:6.8 2:1.4 3:2.1 4:40.0 
1.0 0:4.6 1:1.0 2:4.5 3:-1.2 4:40.0 
1.0 0:-3.5 1:1.4 2:1.9 3:7.7 4:40.0 
0.5500867280837484 0:-2.9 1:0.7 2:-1.3 3:2.4 4:40.0 
1.0 0:1.9 1:-4.1 2:5.6 3:0.1 4:40.0 
1.0 0:-13.8 1:-0.6 2:-3.8 3:6.5 4:40.0 
1.0 0:0.2 1:-9.5 2:8.6 3:-4.7 4:40.0 
1.0 0:2.5 1:-0.9 2:-0.2 3:2.0 4:40.0 
1.0 0:4.5 1:1.3 2:-0.2 3:9.3 4:40.0 
1.0 0:2.2 1:-1.8 2:-0.7 3:0.7 4:40.0 
1.0 0:-0.3 1:-1.6 2:-3.0 3:-8.0 4:40.0 
1.0 0:-0.4 1:0.2 2:0.3 3:3.1 4:40.0 
1.0 0:-0.8 1:8.0 2:-8.4 3:2.1 4:40.0 
1.0 0:6.3 1:1.5 2:4.0 3:0.1 4:40.0 
0.64237276100485 0:-1.8 1:-1.6 2:0.8 3:0.0 4:40.0 
1.0 0:-5.6 1:3.7 2:-1.8 3:3.8 4:40.0 
1.0 0:1.0 1:-3.4 2:-2.1 3:8.1 4:40.0 
1.0 0:6.6 1:-1.5 2:4.9 3:0.8 4:40.0 
1.0 0:-3.4 1:3.5 2:-1.3 3:-6.0 4:40.0 
1.0 0:-3.2 1:4.6 2:2.0 3:0.9 4:40.0 
1.0 0:7.4 1:0.2 2:-2.2 3:2.5 4:40.0 
0.8336084003288224 0:-2.5 1:0.1 2:-6.4 3:-2.6 4:40.0 
0.8507049890439125 0:-4.6 1:5.0 2:-6.1 3:3.8 4:40.0 
1.0 0:7.0 1:-12.6 2:7.1 3:-2.5 4:40.0 
1.0 0:-5.7 1:3.2 2:2.5 3:-4.7 4:40.0 
1.0 0:-0.7 1:0.8 2:0.9 3:0.7 4:40.0 
0.18300797765176297 0:-1.7 1:1.3 2:-0.1 3:0.8 4:40.0 
1.0 0:2.4 1:3.8 2:1.2 3:0.3 4:40.0 
1.0 0:-1.6 1:2.2 2:-2.1 3:-1.2 4:40.0 
0.39451033992949136 0:-3.7 1:3.5 2:1.2 3:-0.1 4:40.0 
0.8158281640317893 0:2.6 1:0.0 2:-5.9 3:-1.8 4:40.0 
0.01921170969436578 0:1.0 1:-3.3 2:-0.6 3:-0.6 4:40.0 
1.0 0:-2.4 1:-2.4 2:-1.7 3:3.3 4:40.0 
0.7330078622733963 0:3.6 1:-1.1 2:-1.8 3:-4.2 4:40.0 
1.0 0:2.6 1:-1.3 2:3.5 3:-3.3 4:40.0 
1.0 0:-0.5 1:4.0 2:2.5 3:7.0 4:40.0 
1.0 0:0.8 1:0.2 2:-0.2 3:6.5 4:40.0 
1.0 0:-4.3 1:-1.7 2:-0.8 3:-2.7 4:40.0 
1.0 0:4.1 1:-4.9 2:-2.5 3:1.6 4:40.0 
1.0 0:-2.9 1:3.9 2:2.0 3:-1.6 4:40.0 
1.0 0:-2.0 1:2.2 2:6.1 3:-0.3 4:40.0 
0.5040850320957729 0:-1.5 1:5.4 2:1.3 3:-4.2 4:40.0 
0.6533012370532105 0:8.4 1:-4.5 2:-8.2 3:-0.6 4:40.0 
1.0 0:-10.5 1:2.2 2:-0.8 3:4.8 4:40.0 
1.0 0:1.0 1:7.3 2:-3.0 3:2.3 4:40.0 
1.0 0:-1.4 1:-1.4 2:-2.4 3:0.5 4:40.0 
0.7230371091813915 0:-4.3 1:0.2 2:1.3 3:2.6 4:40.0 
0.5870511278212353 0:-6.6 1:2.9 2:-0.4 3:1.2 4:40.0 
1.0 0:5.9 1:-1.3 2:-2.5 3:1.7 4:40.0 
1.0 0:-2.2 1:4.1 2:-4.0 3:2.9 4:40.0 
0.9566449470688368 0:-0.4 1:-1.5 2:0.6 3:1.1 4:40.0 
1.0 0:-2.5 1:1.9 2:-1.3 3:-2.4 4:40.0 
1.0 0:9.5 1:-1.2 2:-1.5 3:-4.3 4:40.0 
1.0 0:-4.2 1:4.7 2:4.2 3:6.2 4:40.0 
1.0 0:-6.3 1:0.4 2:4.6 3:4.1 4:40.0 
0.5139681754217482 0:0.8 1:-0.9 2:0.8 3:-0.7 4:40.0 
1.0 0:-8.1 1:7.6 2:-9.1 3:-3.5 4:40.0 
1.0 0:3.0 1:-4.8 2:-6.8 3:2.6 4:40.0 
1.0 0:1.2 1:-1.6 2:-2.2 3:0.2 4:40.0 
1.0 0:-3.0 1:3.7 2:4.4 3:-4.4 4:40.0 
1.0 0:-0.6 1:-2.8 2:-0.5 3:2.8 4:40.0 
1.0 0:-6.8 1:0.5 2:-4.5 3:8.1 4:40.0 
0.9592680527989379 0:-4.8 1:3.3 2:-2.4 3:1.8 4:40.0 
1.0 0:4.7 1:-3.0 2:2.4 3:-0.3 4:40.0 
0.18300235374687784 0:-3.7 1:1.9 2:-0.4 3:0.7 4:40.0 
1.0 0:-7.8 1:-2.9 2:6.7 3:-1.9 4:40.0 
0.8161021414836722 0:-4.9 1:9.0 2:-7.0 3:2.1 4:40.0 
1.0 0:-0.9 1:2.2 2:-2.5 3:2.7 4:40.0 
1.0 0:1.9 1:-0.5 2:-1.3 3:-0.7 4:40.0 
1.0 0:4.2 1:2.2 2:1.4 3:-6.7 4:40.0 
0.9530894469279312 0:4.8 1:0.2 2:-5.2 3:1.7 4:40.0 
1.0 0:-1.0 1:3.0 2:0.2 3:-3.2 4:40.0 
1.0 0:-9.3 1:10.3 2:-2.5 3:-5.5 4:40.0 
1.0 0:-0.7 1:0.9 2:0.7 3:-1.1 4:50.0 
1.0 0:-3.1 1:4.5 2:-0.1 3:2.6 4:50.0 
1.0 0:-5.0 1:7.1 2:-7.0 3:3.4 4:50.0 
0.4672621693257952 0:7.5 1:-4.8 2:2.4 3:-0.6 4:50.0 
1.0 0:0.0 1:-0.3 2:0.7 3:-2.1 4:50.0 
1.0 0:-6.7 1:0.1 2:1.7 3:-1.7 4:50.0 
1.0 0:0.5 1:-5.6 2:-7.0 3:-1.8 4:50.0 
0.7906788249278384 0:3.7 1:-3.5 2:-5.2 3:-6.0 4:50.0 
1.0 0:-1.7 1:2.3 2:4.5 3:8.0 4:50.0 
1.0 0:8.0 1:-3.5 2:-0.1 3:-7.8 4:50.0 
0.42229745228706805 0:-5.4 1:2.9 2:-1.0 3:3.3 4:50.0 
1.0 0:2.7 1:-1.1 2:-0.1 3:1.5 4:50.0 
0.3144891363731905 0:-1.6 1:-5.0 2:1.2 3:0.2 4:50.0 
1.0 0:1.3 1:-0.3 2:-0.8 3:0.9 4:50.0 
1.0 0:3.5 1:-12.4 2:9.8 3:-8.2 4:50.0 
1.0 0:2.5 1:-1.4 2:0.8 3:2.2 4:50.0 
1.0 0:3.2 1:2.2 2:-2.5 3:1.5 4:50.0 
1.0 0:-13.3 1:-0.6 2:1.4 3:6.7 4:50.0 
1.0 0:1.9 1:0.2 2:-3.7 3:-2.4 4:50.0 
1.0 0:-1.0 1:2.0 2:0.6 3:-0.2 4:50.0 
1.0 0:1.1 1:-3.6 2:8.2 3:-3.0 4:50.0 
1.0 0:3.2 1:12.4 2:-2.6 3:1.3 4:50.0 
1.0 0:-3.1 1:-10.0 2:-8.7 3:-3.0 4:50.0 
1.0 0:-1.1 1:-5.1 2:-1.5 3:-0.1 4:50.0 
1.0 0:-10.1 1:4.9 2:-3.1 3:2.5 4:50.0 
0.7701230728614542 0:0.2 1:-5.0 2:0.7 3:-1.8 4:50.0 
1.0 0:-0.9 1:3.6 2:3.8 3:-7.6 4:50.0 
1.0 0:-3.1 1:-1.3 2:4.2 3:2.6 4:50.0 
1.0 0:-6.8 1:3.6 2:-0.2 3:1.4 4:50.0 
0.6891994444287584 0:-0.2 1:-1.4 2:5.6 3:6.5 4:50.0 
1.0 0:-12.1 1:8.7 2:1.4 3:0.1 4:50.0 
1.0 0:0.3 1:1.8 2:3.8 3:-2.2 4:50.0 
1.0 0:0.9 1:-2.9 2:-2.4 3:4.4 4:50.0 
1.0 0:-0.4 1:-1.5 2:-5.9 3:2.2 4:50.0 
0.7921330427476189 0:-0.1 1:-2.6 2:0.1 3:-4.7 4:50.0 
1.0 0:-0.3 1:3.1 2:-4.4 3:3.0 4:50.0 
1.0 0:-0.3 1:-2.7 2:-3.4 3:2.2 4:50.0 
0.0036826646147466455 0:0.3 1:-1.7 2:1.3 3:-4.7 4:50.0 
1.0 0:4.4 1:-0.5 2:-3.9 3:3.0 4:50.0 
1.0 0:-4.7 1:-3.4 2:-1.8 3:7.6 4:50.0 
1.0 0:8.1 1:-3.4 2:0.1 3:0.5 4:50.0 
0.7757882023676073 0:3.7 1:-4.0 2:4.1 3:6.6 4:50.0 
1.0 0:0.6 1:-2.1 2:-0.3 3:-4.7 4:50.0 
0.2993969524469515 0:1.9 1:-2.8 2:2.5 3:-0.5 4:50.0 
1.0 0:-0.2 1:4.0 2:-8.3 3:-3.6 4:50.0 
1.0 0:-10.5 1:-0.8 2:-4.6 3:8.7 4:50.0 
1.0 0:0.1 1:-2.5 2:4.9 3:-0.7 4:50.0 
1.0 0:-10.0 1:3.2 2:9.1 3:7.6 4:50.0 
1.0 0:3.6 1:3.0 2:0.4 3:1.6 4:50.0 
1.0 0:-8.2 1:-0.1 2:1.6 3:8.4 4:50.0 
0.8158217923609032 0:-1.5 1:3.4 2:1.8 3:2.1 4:50.0 
1.0 0:8.1 1:0.9 2:7.5 3:-8.1 4:50.0 
1.0 0:-6.9 1:2.1 2:-7.4 3:-5.7 4:50.0 
1.0 0:-8.2 1:-3.5 2:4.8 3:1.3 4:50.0 
1.0 0:4.1 1:-0.1 2:-3.0 3:1.4 4:50.0 
0.3899211032279603 0:4.8 1:-4.3 2:-1.7 3:-2.9 4:50.0 
1.0 0:-1.1 1:-3.1 2:1.9 3:-1.7 4:50.0 
1.0 0:4.2 1:-2.0 2:-2.8 3:0.6 4:50.0 
0.7545925618902818 0:0.2 1:-9.7 2:-1.1 3:1.3 4:50.0 
1.0 0:3.3 1:6.0 2:-11.0 3:-5.5 4:50.0 
0.08928888133750576 0:-2.8 1:0.3 2:-0.7 3:6.7 4:50.0 
1.0 0:-9.7 1:6.6 2:-2.4 3:-1.2 4:50.0 
0.4581444625836983 0:0.4 1:-6.2 2:1.0 3:-0.7 4:50.0 
1.0 0:3.7 1:-4.8 2:2.1 3:-0.4 4:50.0 
1.0 0:3.2 1:-3.5 2:2.1 3:-2.9 4:50.0 
1.0 0:-5.4 1:4.9 2:-1.7 3:-1.7 4:50.0 
0.15198329394193968 0:6.9 1:-5.7 2:0.7 3:1.1 4:50.0 
1.0 0:-6.0 1:-3.6 2:-2.7 3:13.4 4:50.0 
1.0 0:-2.4 1:1.7 2:-0.1 3:-1.3 4:50.0 
1.0 0:-1.4 1:2.6 2:-0.5 3:2.6 4:50.0 
0.9504080634262883 0:3.6 1:2.5 2:-6.0 3:3.2 4:50.0 
1.0 0:4.8 1:-5.1 2:4.7 3:0.7 4:50.0 
1.0 0:1.2 1:4.1 2:4.7 3:0.0 4:50.0 
1.0 0:-2.6 1:0.3 2:2.2 3:-3.5 4:50.0 
1.0 0:2.1 1:-5.8 2:-4.8 3:1.7 4:50.0 
0.9543406907547313 0:5.4 1:-1.6 2:-2.6 3:-2.4 4:50.0 
0.6866652738792994 0:-0.9 1:-0.4 2:4.4 3:7.5 4:50.0 
0.9909205838389096 0:7.6 1:-5.7 2:0.7 3:-5.9 4:50.0 
1.0 0:-9.4 1:6.0 2:-2.7 3:5.8 4:50.0 
0.4373290328984444 0:2.9 1:-1.5 2:1.8 3:-2.9 4:50.0 
1.0 0:-1.5 1:-1.7 2:-1.3 3:0.3 4:50.0 
1.0 0:4.7 1:0.9 2:1.3 3:-2.3 4:50.0 
1.0 0:0.6 1:-12.5 2:7.9 3:-9.2 4:50.0 
1.0 0:1.4 1:-1.8 2:3.3 3:1.7 4:50.0 
1.0 0:9.0 1:-3.8 2:-4.1 3:1.3 4:50.0 
1.0 0:-11.7 1:-2.5 2:-0.1 3:2.3 4:50.0 
1.0 0:0.8 1:0.2 2:-3.3 3:-0.3 4:50.0 
0.13782138704619146 0:-3.6 1:1.2 2:1.4 3:-1.3 4:50.0 
1.0 0:-4.5 1:-0.2 2:6.9 3:-4.8 4:50.0 
1.0 0:-3.8 1:10.4 2:-3.2 3:4.3 4:50.0 
1.0 0:5.4 1:-9.5 2:-13.5 3:-6.5 4:50.0 
0.7026169499848229 0:-2.2 1:-5.5 2:-0.3 3:0.4 4:50.0 
1.0 0:-6.4 1:3.7 2:-5.5 3:2.9 4:50.0 
1.0 0:5.2 1:-6.0 2:-0.8 3:-1.1 4:50.0 
0.7825265742620319 0:-3.1 1:4.6 2:2.8 3:-3.0 4:50.0 
1.0 0:-3.2 1:-0.7 2:3.6 3:3.5 4:50.0 
1.0 0:-9.4 1:4.6 2:-0.1 3:-1.1 4:50.0 
0.6452670666745012 0:1.6 1:0.0 2:0.2 3:8.3 4:50.0 
1.0 0:-11.4 1:12.8 2:-2.5 3:6.4 4:50.0 
0.440400917491431 0:-3.0 1:3.6 2:3.4 3:-0.9 4:50.0 
0.9742587601480727 0:-4.3 1:-1.3 2:-4.3 3:10.3 4:50.0 
1.0 0:0.1 1:-3.9 2:0.3 3:2.8 4:50.0 
0.7191472084068671 0:4.9 1:-4.2 2:0.9 3:-5.2 4:50.0 
1.0 0:4.2 1:4.8 2:-0.5 3:1.6 4:50.0 
0.7390853641659416 0:1.5 1:-9.6 2:-0.2 3:0.5 4:50.0 
0.994292538173271 0:5.0 1:0.3 2:-3.1 3:-2.2 4:50.0 
1.0 0:-4.9 1:-6.8 2:4.8 3:6.0 4:50.0 
1.0 0:6.3 1:3.3 2:-0.2 3:-0.2 4:50.0 
1.0 0:6.7 1:1.6 2:0.4 3:0.1 4:50.0 
0.9760410531054103 0:-2.6 1:-4.5 2:1.9 3:-4.7 4:50.0 
1.0 0:-4.2 1:1.4 2:1.7 3:-1.2 4:50.0 
1.0 0:7.5 1:-3.2 2:-4.8 3:-2.6 4:50.0 
0.5890020875907237 0:5.0 1:0.6 2:-5.3 3:1.6 4:50.0 
1.0 0:-9.2 1:3.9 2:-4.9 3:4.6 4:50.0 
1.0 0:3.4 1:-13.6 2:4.5 3:-1.9 4:50.0 
1.0 0:6.1 1:8.5 2:-1.7 3:4.0 4:50.0 
1.0 0:10.5 1:-3.4 2:-2.2 3:-2.4 4:50.0 
1.0 0:-4.4 1:3.0 2:-1.7 3:-0.7 4:50.0 
1.0 0:5.4 1:-1.1 2:-0.9 3:1.7 4:50.0 
0.8195664761209217 0:-6.8 1:1.0 2:-2.3 3:4.4 4:50.0 
1.0 0:0.1 1:-0.1 2:7.0 3:-11.7 4:50.0 
1.0 0:-4.7 1:3.2 2:-1.7 3:-8.3 4:50.0 
1.0 0:6.6 1:-2.7 2:1.6 3:-2.8 4:50.0 
1.0 0:4.2 1:-6.2 2:10.9 3:-16.0 4:50.0 
1.0 0:-0.9 1:2.7 2:0.7 3:0.8 4:50.0 
1.0 0:0.9 1:-1.1 2:-0.5 3:2.7 4:50.0 
0.8768980966311 0:-4.4 1:4.5 2:-1.6 3:-1.3 4:50.0 
0.9458419264878125 0:2.3 1:-1.1 2:2.7 3:-4.4 4:50.0 
1.0 0:1.4 1:0.3 2:-0.5 3:-1.6 4:50.0 
1.0 0:3.1 1:1.5 2:-1.6 3:5.3 4:50.0 
1.0 0:-2.0 1:3.9 2:0.4 3:2.5 4:50.0 
0.5725285670412218 0:-3.4 1:3.2 2:2.7 3:3.2 4:50.0 
0.04017483176388005 0:-4.1 1:1.7 2:0.5 3:-2.7 4:50.0 
1.0 0:2.7 1:1.9 2:2.6 3:-2.1 4:50.0 
0.8911803788709499 0:-4.6 1:4.7 2:0.9 3:3.0 4:50.0 
1.0 0:-6.7 1:0.2 2:-5.4 3:-4.0 4:50.0 
1.0 0:0.5 1:-1.7 2:1.7 3:0.6 4:50.0 
1.0 0:-1.5 1:5.7 2:-2.4 3:2.1 4:50.0 
1.0 0:8.5 1:-1.5 2:3.4 3:-5.2 4:50.0 
1.0 0:2.6 1:1.2 2:2.2 3:-8.1 4:50.0 
0.9733283684613298 0:1.0 1:-0.4 2:2.7 3:-1.0 4:50.0 
1.0 0:-5.5 1:-3.6 2:-5.5 3:9.4 4:50.0 
0.35068447363861316 0:6.3 1:-5.7 2:1.1 3:2.2 4:50.0 
1.0 0:-3.0 1:1.4 2:-1.6 3:4.2 4:50.0 
1.0 0:-2.0 1:4.5 2:-0.8 3:-1.1 4:50.0 
0.8760164214882817 0:4.0 1:-5.9 2:2.8 3:-3.8 4:50.0 
1.0 0:0.6 1:3.4 2:-10.1 3:-1.1 4:50.0 
0.18609174199862602 0:1.9 1:-0.3 2:1.8 3:-2.0 4:50.0 
1.0 0:-2.1 1:3.0 2:2.7 3:3.9 4:50.0 
0.8257558463145125 0:-0.8 1:5.3 2:3.0 3:-0.8 4:50.0 
1.0 0:-2.1 1:4.7 2:0.1 3:5.9 4:50.0 
0.8253482662432053 0:-1.6 1:-2.5 2:-3.0 3:-0.6 4:50.0 
1.0 0:-8.2 1:5.4 2:-1.9 3:10.5 4:50.0 
1.0 0:17.1 1:-3.3 2:2.3 3:-5.1 4:50.0 
0.5708030019282532 0:0.1 1:7.2 2:-2.5 3:-1.1 4:50.0 
1.0 0:-0.3 1:3.2 2:-1.2 3:-0.9 4:50.0 
0.5169101679913666 0:-1.0 1:-2.8 2:1.5 3:7.3 4:50.0 
0.7197702897842914 0:-3.2 1:2.0 2:-7.6 3:2.0 4:50.0 
0.334179922774678 0:-4.7 1:2.5 2:1.1 3:-2.2 4:50.0 
1.0 0:-1.6 1:0.5 2:0.7 3:-0.9 4:50.0 
1.0 0:6.2 1:1.6 2:2.1 3:3.9 4:50.0 
1.0 0:2.1 1:-1.0 2:4.2 3:6.9 4:50.0 
1.0 0:9.4 1:-4.2 2:6.7 3:-4.6 4:50.0 
1.0 0:-1.1 1:1.2 2:0.7 3:2.0 4:50.0 
1.0 0:10.0 1:-2.6 2:-1.5 3:-0.1 4:50.0 
1.0 0:2.1 1:1.6 2:1.0 3:-0.6 4:50.0 
1.0 0:-0.8 1:-0.7 2:-4.3 3:-1.2 4:50.0 
1.0 0:-1.8 1:-5.4 2:-0.9 3:13.6 4:50.0 
1.0 0:-1.6 1:2.6 2:-0.4 3:-1.4 4:50.0 
0.5167702947719105 0:1.3 1:-1.4 2:0.5 3:-7.5 4:50.0 
0.958739132139492 0:2.5 1:-2.2 2:-3.8 3:-7.7 4:50.0 
1.0 0:2.3 1:1.8 2:0.5 3:8.1 4:50.0 
1.0 0:-4.8 1:-1.8 2:1.3 3:3.4 4:50.0 
1.0 0:0.1 1:1.9 2:-0.7 3:2.5 4:50.0 
0.7477757775530972 0:-0.8 1:-3.9 2:3.0 3:4.4 4:50.0 
0.7475674734789246 0:1.9 1:-3.2 2:-0.6 3:-4.1 4:50.0 
1.0 0:1.1 1:7.6 2:-2.1 3:-4.5 4:50.0 
1.0 0:-10.0 1:10.6 2:0.1 3:-4.2 4:50.0 
0.32417727728576035 0:-1.2 1:-0.9 2:0.6 3:7.3 4:50.0 
1.0 0:-4.9 1:4.6 2:-1.0 3:7.3 4:50.0 
1.0 0:-3.3 1:-11.2 2:5.3 3:-5.2 4:50.0 
0.8646819857868414 0:2.8 1:-5.6 2:1.4 3:1.9 4:50.0 
1.0 0:-0.5 1:2.8 2:-7.4 3:4.9 4:50.0 
1.0 0:2.8 1:2.1 2:11.3 3:20.8 4:50.0 
1.0 0:-5.6 1:0.4 2:2.3 3:6.2 4:50.0 
0.8503416519076497 0:0.5 1:0.0 2:1.1 3:3.1 4:50.0 
1.0 0:-0.6 1:-2.7 2:-2.2 3:2.1 4:50.0 
1.0 0:0.4 1:5.3 2:-18.1 3:-1.9 4:50.0 
1.0 0:2.9 1:-19.3 2:-0.5 3:-3.4 4:50.0 
0.9342604590869399 0:1.3 1:-0.2 2:1.4 3:-5.2 4:50.0 
1.0 0:3.1 1:-3.2 2:-1.1 3:-4.7 4:50.0 
0.10900799071350863 0:3.0 1:1.5 2:-4.0 3:-1.2 4:50.0 
1.0 0:-7.2 1:-3.2 2:-1.4 3:1.9 4:50.0 
1.0 0:-0.8 1:5.5 2:1.2 3:0.2 4:50.0 
1.0 0:-0.8 1:0.7 2:4.9 3:1.1 4:50.0 
1.0 0:2.1 1:4.9 2:-2.4 3:-1.4 4:50.0 
1.0 0:8.2 1:-3.7 2:-2.1 3:2.0 4:50.0 
1.0 0:2.4 1:0.8 2:-0.9 3:-4.0 4:50.0 
1.0 0:-7.1 1:-0.2 2:-2.5 3:-10.1 4:50.0 
1.0 0:-3.9 1:-1.8 2:-0.2 3:5.5 4:50.0 
0.4353079119306178 0:-4.7 1:3.1 2:3.0 3:-1.9 4:50.0 
1.0 0:2.9 1:1.6 2:-3.6 3:-0.9 4:50.0 
1.0 0:2.4 1:2.3 2:10.4 3:6.8 4:50.0 
0.06798223155724864 0:0.5 1:-2.3 2:1.7 3:4.2 4:50.0 
0.2576912489330871 0:0.8 1:-2.5 2:2.5 3:-2.3 4:50.0 
0.8701707520272761 0:-9.0 1:4.8 2:1.8 3:1.5 4:50.0 
1.0 0:1.5 1:-5.3 2:-4.6 3:-3.6 4:50.0 
1.0 0:-0.6 1:-0.9 2:-0.6 3:1.6 4:50.0 
1.0 0:-0.9 1:-8.1 2:3.5 3:1.4 4:50.0 
0.2692918037401503 0:7.3 1:-3.1 2:1.1 3:-2.2 4:50.0 
0.4660443681690512 0:0.6 1:-2.1 2:2.7 3:7.2 4:50.0 
0.15684329794383034 0:-0.7 1:2.2 2:0.6 3:2.5 4:50.0 
1.0 0:-3.3 1:4.0 2:-6.1 3:7.4 4:50.0 
1.0 0:6.4 1:-2.6 2:5.4 3:-5.9 4:50.0 
1.0 0:3.9 1:-1.0 2:-1.2 3:-0.5 4:50.0 
0.6652012774061403 0:-3.6 1:0.5 2:-7.2 3:0.7 4:50.0 
1.0 0:-8.6 1:2.1 2:5.6 3:-4.5 4:50.0 
1.0 0:0.7 1:0.5 2:-11.2 3:-1.3 4:50.0 
1.0 0:-4.5 1:-3.3 2:0.7 3:-3.0 4:50.0 
1.0 0:15.6 1:-0.2 2:-5.3 3:8.3 4:50.0 
1.0 0:2.1 1:-7.2 2:3.7 3:-5.0 4:50.0 
1.0 0:3.0 1:-2.0 2:1.9 3:2.0 4:50.0 
0.2331000251391065 0:0.9 1:-2.3 2:0.0 3:5.4 4:50.0 
0.7873748208596204 0:7.8 1:-5.6 2:2.6 3:2.2 4:50.0 
1.0 0:4.3 1:7.5 2:4.5 3:-10.9 4:50.0 
1.0 0:-5.2 1:1.6 2:-3.3 3:1.3 4:50.0 
1.0 0:-0.7 1:-4.3 2:5.0 3:-4.8 4:50.0 
1.0 0:-10.7 1:-0.8 2:-7.1 3:-1.9 4:50.0 
1.0 0:3.8 1:-2.1 2:-0.5 3:10.0 4:50.0 
0.4566402862454933 0:-1.8 1:0.6 2:-1.9 3:6.8 4:50.0 
1.0 0:8.0 1:-0.4 2:-0.1 3:7.8 4:50.0 
1.0 0:-8.9 1:-1.4 2:3.2 3:3.2 4:50.0 
1.0 0:10.6 1:-5.7 2:9.7 3:5.2 4:50.0 
0.640758036040055 0:-1.5 1:-2.4 2:-0.1 3:-0.7 4:50.0 
1.0 0:-2.0 1:2.5 2:0.1 3:-3.6 4:50.0 
1.0 0:1.8 1:8.8 2:-0.4 3:0.2 4:50.0 
1.0 0:1.4 1:3.5 2:3.9 3:1.9 4:50.0 
1.0 0:-2.0 1:-3.4 2:-0.6 3:-2.4 4:50.0 
1.0 0:-6.0 1:3.6 2:0.6 3:-2.1 4:50.0 
1.0 0:3.0 1:-1.0 2:-2.7 3:-2.6 4:50.0 
0.005884309004304868 0:1.0 1:-3.4 2:0.8 3:-2.7 4:50.0 
0.8265923922599012 0:4.9 1:-4.6 2:2.8 3:5.5 4:50.0 
1.0 0:6.4 1:-4.6 2:-5.3 3:8.9 4:50.0 
1.0 0:3.6 1:6.1 2:-10.3 3:-2.1 4:50.0 
0.9644338223415693 0:-4.0 1:1.9 2:-1.2 3:8.9 4:50.0 
0.8088792082743501 0:4.5 1:1.5 2:-7.3 3:1.2 4:50.0 
1.0 0:-5.5 1:1.6 2:-1.5 3:-3.6 4:50.0 
1.0 0:2.9 1:1.3 2:3.3 3:0.1 4:50.0 
1.0 0:-2.1 1:-3.7 2:6.0 3:2.7 4:50.0 
1.0 0:-4.5 1:0.5 2:3.1 3:-4.5 4:50.0 
1.0 0:2.1 1:3.9 2:-4.6 3:0.0 4:50.0 
0.9011115429665608 0:-5.6 1:1.4 2:0.5 3:-3.7 4:50.0 
1.0 0:2.1 1:0.4 2:2.1 3:2.5 4:50.0 
1.0 0:-4.2 1:3.2 2:-5.6 3:5.0 4:50.0 
1.0 0:12.3 1:-4.7 2:11.0 3:-7.2 4:50.0 
1.0 0:-2.3 1:-3.0 2:0.1 3:0.4 4:50.0 
0.8295922016201698 0:6.2 1:-3.0 2:2.7 3:-0.4 4:50.0 
1.0 0:2.2 1:-0.6 2:-0.3 3:-5.0 4:50.0 
1.0 0:-4.6 1:3.3 2:-13.1 3:-4.1 4:50.0 
0.5136722889405979 0:3.6 1:1.2 2:-2.7 3:-3.7 4:50.0 
1.0 0:-0.7 1:1.3 2:-2.9 3:-0.4 4:50.0 
0.9986463117533347 0:8.2 1:-1.6 2:4.2 3:-0.9 4:50.0 
1.0 0:-7.4 1:6.8 2:1.7 3:-1.4 4:50.0 
1.0 0:-1.3 1:-0.9 2:2.4 3:2.3 4:50.0 
1.0 0:-1.4 1:0.8 2:-2.7 3:-0.1 4:50.0 
1.0 0:5.0 1:-6.2 2:2.1 3:1.0 4:50.0 
1.0 0:0.3 1:-3.0 2:6.6 3:9.8 4:50.0 
0.8799818628948352 0:-3.2 1:0.6 2:4.3 3:-2.4 4:50.0 
1.0 0:2.3 1:-12.2 2:-0.8 3:-4.2 4:50.0 
1.0 0:1.7 1:-2.0 2:0.8 3:-0.7 4:50.0 
1.0 0:1.1 1:-7.1 2:4.5 3:-12.8 4:50.0 
1.0 0:-2.8 1:-1.0 2:-2.4 3:-0.1 4:50.0 
1.0 0:-10.0 1:2.1 2:0.7 3:2.2 4:50.0 
1.0 0:-10.7 1:0.5 2:-3.3 3:-1.2 4:50.0 
1.0 0:5.0 1:-5.9 2:-6.9 3:-5.1 4:50.0 
0.9760712530500933 0:-3.6 1:-0.1 2:-5.5 3:2.3 4:50.0 
0.016622315981995837 0:2.0 1:-1.4 2:2.2 3:1.9 4:50.0 
1.0 0:3.9 1:-1.0 2:1.3 3:-1.2 4:50.0 
1.0 0:-1.8 1:-1.6 2:0.9 3:-6.2 4:50.0 
1.0 0:-7.2 1:-0.4 2:-1.2 3:4.2 4:50.0 
0.8966467195024308 0:-5.5 1:1.3 2:-8.7 3:3.6 4:50.0 
1.0 0:-3.0 1:-8.4 2:3.5 3:-9.9 4:50.0 
1.0 0:-0.6 1:0.6 2:0.5 3:2.9 4:50.0 
1.0 0:-1.8 1:0.3 2:0.5 3:0.1 4:50.0 
1.0 0:10.3 1:-2.2 2:4.9 3:-1.1 4:50.0 
1.0 0:4.1 1:2.9 2:-5.0 3:6.3 4:50.0 
0.9535355367917289 0:-2.8 1:0.9 2:1.0 3:-2.5 4:50.0 
1.0 0:1.5 1:-0.7 2:3.0 3:1.0 4:50.0 
1.0 0:-1.8 1:12.4 2:-1.3 3:9.7 4:50.0 
1.0 0:4.6 1:6.9 2:-2.7 3:-1.0 4:50.0 
1.0 0:-3.4 1:0.0 2:-3.1 3:-0.7 4:50.0 
0.6054434403175508 0:-6.0 1:3.3 2:-3.5 3:1.5 4:50.0 
1.0 0:-3.0 1:-3.4 2:2.8 3:-4.8 4:50.0 
1.0 0:7.9 1:-3.1 2:-2.2 3:-1.4 4:50.0 
1.0 0:2.6 1:-1.4 2:7.3 3:-0.6 4:50.0 
1.0 0:-1.5 1:1.6 2:1.7 3:-1.7 4:50.0 
1.0 0:5.0 1:-2.7 2:-2.0 3:1.8 4:50.0 
1.0 0:-3.0 1:8.7 2:-0.8 3:6.1 4:50.0 
0.898192017552295 0:1.0 1:-0.8 2:-1.4 3:6.2 4:50.0 
1.0 0:-1.2 1:0.7 2:0.5 3:5.3 4:50.0 
0.9823823796891065 0:0.8 1:3.9 2:2.4 3:4.8 4:50.0 
1.0 0:-0.6 1:5.9 2:1.5 3:3.5 4:50.0 
1.0 0:-7.6 1:2.5 2:-2.9 3:-1.3 4:50.0 
0.8938829789655751 0:2.7 1:-2.7 2:0.4 3:4.5 4:50.0 
1.0 0:4.0 1:-0.8 2:-6.1 3:-3.1 4:50.0 
0.031078615901964732 0:-3.2 1:-0.9 2:-0.4 3:6.1 4:50.0 
0.3583330280195547 0:-3.5 1:5.1 2:3.5 3:-1.6 4:50.0 
1.0 0:0.2 1:-0.4 2:1.7 3:2.6 4:50.0 
1.0 0:-0.8 1:2.6 2:-1.9 3:1.6 4:50.0 
1.0 0:0.8 1:1.5 2:-8.0 3:9.1 4:50.0 
1.0 0:-2.6 1:7.5 2:2.7 3:2.8 4:50.0 
1.0 0:2.7 1:6.8 2:-1.3 3:3.0 4:50.0 
1.0 0:-0.8 1:6.3 2:-2.7 3:-0.5 4:50.0 
0.07231869863682758 0:6.6 1:-5.9 2:2.8 3:0.1 4:50.0 
1.0 0:13.6 1:-6.2 2:2.5 3:-1.6 4:50.0 
0.9903523024437543 0:0.3 1:4.5 2:-1.6 3:3.3 4:50.0 
1.0 0:1.8 1:-0.4 2:0.4 3:1.9 4:50.0 
1.0 0:-2.5 1:1.5 2:9.6 3:-3.6 4:50.0 
0.8240926524230963 0:1.0 1:-4.9 2:3.4 3:3.0 4:50.0 
1.0 0:-9.3 1:-1.7 2:0.1 3:-4.0 4:50.0 
0.39026128147260314 0:0.8 1:-4.5 2:3.0 3:2.3 4:50.0 
1.0 0:8.5 1:1.2 2:1.8 3:1.4 4:50.0 
1.0 0:-6.5 1:0.9 2:1.1 3:12.9 4:50.0 
1.0 0:2.5 1:-1.6 2:-1.9 3:-0.8 4:50.0 
1.0 0:-3.2 1:1.2 2:-2.9 3:3.2 4:50.0 
0.24575913524977844 0:1.2 1:5.6 2:-1.8 3:1.8 4:50.0 
1.0 0:6.9 1:7.8 2:10.1 3:-0.4 4:50.0 
0.5694282406256288 0:0.9 1:-3.5 2:1.0 3:-0.6 4:50.0 
1.0 0:-5.3 1:5.0 2:-0.3 3:2.7 4:50.0 
1.0 0:-2.8 1:7.4 2:-8.3 3:7.5 4:50.0 
0.8457319028540096 0:1.0 1:-5.0 2:1.6 3:-4.9 4:50.0 
0.6489466838940955 0:1.7 1:5.9 2:-0.3 3:-0.3 4:50.0 
1.0 0:0.6 1:-0.4 2:5.2 3:0.0 4:50.0 
1.0 0:1.3 1:-2.4 2:-4.4 3:-5.4 4:50.0 
0.8010095299571179 0:1.6 1:-2.7 2:0.3 3:-7.0 4:50.0 
0.5459670217366416 0:-1.9 1:1.7 2:-0.6 3:7.5 4:50.0 
1.0 0:4.5 1:0.2 2:-0.7 3:-8.8 4:50.0 
1.0 0:3.4 1:-4.3 2:1.2 3:-7.0 4:50.0 
1.0 0:-3.4 1:-0.5 2:7.3 3:9.2 4:50.0 
1.0 0:-3.6 1:1.0 2:3.6 3:2.3 4:50.0 
0.991824326244139 0:-1.3 1:0.2 2:-2.9 3:0.1 4:50.0 
1.0 0:0.6 1:9.7 2:-0.1 3:6.9 4:50.0 
1.0 0:-1.6 1:3.4 2:-2.2 3:6.0 4:50.0 
1.0 0:-2.2 1:-4.4 2:7.6 3:-1.4 4:50.0 
0.9297145052833963 0:-4.9 1:2.7 2:-2.2 3:2.6 4:50.0 
1.0 0:2.4 1:-5.8 2:6.1 3:-5.6 4:50.0 
1.0 0:-5.5 1:1.0 2:-0.5 3:3.2 4:50.0 
0.5068676190268511 0:-1.2 1:3.3 2:1.0 3:5.1 4:50.0 
1.0 0:4.7 1:-5.4 2:-1.7 3:-1.7 4:50.0 
1.0 0:0.6 1:3.6 2:-2.8 3:2.1 4:50.0 
1.0 0:-4.4 1:-1.3 2:-0.9 3:2.6 4:50.0 
1.0 0:2.2 1:5.7 2:-0.2 3:-1.3 4:50.0 
1.0 0:-1.5 1:4.7 2:-2.7 3:-3.3 4:50.0 
0.48036013071412054 0:5.8 1:-3.0 2:-1.1 3:-3.0 4:50.0 
1.0 0:1.5 1:-2.0 2:0.8 3:0.8 4:50.0 
1.0 0:-3.2 1:6.3 2:-4.5 3:6.0 4:50.0 
1.0 0:-1.8 1:-3.5 2:6.5 3:-6.6 4:50.0 
1.0 0:-4.2 1:2.7 2:-7.4 3:-2.6 4:50.0 
1.0 0:-13.1 1:-2.5 2:1.5 3:-1.5 4:50.0 
0.4611059693985827 0:-5.8 1:1.3 2:-6.2 3:3.5 4:50.0 
1.0 0:6.5 1:-5.6 2:-10.1 3:-9.2 4:50.0 
1.0 0:3.2 1:-2.9 2:-3.2 3:-2.8 4:50.0 
1.0 0:4.7 1:0.4 2:2.3 3:4.4 4:50.0 
1.0 0:4.0 1:-2.4 2:2.8 3:2.5 4:50.0 
0.8236903474467825 0:-2.7 1:-0.1 2:-4.7 3:-1.1 4:50.0 
1.0 0:2.3 1:0.8 2:2.1 3:-1.4 4:50.0 
1.0 0:7.5 1:-0.4 2:1.3 3:-1.0 4:50.0 
1.0 0:-2.9 1:-2.3 2:3.1 3:7.9 4:50.0 
1.0 0:-0.3 1:-4.9 2:3.4 3:-0.3 4:50.0 
1.0 0:4.5 1:4.9 2:-0.7 3:-3.6 4:50.0 
0.09707195527701032 0:-4.8 1:0.8 2:0.4 3:2.1 4:60.0 
0.6805610756927087 0:-3.4 1:4.2 2:1.9 3:5.3 4:60.0 
0.7876053570678371 0:6.1 1:0.3 2:1.4 3:0.2 4:60.0 
1.0 0:2.2 1:-2.9 2:-0.7 3:7.1 4:60.0 
1.0 0:-7.7 1:4.3 2:-1.0 3:2.0 4:60.0 
1.0 0:-1.5 1:1.4 2:2.9 3:0.9 4:60.0 
0.9229970979596859 0:0.6 1:4.6 2:-0.7 3:-0.6 4:60.0 
1.0 0:7.6 1:4.8 2:-7.6 3:-8.1 4:60.0 
1.0 0:2.5 1:9.7 2:-1.8 3:-4.5 4:60.0 
1.0 0:5.3 1:-2.0 2:-1.7 3:-3.9 4:60.0 
1.0 0:2.3 1:-13.9 2:9.7 3:-3.6 4:60.0 
1.0 0:8.6 1:1.6 2:-5.3 3:-7.2 4:60.0 
0.4862951329770005 0:1.3 1:-4.2 2:2.6 3:0.3 4:60.0 
1.0 0:7.1 1:-3.8 2:-4.4 3:-2.8 4:60.0 
1.0 0:5.6 1:3.7 2:-5.1 3:-1.5 4:60.0 
1.0 0:-0.7 1:1.0 2:-1.9 3:-4.2 4:60.0 
1.0 0:3.1 1:1.5 2:1.5 3:2.7 4:60.0 
0.12723500547031397 0:-2.2 1:3.2 2:-0.3 3:4.7 4:60.0 
1.0 0:-13.6 1:-0.2 2:4.8 3:5.2 4:60.0 
1.0 0:-6.5 1:10.4 2:1.8 3:0.3 4:60.0 
1.0 0:2.6 1:3.6 2:-1.2 3:-7.7 4:60.0 
1.0 0:11.3 1:-4.1 2:-1.1 3:-4.8 4:60.0 
0.4005124993116964 0:-5.7 1:3.6 2:-6.9 3:1.7 4:60.0 
1.0 0:5.1 1:-1.8 2:5.0 3:-2.1 4:60.0 
0.9762743518665838 0:1.1 1:8.4 2:0.6 3:2.0 4:60.0 
1.0 0:-12.3 1:11.9 2:5.0 3:5.2 4:60.0 
1.0 0:3.0 1:1.1 2:-1.6 3:5.4 4:60.0 
1.0 0:4.3 1:-1.8 2:-2.1 3:8.8 4:60.0 
1.0 0:6.5 1:0.5 2:8.9 3:-5.4 4:60.0 
1.0 0:2.2 1:4.8 2:-0.6 3:-1.4 4:60.0 
1.0 0:-2.2 1:0.7 2:1.1 3:-1.5 4:60.0 
0.8450614013597476 0:-6.0 1:8.5 2:0.9 3:7.0 4:60.0 
1.0 0:10.6 1:1.7 2:-4.7 3:-10.7 4:60.0 
0.9855628180133987 0:-5.4 1:3.8 2:0.6 3:6.4 4:60.0 
1.0 0:-0.7 1:-4.7 2:0.9 3:-7.4 4:60.0 
1.0 0:-5.6 1:3.4 2:2.4 3:-6.2 4:60.0 
1.0 0:-7.7 1:-1.3 2:-3.0 3:-8.5 4:60.0 
0.7466893482244006 0:-4.6 1:5.2 2:1.6 3:1.1 4:60.0 
1.0 0:7.2 1:1.1 2:3.3 3:-1.7 4:60.0 
1.0 0:-0.9 1:1.0 2:-5.8 3:4.3 4:60.0 
1.0 0:0.3 1:-8.0 2:7.3 3:3.3 4:60.0 
1.0 0:-6.0 1:8.2 2:-2.6 3:16.4 4:60.0 
0.21893922352968204 0:-7.0 1:5.3 2:1.0 3:5.8 4:60.0 
1.0 0:2.8 1:-2.9 2:-0.9 3:-8.7 4:60.0 
1.0 0:3.1 1:0.7 2:2.8 3:0.6 4:60.0 
1.0 0:-1.7 1:-2.0 2:4.7 3:-4.8 4:60.0 
1.0 0:-6.8 1:7.1 2:-5.7 3:5.3 4:60.0 
0.9091821432456402 0:4.6 1:-0.6 2:8.6 3:3.7 4:60.0 
1.0 0:2.1 1:-1.1 2:2.1 3:-0.5 4:60.0 
0.5592186450875652 0:6.4 1:-5.8 2:1.6 3:-3.1 4:60.0 
1.0 0:-0.4 1:-4.1 2:-6.6 3:0.1 4:60.0 
0.7748378793776776 0:3.5 1:-0.2 2:-6.9 3:-5.4 4:60.0 
1.0 0:-5.9 1:3.2 2:6.0 3:3.1 4:60.0 
0.4167223172594728 0:7.5 1:-6.6 2:2.0 3:0.0 4:60.0 
1.0 0:-12.5 1:12.0 2:-4.9 3:5.6 4:60.0 
1.0 0:0.9 1:-1.1 2:3.1 3:0.8 4:60.0 
0.985268637848888 0:1.6 1:-1.7 2:-0.2 3:0.8 4:60.0 
0.9562274003043153 0:-1.7 1:5.1 2:0.4 3:-2.8 4:60.0 
0.7984531032837673 0:2.1 1:-2.9 2:-1.6 3:-2.4 4:60.0 
0.9393686946133416 0:0.6 1:0.9 2:0.8 3:-1.5 4:60.0 
0.5214831967767708 0:4.4 1:-5.6 2:3.6 3:-1.5 4:60.0 
0.7771305502865745 0:-6.3 1:4.1 2:-8.4 3:-2.4 4:60.0 
1.0 0:7.9 1:-8.4 2:4.9 3:-8.3 4:60.0 
1.0 0:-5.9 1:1.2 2:0.0 3:-1.4 4:60.0 
0.3854060886986158 0:-1.4 1:2.9 2:-0.4 3:1.8 4:60.0 
0.9820181974691193 0:-4.9 1:3.2 2:4.4 3:-12.0 4:60.0 
1.0 0:-0.5 1:1.3 2:10.8 3:7.9 4:60.0 
1.0 0:-0.7 1:-4.9 2:1.2 3:-3.1 4:60.0 
1.0 0:3.2 1:-0.8 2:1.8 3:6.1 4:60.0 
0.9033916554575016 0:0.9 1:0.4 2:6.0 3:8.6 4:60.0 
1.0 0:5.5 1:-6.9 2:-2.3 3:-8.2 4:60.0 
0.0883559974186643 0:-2.5 1:0.4 2:-2.2 3:2.2 4:60.0 
1.0 0:-0.3 1:0.2 2:-4.1 3:0.9 4:60.0 
1.0 0:-0.9 1:-4.6 2:5.4 3:-4.3 4:60.0 
0.7703016306489086 0:3.4 1:-0.4 2:-6.9 3:-2.7 4:60.0 
1.0 0:-2.3 1:-9.8 2:1.8 3:10.3 4:60.0 
1.0 0:-2.9 1:7.6 2:-1.8 3:-1.6 4:60.0 
1.0 0:-3.0 1:-12.5 2:5.5 3:-11.4 4:60.0 
0.35236808976000084 0:-3.1 1:1.5 2:1.0 3:-2.6 4:60.0 
0.3759742789422716 0:7.1 1:-3.8 2:2.3 3:-1.3 4:60.0 
1.0 0:-0.2 1:3.5 2:6.5 3:-3.0 4:60.0 
1.0 0:0.5 1:6.7 2:-1.6 3:1.1 4:60.0 
1.0 0:2.0 1:-4.8 2:0.6 3:-2.2 4:60.0 
0.8836649759063917 0:1.9 1:-2.1 2:3.9 3:4.8 4:60.0 
1.0 0:2.5 1:-0.6 2:-4.1 3:9.6 4:60.0 
